3442 64
1227 -0.13720243 -0.8820792 0.14027831 0.25643808 0.37211415 -0.447441 -0.20858367 -0.7029987 -0.8255985 0.16584368 0.19579819 -0.0878526 -0.520649 -0.11208942 0.18732919 0.42283443 -1.0516938 -0.20370829 -0.5762554 -0.017097974 0.69514954 -0.37246126 0.053526536 0.12625635 -0.29526645 0.5511862 -0.22445291 0.3464233 0.06854713 0.0114906505 -0.11611089 0.11278036 0.22948366 -0.7355363 -0.32973176 0.6629821 0.20577434 -0.27971235 -0.041642204 0.15929854 0.69677085 0.28591436 -0.0217524 -0.015713591 -0.11726042 -0.29818144 -0.5070607 0.079628244 0.5042219 0.12813303 -0.15870719 0.39105335 -0.60175097 0.3790496 0.14854352 -0.42086786 0.24844831 -0.47504264 -0.856782 0.095399894 0.21126549 0.33718655 0.28754714 0.8856053
3963 0.56528175 -0.9459282 0.22634175 0.5258381 0.2384588 -0.45425737 -0.35223562 -0.045873832 -0.5991922 -0.7118942 0.6779124 0.03814937 0.84469914 -0.30663532 0.11862911 0.91625273 -0.35509726 0.6598312 -0.013221403 1.0468458 -0.10601131 1.0466473 0.70457274 -1.0827532 -0.4388625 -0.6221535 -0.730744 0.026757805 0.30145103 -0.36215186 1.1267495 0.21732084 -0.1298131 -0.04197012 -0.3526729 -0.08270584 0.09629189 -0.01820547 0.06355216 0.21858601 0.38820758 -0.03815846 0.15118486 0.06821966 1.1071906 -0.0047723344 -0.3770837 -0.72371024 -0.013761098 -0.054053433 -0.158422 0.1723665 0.45452878 -0.17213792 -0.056520376 -0.09159999 0.22474226 0.20137756 -0.8926933 -0.36373955 -0.84730417 -0.38277197 -0.34959748 -0.15863161
2417 0.57678425 -0.96066207 0.19054346 0.53800094 0.21967758 -0.4641845 -0.32654893 -0.02344931 -0.58706033 -0.7244377 0.6655603 0.04667918 0.82243925 -0.3247527 0.098646164 0.92746013 -0.37129235 0.64636546 -0.05153985 1.022656 -0.12533264 0.98230195 0.71166813 -1.1066694 -0.42344594 -0.59406966 -0.72868204 0.024215214 0.29555848 -0.38504803 1.1697575 0.22503184 -0.11196027 -0.03995164 -0.34918076 -0.11632446 0.07479417 0.008178642 0.059002094 0.18740061 0.40765747 -0.06323619 0.14892422 0.005575662 1.085093 -0.0009952388 -0.35945314 -0.719238 -0.011565145 -0.04110559 -0.17240578 0.1936425 0.43511748 -0.17377986 -0.10591715 -0.067464985 0.23249815 0.19828059 -0.8861108 -0.3502081 -0.8643484 -0.40506953 -0.33765608 -0.14628267
3349 0.56955475 -0.9334451 0.20857993 0.5241076 0.21735504 -0.46432954 -0.33313945 -0.06671732 -0.5735094 -0.7331566 0.6567142 0.05198917 0.8257585 -0.29342768 0.103391856 0.91143525 -0.36394522 0.6384159 -0.018951101 1.0170263 -0.1266794 1.0187825 0.7007291 -1.0729868 -0.43419853 -0.5990166 -0.7258595 0.04184054 0.279082 -0.36332634 1.1719666 0.22225975 -0.11778455 -0.042222586 -0.35356426 -0.10559287 0.08608087 0.00176799 0.07831086 0.18613486 0.39226934 -0.036185488 0.16576281 0.024476387 1.0886925 0.014987543 -0.37603512 -0.75574225 0.008328804 -0.041822486 -0.1817018 0.17296238 0.42142376 -0.16772825 -0.063083835 -0.084839106 0.23220949 0.2014772 -0.88342214 -0.34564018 -0.8269705 -0.3968467 -0.36115846 -0.14197971
1584 0.2838145 -0.8710023 0.21601495 0.67203754 0.4115935 -0.52393526 -0.5137008 -0.12982833 -0.53243583 -0.54153377 0.46947855 -0.0097029805 0.6692587 -0.21793523 0.41331944 1.089474 -0.42397326 0.6132832 -0.009773427 1.3012154 -0.0074251266 1.2352724 0.7783687 -1.0217553 -0.12919682 -0.53209776 -0.70205927 -0.0142463865 0.4372267 -0.3695011 0.7711374 -0.15088226 -0.0642209 -0.11666603 -0.19338505 0.17900707 -0.04616921 -0.22126235 0.0042643584 0.3403419 0.3060907 0.0859615 0.24574701 -0.13518165 1.1354612 0.10924184 -0.16706385 -0.60382664 -0.11230651 -0.09199684 0.08938886 0.14520156 0.48718306 -0.116642885 -0.28941983 0.16688855 0.14262602 0.15799777 -0.6377682 -0.37749907 -1.0670483 -0.19366908 -0.19372901 -0.058505278
3705 0.22366773 -1.0580529 0.17657705 0.43317205 0.25881398 -0.50056475 -0.43635488 -0.3089557 -0.41036126 -0.48817027 0.54923415 -0.08366514 0.5815494 -0.30559605 0.3663939 1.1132853 -0.4728327 0.552702 0.21371569 1.3181955 0.027022555 1.1846297 0.7876208 -0.804923 -0.3233592 -0.48619494 -0.4953443 0.08796971 0.57465297 0.07601145 0.7624749 -0.07037407 -0.17890252 -0.13488767 -0.3475261 -0.19274318 -0.04619138 -0.042767514 0.15934467 0.29435685 0.2217816 -0.1679715 0.107741 0.017271675 1.1374177 0.2227497 -0.38518715 -0.29496443 -0.020291274 0.03497914 -0.061342027 -0.11199023 0.5774142 -0.00087169517 -0.09524879 0.05057335 0.2445171 0.1568208 -0.6611384 -0.30230224 -0.8576929 -0.21797748 -0.27006656 -0.16690089
1135 -0.51882035 -0.65116614 -0.7240253 0.22050446 0.15349121 -0.60019666 -0.1501159 -0.40819725 -0.5465534 0.30296984 -0.039491337 -0.36511394 -0.076370776 -0.98937464 0.24533188 -0.04799206 -0.046529926 0.074521855 -1.0296253 -0.31665286 0.35445184 0.46161476 -0.12208 -0.55158836 -0.41792163 0.371884 -0.6011465 -0.08610494 -0.33197883 0.29996097 0.29971957 -0.048960507 0.036630046 -0.37997267 0.5619738 0.9457778 -0.080154344 -0.27772328 -0.66586226 -0.35440165 0.46160614 -0.118907094 0.23742464 0.05133402 0.045345597 -0.088423595 -0.1414031 -0.44603702 -0.22555141 0.51299584 0.093218915 -0.11895486 -0.80725026 1.013695 -0.43555397 -0.5305941 -0.73500866 -1.0197269 -1.396985 0.2889996 -0.43750858 -0.5059365 -0.1903565 0.5989738
25 0.3230176 -1.1289754 0.08105313 0.66214466 0.30457962 -0.4192817 -0.4870661 -0.3013204 -0.6157981 -0.7028795 0.5701173 -0.18572384 0.543268 -0.3557438 0.16239966 1.0725693 -0.5534062 0.58241844 0.1329919 1.1947261 0.00047715864 1.164358 0.7274404 -0.90449315 -0.30470052 -0.6363952 -0.5101963 0.06252224 0.4787882 0.020032516 0.8648669 0.01887417 0.009620034 0.004153246 -0.31593055 -0.15142705 0.023601348 -0.1245287 0.0264212 0.3188266 0.3006799 -0.015184821 0.16426489 0.0045531946 1.1684904 0.11773922 -0.30747446 -0.5062858 -0.062489294 0.03911768 -0.19350044 -0.03487796 0.513042 -0.12547994 -0.15233985 -0.0026898151 0.056224383 0.20127721 -0.6655499 -0.3074764 -0.96766025 -0.3190216 -0.21764252 -0.25358334
1796 -0.32187912 -0.7089878 0.12230733 0.05811857 0.68403757 -0.30188257 0.14157508 -0.5332356 -0.83519703 -0.2833447 0.29431957 -0.38933656 -0.7325618 -0.3261238 0.11870796 0.36657307 -0.4798466 -0.08196767 -0.83770734 0.07624481 0.29813024 -0.2653882 0.008618144 0.08627361 -0.14598215 0.43754742 -0.58806294 -0.36100063 -0.033808433 0.30433324 -0.3042485 0.288591 0.32045537 -0.78572935 -0.46534723 0.8796211 0.3457298 0.06220023 -0.16634487 -0.15426886 0.4135301 -0.2138513 -0.0590405 0.7258916 -0.11786082 0.26177546 -0.724847 0.15954857 0.047813516 -0.24464339 -0.31361863 0.51422614 -0.4246522 0.19987091 0.27544218 -0.6317003 -0.045287244 -0.64928645 -0.5303345 0.40796095 -0.06830565 -0.018820174 0.03960194 0.94687396
43 0.4751453 -0.6711283 0.3408012 0.5139453 0.2091183 -0.49674883 0.016078569 -0.21227239 -0.2073697 -0.21257356 0.27975616 -0.104526594 0.5786987 -0.26642615 0.5482426 1.2954345 -0.17006633 0.43066528 0.095782876 1.1333212 -0.11979664 0.9724847 0.28648457 -1.2958355 0.22108236 -0.2798171 -1.1233851 0.18732691 0.7926498 -0.2899579 0.45276195 -0.50128293 -0.07252916 -0.04656233 -0.08863707 0.18917656 -0.06329168 -0.22643536 -0.105912514 0.25520536 0.35625258 0.38929686 0.22319983 -0.2575876 1.2541347 0.13274458 -0.3366531 -0.9630961 -0.07868745 -0.1626966 0.12696144 0.24691921 0.46806377 0.3451373 -0.31730044 0.62639153 -0.2723959 -0.0845003 -0.84725875 -0.3065235 -0.3646762 0.2636978 -0.20303339 0.176445
2614 -0.4586587 -0.5410051 -0.52348757 0.19794162 0.1491253 0.32629803 0.07995066 -1.0155662 -0.27994335 -0.21673012 0.15516977 -0.12840211 0.32750052 -0.69526875 0.013392024 -0.43878162 -0.28713894 0.8472415 -1.1157366 -0.08274384 -0.29498616 -0.33771288 0.080362745 -0.8281259 -0.04499573 0.1842438 -0.3695972 0.23113447 -0.272838 -0.018390246 0.27015373 0.24228534 0.21834068 0.12863024 0.19277485 -0.08137994 -0.48608688 0.15189444 -0.449901 -0.57981974 0.9485589 0.14344996 0.43183786 0.27000454 0.1942245 -0.2005527 -0.8333747 -0.8333895 -0.4187606 0.26690647 0.2550158 -0.38723734 -0.22035012 0.46213818 -0.19117583 -0.01727945 -0.15431778 -0.34872782 -0.7751682 0.68209577 -0.062499244 -0.41915953 0.3959924 0.6414695
1607 0.73911244 -0.69893134 0.3543029 0.33629695 0.31471464 -0.46489245 -0.03466752 -0.37182418 -0.48367715 -0.54852265 0.380568 0.07236666 0.7197614 -0.07103927 0.3769919 1.3276607 -0.44226485 0.4993082 0.19983912 0.9463692 -0.19591296 0.96037775 0.4445563 -1.2045097 0.025473502 -0.5342081 -0.9312656 0.22672543 0.44250718 -0.38993946 0.92591274 -0.31713492 0.019439412 -0.0319129 -0.17447588 -0.09222178 0.16937898 -0.13356139 -0.06692666 0.46826157 0.56728804 0.27078524 0.065764785 -0.26416984 1.1993968 -0.030716749 -0.4098573 -1.2663097 0.1536653 -0.16175504 -0.25409415 0.27702802 0.5014774 0.05432295 -0.34628677 0.45399892 -0.03042921 -0.15645304 -0.881101 -0.36995658 -0.4817126 0.18978609 -0.16211338 0.27087966
76 0.40325388 -0.68236923 0.13481514 0.50535285 0.3829954 -0.23810123 -0.4976982 0.0039545884 -0.5533085 -0.26110977 0.32297286 -0.030681362 0.3210789 -0.7495112 -0.5229632 0.94293284 -0.37615043 -0.043490164 -0.101022005 1.0753721 0.2349664 0.89103425 0.7378703 -0.30517578 -0.53796864 -0.22035754 0.23726194 -0.0715339 -0.050093755 -0.37991786 0.9370706 0.38411728 -0.28371218 -0.34881294 0.057037324 -0.13284862 0.15102792 -0.34068322 0.6104759 0.16070925 -0.030124094 -0.32095763 -0.0062830644 -0.14161377 1.3463705 0.34915885 0.15600048 -0.24860522 -0.40810817 0.20457526 -0.30327633 0.30964774 -0.298901 -0.23154065 -0.2867167 -0.037380975 0.116888076 0.28274503 0.057359334 -0.6767163 -0.7192373 -0.16646264 0.12561804 0.11443393
2379 0.73885345 -0.8654268 0.2437865 0.3094517 0.54779667 -0.6955736 -0.25396287 -0.33641154 -0.74299455 -0.3956629 0.2191829 -0.031819038 0.57770336 0.02557497 0.3450658 1.1992456 -0.5798041 0.3190189 0.2309651 0.84447503 -0.06789423 0.7836298 0.5363294 -0.9926974 0.16585761 -0.43218994 -0.7747131 0.30736342 0.49262524 -0.25068438 0.6267719 -0.3472128 -0.18060619 -0.19694753 -0.21691354 -0.027902417 0.2215358 -0.19003406 -0.10447279 0.67459255 0.50082684 0.31039926 0.057317954 -0.14991732 1.2512852 -0.10909086 -0.24624431 -1.109653 0.17908292 -0.17057599 -0.2687719 0.24923527 0.36798856 -0.0021989015 -0.43786997 0.42612895 -0.24596396 -0.13356018 -1.1044364 -0.48539552 -0.3380397 0.5008539 -0.0857357 0.38280225
261 0.331643 -0.45256415 0.42038354 0.35183525 0.17099166 -0.78882366 -0.20968424 -0.075365975 -0.51643974 -0.2620775 0.36837152 0.0048386906 0.6653599 -0.14130315 0.54203576 1.2296661 -0.21831189 0.41348952 -0.05934319 1.4143558 0.036094904 0.9976486 0.74255335 -0.95182574 -0.08848665 -0.256389 -0.63871616 0.014102288 0.4970771 -0.63330317 0.64396954 0.031690165 -0.16540037 -0.44318286 0.09229644 0.23667277 0.038966727 -0.08708998 -0.018966379 0.15361631 0.32574844 -0.51087564 0.05315174 -0.08922842 1.1547778 0.15535352 -0.17583573 -0.29361895 -0.035472974 -0.018501649 0.03284538 0.47161275 0.4895598 0.2614811 -0.12210793 0.16522036 0.105440706 0.007664738 -0.22217482 -0.2488729 -0.7967257 -0.00815793 -0.25438598 0.4338605
395 0.38795292 -0.7069734 0.12855697 0.47966447 0.35752946 -0.2500306 -0.49759215 -0.007280901 -0.54558265 -0.26178905 0.31786433 -0.06394147 0.3179977 -0.7573257 -0.5330525 0.94478387 -0.4001341 -0.03165078 -0.10389065 1.0872805 0.21062897 0.9025454 0.7463459 -0.32593724 -0.54924864 -0.244176 0.25701338 -0.08953989 -0.031696375 -0.36607978 0.9458848 0.4069812 -0.29172248 -0.3140166 0.024504501 -0.15301359 0.13498595 -0.35413173 0.60544324 0.16219239 -0.01868658 -0.29866448 -0.012347074 -0.16819501 1.3500632 0.3544251 0.15972155 -0.2192405 -0.4293508 0.18148729 -0.34188026 0.29947165 -0.2918382 -0.25101727 -0.3028873 -0.041926507 0.13559197 0.2943598 0.08055837 -0.6718508 -0.73417157 -0.17848961 0.11127915 0.10390765
2086 0.3177562 -1.0920278 0.096719444 0.64564115 0.27730852 -0.46237594 -0.4638089 -0.27263558 -0.65520597 -0.648127 0.52480614 -0.16044557 0.59122264 -0.3932396 0.16664362 1.0949935 -0.51665723 0.6497479 0.09341507 1.2549564 0.008943921 1.1121829 0.82589084 -0.9112852 -0.29923245 -0.5599246 -0.55101085 0.12323321 0.48827234 -0.029591741 0.9143746 0.007544866 -0.06421637 -0.0092906235 -0.35657537 -0.0653626 0.013680136 -0.11450011 -0.013850732 0.3401194 0.34201258 -0.07323482 0.124330916 -0.08393984 1.1211526 0.02896345 -0.17061606 -0.5684436 -0.068077914 0.05210344 -0.18085137 0.01571923 0.45623916 -0.15631033 -0.20210472 0.067017406 0.11620675 0.23081702 -0.7490911 -0.3047211 -0.9924981 -0.32536578 -0.30724677 -0.18146919
281 0.4183323 -1.1125292 0.12807764 0.59280586 0.3123543 -0.46804076 -0.4857049 -0.23029499 -0.6769511 -0.6773342 0.526247 -0.06588985 0.6320803 -0.39441937 0.16730508 1.1119384 -0.49559128 0.66672015 0.119378164 1.2621166 -0.018186979 1.1203368 0.87453544 -0.9115009 -0.32846707 -0.55562496 -0.5412304 0.13044786 0.42712706 -0.011473403 0.9230118 0.032333486 -0.13526706 -0.037518445 -0.34807467 -0.060395084 0.09964813 -0.10347872 0.024429101 0.3625136 0.30359957 -0.12535948 0.118187584 -0.061999064 1.1771246 0.024403524 -0.16492175 -0.64138716 -0.08055056 0.08198587 -0.17271385 0.03520493 0.4171508 -0.19989759 -0.21912706 0.08553738 0.10302065 0.25584263 -0.85693216 -0.3555907 -1.0024482 -0.26415613 -0.32392874 -0.168944
436 0.3948774 -1.0934379 0.088910475 0.64794517 0.27719924 -0.48095074 -0.47924402 -0.24306214 -0.6670581 -0.6550963 0.5230907 -0.0696891 0.64588004 -0.38319734 0.18646398 1.1384833 -0.48233554 0.63354313 0.10250744 1.2822556 -0.010976014 1.1218749 0.88527286 -0.90753204 -0.33545136 -0.52871287 -0.54605854 0.11643347 0.44456837 -0.020531388 0.9568536 0.032878254 -0.097396724 -0.039382715 -0.35949677 -0.08872916 0.11313724 -0.101430394 0.048803106 0.38103914 0.29536605 -0.114113085 0.103172176 -0.052324943 1.1845539 0.04918252 -0.20983824 -0.61915684 -0.04066512 0.06663588 -0.17230168 0.073758036 0.43088767 -0.15236765 -0.19463457 0.0914188 0.11193096 0.24990278 -0.8132733 -0.3429336 -1.0467676 -0.25627163 -0.33169112 -0.16618799
2310 0.32923797 -1.0647745 0.07328096 0.6569796 0.28845036 -0.4500953 -0.4685357 -0.25140694 -0.65774286 -0.63213414 0.52019745 -0.18198092 0.59180206 -0.34461358 0.18435635 1.0879474 -0.500177 0.6519821 0.06385948 1.2586111 0.03150997 1.1280981 0.8230363 -0.92214656 -0.3095473 -0.5681516 -0.5817725 0.101697564 0.48648 -0.046269607 0.906265 0.0116491085 -0.077629074 0.0032804904 -0.34178475 -0.09600677 0.020166444 -0.12976402 -0.038736638 0.34505817 0.35051206 -0.063175604 0.12159972 -0.08634596 1.114555 0.028638825 -0.18774636 -0.5836906 -0.05739893 0.06863079 -0.18908013 0.038612492 0.44412965 -0.1463566 -0.19199198 0.06234792 0.11711788 0.22269896 -0.7263416 -0.30495745 -0.991658 -0.3213699 -0.29181156 -0.18373679
2678 0.400743 -1.1099044 0.089407675 0.6229579 0.31292856 -0.48194227 -0.48689538 -0.24518095 -0.6667672 -0.66465867 0.5561821 -0.084774226 0.6708876 -0.39158085 0.17084809 1.1449796 -0.5109369 0.6691772 0.08378796 1.2693828 -0.009044235 1.1166567 0.8851824 -0.92184556 -0.34069657 -0.54107547 -0.5766028 0.11061019 0.46336305 -0.044546552 0.95215327 0.038102448 -0.10273374 -0.028500214 -0.3507467 -0.06858146 0.07984572 -0.08429826 0.065052025 0.3904292 0.29591933 -0.12989539 0.11465264 -0.0560503 1.1928011 0.028100522 -0.19914679 -0.6645944 -0.06467466 0.06448613 -0.17916721 0.07597012 0.4542604 -0.18873246 -0.20373179 0.0919061 0.1125617 0.23608646 -0.80711895 -0.3518498 -1.0396857 -0.26638305 -0.33767653 -0.1450836
3605 0.39748496 -1.0717114 0.09344841 0.64052594 0.29274812 -0.45957053 -0.4630274 -0.2576015 -0.6665119 -0.68873274 0.5460068 -0.08780179 0.67585987 -0.40468866 0.1827505 1.1424952 -0.5072177 0.6460923 0.08326992 1.2947532 -0.047060963 1.1085969 0.873525 -0.91414 -0.33356217 -0.56682646 -0.5623992 0.12653217 0.46383598 -0.0410909 0.96393275 0.040270105 -0.09494107 -0.039039116 -0.34409523 -0.09770973 0.08778099 -0.12167156 0.059090283 0.36568817 0.3205991 -0.12170555 0.12651008 -0.051539183 1.2122539 0.036730524 -0.20735066 -0.6627196 -0.056314874 0.07467693 -0.14814477 0.05180867 0.44199076 -0.20003852 -0.19100279 0.09317158 0.11043133 0.2389059 -0.8158827 -0.34190077 -1.037916 -0.2715201 -0.3460225 -0.17917949
3706 0.8019834 -0.7905487 0.3164532 0.42598638 0.34249574 -0.52306986 -0.03496314 -0.2948877 -0.4670608 -0.5605785 0.37691218 0.029489456 0.7752859 -0.06324148 0.35639212 1.2800423 -0.3814187 0.40780142 0.0852866 1.0361987 -0.26677307 1.0317848 0.43559787 -1.3792186 0.05326474 -0.5443846 -1.0211916 0.15102229 0.5034118 -0.45076528 0.9532362 -0.28407827 -0.05736233 -0.05073833 -0.21020992 -0.03746103 0.20523117 -0.1350631 -0.1214429 0.41965982 0.60645556 0.35782003 0.19011284 -0.23568852 1.2374696 0.023243291 -0.43079838 -1.2405217 0.06316165 -0.18262883 -0.20521139 0.26090768 0.4373106 0.12672605 -0.3549745 0.45625114 -0.06549115 -0.09294652 -0.9952097 -0.4186164 -0.49227956 0.19115277 -0.20867543 0.31936735
3287 0.04034316 -0.34685317 -0.30543876 0.14337409 0.8423137 -0.10852903 -0.3420526 -0.31675646 -1.1063371 -0.2027908 -0.23136666 0.25307012 -0.08766813 -0.76354575 -0.44713494 -0.21689403 -0.6085157 0.058048937 -0.9883512 0.22576855 -0.13444419 -0.23053879 0.34850067 -0.20590138 -0.16104494 0.6279468 -0.515016 -0.015405839 -0.83271956 -0.15631206 0.03177199 0.16769308 -0.0010671383 -0.9886366 -0.20172554 0.24900599 0.101871625 0.29348534 -0.3626925 -0.23346958 0.47882456 -0.096510015 0.13987152 0.11890333 -0.028389411 -0.2841581 -0.2735205 -0.5594992 0.10970326 0.42830443 -0.28840125 0.029599939 -1.0246998 0.08033321 -0.8368855 -0.6536171 0.1380672 -0.83723605 -1.0077528 0.50732416 -0.2615413 -0.36360893 0.27178672 1.0357771
1471 0.6527297 -0.73043776 0.30058813 0.4149072 0.38662535 -0.5273859 -0.088504836 -0.4839487 -0.6516959 -0.49992827 0.312925 -0.03777747 0.6121005 -0.20914963 0.43618172 1.4815394 -0.4408587 0.5039935 0.3345581 1.117141 -0.15638271 1.0456225 0.5334484 -1.1570218 0.053925976 -0.5358696 -0.9775171 0.23993321 0.56561124 -0.19190757 0.8443254 -0.40563396 -0.041531686 -0.044574313 -0.12306753 -0.022254914 0.18777928 -0.1448821 -0.052685335 0.5821049 0.53750724 0.26954496 -0.017470013 -0.2995609 1.3364621 -0.010663002 -0.36385062 -1.2499213 0.16439721 -0.0802343 -0.34331968 0.27743718 0.5499776 0.0682074 -0.41935366 0.6074 -0.15933962 -0.18215363 -0.8218345 -0.34221253 -0.57830054 0.3174409 -0.17220002 0.29258272
1693 0.7080625 -1.0908837 0.06551985 -0.078078724 0.44670397 -0.5037932 -0.59213144 -0.16978607 -0.8357429 -0.16186562 -0.102381594 0.2333366 0.15611756 -0.007412966 0.047494497 0.33653015 -1.0564061 0.21846224 -0.10470004 -0.2826539 0.5271249 -0.059907876 0.12895317 -0.49956882 -0.21921828 0.056657728 0.025783274 0.30456793 -0.0047740233 -0.09001892 0.42971244 -0.10725968 0.003690348 -0.48876336 0.095165186 0.3168024 -0.11451388 -0.113026425 -0.47825333 0.7532718 0.5392739 0.1965648 -0.15603419 -0.15309289 0.6465777 -0.62294555 0.16554865 -0.32726672 0.1488986 0.042289972 -0.002549695 0.40768695 -0.5344937 0.058171924 -0.6308044 -0.16276956 -0.3649342 -0.5076322 -1.3841336 -0.4170767 0.104713365 0.64658844 0.74797827 0.6032701
2437 -0.3386417 -0.8590587 -0.21066535 -0.41959214 0.4047314 0.4095588 0.6008045 -0.2720802 -1.1831117 -0.41333458 0.50415826 -0.9307588 -0.8963649 -0.5147648 0.2756095 0.662644 -0.45911437 -0.25001407 -0.797147 0.34226695 0.42674834 -0.103773795 -0.16496415 -0.2819634 -0.5000819 -0.08272985 -0.30461812 -0.46710017 0.31006393 0.8334917 -0.22183499 0.27201092 0.50962645 -0.48755476 -0.36415318 0.8597735 0.31224605 -0.045219053 -0.26976818 -0.21015406 0.368734 0.27138227 0.035833646 0.93837005 -0.19976127 0.2476863 -0.52825403 0.5090232 -0.16346964 -0.061044298 -0.30338344 0.35914806 -0.5891022 0.26986748 0.32978493 -0.23425058 -0.04819882 -0.55209994 -0.28977397 0.20386769 0.34916314 0.098760486 -0.19321355 0.7418564
3669 0.45117337 -0.4305332 0.38205722 0.2646047 0.24148422 -0.70437783 -0.083752304 -0.14942198 -0.51339656 -0.2161485 0.3267483 -0.03807516 0.6770627 -0.038838994 0.3521618 1.3790712 -0.24638909 0.32129136 0.037738543 1.6081263 -0.08560778 1.0812578 0.7777069 -0.9005364 -0.19323586 -0.27707443 -0.6290556 0.101375 0.58566236 -0.4950077 0.7845708 0.04471413 -0.22963701 -0.36697096 -0.045075253 0.123434745 -0.030255057 -0.047562 0.13239157 0.21787794 0.3370643 -0.35624048 -0.0011802318 -0.13528459 1.3710797 0.09533225 -0.19655988 -0.30337712 0.016132006 0.06898919 -0.10967907 0.49308842 0.40704116 0.15283886 -0.102564216 0.24299093 0.2584146 -0.02735817 -0.25567886 -0.2560935 -0.59316826 0.011858368 -0.30493852 0.3886837
1058 0.101016924 -0.73741513 0.20300579 0.26068854 0.68011504 -0.6130208 -0.5627629 -0.60033524 -0.664994 0.34759468 0.15036543 0.2995954 -0.074513614 -0.3327595 0.18929037 0.4432511 -1.2522148 0.08831432 -0.53870744 -0.18051705 0.5050694 -0.62714565 0.14834543 0.14646773 0.03647603 0.5371784 -0.24181998 0.4905929 -0.1534088 -0.3875646 -0.08841377 0.12006273 0.21788687 -0.72198987 -0.31400728 0.68335545 0.24105603 -0.12672237 -0.038760662 0.25744915 0.67503667 0.25288746 -0.14322042 0.1558023 0.19192038 -0.5732999 -0.38935938 -0.24210088 0.52900696 0.18652192 -0.2109697 0.556294 -0.42675376 0.10887076 0.11721806 -0.52103215 0.39585358 -0.63744736 -1.0738125 0.08773341 -0.021828756 0.31115735 0.2185587 1.0802088
3314 -0.31160218 -0.8436512 -0.1916163 -0.43452987 0.4002736 0.39936516 0.60376066 -0.2739551 -1.1925502 -0.45961627 0.5138348 -0.9356983 -0.9456456 -0.48820043 0.2574169 0.63106704 -0.46971527 -0.22467251 -0.79711705 0.37582073 0.3954165 -0.14270961 -0.19092107 -0.26342443 -0.5640878 -0.12876664 -0.29759067 -0.44227025 0.30348727 0.80439776 -0.19878367 0.25759193 0.5311986 -0.47538263 -0.39917704 0.83657736 0.32127562 0.0029945604 -0.24332856 -0.20716578 0.37575886 0.2979688 -0.009238285 0.99404246 -0.2049854 0.24243769 -0.5068599 0.4795085 -0.105666034 -0.08319738 -0.33815518 0.36592257 -0.5858964 0.24123956 0.34591433 -0.2258361 -0.0012975048 -0.55274314 -0.31101227 0.22637948 0.31444666 0.13413884 -0.17885569 0.72934914
1785 -0.4256597 -0.74523467 -0.072388336 0.06472387 0.78761035 -0.14681956 0.37144548 -0.55815774 -1.1350981 -0.24707045 0.35171887 -0.5066769 -0.6610707 -0.40953687 0.070041604 0.4189486 -0.5291562 -0.20283496 -0.85802525 0.18675247 0.30277446 -0.30991217 0.09829901 0.068083785 -0.31268853 0.44034848 -0.58847135 -0.20098594 -0.1465985 0.37292942 -0.19875816 0.26371452 0.13457836 -0.7051736 -0.42193517 0.7186409 0.41526005 0.11165625 -0.0822813 -0.26713946 0.5975542 0.1250666 0.05161741 0.7497699 -0.16681999 0.1939506 -0.87301785 0.10456071 0.27867657 -0.047225486 -0.23557626 0.43476737 -0.56203616 0.35005865 0.2700912 -0.5153599 0.23702797 -0.68893796 -0.4678483 0.46704477 0.268883 -0.07074279 -0.064314485 0.92338574
942 -0.65452886 -0.545604 -0.6119073 0.61205536 0.24204592 -0.92492086 -0.19263369 -0.65102345 -0.7024779 0.61052114 -0.06940335 0.15252547 -0.46367878 -0.6477078 -0.326683 -0.10008429 -0.2992898 0.30846405 -0.61432606 0.30983514 -0.19318609 -0.15787181 0.18595769 -0.28744102 -0.38317582 0.6573874 -0.6745245 0.24870501 -0.32211503 -0.18865822 0.25075108 -0.098509744 -0.09869277 -0.49717295 0.15976524 1.0281581 0.2621853 0.35890839 0.17392397 -0.04189268 0.58738345 0.19564924 0.024057012 0.2415656 0.059916656 -0.1137016 -0.6212856 -0.6047077 0.35202807 -0.045310386 -0.39624596 0.4382674 -0.7995931 0.5458272 -0.07252162 -0.5173487 0.390318 -1.0228678 -0.9262009 0.58837813 -0.52851146 -0.36832097 -0.12213571 0.7198322
1574 0.6867187 -1.3457148 0.6156222 -0.35977522 0.12465904 -0.8561838 -0.82819873 -0.21221188 -0.68509924 0.05459538 -0.16274457 0.28178883 0.08699523 -0.3024615 0.2763082 0.25946578 -1.3125488 0.23139128 -0.59536517 -0.09002285 0.5837318 -0.78835255 -0.004212158 -0.38953292 -0.21216282 0.18815584 0.09804377 0.25834265 -0.025781699 -0.22468098 0.54182553 -0.13103473 0.18704113 -0.44168845 -0.27886543 0.517364 -0.043916315 0.06550333 -0.19835418 0.5484818 0.7013393 0.18767124 0.03634775 -0.2559847 0.528578 -0.5057929 0.21611966 0.1839901 -0.35711938 -0.049966753 -0.096791066 0.44049647 -0.64151025 -0.119922 -0.34691283 -0.09830826 -0.06758765 -0.19676718 -1.3071008 -0.47253957 -0.29311115 0.52826506 0.8560966 0.6257798
1263 0.8708518 -0.86027086 0.39870086 -0.09101568 0.5285705 -0.14735723 -0.78241116 -0.05922434 -0.5409778 -0.09686859 -0.2805818 0.09482274 0.20233579 -0.6151856 -0.78446716 0.62596875 -0.95282024 -0.11043375 -0.27880466 0.29192215 0.39901587 -0.15834288 0.55569535 -0.32681626 -0.48888054 0.11437212 0.1826226 -0.42200115 -0.44460544 -0.5018015 0.7612049 0.061965056 -0.31146458 -0.4792214 0.105541155 0.27474377 0.3833922 -0.2380444 0.18242279 0.5962481 0.3806716 -0.31735566 -0.3267221 -0.24678485 0.95226735 0.15616979 0.16960335 -0.07657167 -0.38366306 -0.01600446 -0.19616869 0.5510209 -1.1357907 -0.38287768 -0.49085292 -0.19186158 -0.32709226 0.2673913 -0.56500274 -0.99127895 -0.13295445 0.5595795 0.8194165 0.4719732
1413 0.7188745 -0.8319802 0.27155942 0.50475264 0.4228619 -0.6206944 -0.06603416 -0.33876094 -0.5325339 -0.49080363 0.27075982 -0.1104135 0.6829255 -0.1740637 0.47462136 1.4161764 -0.35947797 0.39017683 0.26766217 1.2327864 -0.23898225 1.118654 0.5092633 -1.353151 0.07289191 -0.5863658 -1.0627548 0.12748049 0.65164846 -0.2540754 0.8372165 -0.38850272 -0.1351011 -0.09622747 -0.26190898 0.034582287 0.15918991 -0.142818 -0.11609855 0.48915923 0.58669895 0.37026787 0.13631761 -0.2606314 1.397493 0.082585216 -0.36906365 -1.1818596 0.05399195 -0.12957092 -0.27096856 0.20685998 0.4827087 0.15282217 -0.38880685 0.5685989 -0.17079754 -0.09267277 -0.9469963 -0.40395075 -0.5692353 0.27372375 -0.25891957 0.34041893
1769 -0.35422853 -0.81907046 -0.23849963 -0.4848979 0.29183716 0.49426904 0.7051147 -0.32576478 -1.2633375 -0.43546763 0.49906683 -0.8746628 -0.9221658 -0.38879395 0.3200357 0.7090014 -0.3560266 -0.21481094 -0.681777 0.47851256 0.43810463 -0.034073267 -0.23900299 -0.2063936 -0.5968429 -0.08228266 -0.3359755 -0.33654773 0.3521426 0.897629 -0.21436512 0.22462244 0.3802966 -0.46128738 -0.3856706 0.81216455 0.2339618 -0.050404605 -0.27064535 -0.21611443 0.2963729 0.2992713 -0.017098533 0.9401115 -0.2236792 0.31308264 -0.3457214 0.5285929 -0.14157146 -0.08192471 -0.30175474 0.28882813 -0.5669528 0.29456574 0.23691529 -0.19399165 -0.056134425 -0.5887767 -0.29165012 0.19248194 0.27442324 0.17243287 -0.18507028 0.7100684
1042 -0.5834001 -0.3159872 -0.7192199 0.3633569 0.36426055 -0.64416146 -0.18440604 -0.4802565 -0.63696253 0.36524332 -0.016356928 -0.3458746 0.05689247 -1.0887988 0.1456082 -0.39365292 -0.06451722 0.11855677 -1.0831498 -0.033027604 0.23271684 0.28002092 -0.1935316 -0.65466946 -0.60569054 0.44652402 -0.44427994 0.0011313212 -0.60005885 0.14673188 0.30427012 -0.15303722 -0.14732686 -0.41814965 0.69088227 0.81758666 -0.23943554 -0.028906357 -0.5585004 -0.36124948 0.6326401 0.003906669 0.11966441 0.09699104 0.04558737 0.13626353 -0.35565126 -0.6627349 -0.07031673 0.3966468 0.06756499 -0.16906674 -0.7452859 0.9867398 -0.41127983 -0.46039 -0.6160332 -1.1520958 -1.5263634 0.51084197 -0.5726928 -0.4779705 -0.1869049 0.5440402
1507 -0.5060716 -0.63538325 -0.78671646 0.35192496 0.035103742 -0.2591532 0.106271796 -0.80938226 -0.78871036 0.0007104411 -5.7063335e-07 0.24110882 -0.45137188 -0.77050513 0.16066015 -0.3425439 -0.095919766 -0.08956934 -0.7053194 0.15004115 -0.15826121 0.5527554 -0.07881733 -0.62642306 -0.76551163 0.51170564 -0.31318197 0.2774021 -0.7338951 0.23591891 0.50093645 -0.099829115 -0.118268296 -0.5600716 0.583954 0.5296429 -0.35064676 -0.21399799 -0.6051019 -0.27176842 0.8295504 0.20958412 0.24232346 -0.2549571 -0.29993433 0.14857444 -0.4778416 -0.41762406 0.33159286 0.28951868 -0.08376806 -0.17985532 -0.9257445 0.997993 -0.54822165 -0.4047062 -0.20026302 -0.77204037 -1.2837243 0.862452 -0.64881456 0.08736344 0.2301366 0.3147624
1404 0.4617861 -1.2349429 0.10178931 0.23890693 0.482725 -0.5345109 -0.53387064 -0.47398844 -0.7924936 -0.44717702 0.3072887 -0.07049707 0.4916525 -0.12582569 0.11948707 0.90777576 -0.71099126 0.4483325 0.2888785 0.63316494 0.11666963 0.78732544 0.76605374 -0.7011815 -0.026350008 -0.5599532 -0.4150221 0.4410886 0.2746493 0.06382717 0.5986145 -0.40579295 -0.2828034 -0.18076499 -0.37832525 -0.2966891 0.28556758 -0.26855087 0.0594772 0.95908535 0.32161427 0.27803412 -0.044206027 -0.053885736 1.0366095 -0.116992705 -0.23650883 -1.1237961 0.26911724 -0.12788007 -0.2306159 0.054211605 0.34516597 -0.14775425 -0.47234246 0.41982976 -0.295036 0.018696178 -1.4434621 -0.58384895 -0.43846545 0.46279868 -0.032045208 0.19346
3321 0.5971761 -0.4087049 0.17609961 0.13468577 0.69833475 0.5396271 -0.5069186 0.34296182 -0.84915286 -0.19463353 -0.24302934 -0.036079064 0.10190711 -0.9622406 -1.0118116 0.10093911 -0.5696006 -0.02737275 -0.56506366 0.78746736 0.090465516 -0.07676682 0.76834136 -0.21612093 -0.6843317 -0.06037024 -0.18630455 -0.62938166 -0.55707306 -0.52655345 0.5001308 0.47319153 -0.06288577 -0.8272469 -0.15884352 -0.0763331 0.20302227 -0.3212824 0.117638096 0.19753946 -0.23545316 -0.25643027 -0.1934597 -0.45497006 0.71644485 0.06260929 0.23694658 -0.40891975 -0.7516282 0.042587753 -0.48329082 0.120159656 -1.2531502 -0.57913774 -1.0589118 -0.2893742 0.07744766 0.11167795 -0.22671025 -0.73788446 -0.40562278 0.082837015 0.5994418 0.7605548
1366 0.4909258 -1.2535315 0.09583066 0.21860138 0.4760511 -0.54144484 -0.49885753 -0.49616438 -0.7954298 -0.46503994 0.29646415 -0.045278963 0.48626193 -0.08350641 0.111024745 0.8981435 -0.75028557 0.41413656 0.29532593 0.6466353 0.1111776 0.76461625 0.721282 -0.6780967 -0.021975193 -0.53622764 -0.44142976 0.46688297 0.27695268 0.059622575 0.5836353 -0.3834161 -0.24843413 -0.20982443 -0.37018836 -0.3371625 0.27108815 -0.25185072 0.019483024 0.96060795 0.31579414 0.28455806 -0.04783523 -0.042515628 0.98467237 -0.120302446 -0.22237949 -1.1238713 0.25347692 -0.12473308 -0.23318402 0.028069692 0.37430093 -0.13899663 -0.4858459 0.44546086 -0.26327077 0.02920009 -1.4377276 -0.57235026 -0.44489127 0.46428013 -0.041896746 0.19832304
3337 -0.6786701 -0.77233994 -0.54334646 0.2526839 0.23131937 0.12471088 0.40037775 -0.19664085 0.394993 0.6676255 0.10431817 -0.32213372 -0.26910666 -1.0267262 -0.5627395 -0.44532368 -0.7513307 0.7339217 -0.78162956 0.36105588 -0.0010753764 -0.55440223 0.41830617 -0.7374127 -0.3421415 0.247657 -0.8298796 0.24182448 0.3734767 0.32259706 -0.2957801 -0.28900725 0.75813144 -0.35583296 -0.4418658 0.6883472 -0.43502814 0.33591273 0.26115 -0.31109682 0.6140971 0.441361 -0.16167316 0.008427458 0.19782333 -0.4732897 -0.74334884 -0.56186324 -0.30576417 -0.21881668 -0.055686776 -0.3728456 -0.34428772 0.026345706 -0.5034082 0.27033207 0.56628394 0.025179679 -0.7813766 0.10581345 -0.11574736 -0.22003429 0.45002243 0.78444797
1296 0.49397165 -1.2324144 0.080902874 0.1924739 0.4656641 -0.5286507 -0.5078214 -0.46570495 -0.809652 -0.47088462 0.2932676 -0.051756322 0.4776838 -0.11288662 0.11044063 0.89948153 -0.75947744 0.41424176 0.29434052 0.6161852 0.09760285 0.74293745 0.76055866 -0.6980376 -0.05842963 -0.5216909 -0.41827676 0.42918745 0.24178237 0.07377973 0.6084113 -0.3814853 -0.2779989 -0.17723992 -0.3736242 -0.3430062 0.27520892 -0.25383362 0.04902897 0.9515636 0.28259674 0.2635686 -0.05267284 -0.06250538 1.00106 -0.11722488 -0.25689554 -1.1750218 0.27078387 -0.084198326 -0.24164888 0.04842867 0.3370171 -0.15897617 -0.47943112 0.47487384 -0.27402923 0.03583762 -1.4663578 -0.58831567 -0.46019912 0.4439824 -0.06821987 0.19379449
1602 -0.79909116 -0.9074552 -0.7521156 0.61214244 -0.12524939 -0.5271579 0.04682621 -0.8635332 -0.93634516 0.31955522 0.12687881 -0.13433076 -0.7387625 -0.54743004 -0.022611573 0.054610416 -0.23570514 -0.2422049 -0.5191794 0.57571924 0.34780037 0.49474877 0.05620758 -0.63870215 -1.029087 0.52557987 -0.5375353 0.29038662 -0.14652467 0.30076352 0.4413863 -0.35612214 0.056108408 -0.53365254 0.43689147 0.8410013 -0.031107686 -0.5260552 -0.35468906 0.02093683 0.7140721 0.5526763 0.1443757 -0.6973529 -0.36353633 0.11801953 -0.38618284 0.00259196 0.5251474 0.035389453 -0.030619785 -0.27543652 -0.87150776 1.1294199 -0.12858881 -0.234479 -0.20757972 -0.516891 -1.0562322 0.5767687 -0.198468 0.039900314 -0.024772806 0.3839482
3066 -0.044790685 -0.4799277 -0.19399565 -1.1010244 0.598078 0.73514813 0.77252734 1.568056e-05 -1.2130146 -0.9162746 0.4694146 -0.6252051 -0.7420724 -0.8423036 -0.00812393 0.99161035 -0.41242003 -0.117230974 -0.62381446 0.5157595 -0.080597244 -0.1523099 -0.4326375 -0.49534926 -0.5554592 -0.61843836 0.12421034 -0.37384078 -0.100193836 0.5320603 -0.13350959 0.19573072 0.96136415 -0.43634996 0.0019059185 0.6182257 0.50686616 -0.65066236 -0.12231638 -0.5862821 0.032343984 -0.17097984 -0.04430561 1.1604238 0.15279946 -0.06706524 -0.25955567 0.6488135 -0.27829698 -0.22587617 -0.66928566 0.6440911 -0.39035928 -0.30930564 0.15375586 0.13460605 -0.037045565 -0.85516286 -0.17464967 0.6820586 -0.025139501 0.07671523 -0.8623559 0.61295915
1707 -0.10890759 -0.035360135 -0.34748772 -1.0397006 0.76597536 0.8726766 0.7070524 -0.39792034 -1.470709 0.024926536 -0.15875798 -0.38538942 -0.7582636 -0.66088724 0.43723541 0.7135012 -0.24158837 -0.27685916 -0.47227353 0.8411849 -0.016100127 -0.30628768 -0.53544605 -0.6641201 -0.5841257 -0.46193722 0.18755573 -0.026430488 0.20729344 0.8617767 -0.032690756 -0.19897178 0.60958076 -0.3223574 -0.14757258 0.61562455 0.6422342 -0.06243921 0.49611133 0.16496801 0.07257682 0.6047756 0.09297743 1.1309066 0.5122625 -0.06743517 -0.36124417 0.989942 -0.35897222 -0.076624624 -0.37145668 0.7328513 -0.73995596 -0.43366197 0.3156701 -0.004096401 0.3966101 -0.7166356 0.06438896 0.2511818 -0.0065217996 0.38601997 -0.5275805 0.76634496
1447 0.6997727 -1.3526634 0.61991835 -0.37111393 0.15532286 -0.8034923 -0.8488383 -0.22993016 -0.6618815 0.059643615 -0.08735493 0.30848023 0.13675502 -0.3007256 0.21888466 0.2899669 -1.3558906 0.18859433 -0.5260572 -0.16192251 0.5875855 -0.66175616 -0.046409342 -0.5104684 -0.22140047 0.21491738 0.13211036 0.30295485 -0.039404593 -0.2111153 0.5520297 -0.06446092 0.102209516 -0.38290638 -0.20390488 0.50149715 -0.042164013 -0.012766394 -0.24161752 0.5958447 0.66133946 0.3869078 -0.021248642 -0.25557065 0.6116011 -0.5417153 0.16846585 0.078749195 -0.21522865 -0.014955771 -0.060848445 0.46539167 -0.63341004 -0.13341421 -0.39364278 -0.100705974 -0.0015823981 -0.29946563 -1.3560365 -0.51600903 -0.13409851 0.50824845 0.7989447 0.61417496
1762 -0.09815506 -0.5873947 -0.14431922 -0.79463017 0.8707756 0.40856436 0.54632163 -0.041135523 -1.4136083 -0.39904854 0.75156105 -0.8018923 -0.58698833 -0.7107408 0.42800567 0.90619916 -0.38466814 -0.14572822 -0.8099195 0.5583884 0.21940295 0.0012190146 -0.43643224 -0.07081392 -0.42770487 -0.4457344 0.06251415 -0.38209638 -0.026073843 0.5869596 0.0012650179 -0.023901908 0.7807338 -0.17083609 -0.11188567 0.509412 0.65001696 -0.028920047 0.23764494 -0.14804758 0.04306585 0.27454993 0.24871096 1.2400643 0.11165498 0.3888222 -0.38111487 0.28772786 -0.26203153 -0.035231013 -0.36431628 0.8765625 -0.22941248 -0.1454203 0.23966761 -0.21391813 0.26997563 -0.7638566 -0.20477378 0.65168405 0.28612623 0.29919332 -0.39251995 0.64401376
1755 -0.17555736 -0.623001 -0.1169083 -0.9000823 0.69297945 0.48290396 0.78115785 -0.11322067 -1.2579963 -0.7875753 0.5295304 -0.82504976 -0.83193123 -0.8973052 0.16086116 0.93159926 -0.3568412 -0.102845564 -0.6310112 0.5197342 0.052978482 -0.22354496 -0.38866135 -0.3665848 -0.38873318 -0.3075803 0.046799704 -0.37625882 0.1352942 0.60311 -0.101291865 -0.042738803 0.84232455 -0.4429144 -0.15356976 0.80631256 0.595628 -0.46643206 -0.142797 -0.4984723 0.14827612 0.035051662 -0.12964197 1.2908309 0.1396996 0.06439488 -0.29940626 0.4979189 -0.21492155 -0.3497965 -0.4911552 0.59742284 -0.21221775 -0.1195505 0.28404346 0.10344004 -0.04906384 -0.7777971 -0.2687719 0.68804246 0.091270566 0.10274205 -0.6852435 0.72798
3816 0.5573684 -1.058171 0.34625626 0.281382 0.14677918 -0.5606764 -0.41962844 -0.3628137 -0.5873899 -0.470124 0.39764935 0.26556557 0.30978093 -0.30118728 0.51607996 0.7515832 -0.62092924 0.47519585 0.07985397 0.54863095 -0.089432254 0.41741845 0.20781851 -1.0533227 -0.098941185 -0.35054344 -0.49783447 0.060346138 0.61752295 -0.12897645 0.8500793 -0.164744 -0.28979525 0.13842915 -0.38979572 -0.1885495 0.16453214 0.20397137 0.016949492 0.6805872 0.35429305 0.571921 0.18912756 -0.14036506 0.89310753 0.13619186 -0.5354556 -0.7188881 -0.16075455 -0.25995046 0.14118159 -0.116137564 0.5363172 -0.14455362 -0.4422246 0.64317137 -0.12934089 -0.24111032 -1.2071664 -0.34544072 -0.8865041 -0.019621108 0.17743748 -0.026774868
178 0.31226167 -0.932109 0.6780369 0.3152277 0.10399485 -0.74379873 -0.82190126 0.066061124 -0.9964122 -0.21030602 0.2881488 0.34651652 0.3678873 -0.65977275 0.29299852 0.8344454 -0.44487566 0.5555818 -0.2601719 0.9613172 0.4415082 0.52364147 0.62050503 -0.36004305 -0.16146366 -0.49328402 -0.41858223 0.75648355 0.28520408 -0.22588836 0.7144227 0.29908875 -0.4684374 0.18274857 -0.17399633 -0.13625245 -0.15481268 0.19179955 0.27158123 0.10573793 0.22925703 -0.16941205 0.16687459 -0.3558164 1.5175077 -0.32814926 0.5804889 -0.24067985 -0.16288881 0.107437454 -0.5044507 0.023813741 0.51490104 0.3360396 -0.0034004424 0.027329331 0.7038317 -0.49823865 -0.2863191 -0.24749327 -0.5680235 -0.2769171 -0.21063934 0.031439174
1677 -0.61260444 -1.1793537 -0.26971778 -0.29030597 -0.2414252 0.17915413 0.30160856 -0.68894005 -0.7415313 -0.24491952 0.08478451 -1.0964456 -0.7348231 -0.51216644 0.21747737 0.56528896 -0.098209776 -0.17154586 -0.6976517 -0.18444282 0.9080589 0.090879716 0.22089213 -0.028716555 -0.25362825 0.25279066 -0.5735999 -0.55731577 0.10470819 0.75440204 0.068369664 0.22770362 0.4470797 -0.49551326 -0.12792662 1.0407541 -0.056918796 -0.83325094 -0.40186536 -0.24775183 0.32059264 -0.21831383 -0.04872282 0.42611435 -0.2824471 0.0002010649 -0.4235293 -0.088946484 -0.18687217 0.4192929 -0.3146526 0.23181836 -0.7606565 0.6292265 -0.16314022 -0.3619624 -0.37473658 -0.6641865 -0.7058702 -0.14413719 0.1080704 -0.45317703 -0.009188165 0.876231
2354 0.8203758 -1.3151159 0.29425013 -0.18994546 0.41196603 -0.66734767 -0.70091844 -0.30293393 -0.7461487 -0.100918196 -0.1147271 0.19590516 0.26053867 -0.024575008 0.03287005 0.62266165 -1.1756486 0.18889697 -0.20632312 -0.13149676 0.48917565 -0.23039189 0.17487402 -0.4923707 -0.03266581 0.08305634 0.01165766 0.24232633 0.04233181 -0.11443732 0.40356275 -0.14320596 0.0095743975 -0.50600815 -0.09917829 0.29291877 0.054517813 -0.1872511 -0.25129208 0.8365512 0.4534962 0.22639246 -0.13193706 -0.15103021 0.7802188 -0.60961115 0.108183816 -0.25996655 0.092527054 -0.035792045 -0.08195451 0.4834257 -0.4896124 -0.046201933 -0.5142277 -0.11124237 -0.26143885 -0.2027413 -1.3152415 -0.6146723 0.05305772 0.6927686 0.6489799 0.6052929
1356 0.8029756 -1.2886118 0.28851032 -0.18989505 0.40937415 -0.6492305 -0.7033726 -0.30803746 -0.73576444 -0.10291153 -0.08828673 0.17444386 0.24731933 -0.0031099257 0.013838159 0.6091023 -1.1983248 0.1691789 -0.22981577 -0.12913692 0.50349075 -0.2565701 0.19448286 -0.49401644 -0.025036752 0.09680425 -0.0060224026 0.23230831 0.048978236 -0.1382409 0.42987546 -0.09892677 0.057879232 -0.48223045 -0.08593571 0.3209806 0.061965927 -0.20337527 -0.2498806 0.8398908 0.4590654 0.23701952 -0.1468525 -0.14626347 0.77335006 -0.6203103 0.12290242 -0.23216142 0.108635664 -0.029528452 -0.090334095 0.4847522 -0.49528435 -0.04587295 -0.45541912 -0.1371795 -0.26907837 -0.19926536 -1.330055 -0.6509852 0.07755839 0.70353276 0.6683122 0.58430856
2475 0.39498723 -1.100215 0.7767679 -0.260342 -0.039002776 -0.9750741 -0.7526301 -0.15067866 -0.6426765 0.2929965 -0.079024784 0.27857658 0.018971486 -0.57412994 0.6903219 0.3427878 -1.2156394 0.36120182 -0.49478725 0.1731099 0.75435495 -0.740795 -0.02265743 0.019706897 -0.03945108 0.10370803 -0.031717405 0.57008237 0.03661803 -0.07583017 0.5347917 -0.025799772 0.018851325 -0.16678932 -0.43687505 0.63758606 -0.019350741 0.09910989 -0.0058925133 0.20313583 0.53837126 0.39670527 0.055449817 -0.26430106 0.61594844 -0.55696964 0.51089954 0.05933007 -0.3710556 0.05822335 -0.4269132 0.40163884 -0.24989161 0.086587034 -0.1664203 0.015964542 0.30332515 -0.39025044 -1.0721756 -0.39951366 -0.31310412 0.55723935 0.7035942 0.65735424
2255 0.77268445 -0.9724156 0.55893695 -0.21169682 0.04351438 -0.7109843 -0.61017007 -0.4380033 -0.62131506 -0.005440398 -0.018139143 0.40504965 0.32607323 -0.23794697 0.67957944 0.579275 -1.0838687 0.27825418 -0.6130915 -0.23735534 0.6312124 -0.6342708 -0.1902248 -0.48518774 0.20613849 0.1350539 0.07858878 0.37610412 0.46467274 -0.44376034 0.43946472 0.09174112 0.021238571 -0.27690086 0.033848405 0.30396023 0.023199882 -0.14098763 -0.22699732 0.3547495 0.52540743 0.39447665 -0.08200566 -0.13739277 0.8008028 -0.35285485 -0.11371747 -0.012451977 -0.2224759 -0.014369944 0.2417109 0.4574954 -0.14294367 0.30924368 -0.173141 0.15097103 0.1929303 -0.35411578 -0.9905577 -0.50658774 -0.20205496 0.3299849 0.52528477 0.34143943
1463 -1.0214759 -0.814474 -0.33170098 -0.101267464 0.26820585 0.5239849 0.14530304 -0.5315007 -0.4016041 0.35632044 0.018980745 -0.57978916 -0.36257026 -0.5078536 -0.46760657 -0.98372704 -0.22674692 0.6825141 -0.7839511 0.5165033 0.4326302 -0.32168606 0.3499404 -0.9533938 -0.40901482 0.044585593 -0.42919657 -0.114284396 0.3587556 -0.0625816 -0.39680955 -0.23652355 0.83043116 0.45995075 -0.091410294 0.93172383 -0.17677994 -0.7353385 -0.41171166 -0.38888085 1.1145658 0.7911342 0.12461464 -0.38962978 -0.23360905 0.058999084 -0.34435338 -0.27111354 0.030269556 -0.03897628 0.08877855 -0.25003865 -0.24974582 0.41697392 -0.072804585 -0.07885899 -0.008028889 -0.12272543 -0.78206736 0.28074095 0.124878064 -0.25914076 0.4535002 0.6913298
356 0.039615255 -0.85557127 0.23429263 0.547771 -0.04729934 -0.44109893 -0.40812123 0.20170456 -0.6937681 -0.4514648 0.61159474 0.079103164 0.6632011 -0.5434338 0.28314272 0.73701113 -0.32611936 0.65793866 -0.21389177 1.0286919 0.09895333 1.0188459 0.8731844 -0.42837325 -0.28927964 -0.33773512 -0.39941496 0.22144835 -0.032725666 -0.7335758 0.64478856 0.355852 0.0067023155 -0.1765307 0.5616962 -0.0582567 0.2892232 -0.2602382 -0.041458804 -0.059143234 0.04316399 -0.5679544 0.2021694 0.1664364 0.80851895 0.36625284 0.12645277 0.09116775 0.2074733 -0.012658842 0.23200092 0.28978983 0.62032247 0.4032157 0.045019988 -0.15921399 0.18120728 0.013063113 -0.31157792 -0.32873532 -1.4553173 -0.41764742 -0.31209654 0.10058322
1919 0.45467642 -1.3127711 0.17057662 0.23681234 0.3431103 -0.3033587 -0.33051795 -0.51038 -0.1362779 -0.47616896 0.271318 -0.07244028 0.45748714 -0.21842986 0.577488 0.69619256 -0.47430402 0.3848814 0.4474076 1.0122457 -0.2067056 1.0785415 0.51012206 -1.2201768 -0.33542728 -0.6351417 -0.8120235 -0.019038286 0.70388407 0.39874196 0.7308765 -0.16097237 -0.23115566 -0.21660969 -0.5672839 -0.23649225 -0.24755926 -0.19052307 -0.30445477 0.44259724 0.5905762 0.27639815 -0.005182983 -0.07823516 0.9001391 0.33942214 -0.47409207 -0.8502345 -0.08773927 0.19052587 -0.20108001 -0.5165826 0.57214415 0.008697128 -0.45900595 0.45703048 0.036346383 0.22996001 -1.2498243 -0.33525378 -0.71285975 -0.011589834 -0.09418565 -0.36459383
3352 -0.34534365 -0.43440557 -0.042261094 -0.7170004 -0.2426844 -0.61266893 -0.072267175 -0.14907657 0.27450952 0.53435856 0.39023355 0.022269398 0.21167989 -1.3270887 0.27798778 -0.36732954 -0.95984966 -0.2830772 0.14798653 0.6987821 -0.097408205 -0.4561021 -0.16672228 -0.042992767 -0.7078322 -0.3237832 -0.57340944 0.86667687 0.22753002 0.3889059 0.15053539 -0.6228383 -0.12488629 -0.4619648 -0.21910141 0.45421576 -0.27402082 -0.104218684 -0.90574676 -0.2578071 0.035604686 0.9125024 -0.26250896 0.026371583 0.33338937 -0.46156514 0.021773083 -0.79898137 -0.33936602 -0.27905363 -0.17813501 -0.071622334 -0.019429233 -0.34327704 0.038862187 -0.45242086 1.2049745 -0.14588319 -1.0953009 -0.07538567 -0.93897426 -0.008135335 0.19068226 -0.25231886
1547 0.054914303 -0.54802865 -0.13723232 -0.91719496 0.5996881 0.811031 0.7866842 -0.096911184 -1.2818072 -0.76616496 0.49357775 -0.8138312 -0.83701974 -0.9408743 -0.04484456 0.99671686 -0.31388247 0.0001539605 -0.5670605 0.55273604 0.03408412 -0.30269146 -0.5639728 -0.43887267 -0.4081787 -0.5859542 0.20762675 -0.14609791 -0.0038149985 0.7064194 0.039404407 -0.06720109 0.9560569 -0.3624991 -0.069684595 0.7009832 0.44624114 -0.5909428 0.06681675 -0.5497196 0.0054510357 -0.05747853 -0.15622547 1.4843428 0.18475987 -0.047986597 -0.2269032 0.41990724 -0.24863544 -0.22846636 -0.83933985 0.6772859 -0.32993543 -0.30276567 0.24821846 0.29444933 0.15854034 -0.6741115 -0.29159215 0.6217558 0.086078346 0.11445409 -0.70523536 0.6579921
1583 0.022681983 -0.6562055 0.39354914 0.42313266 0.33116412 -0.619307 -0.42881185 0.03381003 -0.42747474 -0.22461674 0.5632231 0.09428551 0.7044043 -0.104228355 0.49823543 0.9873542 -0.25908285 0.5760081 -0.15085773 1.6253952 0.094751246 1.3955659 0.8533479 -0.8682578 -0.19987027 -0.39940545 -0.6145371 -0.008804843 0.5816169 -0.5362668 0.65758723 0.048961237 -0.21286339 -0.45572436 -0.060157448 0.18102537 -0.2847355 -0.1932448 0.18015365 0.13835162 0.15421745 -0.26578993 0.23758543 -0.011000426 1.184488 0.29810315 -0.17591825 -0.0846032 -0.15308236 -0.037622474 0.25169674 0.19318308 0.5470808 0.037031364 -0.21868958 0.054111555 0.5962436 0.058473833 -0.23649406 -0.4127065 -1.0875301 -0.26508078 -0.14271018 0.14172766
1687 -0.69948614 -0.6897861 -0.906712 0.3167444 0.14900196 -0.88349706 -0.16166589 -0.25871587 -0.39712623 0.63895535 0.12780817 -0.5109251 -0.28544623 -1.2193006 0.05657024 -0.5102905 -0.29282036 -0.30520004 -0.28706217 0.33781892 -0.32155082 0.007304124 -0.07165354 -0.5534926 -0.8130317 -0.014510569 -0.9866369 0.5081994 0.050704524 0.32077265 0.30968654 -0.38437435 -0.18347935 -0.5473582 0.22804926 0.9893012 -0.5649232 0.111303784 -0.8884471 -0.16371895 0.21151195 0.63206947 -0.19375835 -0.07704806 0.0022681365 -0.26443443 -0.26061675 -0.9649141 0.14696379 -0.21849746 -0.16678019 0.0578253 -0.32190108 0.48035383 -0.32671025 -0.046665397 0.15093075 -0.6934269 -1.3078789 0.2540941 -0.8072188 0.0608075 0.2552209 0.054015324
3452 0.47685498 -0.23787224 0.29507428 -0.3297848 0.74387455 0.7603646 0.06802484 0.51524746 -1.3585533 -0.40357676 0.2509739 -0.446057 -0.9343799 -0.7751621 -0.34294784 0.52099115 -0.23006406 0.10758741 -0.35762691 0.6638369 -0.32776192 -0.18763974 -0.35837483 -0.38568595 -0.15487279 -0.34943733 0.17176881 0.037846655 -0.111755475 0.7470718 0.06539466 0.2934019 0.9158529 -0.2968044 -0.4843149 1.2865793 0.7771328 -0.024819149 0.107241064 -0.13380478 0.16595386 0.20682777 -0.12560791 1.4802012 0.64338446 0.36697704 -0.16806564 0.4827152 -0.57472444 -0.027042784 -0.98481804 0.6643897 -0.63895714 -0.1676113 0.59089833 -0.3529787 0.26172826 -0.37245896 -0.31611568 0.23545118 0.24419603 0.57836056 -0.347413 0.39270777
3926 0.5393086 -1.3843675 0.31951457 0.23775177 0.2684585 -0.20285892 -0.3205521 -0.5798948 -0.1787704 -0.57951015 0.27149433 -0.035474572 0.48167112 -0.06638346 0.6288254 0.8445616 -0.49844962 0.44033936 0.48887584 1.0817152 -0.1958723 1.1567584 0.50981665 -1.2339847 -0.26978803 -0.62440056 -0.77393216 -0.020269806 0.69362307 0.3512535 0.77308065 -0.088411674 -0.17183383 -0.2835194 -0.50747687 -0.32073128 -0.18535675 -0.33162665 -0.22420132 0.45740852 0.6368789 0.19813728 0.06442337 -0.07138338 1.0112499 0.4308447 -0.5313956 -0.82227224 -0.13362259 0.25243187 -0.15867306 -0.49972245 0.51300746 -0.014499245 -0.4827606 0.4402131 -0.013769349 0.24788736 -1.23346 -0.33650503 -0.6376994 0.012889957 -0.099011466 -0.4244803
326 0.3751972 -0.85315037 0.7607387 0.043047514 0.20894499 -0.4673848 -0.72499824 -0.11176858 -0.6004472 0.3122879 -0.019011319 0.45122185 0.16362265 -0.53111696 0.2956922 0.4560029 -1.3356459 0.27011853 -0.29969862 0.06271414 0.71036303 -0.41966957 0.07146548 0.45227984 -0.042457078 0.14813028 0.12921256 0.6509754 -0.40700522 -0.022132115 0.35124287 -0.028572978 0.15286498 -0.38528928 -0.34502086 0.64411145 0.13497357 -0.15665576 0.21682289 0.17884378 0.3748569 0.45972794 0.042037036 -0.15902457 0.6714977 -0.3662951 0.5936852 0.023886554 -0.05861917 0.30380914 -0.4034049 0.52366906 -0.55287474 0.14773488 -0.14527607 -0.25726426 0.24583054 -0.28301847 -0.9580401 -0.4558711 -0.0405095 0.96582 0.62690014 0.80401355
3485 0.52960914 -1.3796304 0.29178464 0.24653496 0.3422976 -0.27442822 -0.36356387 -0.5350556 -0.15305634 -0.5621507 0.29465705 -0.006993315 0.505835 -0.069021985 0.65648025 0.7954109 -0.48909098 0.45768014 0.43849987 1.1024663 -0.22356631 1.1571821 0.5579796 -1.2447484 -0.25652188 -0.63128215 -0.83435905 -0.044491686 0.681342 0.31442815 0.7583879 -0.14098498 -0.1522742 -0.2821618 -0.511766 -0.24327993 -0.23371717 -0.29998276 -0.27715838 0.47055435 0.63460875 0.17748617 0.069280304 -0.057176903 0.99656934 0.43027782 -0.57920355 -0.8474394 -0.10758818 0.22408214 -0.13553177 -0.46723157 0.54836816 -0.004086448 -0.45726773 0.36433783 -0.01275052 0.25128195 -1.2493317 -0.34351617 -0.7058515 0.010322159 -0.093568176 -0.39831576
1819 0.29300416 -1.0329092 -0.17815723 0.6021825 0.5129028 -0.58136636 -0.34614012 -0.20018555 -0.56329584 -0.45254403 0.18523943 -0.08312983 0.27324647 -0.67408276 0.23589246 0.44172227 -0.46576387 0.51012063 0.41490474 0.70698977 -0.34921524 0.75604546 0.4974815 -0.9458447 -0.27920476 -0.59605616 -0.9493019 0.44044054 0.38534585 0.20307416 0.5014861 -0.39580023 -0.25609103 0.042812098 -0.72182864 0.061081573 -0.08734531 0.18497886 -0.35812894 0.4056299 0.38168323 0.26254675 0.045548994 -0.05185917 0.81856245 -0.08875882 -0.25208223 -0.93523055 0.14314552 -0.1810604 -0.40602678 -0.28756317 0.64776444 -0.16028446 -0.34538278 0.35072705 0.14995886 0.19097458 -1.3424106 -0.1725469 -0.83301777 0.035337716 0.007235747 0.024332186
1632 0.08255267 -0.28981847 -0.46842873 -0.91960037 0.8277357 0.7478421 0.63273805 -0.31213164 -1.1675429 -0.102913775 0.09096033 -0.5001744 -0.5762985 -0.6910709 0.5181443 0.8918057 -0.38312724 -0.15501253 -0.5907667 0.84453404 -0.065740705 -0.08763013 -0.6089089 -0.7552815 -0.6641284 -0.4861834 0.15968215 -0.19004284 4.9663202e-05 1.013775 -0.1812615 -0.13562128 0.7476122 -0.23070888 -0.27611116 0.8520178 0.54811174 0.10810061 0.13925514 0.29717863 -0.029531445 0.4590183 0.006947453 1.3487742 0.3758882 -0.024617318 -0.2723594 0.86451197 -0.16415316 -0.11073073 -0.49823707 0.7189864 -0.7193213 -0.5735565 0.25147974 -0.020732846 0.29388887 -0.79810905 -0.10609072 0.31981575 0.046243742 0.22174409 -0.6459276 0.7742882
208 0.5480234 -1.2720801 0.022053273 0.44168523 0.42941225 -0.36874932 -0.3097068 -0.26398006 -0.2716129 -0.668461 0.37458485 -0.26446363 0.32589036 -0.5599646 0.24363014 0.8308089 -0.45059136 0.56700176 0.27209827 0.6905352 -0.31027535 1.0555692 0.5466442 -1.0428607 -0.11531003 -0.8641168 -0.8441454 0.09573822 0.265891 0.14497793 0.79635274 -0.72120565 -0.023107683 -0.092532076 -0.55329764 -0.12882312 0.1061458 -0.06363619 -0.077190265 0.37674364 0.45887095 0.5463422 0.17836773 -0.17412768 0.7253258 0.30140567 -0.67972213 -0.94444877 0.22235148 -0.09856888 -0.2503508 -0.2683462 0.64627546 -0.097289234 -0.23613888 0.32877627 -0.017149815 0.28643274 -1.3139431 -0.5564222 -0.7331855 -0.17995757 -0.1920404 0.06472123
1830 0.8801769 -1.1396911 0.781715 -0.34491685 0.26503724 -0.57986784 -0.65427846 0.038553692 -0.46017724 -0.4931705 -0.110881776 0.5913205 -0.07441666 -0.09683744 0.094776355 0.09067587 -0.8605091 -0.039017368 -0.29249644 -0.27176878 0.31827995 -0.52069527 -0.31424105 -1.0660869 -0.23663001 0.17525168 -0.0058778874 -0.2730528 0.37254447 -0.48015332 0.39979646 -0.031913247 -0.075631976 -0.4298991 -0.021599215 0.34483346 -0.14770056 0.16788025 -0.26054913 0.4816705 0.22989 -0.18034399 -0.028210463 0.14032592 0.826579 0.15121487 -0.49573907 0.08244649 -0.56006855 -0.5636646 0.3860193 0.20285131 -0.22801799 -0.2786731 -0.4923104 0.07585727 -0.29101712 -0.28871474 -1.1483543 -0.3343192 -0.9002918 0.14872785 0.7182229 0.21009691
1250 -0.76166207 -0.4756146 -0.92441946 0.20471758 0.07813394 -0.40415603 -0.27819973 -0.6756376 -0.84064835 0.3020539 -0.15378712 -0.30145767 -0.21688081 -0.8871151 -0.08243783 -0.55716914 -0.11801179 0.41899785 -0.99277985 0.064917 -0.0031900245 0.1649336 0.117182106 -1.020758 -0.4299744 0.3455132 -0.65517133 0.14350188 -0.5133907 0.045854896 0.34458265 -0.025058838 0.03657857 -0.30983013 0.7097675 0.65752053 -0.35550052 0.06600999 -0.44916824 -0.28725776 0.78554213 0.2063579 0.13425885 0.10194675 -0.2658475 -0.06969959 -0.3056625 -0.5692474 -0.0912284 0.2708016 -0.025239209 0.010331051 -0.7715608 0.9698981 -0.52183205 -0.48338062 -0.24778701 -0.92982864 -1.3516884 0.7571411 -0.5567404 -0.3848196 0.09666341 0.71413845
867 0.5251405 -0.8243255 0.20488381 0.2654581 0.39750418 0.47758788 -0.5346992 -0.149137 0.17544135 0.4147134 0.49282205 0.04604638 0.14323798 -1.4135795 -0.60634226 0.72728544 -0.1762898 -0.7610155 -0.64614564 0.56423235 0.6344465 0.62997144 0.61309844 -0.43543428 -0.8821072 0.12510358 0.3235187 -0.46273416 -0.53649974 0.023802964 0.8135067 0.30059922 -0.62789685 -0.3759079 -0.23016363 0.3413934 0.4920929 -0.22479053 0.42911154 0.23862667 0.31177863 0.11712312 -0.42071885 -0.19282636 0.4872745 0.98418844 -0.56085056 -0.014214015 -0.6955039 -0.048976403 -0.09059017 0.24998617 -1.1307337 -0.32738507 -0.6122667 -0.111202426 -0.41564178 0.22434166 0.084957756 -1.2054156 -0.74667805 0.40789416 0.75401115 0.27461913
1619 0.1473421 -0.8074106 -0.46239132 -0.83021337 1.0607686 0.6419516 0.55843806 -0.12560655 -0.88969344 -0.7040309 0.29735547 -0.6919382 -0.63599664 -0.85819364 0.074516304 1.123071 -0.3807828 -0.18325268 -0.7391018 0.8205183 0.2753602 0.05084895 -0.35420218 -0.50894314 -0.73358244 -0.5424881 0.40446493 -0.4271002 0.21312675 1.0019355 -0.1589606 -0.18038821 0.81306136 -0.64849263 -0.48511323 0.5924791 0.32939306 -0.092251375 -0.0596757 -0.27307394 0.37991092 -0.0043695504 -0.08622529 1.392964 0.303065 0.09671044 -0.1995762 0.85153157 -0.5683443 -0.52552706 -0.6423291 0.48076877 -0.7731973 -0.17808093 0.2935151 -0.039287876 -0.19066826 -0.48962885 0.18411185 0.6201588 -0.13703176 0.4281681 -0.7272233 0.69564223
1539 0.1626208 -0.69310343 -0.4795985 -0.84008473 0.7841276 0.71694523 0.80902374 -0.062091812 -1.3372661 -0.4151358 0.8074614 -0.7765721 -0.79058903 -0.60443836 0.03147793 1.1284618 -0.43090183 0.11988029 -0.79150504 0.65147704 0.23622946 0.3060372 -0.5696286 -0.27436563 -0.56536037 -0.73709977 0.09716214 -0.047320087 -0.01689992 0.6430237 -0.23537281 0.10174001 1.1529295 -0.018460229 -0.01601216 0.48092467 0.70636374 0.118778236 0.39788646 -0.028799161 0.202717 0.45291632 0.25945422 1.1597586 0.1665774 0.09527235 -0.32987997 0.4995376 -0.34560817 -0.14449368 -0.65450364 0.9756671 -0.3568499 -0.572285 0.15708628 -0.29790583 0.4869919 -0.7130788 -0.19176282 0.43126288 0.23328638 0.5518924 -0.24823116 0.48801246
2539 0.5898915 -1.1008137 0.75728524 -0.31805408 -0.031532023 -0.6425849 -0.6923635 -0.25828436 -0.2528181 0.4374286 0.10587119 0.17679791 0.1902843 -0.34616438 0.44820106 0.0020717462 -1.4529871 0.36079806 -0.4159898 -0.12424689 0.7410688 -0.74470025 -0.3059135 -0.400507 -0.1861857 0.061441045 -0.040934086 0.52236277 0.20337132 -0.10077511 0.37373844 0.040287476 0.35237443 -0.016508492 -0.22778286 0.7058531 0.16822268 -0.32317337 -0.34355512 0.4274312 0.7995915 0.7056062 -0.024497615 -0.25949427 0.6033126 -0.46902543 0.19225799 -0.024208665 -0.14853698 0.30038977 -0.17131029 0.5051442 -0.37235 -0.08112294 0.010043689 -0.073437944 0.11405407 -0.47242233 -1.2788117 -0.5356115 0.071670786 0.58630514 0.6583097 0.49491242
3056 0.14143278 -0.7855689 -0.4211286 -0.8457266 1.0445479 0.6609251 0.5352908 -0.13333684 -0.87230563 -0.68731195 0.28827137 -0.6865507 -0.62153935 -0.8452158 0.06482423 1.114592 -0.3850104 -0.18839534 -0.74329305 0.81056106 0.28019527 0.019504877 -0.33174443 -0.50457966 -0.7107383 -0.5293882 0.37780285 -0.38884017 0.21660502 1.0183332 -0.16943729 -0.16249542 0.8007644 -0.6519059 -0.4672711 0.60802746 0.3321774 -0.13977991 -0.057363797 -0.2780886 0.34317985 -0.00017330512 -0.07264111 1.4103612 0.32004339 0.11102423 -0.20089874 0.8539935 -0.5911866 -0.52875936 -0.6502101 0.46303517 -0.759604 -0.18991677 0.30231333 -0.038333375 -0.16931991 -0.514346 0.21209976 0.59050393 -0.1328398 0.4244865 -0.7539131 0.6514803
2341 0.64427954 -1.2475711 0.23536363 0.5556998 0.23263364 -0.3613315 -0.3121447 -0.30172002 -0.4366124 -0.86378324 0.46159858 0.048850648 0.6942231 -0.31866872 0.15961419 0.97705424 -0.4874996 0.6741151 0.20619427 0.79751533 -0.23144825 1.0558227 0.59853506 -1.4187574 -0.27245983 -0.7388202 -0.89306635 0.31071413 0.28539371 -0.23766252 1.0383763 -0.12978546 0.004278347 0.106291115 -0.45364892 -0.2948194 0.1743137 -0.13793969 -0.13991478 0.3562722 0.63352436 0.26332155 0.2918967 -0.23391819 0.9617183 -0.0068850475 -0.5183319 -1.1253014 0.03254954 -0.26566863 -0.14566694 -0.18648504 0.6106272 -0.12769675 -0.36014977 0.19838254 0.02858284 0.10564778 -1.4425188 -0.37476408 -0.70298886 -0.1272487 -0.18622205 0.09654727
267 0.5435024 -1.2908486 0.029737607 0.4423221 0.4244524 -0.41137546 -0.34847853 -0.324803 -0.27583048 -0.65527487 0.4138392 -0.28502744 0.42957637 -0.55697596 0.28993577 0.8389983 -0.4815195 0.5057783 0.261316 0.758765 -0.26958016 1.040908 0.48266092 -1.0346502 -0.15343677 -0.88412094 -0.826733 0.19301473 0.32378054 0.13236608 0.8215312 -0.6417976 -0.085217126 -0.07201149 -0.5549685 -0.21178062 0.09045772 -0.11874008 -0.14253321 0.3591957 0.48320314 0.49977866 0.16668105 -0.21202347 0.75938636 0.20938213 -0.6220223 -0.9916478 0.18190831 -0.10833164 -0.3011938 -0.29187104 0.6611177 -0.09495519 -0.2658724 0.36167967 0.05261812 0.2882644 -1.2919087 -0.56238294 -0.79562986 -0.12329316 -0.20684476 0.0065968623
1951 -0.27718312 -0.8466691 0.21611491 -0.08785691 0.29387635 -0.12679815 0.16085997 -0.4264286 -0.77704483 -0.52738935 0.3864263 -0.7976876 -0.9292379 -0.30364463 0.3204269 0.47927582 -0.38354504 -0.17989391 -0.8203558 0.19329967 0.5480626 -0.19623965 -0.2588672 -0.09416081 -0.35284865 0.12259965 -0.45939186 -0.59580016 0.3981923 0.6426179 -0.24973428 0.38385472 0.62007415 -0.7605003 -0.34494436 1.0218072 0.22993746 -0.06605456 -0.33530545 -0.16294293 0.20649165 -0.29876503 -0.15167539 0.85726446 -0.18560101 0.32952502 -0.4782186 0.31819612 -0.24396569 -0.30313486 -0.44111687 0.52816296 -0.4777411 0.10673513 0.3329281 -0.49099463 -0.38481763 -0.48103127 -0.38038442 0.11717625 -0.21623814 0.105829746 0.2012955 0.79541
1226 -0.79618156 -1.1226008 -0.47862837 0.40830562 0.019125368 -0.4099392 0.2094351 -0.6046567 -0.9602674 0.11669891 0.121620536 -0.86895347 -0.86691564 -0.3460908 0.29895306 0.13926506 -0.088693194 -0.17646785 -0.8218563 0.27730566 0.29210976 0.05291785 -0.13828483 -0.124052756 -0.698748 0.23641348 -0.8306009 -0.10554679 0.034355912 0.4570014 0.23694223 0.08439595 0.1118661 -0.70266324 0.10665044 1.0552907 -0.26831043 0.11756536 -0.42694435 -0.27862346 0.45164952 0.28791118 -0.034290653 0.40755174 -0.43591508 0.10623114 -0.50153935 -0.1514404 0.28647184 -0.13768947 -0.25945145 0.22600003 -0.8333233 0.7346905 -0.010744012 -0.37499544 -0.2792369 -0.8832412 -0.8172815 0.23985775 -0.31160322 -0.04256106 -0.022737289 0.48980203
2038 0.03341772 -0.5074468 -0.32984582 -0.87551206 0.92940813 0.33737728 0.5768508 0.06227911 -1.1555064 -0.44654644 0.3003689 -0.821702 -0.79801387 -0.62766325 0.49429336 0.92485344 -0.44490498 -0.22757803 -0.57552695 0.7148566 -0.003319233 0.008678451 -0.35308912 -0.48586735 -0.5865585 -0.37816015 -0.0019611588 -0.50851023 0.2809081 0.7089669 -0.33816028 -0.22182523 0.72748595 -0.5606777 -0.07135372 0.83556485 0.6561612 0.06879249 -0.08952575 0.019766489 0.14871134 0.13295645 0.09531124 1.3978344 0.22217019 0.2526915 -0.3879702 0.58953625 -0.08133724 -0.04450265 -0.12317375 0.57853574 -0.6188221 -0.15835503 0.2985056 -0.18424468 0.08296364 -0.55681527 -0.18386628 0.5871061 -0.036488872 0.34519914 -0.6283981 0.58306056
2524 0.12834448 -0.72177863 0.24397387 0.68594956 0.07279446 -0.8274534 -0.61020476 0.056961607 -0.6662245 -0.37304434 0.7030224 0.13098918 0.7363916 -0.51509285 0.5280864 0.8618882 -0.25332758 0.66725075 -0.45335597 1.0630871 0.27136183 0.8817667 0.8657599 -0.8535249 -0.13908587 -0.32944363 -0.4193483 0.015437543 0.25187287 -0.7067367 0.6569894 0.09798158 0.052258268 -0.28143886 0.22715744 0.1950086 0.14571948 -0.17069755 -0.061930943 0.029194003 0.11093944 -0.63623327 0.15215819 -0.088135205 0.8956335 0.24706674 -0.12581198 -0.05955115 -0.10311284 -0.053724192 0.18811306 0.3300743 0.5546516 0.2668538 -0.15112297 -0.12236548 0.16563287 0.059987195 -0.27018234 -0.35675028 -1.1282735 -0.43365863 -0.24744423 0.26705256
1472 0.5585622 -0.50501466 0.8006898 0.14726105 0.22430274 -0.3242288 -0.8855389 0.017129136 -0.7354674 0.19897525 -0.33171532 0.33420923 0.041750986 -0.5843218 0.07819825 0.37073553 -1.3041053 0.3319785 -0.17518061 0.10544231 0.3367679 -0.41789463 0.1557609 -0.026387423 -0.12065431 0.32580832 -0.08694202 0.08879444 -0.51641595 0.12002675 0.33474085 0.42776632 0.83090645 -0.2851994 -0.6611 1.0397084 0.30113366 0.0023068096 -0.24552199 0.5128772 0.4297432 0.23159507 -0.43455407 -0.03538867 0.7208937 -0.35062736 0.25001332 0.11174859 0.037211653 0.34204865 -0.7281468 0.60735404 -0.444113 -0.10854952 -0.17421728 -0.3483169 -0.032410197 -0.46455422 -1.2108808 -0.35250074 0.07681106 0.95287216 0.7679929 0.5531242
760 0.5085975 -1.3651258 0.1136085 0.47454768 0.36325684 -0.37601778 -0.32861307 -0.47385502 -0.39850682 -0.7863453 0.38928074 -0.28474036 0.49545148 -0.3585187 0.13475 1.1073679 -0.56635976 0.4774677 0.35756883 1.0768092 -0.069570564 1.2702959 0.5651062 -1.1686759 -0.1560622 -0.77940094 -0.6160258 0.1274394 0.4536718 0.18574359 0.771276 -0.2387185 -0.034759 0.10645101 -0.2840077 -0.3088818 0.18195178 -0.2703976 -0.120488316 0.47790927 0.37792563 0.15236866 0.3842508 -0.12516658 1.2340499 0.1979087 -0.47494286 -0.8267512 -0.07894658 -0.10748552 -0.24855576 -0.3016106 0.6061244 -0.17848572 -0.32819435 0.2687368 -0.10909576 0.18089068 -1.0374522 -0.3354282 -0.8330899 -0.08285034 -0.09555129 -0.13060981
1899 -0.1398736 -0.60701185 -0.21842924 -1.0176189 0.7377822 0.72595674 0.8393962 -0.074120685 -1.3343285 -0.854838 0.53929216 -0.8820411 -0.8070478 -0.9601009 0.06877543 0.9577624 -0.28142062 -0.0447328 -0.6488539 0.64653087 0.06004724 -0.20922549 -0.39426044 -0.43614107 -0.46194655 -0.575546 0.17789546 -0.32423192 -0.0067610005 0.70590717 0.002878549 -0.05011524 1.0396236 -0.43443587 -0.113326356 0.71373826 0.4692174 -0.63176984 -0.1369305 -0.632078 0.16730022 0.060284983 -0.18844186 1.3458911 0.15435927 -0.04592232 -0.17379507 0.575958 -0.31128836 -0.3645148 -0.6810316 0.6247594 -0.2659454 -0.18823783 0.25765294 0.19819276 0.03816698 -0.7962881 -0.23573273 0.72933775 0.106176935 0.10222529 -0.783348 0.76366794
543 0.45434228 -1.4063443 0.15939018 0.5317951 0.34738427 -0.46678826 -0.43647417 -0.49667937 -0.48527256 -0.76312786 0.42954016 -0.19253358 0.54767513 -0.36848328 0.3793201 1.138881 -0.60985726 0.55148655 0.34441423 1.0792617 -0.045098573 1.2862598 0.59636223 -1.2056319 -0.19063596 -0.76861954 -0.710142 0.13413957 0.47118405 0.14389284 0.81402725 -0.31516302 0.022259599 0.057545073 -0.42796308 -0.25749025 0.14195101 -0.21469106 -0.10058889 0.53847647 0.36733645 0.23435047 0.34417692 -0.10638061 1.2303259 0.15901531 -0.5580522 -0.8331495 0.010327903 -0.10996124 -0.21759203 -0.3298707 0.70192844 -0.12072913 -0.38977283 0.29145488 -0.13225207 0.15655084 -1.1074934 -0.33686963 -0.9140171 -0.07570251 -0.09212877 -0.11293848
1959 0.38803366 -1.1039596 -0.14678189 0.49781278 0.3598389 -0.06745642 -0.23902385 -0.39757222 -0.49317464 -0.88417304 0.29940346 -0.0932998 0.43533528 -0.33008307 0.28875315 0.6250859 -0.29803982 0.87985885 0.12599775 0.74881625 -0.24890535 1.0011628 0.39827338 -1.2104075 -0.15492879 -0.6774808 -0.7388673 0.33749226 0.4905932 -0.09624444 0.79856294 -0.40518028 0.035824765 0.007194695 -0.41575778 -0.45546928 -0.15550615 -0.0304394 -0.3870721 0.20113833 0.4942483 0.112726994 0.33247063 -0.09780575 0.8113522 0.06389341 -0.45617208 -0.9879727 -0.063379236 -0.12718706 -0.116154395 -0.5916002 0.38125327 -0.04088549 -0.39914963 0.2883017 -0.24164912 0.17091867 -1.1723737 -0.069354594 -0.7485542 0.02596397 -0.16758268 -0.046599515
2429 -0.66931087 -0.5796329 -0.8159198 0.317237 0.10743694 -0.5239334 -0.07259867 -0.631916 -0.74993634 0.15974173 -0.19024517 -0.08962241 -0.22211397 -0.8517888 -0.058741923 -0.5236791 -0.08954101 0.12851709 -0.9814863 0.17487761 0.03338256 0.24966837 -0.04273126 -0.67306554 -0.5995016 0.461105 -0.6391705 0.16020788 -0.6796318 0.21400157 0.6194533 0.059524585 -0.076125935 -0.5892207 0.5247221 0.5973269 -0.34819484 0.23176764 -0.5320563 -0.33736035 0.73141295 0.20964292 0.08970855 0.17746082 -0.22014663 0.075199194 -0.3624708 -0.42964068 0.10778711 0.19918066 -0.21594496 0.12216884 -0.94089466 0.89358366 -0.33018997 -0.61274755 -0.30344832 -0.9128735 -1.3108244 0.7637772 -0.6454805 -0.17217179 0.051248502 0.537358
1936 -0.047093973 -0.8856137 -0.05740092 0.47752586 0.5112252 -0.8518298 -0.42594072 -0.2119546 -0.4737712 -0.21308592 0.46276686 -0.1055565 0.4315068 -0.46459836 0.09386914 0.9225728 -0.25465488 0.67940074 -0.24491304 1.3003148 0.0017842677 0.72061455 1.1298169 -0.5100946 -0.3405862 -0.09172585 -0.4575548 0.25681278 0.5416886 -0.19853996 0.6070868 0.097578324 -0.12209032 -0.28515688 -0.42700362 -0.044456396 -0.36939883 0.26740608 0.2659245 -0.12365205 0.30859053 -0.6850738 0.0013424162 0.036792222 0.8104427 0.16000208 -0.2300765 0.20615226 0.041125525 0.035714928 -0.07368669 0.053032216 0.4646131 0.12575808 -0.1728546 -0.084063664 0.678481 0.16235313 -0.1933049 -0.07951411 -0.73246944 -0.49752545 -0.20269945 0.370935
3484 0.49385977 -1.11867 0.22273163 0.43522605 0.29386565 -0.38892937 -0.28284413 -0.68348956 -0.6735627 -0.7427522 0.37570214 -0.02610888 0.5315693 -0.36678225 0.35811052 1.3276268 -0.58846146 0.78549874 0.41463384 0.9492417 -0.034608822 1.0967846 0.6807645 -1.0504563 -0.093297936 -0.65201306 -0.8143672 0.3263886 0.45264608 0.03894721 0.92709017 -0.47288507 0.011081013 -0.0037676117 -0.28056514 -0.2463805 0.12157988 -0.18227875 -0.049467847 0.69658625 0.47958922 0.13693605 0.06472456 -0.22942343 1.1462876 0.018371966 -0.4110511 -1.1646342 0.1521096 0.0057987887 -0.26539445 -0.078520074 0.6257463 -0.1787394 -0.393172 0.5427555 -0.19668587 0.005447617 -1.1078856 -0.35862216 -0.7973948 0.110482834 -0.06540309 0.06863911
1645 0.10571907 -0.94656825 0.2041083 0.3392783 0.24370807 -0.5499845 -0.4359927 -0.22754349 -0.37636188 -0.339616 0.70950264 -0.08906059 0.5966706 -0.36079597 0.28704327 1.1204526 -0.31673315 0.41302535 0.0040609315 1.4961816 0.15404738 1.1714002 0.8724311 -0.6689016 -0.43659613 -0.4632114 -0.35189238 0.10480098 0.6427686 -0.1710616 0.7928203 0.0910575 -0.15739949 -0.26100793 -0.21640632 -0.21614818 -0.18604387 0.0137754185 0.2916345 0.077008724 0.14101651 -0.45672128 0.10976943 0.076111674 1.2781796 0.34490785 -0.35585913 0.1326484 -0.041787505 0.15408498 -0.051180534 -0.045424864 0.60947055 0.14134486 -0.015038959 -0.047288943 0.4650548 0.043735977 -0.18805255 -0.32703283 -0.88100404 -0.4069013 -0.23542166 -0.11634523
1725 0.0997657 -0.70575 -0.29395926 -0.8486029 0.9574051 0.32931113 0.6410502 -0.12669894 -1.1529056 -0.6400683 0.5098506 -0.7939339 -0.8635604 -0.78934246 0.24310149 1.1584684 -0.5838545 -0.11803974 -0.67352855 0.7226852 -0.13551202 -0.026742201 -0.47731578 -0.40229675 -0.4875343 -0.33733588 -0.12797232 -0.39024296 0.16606711 0.88133943 -0.2574655 -0.022812715 0.8612942 -0.46783462 -0.2948667 0.8111171 0.76336366 0.25099352 -0.14503086 -0.14067361 0.30172884 0.24342017 0.06256371 1.29746 0.2716778 0.23380455 -0.38120252 0.5991293 -0.33690262 -0.24135248 -0.3853249 0.6592216 -0.65818334 -0.39270303 0.35893235 -0.28648132 -1.357974e-05 -0.603949 -0.10008759 0.4037639 0.18237713 0.35944644 -0.41255793 0.6722196
1872 0.4653045 -0.98274356 0.26072943 -0.2508952 -0.21439926 -0.5394344 -0.99215734 -0.03481511 -0.57451755 0.3528937 -0.069304556 -0.028196571 0.13968474 -0.44810277 0.50750643 0.11860572 -1.3682402 0.14897822 -0.54175246 -0.06555366 0.8429458 -0.8461898 -0.072209455 -0.18920651 -0.28422123 -0.039823674 0.057182938 0.61929053 0.215489 -0.23051931 0.4602596 0.20747755 0.3484936 -0.33528885 -0.2914709 0.6626444 -0.27153674 -0.028509771 -0.11020992 0.31139025 0.57518685 0.71237123 -0.22082327 -0.21789165 0.30652764 -0.6138679 0.35923755 -0.34133387 -0.11989055 0.3650259 -0.38607493 0.46473038 -0.5120324 -0.07851852 -0.21400057 -0.07912625 0.38337332 -0.29616338 -1.3374879 -0.8396527 -0.22095431 0.48136824 0.66385776 0.7705256
329 0.4762317 -0.80135715 0.28986675 0.52083224 0.13209176 -0.6458941 -0.30652627 0.22739948 -0.7740381 -0.5865228 0.87241983 0.0882964 0.9229887 -0.48525298 0.04479756 0.9303809 -0.16900112 0.5797739 -0.1790663 1.3848281 0.08018515 1.1530129 0.86482 -1.0420678 -0.67438835 -0.5635553 -0.6705537 0.025526594 0.27461892 -0.63475186 1.2843072 0.5161022 -0.08029045 -0.10816911 -0.15006526 0.023973556 -0.04282575 0.031088931 0.22898363 -0.027999347 0.26736772 -0.311509 0.049127214 0.11784533 1.3813121 0.09066611 -0.19091298 -0.36762607 0.035768237 0.15852402 -0.27856314 0.42300624 0.48197395 -0.06791066 0.11208483 -0.19941458 0.44241586 0.0962726 -0.4493683 -0.34661415 -1.0389576 -0.65805787 -0.34311664 -0.07374342
3982 0.4706031 -1.2143652 0.25662917 0.6236472 0.50913215 -0.46001425 -0.44384575 -0.33142146 -0.44680873 -0.7152228 0.4233027 -0.040632073 0.6654656 -0.26951668 0.45222813 0.9446338 -0.4491477 0.63875574 0.1542409 1.1199675 -0.090879224 1.2438905 0.58844835 -1.3339134 -0.1335784 -0.71518606 -0.9566046 -0.008267444 0.42170346 -0.21273777 0.8434308 -0.3667235 -0.11326497 -0.0148380995 -0.5437241 -0.030653808 0.0054359133 -0.11894674 -0.21342635 0.43782535 0.50960726 0.34377894 0.30464384 -0.15376897 1.0292786 0.19488582 -0.40316474 -1.0321538 -0.039745476 -0.22210836 -0.03477256 -0.12349406 0.55866027 -0.153164 -0.5004274 0.4329065 -0.01641901 0.16274314 -1.2119799 -0.3150432 -1.0533576 -0.01141834 -0.000384009 0.01824494
1554 -0.72217697 -1.2303845 -0.13400944 -0.1810671 -0.22746456 0.4603648 0.6333859 -0.71065885 -0.9367604 -0.49725276 0.2193342 -0.94760877 -1.0861081 -0.4550837 0.011752528 0.114040434 -0.21449502 -0.43338636 -0.5400482 0.14876842 0.97119343 -0.17816548 0.15854977 0.00839474 -0.65108114 0.3523327 -0.37125394 -0.34737438 -0.045857675 0.6192466 0.13864082 0.25456262 0.23779497 -0.6363033 -0.3169157 0.78539056 -0.32987592 -0.55945265 -0.19690268 -0.4519336 0.5520965 -0.12129414 -0.07854918 0.40529594 -0.4812234 0.22231054 -0.6639575 -0.2800656 0.13617343 0.24677244 -0.48978713 0.11103175 -0.751003 0.5034327 -0.0067158057 -0.14300951 0.06419907 -0.58305746 -0.48266304 -0.00938643 -0.12835059 -0.17096825 0.07952166 0.53473306
699 0.6843605 -1.0313395 0.13780177 0.62895924 0.39591601 -0.07642703 -0.06735707 -0.34941864 -0.61390203 -0.86522824 0.18214527 -0.2895289 0.42764273 -0.26925632 -0.19865513 1.0983824 -0.28418973 0.4206933 0.45290956 0.93492335 -0.23106219 1.0638255 0.45635948 -1.1396692 -0.06276908 -0.77253574 -0.52287656 0.27199158 0.41977802 0.20305921 0.9734447 -0.10783071 -0.12269343 0.10536919 -0.27999392 -0.31528768 0.32835862 -0.33117458 -0.029477976 0.36837813 0.4483299 0.22063242 0.27407902 -0.117268816 1.1947186 0.19682853 -0.19877493 -0.87777424 -0.26240963 -0.17651442 -0.36443278 -0.19886579 0.28628823 -0.2156004 -0.30860877 0.35631505 -0.23837115 0.17643249 -1.0348678 -0.39804205 -0.71458626 0.10897779 -0.16351257 0.03649849
219 0.3178233 -1.3093358 -0.0026441882 0.60960865 0.36789972 -0.4717798 -0.3623786 -0.42555398 -0.473777 -0.63163763 0.35466734 -0.34548056 0.46582374 -0.46227562 0.32726213 0.8554743 -0.47533512 0.620898 0.2549742 0.98289883 -0.048774082 1.1031499 0.52386326 -1.2233499 -0.2153411 -0.76644593 -0.95718753 0.23972113 0.54863656 0.07074905 0.8021295 -0.40023205 -0.071652144 0.09510502 -0.6848428 -0.15924677 -0.05396959 -0.11156902 -0.3660053 0.4259821 0.5167593 0.41956377 0.11770864 -0.18858811 0.93250394 0.033495564 -0.3914889 -0.9870806 0.011548265 -0.15294771 -0.3026047 -0.24353461 0.6063625 -0.10026537 -0.4241611 0.38961563 -0.05364547 0.21762446 -1.2026356 -0.29534566 -0.91674334 -0.092862226 -0.10281889 0.0075152516
2568 0.3223151 -1.2808753 -0.035594754 0.61340475 0.3906605 -0.4685177 -0.3360035 -0.37348276 -0.47567242 -0.6161565 0.321429 -0.33045653 0.45204416 -0.45792663 0.36723152 0.8505226 -0.47499466 0.5833561 0.27359444 1.0319278 -0.082466625 1.0697529 0.51279575 -1.1827847 -0.22394353 -0.7493846 -0.93953395 0.23791929 0.52578366 0.096249275 0.7866763 -0.40008467 -0.10653724 0.04683797 -0.66305107 -0.15883991 -0.09192852 -0.09863978 -0.34003463 0.41529873 0.4933448 0.38803765 0.1249663 -0.17603639 0.9332046 0.058584157 -0.384274 -0.98753035 0.045113068 -0.15984146 -0.3247197 -0.28605232 0.5707901 -0.09006814 -0.39828295 0.39819512 -0.02178468 0.24698663 -1.1872152 -0.29502362 -0.9002161 -0.061105497 -0.12114653 -0.02320272
1305 0.3350109 -1.2575266 0.06462388 -0.22149006 -0.0574669 -0.5440701 -0.3432784 -0.4446281 -0.4401047 0.28504923 -0.21240446 -0.22391921 0.06765568 -0.40482116 0.47814593 0.6717697 -0.9431341 0.14607011 -0.6561304 -0.49357477 0.8781618 -0.09014229 0.025629187 -0.18442853 0.10053049 0.31878778 -0.38363415 0.1574343 0.2344113 0.23283583 0.36428484 0.11332492 0.43913066 -0.32605973 -0.07579592 0.84317714 0.25352195 -0.58926076 -0.5686441 0.29586086 0.586663 0.088429965 0.21324828 -0.23076853 0.31231436 -0.7044433 0.27991405 0.12747873 -0.20727545 0.6096585 -0.04928385 0.397499 -0.7090554 0.4147424 -0.14784168 -0.44220522 -0.48165113 -0.6191878 -1.276178 -0.5823295 0.42340884 0.17865476 0.38615912 0.8213599
1349 0.3507666 -1.0858526 0.009366274 0.47680345 0.13046207 -0.17572157 -0.060634542 -0.5508528 -0.4700625 -0.6821718 0.21028928 -0.036877353 0.24469891 -0.28412965 0.26621565 0.8446681 -0.30116123 0.39196622 0.58334213 0.9541202 -0.20326017 1.0989648 0.44295782 -1.0956408 -0.24132864 -0.83809614 -0.6161385 0.34808138 0.6569249 0.33796817 0.7299712 -0.27208987 -0.02489479 0.088106886 -0.4094164 -0.52660567 0.24148929 -0.37439203 -0.020009153 0.25983903 0.5985675 0.38804263 0.10163438 -0.0883669 1.0105507 0.1451858 -0.18338375 -0.7208259 0.0065728873 0.009743078 -0.51437646 -0.36578977 0.4984879 -0.32106018 -0.40668362 0.6183333 -0.33844534 0.1832096 -0.93641645 -0.38836133 -0.79397047 0.22554961 -0.32781252 -0.036147688
3713 0.4973943 -1.2607903 0.23669244 0.6151446 0.52343094 -0.47465983 -0.47674465 -0.32903123 -0.47943532 -0.74365294 0.4104526 -0.01765773 0.68449086 -0.2875562 0.5241055 0.9712766 -0.40208802 0.66530585 0.124760486 1.0982285 -0.050549496 1.2638868 0.6405281 -1.3383632 -0.104895204 -0.72462976 -0.99278086 0.038349293 0.40680826 -0.2690719 0.84499323 -0.40096468 -0.14379574 -0.08208456 -0.5574214 0.012766844 0.020561919 -0.16018617 -0.27761972 0.44269794 0.49399024 0.35897502 0.3190512 -0.14315471 1.0342151 0.20008102 -0.45202234 -1.0575689 -0.00094432343 -0.25211275 -0.025982639 -0.11017227 0.5574004 -0.13966642 -0.5057108 0.41067848 -0.030231489 0.20212196 -1.2553834 -0.32701793 -1.0813159 -0.009176287 -0.024972096 0.023909613
772 0.6084874 -1.3682693 0.16089724 0.4604436 0.40596485 -0.34145555 -0.30165282 -0.38474372 -0.3133978 -0.7320511 0.45185813 -0.20180395 0.5176988 -0.44094735 0.33416092 1.0335257 -0.4930824 0.58499426 0.27533174 0.9172038 -0.22542477 1.1783241 0.6210544 -1.1470914 -0.11004696 -0.8823474 -0.85978746 0.09008297 0.37300852 0.070703484 0.8365575 -0.57803583 -0.029612858 -0.089676455 -0.5122668 -0.23346685 0.12022569 -0.20652308 -0.05482181 0.43780795 0.5427906 0.39022148 0.25530002 -0.17624284 0.9014132 0.26882318 -0.59122527 -0.9993738 0.13048187 -0.087413445 -0.18662477 -0.23440155 0.60843945 -0.1298341 -0.33001065 0.31088665 -0.008384724 0.31128943 -1.3009194 -0.59501535 -0.79222375 -0.13197437 -0.1898933 -0.013903773
2535 -0.38469437 -0.5317726 -0.47599173 0.16594996 0.71366125 -0.38801122 -0.07762407 -0.82771605 -0.9578999 -0.0683827 -0.0492701 0.19162028 -0.10306224 -0.7949424 -0.14336985 -0.27256563 -0.55387 0.111709096 -0.9886431 0.00979856 0.16670825 -0.16209742 0.33791733 -0.2237922 -0.14572442 0.84138936 -0.41729987 0.11511886 -0.77210337 -0.09588945 0.014459031 0.0849781 -0.048473876 -0.69358057 -0.035139423 0.4647558 0.13906193 0.121421166 -0.2604247 -0.35515177 0.93671954 0.043937128 0.076585904 0.34105605 -0.11517184 -0.022911683 -0.7286867 -0.5113511 0.32313216 0.43515798 -0.2562436 0.13889065 -0.68181896 0.5788853 -0.3929284 -0.5297243 0.18493228 -0.98068035 -1.0949447 0.8036527 -0.26348016 -0.21467286 0.05882428 0.9712073
2530 0.7413856 -0.20730701 0.538276 0.14364389 -0.058173075 0.056129266 0.35471582 -0.3646274 -0.44000787 -0.33339605 0.2007668 0.1501296 0.3313454 -0.12200989 0.055481855 1.7090158 -0.32792154 -0.036017425 -0.28440976 0.96735466 -0.1899827 0.61483437 -0.22899327 -0.7415306 0.2801323 0.003848038 -0.6402812 0.40365544 0.796048 -0.62567323 0.5142531 -0.20514233 -0.0029603015 -0.17193988 0.22081983 0.22918455 0.4366963 -0.14333205 0.18065824 0.4500586 -0.08443881 0.46458977 -0.118378304 -0.20028563 1.5528989 0.16812554 -0.6535341 -1.09104 0.06253919 0.21816833 -0.03193401 0.7574274 0.33663717 0.6387292 -0.57282096 1.0667537 -0.56764615 -0.5867253 -0.3557837 -0.25565046 -0.6328036 0.5264877 0.1521341 0.44172022
1555 0.0023565425 -0.35288936 0.78364336 0.1991726 0.04680494 -0.45424896 -0.8702517 0.2069617 -0.47024414 -0.40312347 -0.17729478 0.089376025 -0.60730577 -0.57624096 0.3384556 -0.08502373 -0.64057577 0.18339495 -0.3687331 0.34469777 -0.1290138 -0.18654259 0.16061799 -0.13786513 -0.17020993 0.19786432 -0.70213336 -0.50246716 -0.36836314 0.34009862 -0.2824466 0.526337 1.0579839 -0.6701689 -0.7626774 1.532936 0.27489662 0.108331434 -0.5206756 0.27195564 -0.16483481 -0.8584297 -0.42129657 0.39395812 0.29268616 0.38462 -0.3875066 0.06832663 -0.18556975 -0.026616057 -1.087821 0.50363535 -0.17150669 -0.14976482 -0.054625247 -0.691259 -0.25573006 -0.49526012 -0.82319325 -0.046439156 -0.924157 0.44543153 0.42430964 0.38527653
3833 0.14321014 -0.6625927 0.380759 0.67443454 0.33015808 -0.60839725 -0.53043187 0.07570875 -0.62950355 -0.42151293 0.62659675 0.15087475 0.7484034 -0.18627821 0.3727893 1.0891502 -0.3256484 0.6559954 -0.25746086 1.572631 0.14112592 1.3540741 0.8497361 -0.89189523 -0.16730425 -0.44444484 -0.61387545 0.009808558 0.42530683 -0.70720357 0.8237913 0.09328882 -0.076393805 -0.29458025 0.072744034 0.31142485 -0.06139745 -0.28373188 0.16267648 0.21224557 0.14930308 -0.15671366 0.32138607 -0.0760218 1.278571 0.18651624 -0.07118036 -0.40252241 -0.17835782 -0.086906575 0.20022836 0.4054463 0.52586013 -0.04787457 -0.21853568 0.032980375 0.46125492 0.052703686 -0.25333384 -0.46353382 -1.2249659 -0.33535078 -0.12310823 0.102223
1358 0.3927706 -0.8100142 0.24566232 0.5360169 0.17542422 -0.6835844 -0.36042956 0.26444873 -0.6955618 -0.5137992 0.8188763 0.09912676 0.8843748 -0.49647373 -0.0446637 0.89850825 -0.1435302 0.56326544 -0.19616883 1.2939909 0.02844679 1.0542376 0.8367365 -0.94498813 -0.6054061 -0.47067943 -0.595869 0.122080006 0.24359557 -0.6102236 1.1784776 0.4525869 -0.067347795 -0.1346399 -0.17143442 0.019761425 -0.060541946 0.0392592 0.24593988 -0.06408349 0.23339562 -0.29852188 0.05409227 0.11908581 1.3235817 0.03649139 -0.20241277 -0.29916307 0.009787304 0.09131273 -0.26907682 0.3964755 0.42816114 -0.09155751 0.047718585 -0.22399952 0.47101527 0.06264457 -0.37615103 -0.30520085 -0.9651763 -0.653555 -0.37353954 -0.0105138635
1576 0.31931734 -1.2920759 0.26826715 -0.27458 0.09840699 -1.0271506 -0.673748 -0.35282895 -0.2914872 0.4427661 -0.014682779 0.023049356 0.07123043 -0.668864 0.65778375 0.238297 -1.4278157 0.23814753 -0.42441845 0.041091163 0.68216056 -0.79031694 -0.118959166 -0.19781862 -0.2056149 0.17435499 -0.032716524 0.7070051 0.15340823 0.0316307 0.55193937 -0.020659367 0.12098857 -0.10945634 -0.35768455 0.7177227 -0.14518884 0.100590155 -0.37274566 0.29450116 0.54729456 0.7774047 -0.22504552 -0.31811464 0.35888916 -0.5845819 0.10472 -0.24801666 -0.007325898 -0.04816809 -0.24294396 0.38012174 -0.09653258 -0.043499134 -0.04775231 0.07001909 0.3454916 -0.39947516 -1.3470628 -0.6527073 -0.22438104 0.6199568 0.69725406 0.5357039
604 0.5951777 -1.3480449 0.14686355 0.5059775 0.40064576 -0.36430934 -0.32615164 -0.38546616 -0.32792404 -0.718878 0.44192094 -0.24541162 0.51194084 -0.45156032 0.30348724 1.0724785 -0.49051908 0.57785356 0.27850872 0.91483706 -0.23606148 1.1797472 0.61529595 -1.1445042 -0.122859284 -0.8924746 -0.84017956 0.10264307 0.33640435 0.07904393 0.8394649 -0.58283216 -0.0655876 -0.079806305 -0.51718384 -0.1855311 0.15690483 -0.22984917 -0.06500546 0.43598986 0.5515968 0.41988218 0.20744078 -0.17425111 0.92803097 0.2673322 -0.6024204 -1.0368788 0.13189654 -0.08290676 -0.22304742 -0.23096518 0.63135326 -0.11988053 -0.32388917 0.36829698 -0.049778633 0.31101155 -1.3261857 -0.58456707 -0.8208738 -0.09014372 -0.21776773 0.016722314
2572 -0.7020033 -0.8276241 -0.750717 0.15853976 0.23849803 -0.26553944 0.13908035 -0.57851964 -0.4023337 0.007619927 -0.053666934 -0.31804764 0.08752958 -1.0739683 -0.22697659 -0.38994083 -0.27975574 0.6726555 -1.459024 0.11618713 0.20946173 -0.43080652 0.3179792 -0.5871575 -0.15145817 0.61820906 -0.47393924 0.07290638 -0.37420723 -0.03952049 -0.065941796 -0.0073019923 0.49837053 -0.33468732 -0.19506627 0.45941845 -0.49932355 0.28457466 -0.25886682 -0.75761366 0.865398 -0.0058709886 0.13639344 0.16128917 -0.17028409 -0.2640951 -0.55967695 -0.5374528 -0.35583538 0.018099034 -0.08850828 -0.17593235 -0.48118007 0.6558011 -0.7033001 0.16879113 -0.1733021 -0.20062384 -1.0745564 0.68473643 -0.5993825 -0.38216177 0.35504436 1.0460416
3602 0.38007843 -1.303608 -0.0006469107 0.58605236 0.39947018 -0.5121234 -0.3489704 -0.37550738 -0.46167213 -0.59801614 0.30584392 -0.34772423 0.52888006 -0.4349619 0.34006175 0.87066936 -0.45781645 0.60020626 0.24449962 0.98089576 -0.0677341 1.0813771 0.5318572 -1.2566384 -0.24370813 -0.7283579 -0.9885184 0.2458969 0.54091674 0.0877476 0.80616176 -0.37842605 -0.10128437 0.065670826 -0.6518625 -0.16799107 -0.069779284 -0.10082228 -0.38034213 0.42689732 0.5057069 0.3885653 0.13661774 -0.17754374 0.92936665 0.050904885 -0.42796904 -1.013217 0.03394743 -0.14650698 -0.29462337 -0.24309555 0.60319513 -0.05609439 -0.38909364 0.3674826 -0.043299753 0.24156477 -1.240398 -0.30595744 -0.87574804 -0.057587147 -0.10767657 -0.009099963
1474 0.44784468 -0.8023757 0.29579803 0.5340718 0.11203066 -0.621611 -0.32433724 0.21628432 -0.74506193 -0.5534051 0.8417632 0.106252946 0.87745154 -0.43782535 0.023176981 0.90629375 -0.18135159 0.5453361 -0.18529327 1.3456216 0.029000191 1.1325525 0.84612304 -1.001643 -0.65453076 -0.54353213 -0.61522096 0.021995727 0.28582057 -0.56824833 1.2317103 0.50411075 -0.09755175 -0.12757376 -0.1470265 0.011074305 -0.029588725 0.0079260655 0.22428776 -0.006881657 0.2356291 -0.31054264 0.047689356 0.1409776 1.3660612 0.1215746 -0.17367001 -0.32956108 0.054982994 0.1329218 -0.27309477 0.40437487 0.42314282 -0.07892845 0.10622903 -0.22348072 0.4053912 0.11583444 -0.4102799 -0.3819348 -0.9663932 -0.58970696 -0.33469182 -0.062103506
3603 0.41489348 -1.3372797 0.116083965 0.6496046 0.36714727 -0.4353354 -0.3434846 -0.47070745 -0.5454337 -0.68686306 0.3323649 -0.29251203 0.5251611 -0.37034363 0.41131502 1.0534469 -0.5346403 0.6484271 0.29176527 1.0732764 -0.034855183 1.176876 0.56960964 -1.265948 -0.17245553 -0.7564803 -0.924335 0.20021291 0.53554785 0.023165654 0.826806 -0.3796213 -0.041563436 0.03415183 -0.58038855 -0.19200468 -0.051665563 -0.16538677 -0.3099452 0.5008867 0.59551346 0.3799275 0.19253029 -0.20096159 1.0873537 0.10182333 -0.4203427 -0.9741599 0.016912699 -0.13580623 -0.23488988 -0.28504452 0.5986374 -0.1007802 -0.41296753 0.37737295 -0.14720885 0.19831173 -1.229699 -0.29349938 -0.9258067 -0.048641313 -0.09401544 -0.053110138
1018 -0.49581483 -0.7946252 -0.7780025 -0.22753842 -0.13265572 -0.11592709 -0.18979707 -0.60052997 -0.6675102 0.0179974 -0.20849499 -0.2771558 -0.12074683 -0.9226631 -0.017084606 -0.09333715 -0.17014831 0.33087337 -1.156332 -0.48509604 0.42116866 0.30385554 0.20587993 -0.89372396 0.025438776 0.40084523 -0.6194109 -0.09631287 -0.28863364 0.21450509 0.10096768 0.21244839 0.4033924 -0.1839427 0.47557187 0.6361939 0.08864929 -0.5276586 -0.57820183 -0.3592515 0.5805887 -0.11526881 0.42238864 0.068646885 -0.13880241 -0.34882587 -0.11510015 -0.3778276 -0.40798128 0.6520117 -0.005056746 -0.09985266 -0.79509825 0.9386622 -0.64518005 -0.5157541 -0.45389104 -0.74279803 -1.2647111 0.18727213 -0.13285705 -0.58465296 -0.015800709 1.0293512
1387 0.42411104 -0.80303234 0.29589754 0.49560967 0.10111704 -0.64103913 -0.3297824 0.21611744 -0.7698214 -0.531618 0.836188 0.10474708 0.9230738 -0.45807034 0.013821513 0.89584965 -0.17768273 0.58883244 -0.18117657 1.3386133 0.057409227 1.1264489 0.84230167 -0.9978838 -0.66068 -0.5529846 -0.6262587 0.062816 0.25337142 -0.589187 1.25542 0.5208567 -0.072762 -0.12069229 -0.14426899 -0.019249363 -0.028462635 0.024284827 0.21529397 -0.011355737 0.21670611 -0.32508436 0.048084844 0.10037101 1.3872466 0.071455784 -0.14056878 -0.33927774 0.010736807 0.1546417 -0.27370626 0.414961 0.45305032 -0.071870886 0.09136202 -0.22851415 0.4558532 0.07941836 -0.4269729 -0.3347841 -0.9858893 -0.66434205 -0.34577736 -0.06768187
1767 0.0014525064 -0.6575036 -0.10603191 -0.83315456 0.9210535 0.38883683 0.5915272 -0.068661325 -1.3843589 -0.6466945 0.51711154 -0.7392398 -0.8723061 -0.766234 0.25992668 0.9655721 -0.54612577 -0.15224445 -0.7510665 0.6222807 0.12662779 -0.14815904 -0.37435126 -0.35886908 -0.35532558 -0.30923086 0.015186109 -0.50619215 0.2627866 0.780143 -0.22755983 -0.0023825767 0.80276054 -0.46895653 -0.29519334 0.99256366 0.6942966 -0.1326977 -0.18076743 -0.25665376 0.268984 0.16453682 0.06847616 1.4125459 0.28396577 0.29708877 -0.3275995 0.5652548 -0.4560823 -0.24264508 -0.5167095 0.7523979 -0.48787326 -0.08050519 0.4551654 -0.19746433 -0.03351989 -0.7578527 -0.14441112 0.53700346 0.18161958 0.29870334 -0.53147364 0.8487114
1228 0.2452896 -0.92741644 0.3235697 -0.077571794 0.08661097 -0.11628685 -0.75902545 -0.47160366 -0.4914374 0.29408303 0.402407 0.61837935 -0.089883655 -0.18850328 0.66430444 0.20729896 -1.5094534 0.28284568 -0.26308015 -0.21718802 0.6514179 -0.5275032 -0.24159315 0.15467305 -0.38802227 0.123028226 0.15695153 0.5362396 0.33789822 0.0649436 -0.025595268 0.18013088 0.602198 -0.32763007 -0.04896341 0.4957341 -0.048170336 -0.4596549 -0.023766112 0.305701 0.9166113 0.2189929 -0.22531709 -0.3479132 0.248086 -0.5463437 0.169768 -0.14856783 0.41806877 0.19250305 0.006687501 0.5011931 -0.4052287 -0.024142664 0.049851358 -0.06511972 0.12137278 -0.33687153 -1.1115942 -0.11389775 -0.09738391 0.85799754 0.50455993 0.75827754
1367 -0.14759235 -0.26844206 0.014863983 0.5670428 1.0932773 -0.45194963 -0.48727593 -0.15414268 -0.8915882 0.19247836 -0.11926403 0.2155161 -0.21375915 -0.8135627 -0.15050174 -0.055528842 -0.8316633 -0.010740637 -0.1240865 0.31077865 -0.51509714 -0.15845838 0.4778823 0.048503716 -0.108778216 0.5091965 -0.8046424 0.0815883 -0.71253943 0.096711665 -0.1852107 0.0932099 0.3060832 -0.29965752 -0.78760326 1.092589 0.40983477 0.33886126 -0.32844505 0.14424138 0.23000388 0.19143207 -0.31752282 0.39409363 0.46144387 -0.062685624 -0.6615384 -0.45151523 0.47793373 0.16735548 -0.7039136 0.296584 0.060016356 0.015290718 -0.26764414 -0.57022625 0.5753585 -0.6963459 -0.8876385 0.4936989 -0.15787013 0.19084015 0.37847045 0.421624
31 0.43763965 -1.3770458 0.12739667 0.51089346 0.3403446 -0.49016017 -0.44645888 -0.50094986 -0.4544222 -0.7591988 0.4377655 -0.17889616 0.5751644 -0.41177 0.39108998 1.0920417 -0.566751 0.5680382 0.3289652 1.0816072 -0.05506849 1.2665741 0.5545726 -1.2455195 -0.18205976 -0.7669912 -0.73628277 0.09418145 0.4593535 0.097889 0.8119902 -0.3069731 -0.013428188 0.076400295 -0.40588486 -0.26234052 0.100115426 -0.18278894 -0.115097 0.5159745 0.38969696 0.22138634 0.34410766 -0.11485593 1.2183167 0.16774204 -0.5627487 -0.80762327 0.02603397 -0.08957799 -0.21877176 -0.3708877 0.7087455 -0.08337913 -0.40231135 0.26322526 -0.07995769 0.1690161 -1.0922071 -0.28991088 -0.8774397 -0.11061829 -0.094753854 -0.13284357
2401 0.4121559 -0.8304863 0.30896556 0.52011377 0.11353431 -0.65265197 -0.3358367 0.21717516 -0.7849427 -0.5551096 0.8329614 0.13192357 0.89401 -0.45140842 0.030006303 0.9211204 -0.15938395 0.55638325 -0.1882598 1.3482609 0.07097465 1.151529 0.8505854 -0.9948017 -0.65618163 -0.5217728 -0.6357407 0.036121767 0.2877874 -0.6268511 1.2649398 0.50264114 -0.12300318 -0.15151478 -0.17110008 0.01926151 -0.027124995 -0.0025036803 0.22008264 -0.017133677 0.25156012 -0.28501627 0.05577541 0.117246635 1.3932065 0.07406811 -0.1607662 -0.3615421 0.048329234 0.13694927 -0.26683933 0.4072738 0.42901006 -0.09200917 0.10969291 -0.20595215 0.43220916 0.08695652 -0.45387003 -0.36925796 -0.9946617 -0.6376017 -0.3245199 -0.062205378
85 0.24000767 -0.5883976 0.3211534 0.44374883 0.14090434 -0.5249031 -0.4597504 -0.25639674 -0.8425642 -0.47740412 0.5229334 0.15130731 0.4738151 -0.4520643 0.24091196 1.3586961 -0.34894565 0.7230079 0.080831386 1.303063 0.28719983 0.99361527 0.8694009 -0.56646115 -0.30685526 -0.4788245 -0.4565251 0.37703967 0.3101928 -0.25671974 0.90046406 0.065305956 0.054939706 -0.05274453 0.08014187 -0.10827584 0.023033459 0.0060784714 0.3254912 0.42875266 0.17980905 -0.43972504 -0.025347035 -0.20079969 1.3764796 -0.100835264 0.013394923 -0.63545245 0.096685365 0.24682346 -0.36390245 0.51032245 0.56458837 -0.02362242 0.015677288 0.21513261 0.19408982 -0.13467014 -0.08079453 -0.28153402 -0.9065258 -0.15832731 -0.24489585 0.21920258
202 -0.37564546 -0.5929158 -0.4917581 0.16663466 0.71163553 -0.5132705 -0.06870739 -0.82749814 -1.0183938 -0.10172115 -0.056997113 0.16030426 -0.11864543 -0.84986174 -0.11105675 -0.13901898 -0.6162938 0.0928469 -1.0687737 -0.030429704 0.09630184 -0.18110384 0.38510185 -0.22924775 -0.07785048 0.90159714 -0.4997546 0.11905535 -0.81517804 -0.103166364 0.029274246 0.111521274 -0.05627512 -0.69136024 -0.02453784 0.48688257 0.15747471 0.13540886 -0.24282756 -0.37631747 0.97876173 0.0052388366 0.14870755 0.3638714 -0.04302622 -0.08960805 -0.7327954 -0.49894673 0.32902446 0.47013694 -0.2266681 0.14199896 -0.64478517 0.58181244 -0.42945862 -0.56729966 0.12298683 -0.9851428 -1.1192309 0.81789714 -0.3130995 -0.29336417 -0.011074612 0.9897193
2355 0.73247385 -1.2483268 0.31210136 -0.12490312 0.33064085 -0.72892666 -0.6418913 -0.3128754 -0.48226684 0.1919552 0.011485329 0.0402475 0.31732145 0.029382674 0.32042366 0.5337764 -1.35011 0.2918719 -0.07459006 -0.032259688 0.6591891 -0.18833068 0.12835056 -0.33039668 -0.0045978646 -0.04594844 -0.20185709 0.5702678 0.1584355 0.03437309 0.30481637 -0.037269026 0.15031978 -0.26577464 -0.22994658 0.39715528 0.14516957 -0.33582914 -0.27620217 0.7615784 0.49998063 0.4776086 -0.18923776 -0.15562867 0.7583599 -0.58186865 0.16061628 -0.37512633 0.34065995 0.10860297 -0.2298298 0.54079884 -0.18097769 0.012984503 -0.14387365 -0.13707933 -0.054240502 -0.27723122 -1.3683243 -0.6747587 0.2054845 0.8371465 0.4648654 0.53370035
3021 -0.095985964 -0.5525988 -0.31522673 -0.7855111 0.949481 0.4771221 0.5707102 -0.20199044 -1.1334232 -0.54053617 0.5874524 -0.7477851 -0.8379595 -0.87637824 0.28794947 1.1074686 -0.5439377 -0.18292099 -0.7403475 0.42548782 0.04074255 -0.1932042 -0.4493555 -0.41622898 -0.45973498 -0.36445004 0.018259183 -0.38795796 0.26004133 0.71989375 -0.35819194 0.08293653 0.6204819 -0.47560173 -0.34258038 0.89028907 0.7435094 -0.07142209 -0.084687665 -0.08397716 0.24623936 0.3062349 0.010256724 1.3345773 0.3419305 0.18598178 -0.56538516 0.65882635 -0.33919874 -0.33730665 -0.2802225 0.71554464 -0.6234038 -0.17923217 0.42503837 -0.21384671 0.04167486 -0.5557749 -0.096731246 0.48499697 0.07923653 0.32353938 -0.57775277 0.73372674
1303 0.24964912 -0.27036962 0.86634594 0.037897423 0.42182958 0.11849432 -1.0166489 0.65506923 -0.9063541 -0.07392701 -0.39087573 0.4992636 -0.049614724 -0.90246177 -0.019429917 -0.14521886 -0.9550782 0.3783809 -0.50021636 0.5564522 -0.2169968 -0.4228586 0.30150145 0.080742314 -0.21655752 -0.011486629 -0.5031868 0.008265209 -0.87912977 -0.1805759 0.019394893 0.30384922 0.5075786 -0.41902736 -0.7417731 0.5840904 -0.024712902 0.19901527 -0.090479404 -0.26962492 -0.12169857 0.25425798 -0.26035532 -0.14089437 0.6863938 -0.35030335 0.55879945 -0.08188568 -0.18188852 0.4753037 -0.93113023 0.13964514 -0.4430727 -0.15095684 -1.1053427 -0.274331 0.34150988 -0.31408525 -0.8536236 0.11246713 -0.30768493 0.4407509 0.72187537 0.6134749
3331 0.45833766 -1.2840352 0.64559937 -0.24332558 -0.061307386 -1.0762824 -0.6555776 -0.2984481 -0.58575916 0.3065419 -0.066794 0.14776358 0.0029452164 -0.44589108 0.6308076 0.38277438 -1.3397024 0.38304648 -0.58210176 0.03896438 0.7546015 -0.90503937 -0.08044254 -0.10753053 -0.10339867 0.20263344 -0.013096752 0.50906414 0.14281134 -0.08643738 0.5875004 -0.10483454 0.2580062 -0.23758909 -0.44479215 0.7181751 0.09956408 0.08396659 -0.10342842 0.37102562 0.770528 0.43714157 0.0141548915 -0.27575937 0.41602775 -0.50958246 0.21147428 0.11001306 -0.2651278 -0.02519751 -0.2935933 0.5120156 -0.30603087 -0.041798715 -0.031208768 -0.010430973 0.16769926 -0.37234378 -1.2770656 -0.5282886 -0.28244326 0.61686164 0.76273954 0.7735336
2629 0.10412901 -0.79128563 0.18108948 0.276551 -0.003235196 -0.51100796 -0.3149599 -0.04441466 -0.37933415 -0.084312215 0.65315473 -0.08868349 0.6506763 -0.31135082 0.3629654 0.9277753 -0.30476806 0.4368234 -0.1175275 1.5436487 0.13686971 1.103918 1.0191088 -0.5121332 -0.44813323 -0.51057404 -0.49285528 0.18448764 0.73844665 -0.22600894 0.8163879 0.29468238 -0.12871341 -0.3280949 -0.1652161 -0.21524273 -0.2550327 -0.0037465952 0.25633374 0.12594877 0.1969718 -0.40915444 0.027767936 -0.03595301 1.146048 0.26755473 -0.049460273 0.15225197 -0.10370529 0.349098 -0.07701167 -0.0040698433 0.47913924 0.14742729 -0.07253904 -0.050811734 0.7282156 0.0845105 -0.25996512 -0.43410048 -0.8186822 -0.43227917 -0.2743835 0.029996322
3327 -0.62368584 -1.2809621 -0.0285551 -0.09124693 -0.0313209 0.3014524 0.27222884 -0.69492936 -0.8005199 -0.4710395 0.16140115 -1.1923509 -0.94696206 -0.38906366 -0.1257732 0.5186601 -0.18143584 -0.19849877 -0.68274885 0.09053007 1.1100527 -0.10904224 0.39800984 0.22248061 -0.52547276 0.118912816 -0.21078268 -0.59052426 -0.03501666 0.8166943 -0.05049467 0.18686783 0.25739023 -0.666563 -0.30811113 0.79991066 -0.26947844 -0.5903688 -0.11897561 -0.18952984 0.39367527 -0.34262422 -0.22347525 0.5573037 -0.31022623 0.29706755 -0.5460834 -0.12564461 -0.09926711 0.10471801 -0.6134473 0.23517494 -0.77696884 0.46463394 -0.12259066 -0.2293136 -0.2594383 -0.5463429 -0.2656976 -0.05328975 -0.21846995 -0.29934695 0.09224859 0.6630889
3967 0.39203504 -1.3548038 0.105922595 0.6346679 0.36412722 -0.4638907 -0.3830655 -0.44768116 -0.53558123 -0.69616145 0.31440058 -0.2898451 0.5367826 -0.35217208 0.415962 1.0119258 -0.53580314 0.65962297 0.26154312 1.0812079 -0.020521406 1.1482981 0.58272403 -1.2380992 -0.1759026 -0.76745856 -0.8720912 0.21047077 0.56250715 0.015792543 0.88261026 -0.35489383 -0.031434365 0.013803844 -0.5895609 -0.24376047 -0.008449979 -0.18302602 -0.29433686 0.5037567 0.5975656 0.3220475 0.19411422 -0.19098803 1.0659944 0.037018772 -0.396216 -0.98138833 -0.016603084 -0.106149025 -0.26066944 -0.24697718 0.5610408 -0.11457934 -0.39983922 0.34312794 -0.13009638 0.1874465 -1.2116636 -0.3242247 -0.9246131 -0.061947946 -0.118426114 -0.02426732
3322 0.470473 -1.291011 0.04480229 0.52202654 0.36863348 -0.3838466 -0.3301175 -0.44872618 -0.4960945 -0.7669866 0.30604893 -0.12926494 0.6414152 -0.3406392 0.3368774 0.99192125 -0.48219797 0.74977094 0.20100795 0.90776795 -0.1729255 1.051453 0.7074976 -1.2937219 -0.18431905 -0.6960863 -0.9144594 0.15361333 0.4909892 -0.018640023 0.8329784 -0.29952624 -0.046600726 0.111442894 -0.5055142 -0.23203216 0.070504285 -0.14505415 -0.3002118 0.45279434 0.53245103 0.19473621 0.29623535 -0.15079199 0.9214475 0.057302184 -0.40834573 -1.0437244 -0.0185699 -0.12251982 -0.09595939 -0.2965914 0.5386551 -0.087447226 -0.38208032 0.29201055 -0.09636734 0.18713523 -1.3209809 -0.29394495 -0.8384527 -0.07924364 -0.18569237 0.06758241
2112 0.5101584 -1.3317059 0.020640573 0.5084678 0.3754094 -0.2636571 -0.28067428 -0.41080248 -0.5073052 -0.831327 0.33252835 -0.13850066 0.5391715 -0.33431855 0.30772007 0.9328053 -0.40868464 0.77821785 0.2441337 0.98186827 -0.20528176 1.1243739 0.5822492 -1.2610848 -0.16541763 -0.790954 -0.8728743 0.30139104 0.5157922 -0.020227531 0.7962953 -0.35877666 -0.02699573 0.015172778 -0.5263526 -0.3433258 -0.02249948 -0.15329264 -0.26882276 0.4006995 0.5360275 0.18613377 0.31441852 -0.12854744 1.0179589 0.11107051 -0.43402332 -1.0489355 -0.025146026 -0.08429906 -0.18893011 -0.35193047 0.494921 -0.113500364 -0.40387613 0.38068005 -0.13734725 0.21871386 -1.2969693 -0.29941353 -0.8468445 0.018528955 -0.2043535 -0.054971583
2681 0.4269286 -1.3160167 -0.03905065 0.51099277 0.3952037 -0.5359537 -0.33378696 -0.32962155 -0.4783654 -0.61482584 0.34074837 -0.18041655 0.54481375 -0.51792115 0.33713284 0.8791579 -0.49791658 0.6120887 0.28508446 0.96798444 -0.13354018 1.0618731 0.5805868 -1.2123444 -0.27071762 -0.74026763 -0.92211664 0.2860697 0.4270582 0.10357502 0.7995923 -0.39697245 -0.18685408 0.011036917 -0.6157261 -0.18674488 0.04909277 -0.054628648 -0.28897896 0.4719676 0.44167653 0.311398 0.16938615 -0.16659537 0.98724395 0.018523984 -0.39054963 -1.0566558 0.05972365 -0.089722164 -0.30616304 -0.26774827 0.58082485 -0.10553614 -0.44047856 0.42223606 -0.0025466091 0.21880314 -1.3542042 -0.34139606 -0.9373817 -0.019459412 -0.19253974 -0.038955428
3711 0.39019167 -1.3465022 0.10622569 0.6683377 0.36959496 -0.42589417 -0.35597774 -0.44585893 -0.5248983 -0.73293287 0.34898993 -0.33245814 0.5454212 -0.3442115 0.39402527 1.0266533 -0.46466812 0.7167522 0.25937855 1.0598778 -0.04260343 1.2148839 0.57812935 -1.3031352 -0.18778004 -0.831159 -0.972071 0.19688855 0.5119976 -0.010051968 0.87829113 -0.36589497 -0.02080115 0.055086926 -0.5883839 -0.22484241 -0.05273661 -0.21350344 -0.2964094 0.44329005 0.6158488 0.35191673 0.22237061 -0.2023279 1.0243132 0.085772686 -0.4274515 -0.97310555 0.0014912189 -0.13016497 -0.257763 -0.23005055 0.61022717 -0.08519028 -0.4516628 0.31661746 -0.09186937 0.21096045 -1.210496 -0.31347263 -0.9308303 -0.0793616 -0.11478603 -0.022370946
2059 0.47131938 -1.2863076 0.010410237 0.5548138 0.38663134 -0.5432993 -0.3389552 -0.33525598 -0.46497428 -0.61211824 0.34973246 -0.16024484 0.56190395 -0.513734 0.33468914 0.8670062 -0.44336033 0.5695598 0.31263217 1.0445229 -0.14657837 1.0764476 0.5941864 -1.2195623 -0.28089616 -0.71334475 -0.97660154 0.29692537 0.48139182 0.09060328 0.84974736 -0.37291992 -0.15640531 0.030235006 -0.66429025 -0.13318251 0.032443482 -0.03035761 -0.28514183 0.45979857 0.47143018 0.3271425 0.17434318 -0.14946441 1.0108414 0.0644855 -0.37495577 -1.0872445 0.043850496 -0.08258752 -0.28867126 -0.21340705 0.58261865 -0.13223277 -0.37005928 0.4085004 -0.022737404 0.2621274 -1.3951488 -0.36957112 -0.9623425 0.008666879 -0.16769475 -0.002427818
986 -0.4176708 -0.58842885 -0.3412356 0.32851663 0.86116165 -0.2958485 0.0028836322 -0.87786937 -0.9414787 0.12751983 0.2944813 0.3245105 -0.39809254 -0.52023554 -0.09381396 -0.0784383 -0.9505976 -0.22128181 -0.6887655 0.35785067 0.14355056 -0.13655402 0.3610021 0.03487328 -0.6235015 0.9446586 -0.26132852 0.3224139 -0.09260527 0.13463084 -0.25277314 -0.11184745 0.11516951 -0.4405307 -0.12891686 0.55915815 0.48086858 -0.3277992 0.0073618162 0.035343327 0.9778142 0.29339698 0.14155783 -0.2504347 -0.0065131895 0.15740032 -0.90696794 -0.055663303 0.57992375 0.17930108 0.017953118 0.04105926 -0.40874532 0.7184055 0.07824446 -0.44908267 0.4769924 -0.58429384 -0.5877037 0.9262396 0.076094195 0.2590216 0.09588253 0.6587331
