46 64
a-p 0.13412333079924507 0.26359750492468786 0.7053800182105895 -2.438793847517326 -3.3489868626953276 0.2612481821637933 0.11336724955346027 -1.9804486225013882 -0.7456092194278167 -2.497645475822786 0.4030589338277182 0.4047384274798732 0.17023244358517034 0.09904215419397439 0.15450553194520775 0.5088345454266707 -0.34812365404049955 0.12414747803210628 0.25536157111081476 -1.1938461524088169 0.02959570213162042 0.9372320066457112 0.7302744069761348 0.08146989853200735 0.03816068889481986 -0.21516236334646313 0.329800144187059 0.28223520673629626 0.26541345219983925 -1.7385161158406008 0.598741253465406 -1.0063110954639631 0.4914010947458663 0.291383364180916 0.20864269814416492 -1.092611055446649 -1.2385546788258066 -2.8943814537048667 -0.7627571644488953 0.2043619230328393 0.24408783931406108 0.32610584346918947 -1.3611270364590464 0.1401852058568336 0.05893887072153176 0.23718680496759376 0.2514705484603668 -1.614138157646735 -3.878123300824352 -3.688937029514586 -2.6193439558287865 -1.950755545426768 0.18613331522326684 0.3235331055519061 0.01286768772432091 -1.1384307720246676 -2.4938182539847427 0.7680525523470363 -2.614049140191808 0.06195380078253994 0.5137917328658256 0.18798106852971336 -2.835265152562818 -2.2033757497183255
p-a 0.1196120232883839 0.28278351965744825 0.8134823686891116 -2.8954749361027883 1.3628970231430826 0.34220300797564246 0.13119234145384376 -2.2879822800033085 0.375472586032627 0.8980377124152983 0.4476572747828518 0.4222550493300038 0.15451757234127553 0.09038958143001154 0.1756710278370754 0.581001727473922 0.17983211589075446 0.1276447748981487 0.2530092573349404 -1.3788699214183502 0.029127752242223935 1.074615385751981 0.8627602760423987 0.09155630424011191 0.05207712976938543 0.14561838523401344 0.38071197612919866 0.28083653336228886 0.24992237010832058 0.6398071908551656 0.5644685566702701 0.270882587744325 0.5829798021254563 0.3422548346227331 0.24772283733163716 0.3212552854896799 0.40744214207206564 -3.348107023615753 0.36179269065777453 0.22809505334847252 0.2643272125320535 0.35983669652449596 0.44023682143008414 0.16056744745566262 0.05802431165137966 0.27432003587282133 0.2876197984495738 0.5376700721649104 -4.41779203515154 -4.175405446101652 0.9780586522628241 0.6923940571553759 0.19670121867858986 0.33300508056642814 0.1630736989814732 0.40987873514730877 0.8485733717105571 0.8241592726331105 0.3190190501776437 0.05756708012123669 0.6153175443857299 0.18367247103138024 1.1985912749572565 0.6866331683314668
p-a,a-p 0.0482433823754615 0.10293640590141145 0.15152071014297747 -2.978882762821296 2.3962290168555627 0.1795313887157489 0.04890200388420906 -2.3861778227292927 0.684691143811154 1.860287853614847 0.08723257380101823 0.11829757394379431 0.06601069869825145 0.041709317820540166 0.05965833762354153 0.12841173138129508 0.31280641611498516 0.038727086721479974 0.07188660804020586 -1.4762169977099768 0.012793918466420905 0.31656181346672924 0.19324478405144396 0.028923260930167238 0.018970135936873245 0.22622633977575687 0.10505130542181576 0.09765401290415332 0.06490262069078521 1.2213602406503659 0.1445540917993266 0.5445289758607881 0.1563897789557107 0.07770071156983704 0.048358409880750824 0.7291349608695191 0.8312875646734541 -3.428888868505168 0.646561024000843 0.04083800810340597 0.15322403815104266 0.0913864466217795 0.8787714472072592 0.06211724029789315 0.017682186302420248 0.07278471051309081 0.09875671835884717 1.0544387035800191 -4.480947082207848 -4.246721399574665 1.8451166004389208 1.3331423868397272 0.07347026997831872 0.09826261781443867 0.16567169590267922 0.8299923219243014 1.7266354077867518 0.2340328052165153 0.9093152587922992 0.0323971434998321 0.1580665377732069 0.06702834745472394 2.0997180733699996 1.4585421250038297
a-p,p-a 0.08740491102277925 0.12237945508756688 0.39956027541690964 -2.2907340194572043 -2.3251753331715235 0.1282691892593159 0.062463905959032215 -1.8032462763521573 -0.36578465861690496 -1.4705535872323408 0.21930275280893133 0.2482687915651386 0.1010263815447488 0.05267556407664524 0.0639310217575457 0.2509631400003561 -0.14935390757585607 0.06891138926775067 0.18263227726067258 -1.0461590119856738 0.010847922915364051 0.4334558832453094 0.42609432673071923 0.03880913023259166 0.018811123882854622 -0.08381098811350453 0.147968507971938 0.1585005444552865 0.1913410690970448 -0.9098451385781573 0.40007804786731627 -0.4748844132648388 0.2314375799837744 0.1763260369019479 0.10073709261153065 -0.5014601190493864 -0.5988753932120742 -2.7542083316152266 -0.3611428461508857 0.12210337134378255 0.11616813539088697 0.17128143746808105 -0.6707233352361796 0.06124160602261412 0.026298668826800747 0.10497203821759855 0.10817575733364518 -0.8239811915262574 -3.7743019032145293 -3.569668002507713 -1.5917843558499185 -1.0560350397885054 0.09102726051422153 0.18211032216663733 0.009623080974104931 -0.5389194497304086 -1.4572306313410928 0.4428452259884198 -1.7558305887085717 0.03954608090633405 0.24962111540197685 0.09561237936626193 -1.8096495609943481 -1.2033628322494032
a-p,p-a,a-p 0.09203074860514424 0.19524331086987942 0.5144760601216756 -2.116529293315179 -3.0380159003030323 0.1781501500952682 0.08268874443289564 -1.6708039809108004 -0.5914870419209274 -2.1802133248097313 0.29104958816169707 0.2937752114825589 0.1259445361267056 0.0698177036560238 0.12070469331514767 0.3832254874611596 -0.27548765339980064 0.08116696236674086 0.19488598929534992 -0.9536515947092069 0.026086870454587578 0.7222367378080349 0.5508960073210181 0.058548991454457834 0.02385299544000485 -0.1669909665528001 0.2479195063087772 0.2034237168717513 0.20323625581313606 -1.4465779396334881 0.43440944426860845 -0.7929238751478446 0.3600763217165451 0.21870705990536385 0.15494162577258747 -0.8670698246770204 -1.0069823747286735 -2.5712270197703955 -0.6086267430056849 0.15340624082991045 0.18389704173917365 0.242644342570496 -1.10217314821058 0.10086088522357692 0.03833507456923072 0.16657388085472138 0.1882666488546286 -1.3328820145121658 -3.5726553249096873 -3.379630085394676 -2.29888210274946 -1.6501084232788406 0.1411476414249563 0.23561421332172838 -0.002904969103168202 -0.9101223290322061 -2.174182107019457 0.5635968736145779 -2.2841298250911395 0.047094711520477534 0.3946887068536877 0.13780401183135754 -2.5169747988611384 -1.888591101594822
p-a,a-p,p-a 0.08930698677011385 0.21407634669298928 0.6050469602849449 -2.5813585268034225 1.1160067757294618 0.25138715725549543 0.09736688600346659 -1.970303127658302 0.2924938723901471 0.7092971315557868 0.3315580342292998 0.3061634581197603 0.10398287999404525 0.07516840625877526 0.12985307009984318 0.4330667303813281 0.14608332336053134 0.09498862364936989 0.18270968463534337 -1.1199297480924697 0.025948439434566938 0.8241345009015915 0.650431296023171 0.06013295539646381 0.03045317725983084 0.10494075068084263 0.28534164094367864 0.19428752187657405 0.18724895969632116 0.5130357950513051 0.4195755445380373 0.20213464796978842 0.43750338124705207 0.25362070834101924 0.1702810370155272 0.24633967448996336 0.32061843167852583 -3.0388243396340364 0.2722755424915347 0.16371317626612703 0.20395634499460452 0.2607455733585477 0.3483553880838282 0.11738383948579936 0.03217684644482637 0.1942389210648726 0.22318450088316238 0.4188706783287736 -4.131152559539885 -3.8838191696039566 0.7895774065553224 0.5513557108250693 0.14380105829829945 0.24127067562401086 0.11924036615545827 0.31585999864783376 0.6774644452642319 0.6201245641522749 0.24566159644603888 0.05181475114682847 0.46613369460931775 0.13576250012745888 0.9817652631928749 0.5495266468326027
p-a,a-p,p-a,a-p 0.04884899030606195 0.10097049757953609 0.17910078144262 -2.621725427587399 2.1495444689823824 0.1690385429389064 0.052574815853193284 -2.025076921358003 0.5751863687096382 1.6404874216275571 0.11336194181384404 0.11545304685865272 0.04968538540348082 0.03120092441013709 0.061854310254241596 0.15385090478508906 0.264694453691435 0.03586210650463671 0.06168644050455373 -1.178163027519191 0.01960682041706783 0.36376897260445185 0.22893818852808218 0.037668049362016336 0.01384980800210965 0.19339108336194535 0.1338047555161449 0.0872603564186981 0.07189373621850813 1.0504438964286178 0.14303302765129247 0.44219979793601294 0.18328560536144498 0.08837821786025579 0.06378309907041646 0.6097234240440711 0.7042387959753087 -3.0822348740517267 0.5417760851573509 0.048921277704831914 0.1479822969276068 0.0943464324056998 0.7287275451929195 0.06523360001307081 0.02752322018199143 0.09729070085798758 0.10321521048741548 0.8920207589762936 -4.152815495775992 -3.91522715199514 1.61030165677846 1.132994326180843 0.08706692611390539 0.08890959181300055 0.13078481614652004 0.6994135125848122 1.5000341606582757 0.23379974759532293 0.7267934043427946 0.020413949269368185 0.19624016778188624 0.0716007436421954 1.8638641020142082 1.2444333797587073
a-p,p-a,a-p,p-a 0.06611886449697721 0.09924501341436348 0.3431912528859714 -1.9616641215428445 -1.9396779468139727 0.09406138866511579 0.05027418813523297 -1.498122212856681 -0.27108970116047143 -1.1497873594441217 0.1943971982417353 0.20877340581940285 0.08625677814322742 0.05308137564320458 0.05768268792586099 0.20827398945212605 -0.12051817271802544 0.045895033485520514 0.13750453363536733 -0.8257564688418495 0.01897154653172214 0.38363933190415306 0.3678756777653581 0.04324721110999536 0.023553911324329897 -0.06823009562107135 0.13044544642503972 0.11942778756242309 0.15755101221995793 -0.6906539351372349 0.32921701006799814 -0.3578625073383302 0.20913372286996448 0.14450913830980244 0.09648443616487085 -0.3633122932799047 -0.4432034832152186 -2.422216098922099 -0.261345256731833 0.09427519789179754 0.0885442342802267 0.15271117820676536 -0.4918796947409033 0.05850519444280055 0.03097733563996622 0.095018240024288 0.09237807753935216 -0.6212615597204852 -3.458970901226248 -3.249370513150196 -1.249855948152055 -0.7998131813695007 0.06812238512591612 0.14976738159039654 0.011545427219030523 -0.3992764161970752 -1.1273507979288215 0.37603867956962495 -1.4008577640667539 0.02017590154450451 0.21314209986314414 0.08283270916469077 -1.4574984124162882 -0.9158899990968307
a-p,p-a,a-p,p-a,a-p 0.07089368795469494 0.1422452308122781 0.38206628708035745 -1.8050691748229006 -2.7293853756681674 0.13603184825405798 0.06523070389438577 -1.3909801289752917 -0.4710966524171125 -1.876813368294835 0.2179017875081848 0.22411142553674765 0.09336211630776739 0.06004186277746413 0.08528466048264526 0.2752588574108797 -0.21570773597013157 0.05806482628797074 0.14558254171898544 -0.7530326850561327 0.020322426724987266 0.547632467015554 0.4116034607358131 0.05077666571886901 0.031762451889773155 -0.1253402716823899 0.19375395252762542 0.14107649357132013 0.1485265058489009 -1.1817728860773535 0.32557224632486403 -0.6224776914047844 0.26954447633878187 0.16100242086067704 0.10826680603363587 -0.6868594664768066 -0.8006278594612302 -2.253802031889455 -0.4818685696891659 0.10215776840657416 0.14926376021814727 0.1722787108112676 -0.8830741752058899 0.08200236173553324 0.033213773779480926 0.13240926656871907 0.1373754356150094 -1.0765996924729544 -3.2699614439203257 -3.0732889856786683 -1.9887246851124443 -1.3637826443883598 0.11444173380177858 0.1648719134771489 0.0071036668312209885 -0.7207171660087163 -1.8642035876198981 0.4192977147513481 -1.9693108663300072 0.0368085853511481 0.29986321880684774 0.10121313471042567 -2.2041488090018913 -1.5896617782609839
p-a,a-p,p-a,a-p,p-a 0.07059436174315216 0.16581260599616537 0.4478314368263691 -2.270981739124645 0.9069804901775254 0.19145470885626353 0.07078882099527052 -1.6634329150797036 0.2185939093651113 0.5695323059426691 0.25353494504743207 0.23669044984407236 0.08331428718447143 0.054907301637182895 0.09416503605790688 0.3250972584544521 0.11464245189373691 0.07624762144979806 0.13547355311295067 -0.897604685168356 0.011689105330547539 0.6409062483750547 0.5054149428509697 0.054702944120822564 0.028550461312391404 0.08818762573563377 0.22195320723433115 0.1410544816398997 0.1438854612394033 0.4100279297045763 0.3097714821495579 0.1659093673862111 0.3253917115783935 0.19306415095793705 0.12664816956948455 0.20484415819446128 0.2464028368200228 -2.734497200850472 0.22234071097305486 0.12466676135772191 0.15433477461073078 0.20443855042583645 0.2672147459817236 0.08965945466635093 0.03770730901565534 0.15987818436541346 0.16401982370491192 0.33568229896500235 -3.846139934261 -3.593421581900403 0.6280195936119914 0.44057452260080954 0.10878395507070093 0.16985916653509514 0.09172460803247888 0.2555181695264648 0.5397024918413791 0.4728377965018927 0.18547177765931758 0.032845644292192555 0.3566065059746892 0.1004906238528567 0.7844629203796152 0.42877728030805373
p-s 0.04756597203752464 0.14092840326074546 0.4508853826928645 -2.148623262056662 1.2548948728655034 0.10312523660448854 0.06895132881003563 -1.5703040827937635 0.4071575661669826 1.1619065245201803 0.22919855220173474 0.14193635275651578 0.05558415254938709 0.04481130773089951 0.0850807385677603 0.2989412605607557 0.12030618802461977 0.044433949047162365 0.11068935784825312 -0.8044111973021116 0.021156091935316965 0.5276304097203733 0.32925159021902656 0.05314195048846083 0.029319695679374667 0.08085997175617708 0.1876173163797457 0.11363489380945818 0.058622999756936224 0.43618334483027277 0.21554600504641802 0.1920645578482181 0.24429934930458783 0.14265660206186556 0.12007200570789235 0.37500168955990903 0.39000038746661564 -2.622691608412877 0.31840885632599036 0.11647717738147441 0.13402918129415523 0.14234913716566402 0.31327329087658706 0.07532281213748271 0.03075643903313306 0.13073124587884388 0.14031987441457489 0.3786446645980396 -3.7449069574757043 -3.4973393079271142 0.8235164847786863 0.5058200233717396 0.10680767213524381 0.13631839458332562 0.08558143566691569 0.392721495846536 0.7960111165857501 0.34292804508953 0.5263523004090879 0.041018195369412064 0.2662235427584192 0.07551705207381805 0.9198212519217474 0.6122062493901707
s-p 0.06971993590358411 0.2917904946898479 0.5021564745890832 1.8995997239557587 0.8512079964780854 0.024298678726828383 0.026522714873801527 1.4585753586996542 0.1580706348649003 0.20282430130623247 0.2172693372985475 -0.0547244021433169 0.07435178469053569 0.1763351668126414 0.11747423957165644 0.17601379301517558 0.12388747547142119 0.12975840709993838 0.04488651671375128 0.8986028023551041 0.019252819226042186 -0.13292785864648335 -0.3760163144890008 0.1393528993467572 0.0326537502349777 0.11670261386182636 -2.482419599464703e-05 0.3022855712765818 0.003961925090274403 0.4355948818268197 0.15077161686886184 0.29122942628885357 -0.02917165222999304 -0.06487113059487372 0.2521605636987338 0.07393710288947494 0.05996963312068132 2.3376886306797666 -0.0013401282498038548 0.10109745371945897 0.21004455931776855 -0.0666240729005222 0.3626469548505481 0.17595807930309995 0.03156934718431335 -0.016700281599165607 0.0020448439579381045 0.4591150701492596 3.3666520213716433 3.1430766975570195 0.3818399898120417 0.3655561622153217 0.09801131498315807 0.5749068170531895 0.05210723681682886 0.1155575160170929 0.33103000113276526 7.332058663123045e-07 1.3097297694792132 0.032000828231590346 -0.23565437280829593 0.06273435263328467 0.6884330918374265 0.1705591934668348
p-s,s-p 0.026210154266848286 0.085964744815931 0.20200094411525535 -1.3599690350852454 1.0264791688783197 0.0639996504122355 0.044821228421377 -0.9259063692568764 0.24100683904901793 0.7672033062260207 0.09798149796628217 0.05506881890218985 0.03236100280910456 0.02806847638091883 0.05678725037303494 0.153982465684509 0.09416967961599239 0.025165821965553378 0.041049893805355356 -0.4405479772592377 0.004624747144104339 0.28248280025183775 0.1483958517999553 0.028224502211453322 0.021021146071801028 0.07119674714984328 0.10163008229439495 0.04375747721950412 0.02592312869092545 0.39723235070503204 0.07943494988448542 0.1812165539757415 0.13023437697995824 0.06566943243041919 0.06627442414466268 0.2285679978877239 0.2674082343845335 -1.7836015822557796 0.20502493180247514 0.051603749014269645 0.07745973034586646 0.061621043674019674 0.2661445514104204 0.05299409519468016 0.01877795348454143 0.07382665207805916 0.07790790481216929 0.3104922096356923 -2.888780933531158 -2.6435356207647924 0.6615325540801044 0.42278449629793047 0.049671492962283514 0.07192101254355464 0.04729838065121825 0.2771263607597067 0.6301539282718877 0.1473435932147636 0.3588830059062522 0.014823626602326431 0.127733342089185 0.0447799927807447 0.8022295110111733 0.48521222320655805
a-p,p-s 0.029737462591040535 0.3354094339469157 0.9027183323039452 -2.2922329468155476 -2.818765508882253 -0.057763657124344864 0.12913196618614978 -1.8275972471240514 -0.5824884416777727 -2.082157445829322 0.45922484338028025 0.16666204796459297 0.04630878175394701 0.08233466605739459 0.14938625230698002 0.6682607124126543 -0.25604328756408845 0.10056943212597638 0.09621413947063875 -1.1106218085717423 0.021202506751983735 1.0411677596056104 0.6664304693900338 0.06846753358537215 0.040493395908750604 -0.16505599036089674 0.3944580704486519 0.11092485401106128 0.07142336102112745 -1.1107841448448015 0.19438599912610152 -0.7344628363280127 0.4814887185506332 0.28230777343070285 0.31007757903902017 -0.7934867760654652 -0.9245495261737446 -2.7485361196897173 -0.6044478055500218 0.21203989291845576 0.09092678613216458 0.19335134829988213 -0.8337642325841956 0.1433214916210699 0.03559468420466096 0.2654014276055314 0.2795422693144089 -1.0467511357336514 -3.7363889829596477 -3.546187407273448 -2.0038575596949557 -1.332839430994155 0.16905803940321618 0.24046956958203924 -0.12774707999546636 -0.8444013164355311 -1.956797748803657 0.3693241293124029 -2.4175700073898927 0.05781352637598253 0.5535472045755124 0.13189611128057277 -2.1140647923158764 -1.6363076615357406
a-p,p-s,s-p 0.01924901709936922 0.0533351434245519 0.14644430959598334 -0.8148194896893058 -1.5192628363368643 0.04318886208346537 0.026689518127995332 -0.5631010597835832 -0.15922968786161848 -0.8369918233056016 0.07809392610401135 0.05739293416182491 0.025853304049119067 0.014095297240108553 0.03390484864073053 0.10030992839223167 -0.059731126094661934 0.01677149064061219 0.03993499308971902 -0.2782900603892704 0.01564282193451475 0.18297862868020964 0.12071358871695102 0.015238051879642625 0.013227711278422363 -0.038644682038336105 0.06335781196378978 0.04091420196867559 0.036472414739785894 -0.4564645165520559 0.09246824168762592 -0.22048764477343755 0.09460771575386227 0.059652597291853 0.035237751236913015 -0.23930867076133172 -0.28793889767391295 -1.1444540778577117 -0.16468393640340345 0.04101346150551832 0.04174069964190595 0.05766125804879135 -0.3213800797713431 0.03026995220654679 0.015168735189642894 0.05081503098914355 0.056254501637220726 -0.4100445157061524 -2.0889653843816833 -1.8894158123788063 -0.9217863733963992 -0.5468239452731638 0.03670370940654993 0.05237223147799047 0.008929390304632051 -0.2596688106880802 -0.8388138829091263 0.132533799294602 -0.9432722186453009 0.015427416764661927 0.08769535353814296 0.02985638653158984 -1.0673449384907414 -0.6653947389550051
s-p,p-a 0.02320486931010927 0.10193251525101697 0.03182600794228204 1.4480133039102525 -2.180456127767807 -0.09055642721089949 0.02184224405124198 0.9446274964919544 -0.4913733985945599 -1.756199673052559 0.04185993237086036 -0.0007240897158699272 0.04589357756003069 0.09623512076025463 0.09772093316294347 -8.280733254403702e-05 -0.202927473365358 0.10292950256070457 0.03195342690499647 0.40191437183186024 0.009637111769769913 -0.14319656644247142 0.006509569153414567 0.07800014881220725 0.016288908841152194 -0.14216197875626443 -0.0030955955819499184 0.08213250378874054 0.04466482753210499 -0.9599434361225504 0.12626212799296843 -0.45255068548103705 0.11510689104932365 0.003994024064680058 0.06926036494375416 -0.558509663347892 -0.65595405225353 1.881613697394501 -0.4709147998743318 0.027778133994289994 -0.06993221540269633 -0.04024825669665894 -0.5922911619895366 0.13293049161537332 0.020219991392607068 -0.02232119074320031 -0.011707894089874224 -0.6871097403419999 3.1047839421627157 2.800031065177709 -1.4755174743031116 -0.8991022575136826 0.06519170728153012 0.35996884268419577 -0.12305950368219179 -0.6605019247677861 -1.5224962681291445 -3.039428304926855e-05 -1.59416060847911 0.02625158766285071 0.0004360244798208259 0.037638148513922484 -1.7274387254204278 -1.2301496107631111
p-s,s-p,p-a 0.024726820278863734 0.04790508541224607 0.16897006388901292 -1.1141988293468001 0.29353177731453206 0.053937084186543305 0.030604801110327585 -0.7180252574992508 0.0803101564163734 0.1771027270808527 0.08341193816441295 0.05621681345736631 0.02377325796609759 0.014798280534821032 0.033066756521234114 0.11581779366133267 0.03518485240237743 0.028907728050540087 0.030226659035013623 -0.3295002022470673 0.005739483923273463 0.22604200994911536 0.16554123052942316 0.022062294166217335 0.01597479899265835 0.03398256650746033 0.0817509613781428 0.0376203409432986 0.03786340881055428 0.11984190885948638 0.07207414493766796 0.048261075212734275 0.12116707600998325 0.059947351667346306 0.0548763752664468 0.06763430360462579 0.07550166504741179 -1.4943880835993504 0.07276615493179767 0.041572023192033646 0.03529984751097522 0.05578311862306788 0.08133905574294328 0.03364647470658709 0.006181739954046157 0.05125650400310004 0.05858251792076535 0.10156288693180494 -2.6117388265849755 -2.3514263910344373 0.19280305654125554 0.13970648570863742 0.03451674425941336 0.04495101504446885 0.03563855662896051 0.08896942804079061 0.16701799650071128 0.13447557626317166 0.07504462649759536 0.023070061571258654 0.12487146827246576 0.027878189378966644 0.23889853760513413 0.12837648654397338
p-a,a-p,p-s 0.03604647570930225 0.07596559469766923 0.19661828421105476 -1.9120444486625738 1.1043031359890862 0.0872990794581695 0.03742992185150614 -1.349085869631658 0.32108476463526375 0.9828158372558004 0.11084362688585926 0.08653085854472391 0.03847418263601736 0.022217678733126654 0.05624120479180799 0.15462469931487482 0.09121576941328007 0.034493913195837306 0.05944591698624576 -0.6829418718039445 0.007537027043717008 0.2963718634527053 0.19017455881090448 0.02679085238087474 0.018089145418586552 0.06445750735972729 0.10668900320691502 0.06068385564817436 0.04641636427541274 0.37810285027587476 0.11982531344375516 0.16128735964935395 0.16108433786659912 0.08321177391925187 0.06008180238623137 0.3130845812733237 0.3203623651923341 -2.3925858994655824 0.2527378300815793 0.06287267920023759 0.09235706656690422 0.07514033312074322 0.258969279490297 0.049704562085748014 0.010872840290529661 0.07976358714741782 0.08343733274362299 0.3152696896641552 -3.5220896627396634 -3.27429129399031 0.727223472181695 0.4365599969200388 0.0732213199147474 0.07538459699230558 0.06747872516622305 0.32087516920437165 0.695678607228917 0.2073822347819476 0.3720248221755884 0.01901464515608033 0.1601483645680915 0.06145168642493914 0.816165630616851 0.538292461737343
s-p,p-a,a-p 0.045608441016641285 0.022375225332767944 -0.05352037627315761 0.8033310936751694 1.2851355761977517 0.056063412902274616 0.012265591932036553 0.6507496681668844 0.2629667484510041 0.8157148975858988 0.07107116801320007 0.030824368234760743 0.04541141627942659 0.02648413040357095 0.04080118184321147 0.022751507551050272 0.12824906438450942 0.010651855550178368 0.04366953207051035 0.30357260295225325 0.01700263696214752 -0.03775444833900283 -0.08603560426759925 0.03885240576189971 0.009663760570401954 0.09250633839737815 0.011311012045428996 0.1221978353635372 0.006236982805357817 0.477392136708988 0.08444324788977295 0.2475053542630344 -0.016510200762211227 -0.023688723911161242 0.04999001232722107 0.2631193648237321 0.29485813525266374 0.9823973807499309 0.19785811055553182 0.04628884024326019 0.11818195238698136 0.0338596991111328 0.3389923815118547 0.04925286453521487 0.014317748330812624 -0.001104968731992702 0.007841388428571669 0.43973998978171136 1.7434747544183473 1.552295150025067 0.7493415861874084 0.5091334610359056 0.06226915917870529 0.04337891608578466 0.06748227483018322 0.2622313776942994 0.659806534142723 0.051485602542336875 1.0309332186469822 0.027666090316269265 -0.02017621570760997 0.03540644343135698 0.9330366607739276 0.520613326494686
p-s,s-p,p-a,a-p 0.012811653785979125 0.04989155347653237 0.1304587140481993 -1.0361244487221166 0.777077204940242 0.05249633714099042 0.033477436231230694 -0.6828696828702374 0.1782780187034945 0.578423704361412 0.06701675448220977 0.03823987119308188 0.02084665850415422 0.014547857724307008 0.04107592397511157 0.10744494841490239 0.07940550054756572 0.015976966913429758 0.025763333903186143 -0.3218958827724344 0.014528001894148244 0.1945772932775962 0.10339192573235852 0.021045093360767122 0.01297204579668713 0.051820350763529935 0.08028594497346397 0.037151268718866266 0.02774422189021911 0.29966306784731433 0.054603261424709316 0.12814426039694432 0.09524020628599561 0.046721147740679675 0.0457979951212925 0.17020218817782112 0.20469587973835235 -1.4062081175220773 0.15994883870571036 0.03156152270117003 0.0664931890240366 0.041311825588566914 0.1883188393025196 0.025330417775029045 0.013009741258670616 0.05267137253384163 0.057201476413735824 0.2415430500707352 -2.486937384160628 -2.238271460502726 0.4907781888078741 0.3100720697531901 0.04077387140874277 0.041067141513746304 0.044453292678177145 0.19531962953918464 0.46224794832510024 0.10434728784037964 0.2648401392424814 0.023769745357535902 0.1002776232574667 0.03492789706033933 0.605181712668889 0.35632555968227586
p-a,a-p,p-s,s-p 0.015644210698205124 0.057432793309120975 0.13121548643253797 -1.059493773682858 0.8236263681033171 0.044871491577620506 0.023737388737408705 -0.6840613029484118 0.18582346401085367 0.5912699305641442 0.07025701094367019 0.03518383872261162 0.01749847700070868 0.021361700795994306 0.04120813449908335 0.10611642586519425 0.0800104979377701 0.028719440244079394 0.031205022535136205 -0.32374201907478245 0.002286295435795334 0.2038295499744361 0.11134063373935578 0.012997652520301025 0.005007331258438753 0.05764410914050375 0.08016222042516587 0.035015856329860755 0.02687157106347636 0.31900981179393395 0.055824507757337334 0.13167795898700219 0.09197784915601277 0.050481257643971426 0.04174460875917525 0.1829123734618118 0.2046188677631091 -1.4342947131633554 0.1672964319928659 0.02687046496608839 0.06834329066051817 0.03984770471393097 0.2156836720025714 0.03413928535044677 0.015357341743907718 0.06093566596582997 0.054792732673825686 0.25619817978372667 -2.5283106178805523 -2.2761399732235263 0.5246300089951396 0.3295036004261006 0.03826902531681847 0.038733756640597666 0.0455248315347713 0.2058397238473443 0.4923588028598076 0.09774040294711316 0.2664389377135734 0.020530698373529832 0.09409436876379472 0.03910799231924926 0.6593748270995795 0.3815713385033526
a-p,p-a,a-p,p-s 0.009556531801594822 0.22184372083929157 0.569933664443667 -2.048330028013884 -2.57790870920251 -0.0665861296271834 0.09867887297433546 -1.5959979938063853 -0.5112140127509848 -1.8821821696305958 0.2612067807646469 0.08328172757632321 0.0361010357986759 0.05367922881069725 0.10199358455458345 0.41559900355068496 -0.20900423423538533 0.05522924080527543 0.05329999525829449 -0.9425572378404504 0.017756281846601683 0.695830167295221 0.42381003461897093 0.05302679942237517 0.0337647349022754 -0.14522288687666884 0.26550656017289836 0.03857856316688496 0.04805894072707508 -0.9373635780406517 0.10770231667356264 -0.6287477335707476 0.3152359763789722 0.17422488260774147 0.17907835192105973 -0.6688655426669083 -0.8154380845635737 -2.5126151219931945 -0.5292805357797936 0.1165607756164889 0.07259734450718604 0.09581287506203644 -0.6826757227852466 0.09591484146486125 0.028496210875294328 0.170995781837379 0.19000538152747404 -0.8786421849901613 -3.5116522509525985 -3.318467564156056 -1.7666243160220942 -1.1411632860981866 0.10936688591743099 0.13928101149569533 -0.11115663237727852 -0.7490860444132976 -1.7423236612869974 0.20081883419381236 -2.1928913479248107 0.03990552095901253 0.3570913069221101 0.0891611906979516 -1.8691552291447338 -1.4246259168343225
a-p,p-a,a-p,p-s,s-p 0.02297030924264275 0.0403004261852121 0.09514163022594138 -0.6283452169309907 -1.2079895446251787 0.01888101076510951 0.016052105965488502 -0.42276658386441723 -0.10792447881618468 -0.634251213591489 0.05804315376895012 0.04294270697587456 0.02603604260194199 0.021113057807399936 0.030200110222724494 0.0650654146401566 -0.05040365767340161 0.012256091836145025 0.02994128666096141 -0.21492055864907408 0.0046390397019243365 0.13583516132232895 0.08315488530343391 0.022806845112070935 0.012702916025938772 -0.01993847366339205 0.0459187230318568 0.03555770713685276 0.02212950860830454 -0.3332621683089049 0.054460054680188004 -0.17272714075141463 0.06279445795225977 0.046148538479028285 0.03706399704418397 -0.18379161064370272 -0.2151075128216816 -0.8913422489630357 -0.12233204651651912 0.023401446577605955 0.03811180405363242 0.03786023203645322 -0.23978747864935232 0.016619435929500007 0.006469987113816378 0.03425960866362129 0.03287618157865831 -0.30245985865974406 -1.7402161244931613 -1.5448834015024795 -0.7025453225887984 -0.4020941537106523 0.03017705108843485 0.03988755267432215 0.008082004875777055 -0.1831790168534823 -0.6318220784548733 0.08448757969187089 -0.7240578471129693 0.006061087774163046 0.06586507929857977 0.025819588851097915 -0.8281988715873009 -0.4997945446798591
s-p,p-a,a-p,p-a 0.015877453557944947 0.0578768351531503 0.025983083128263675 0.7848415166699932 -2.1054394241267214 -0.06691811757142622 0.008907251036486817 0.43649536274794204 -0.4497357951546944 -1.669693150384945 0.018477015766199558 -1.775538829263889e-05 0.022186841354204203 0.046857719218906003 0.054720039430973484 -0.00389666858219107 -0.1904843230075599 0.05497855082635585 0.029098028335025065 0.11739216904543395 0.007795474013799196 -0.09206818468343007 0.03615577202165337 0.042053884560459574 0.01940392592146556 -0.12747404712725222 -0.007495936623764294 0.025505626002028162 0.032461756291525354 -0.8521777160124597 0.08728153489767762 -0.4576183476733555 0.06852992011282064 0.011035248082799489 0.03569050849030565 -0.5218914638896476 -0.6414699455867787 1.0755973980761797 -0.4585345505159492 0.01685525868930983 -0.06497656734618365 -0.030984389846855673 -0.5169537216646569 0.07222072359792184 0.01996170426348274 -0.01354699159781558 -0.00039087356765692306 -0.6070720984953072 2.284923646735655 1.9353307362558685 -1.3756684372901153 -0.825683868560209 0.04060861097946917 0.18736739639013694 -0.10147952245416791 -0.6580567407436988 -1.4601186714568124 -0.0002216895927616292 -1.603959837386915 0.020379124364153806 0.025243609059147076 0.026120265209250506 -1.5919465632268863 -1.150254525898174
p-s,s-p,p-a,a-p,p-a 0.01835796873921963 0.034789207170752824 0.11310496389553558 -0.8510161454212092 0.22469125023629366 0.04220807306060238 0.02937444877028415 -0.5420570455112772 0.058271624036380615 0.14363811245072555 0.05530885823465215 0.04053232478108399 0.008152795638030843 0.01841437862393089 0.024959551515973937 0.08533946326011811 0.02915175542563546 0.027950742246409987 0.028059329238020365 -0.24461504128939468 0.008564192621548066 0.16283638975049008 0.1129374872296563 0.013012311686069979 0.009204727763282499 0.02923286262542003 0.0612570730815143 0.025549192288377577 0.027231772402024026 0.10046385394408462 0.04069646379388892 0.047853284084817656 0.08029429313046775 0.04674615493929215 0.027213664611525266 0.05303166549065798 0.061367007939214444 -1.1902093964772222 0.05229678862197758 0.03369076806108986 0.030076651783234418 0.044050073034500856 0.05800630160271648 0.026853269728451014 0.011958730886545239 0.04632652046514122 0.04538114406642877 0.08259115439260799 -2.2566203757498506 -1.9964999241816046 0.14807758098389806 0.09657984097910559 0.028073151627680395 0.032606537649882396 0.02864719066333779 0.05690567946027931 0.12098084604449007 0.08990186180778963 0.058959187833847335 0.007875174485879127 0.08662436106454102 0.029303423042343776 0.17825917811196537 0.10857259755498297
p-a,a-p,p-a,a-p,p-s 0.02022131784969596 0.046692457732678105 0.06570685531805524 -1.6418583678089558 0.937366804618674 0.06146247863591682 0.029156722335802493 -1.1186855803377562 0.24384980161379347 0.782637884436809 0.04224101211412335 0.057622483576668146 0.0346470347438469 0.012861782778727644 0.03924349757741447 0.07487689354424629 0.07258616152662023 0.02142147462176829 0.04093687390838393 -0.5615054401495113 0.006032196025020358 0.15161968386812577 0.10168997199374644 0.030532332823161753 0.00942541051849546 0.05661902399059176 0.05770945289976756 0.03468614967122294 0.0363616778050394 0.31039827544774773 0.07224278684300874 0.12157299480224364 0.1012945432565775 0.03837449361085113 0.024200778163131362 0.24481474086792754 0.25576337550645206 -2.112581909520127 0.19716487334039934 0.032584399065024784 0.06884270265590817 0.04169355947329461 0.20536286329961656 0.037200936150364024 0.019677166731825096 0.04514283868756678 0.05891358915028538 0.2597850039962552 -3.253638843888571 -2.9998577393328683 0.6040435597615359 0.35277813345298786 0.058333671905766 0.05274238252231454 0.044275881778045416 0.2545457078145259 0.5844650587588713 0.13303375269024884 0.27512337127140035 0.01971788196590966 0.08985145613935454 0.033478819761742835 0.6811132348245652 0.4498669540424816
s-p,p-a,a-p,p-a,a-p 0.035522584829813464 0.002767290851622541 -0.14620599600776746 0.2772730053806667 1.2725203639010532 0.05500473208572466 0.011398051301279478 0.3067913179228278 0.24245228344299488 0.8261410322789371 0.03649173209150772 0.035131191844762225 0.02907271212412693 0.002429390447781911 0.028183435396475498 -0.00033902931881859134 0.125670187139463 -0.0005852620872417416 0.032582127004340614 0.10081427940222094 0.01959579080197768 -0.034455560892899584 -0.04564685761792398 0.018623345798208887 0.009504911730545459 0.0922750692738246 0.011262326593119449 0.08554882360960808 0.013807179605288374 0.46588005030832574 0.05354031202005546 0.21457516427244155 -0.005211150093397304 -0.01455698245872886 0.016799550426068673 0.2580224233769616 0.29130525176519567 0.23250178379542685 0.2229659269845467 0.024184397237660273 0.09089764123353278 0.023170947004471937 0.32792884936722244 0.0357366324515513 0.016656901288787905 -0.006657509081318674 0.009549994978915998 0.4123848201634208 0.21278606236743555 0.235630941213116 0.7808012793803637 0.5029739416549389 0.04341305201899943 -4.92325485746176e-07 0.07743658140533533 0.2607294712391415 0.682718094743526 0.04239911827330728 0.821673617963059 0.020271175048069363 0.016745623397501505 0.032765639378623285 0.9316944095857711 0.5431242255927246
a-p,p-s,s-p,p-a 0.019853080952601566 0.026905902330515992 0.1302530898165461 -0.6562753307218068 -0.5900456386821423 0.014326608254349877 0.023103450742027253 -0.43730140015278407 -0.057637952386439616 -0.29348061482144355 0.06536933402429089 0.060139266996824085 0.014496239467861268 0.01540165262857008 0.018247792023075884 0.07521494921459565 -0.027937056809423013 0.013628383248599288 0.030769929813706662 -0.21613767915327137 0.01045944777365909 0.13690751413085953 0.12049043543055798 0.011329609534314906 0.013268234076524442 -0.017550211329577816 0.049001558814671616 0.02528646307237607 0.045463591543032304 -0.1654358071756814 0.08227132351210127 -0.07603567014773166 0.06836850786559506 0.05260817807806913 0.027643002695036237 -0.0798682541411189 -0.09414225341376244 -0.936069999426026 -0.06713531131718277 0.036208333518584705 0.025215807824554855 0.04756197231187208 -0.1092019315788666 0.02075833569018772 0.00537612893587691 0.028907961419937404 0.031253745490658194 -0.1446142213273684 -1.8300756684855837 -1.6262796530828476 -0.32457068826804775 -0.19570138971186277 0.029561838427086082 0.03098920045464322 0.008032315617792888 -0.08833648800103538 -0.2799648800276777 0.10304122489696856 -0.3673046274541499 0.012694996696169471 0.08373540781152151 0.023452396212906387 -0.3884763763788408 -0.21487012584442955
a-p,p-s,s-p,p-a,a-p 0.015026010599488134 0.04158072596388012 0.08703474530033778 -0.6052600618199795 -1.2058571559108824 0.023512966668893024 0.024736463177911863 -0.4089297539202373 -0.11785239559637388 -0.6274234994924467 0.048728863811908815 0.05104190937763835 0.01852755822820193 0.015720711876486514 0.029326169824296918 0.06471965263300772 -0.039577101937223046 0.011406969492476715 0.0300992522984023 -0.19576902334052584 0.01674500749898728 0.13547942072995306 0.09114536619863882 0.020455073487735877 0.014707983371021277 -0.025861515855510633 0.04852377718202388 0.03638926759110358 0.031220393226810784 -0.33201932669606465 0.06716063939484801 -0.16575326627792059 0.07150291995564248 0.03748046639717026 0.029974387662954197 -0.182884575382998 -0.2168844193538223 -0.8561153807761824 -0.1170834337761845 0.027195501045982503 0.02470746967814416 0.03773620529934736 -0.23576300748878695 0.024698053006186712 0.005177105097271739 0.028451537755648282 0.046105233073011495 -0.29266094128563275 -1.6962854227505493 -1.512263987168795 -0.7008146247442151 -0.4053417341666688 0.03432873510587061 0.042267790944500144 -0.0012640208206729905 -0.1918462861581752 -0.6321215045040776 0.08669047334466717 -0.7095742261929983 0.005687077760417416 0.07505599776709275 0.021114689009221 -0.8197087339040166 -0.4990023655425826
p-a,a-p,p-s,s-p,p-a 0.018799733478812322 0.03630157516727975 0.11125828034060835 -0.8500287429974238 0.23124707871685216 0.034860834231150786 0.023188784757969226 -0.5340213167721418 0.05866670146958409 0.13786794034646863 0.062113497867239596 0.04350250642508486 0.01222581235874818 0.019270592115129388 0.02243042912304632 0.0750921659315038 0.03238720153121452 0.018953506356245892 0.02571420159684981 -0.2369833736836909 0.0040755911554289925 0.1612173333586891 0.11965799449836761 0.009945656324085308 0.009031731683725393 0.03234189639628635 0.05098294142255064 0.032167394893283324 0.0215709471225339 0.0970040608515505 0.056682181611662844 0.04416596923658872 0.07490819639580171 0.047507785069301714 0.03567717119985847 0.04987986101876379 0.06523832709913621 -1.1851912953421062 0.059668602203566505 0.030533192402312913 0.03775650881527783 0.04543446854160474 0.06850289225347918 0.017616825469203755 0.007974060860520504 0.03886617937381522 0.05075870848774166 0.07588743868485916 -2.2507487128931953 -1.9865304539420656 0.1452207224757922 0.10905059869149475 0.032740126694780554 0.026005081570567082 0.03303322270915152 0.0666129315742801 0.13818581141977443 0.10063328266449638 0.060501947960696176 0.018933079097664653 0.08862600052890804 0.02364463343005316 0.1985717319564634 0.10952351383254572
s-p,p-s 0.007030335002832828 -0.00907335545073998 -0.043384940639268184 1.2918457019800138 0.10151954326489832 0.002492011820569336 -0.0028134085345458307 0.8879807332409739 -0.03699498003163997 -0.09528392180500707 -0.002327805865695449 -0.009755933669180759 -0.0020041852534401776 6.139640562135911e-05 -0.013448896207186145 -0.0303222384717244 0.0006309124748325294 -0.005681694972550529 0.0014132063179567156 0.4452675289548738 0.010807692103120384 -0.12194811644344701 -0.07880248155647293 0.010297343458774269 0.0042280029698915 0.01577452294435715 -0.02864406864910302 0.018468356565925523 0.0012588911985483178 -0.0010125666345433147 -0.00597405485781451 0.030892774474713405 -0.05878672829304156 -0.01216463854710544 -2.2108802272468262e-05 -0.007894073650789927 -0.0172907174779623 1.711304157866794 -0.023551659864055052 0.004735120294301639 -0.004110112901991705 -0.01527968983263533 0.026139673022147376 -0.005895238535555846 0.0008842599349498902 -0.019067132625785105 -0.024602979063839573 0.046523178777101715 2.7962850410784776 2.556854616062842 1.7445036679475297e-05 0.025248535541671717 -0.00789021568452436 -0.0010726559520346968 0.005214011405905396 -0.02201125941323697 -0.04371444522972932 -0.04030753773549641 0.3097010244460323 0.007730138908076602 -0.05771243793169683 -0.01399005317792831 5.890534547436953e-07 -0.030059937981827795
p-s,s-p,p-s 0.022035040583749242 0.03508907884721007 0.12452183168903565 -0.7713084848649006 0.37553528451424045 0.02754238665850508 0.027664589231670398 -0.47305135050877134 0.11031677221560697 0.33313004155683557 0.057501454146561645 0.039700205509047556 0.026913539612132546 0.021799054884386944 0.03279690954660109 0.0864398531424823 0.032491251102554373 0.022660271476783324 0.040806067907885636 -0.21078692497540064 0.005364116880483081 0.1437940393313306 0.08861530953427812 0.019873253926788178 0.016268090156461204 0.030280969592942995 0.05184204821535926 0.036316069239509696 0.026992048315301387 0.11869472435217185 0.06225087091051762 0.060578810029651466 0.06943008633586088 0.0423003007288079 0.03898322934348004 0.1045689113289653 0.1139077326231051 -1.0889893609392982 0.08066651318135162 0.0326493962334469 0.03656711944414303 0.043406006590107876 0.07959481315502419 0.019094565747914946 0.008487255854447614 0.04045315043114396 0.04670678971088332 0.10167329083878385 -2.1410961428767648 -1.880777592861819 0.22298444640692208 0.13135373870562492 0.03820227876909904 0.03985028691875967 0.020776642910511373 0.11463358857031272 0.22303635393000323 0.09151836876284025 0.15495217985083581 0.014439939372012354 0.07512072742035501 0.029594418715492656 0.25411572461695503 0.174826424792147
s-p,p-s,s-p 0.02900510313942082 0.0821675308869184 0.1245655301996454 0.6652780675578844 0.2567709295429836 0.01170636940265952 0.009563429085365989 0.4592473240263114 0.04455628099135024 0.05757673370252608 0.05867350555976455 -0.01889584722076277 0.026662495161411212 0.056349958446566505 0.026721702741100726 0.04369117089010848 0.046263704918567905 0.028032466474101382 0.01505712788417378 0.25748308496616795 0.008749302866384293 -0.03215119068205672 -0.10227164134051489 0.04109322886502668 0.012534804120209825 0.04220270529180616 -0.0008757353723464727 0.07744381403869358 0.004065150332569263 0.11850413121493882 0.04608844315427117 0.08995988522676526 -0.002722473459357613 -0.017306281712912083 0.07271152815989049 0.031041097460558213 0.02141593694680537 0.9283548940095527 0.007661176039972021 0.03419062733727604 0.054590224495369336 -0.010189558850945545 0.10019433808080731 0.049686171921708926 0.016804806742458402 0.002406975492243293 -0.0001065211302304844 0.1365937207725079 1.8026486108271367 1.5848153513872718 0.11184320905791963 0.11591189995562269 0.028413249928228548 0.14101983340260713 0.0182566756888515 0.029442593103278184 0.10313109041755125 -4.416490079649811e-06 0.4044876100336974 0.021566727288017347 -0.06105531516916417 0.019260251534110654 0.2039646211482141 0.055459267652754246
p-s,s-p,p-s,s-p 0.011167290206848543 0.02793078570408121 0.0646190784877781 -0.39697290913987887 0.28707042991969645 0.02905214711557962 0.012227419018755493 -0.2409807557947527 0.0699001470577236 0.20926249854481688 0.027291567743230712 0.022788167280524907 0.014802616745653203 0.008036280662448311 0.011407482565656902 0.043490369081021725 0.026924813019946522 0.01876673426056584 0.021042544515504077 -0.10249381873320525 0.0008973281062346668 0.07641153398110283 0.04661352039108684 0.012369523247598761 0.014955164681496455 0.0275062200713046 0.027455076310124112 0.020738279192944714 0.01468203812958703 0.1065164593022425 0.020552398307331368 0.046515224798602504 0.03606853790040753 0.016790594622596005 0.027345318479262467 0.06359217973898419 0.07305084161746679 -0.5731533708915305 0.060436442236214895 0.013277533029464496 0.033445357575647504 0.02826335669008806 0.06715709460755294 0.01133842561054252 0.015919229421883153 0.022937860742349055 0.022857903448803285 0.09215777353594375 -1.3154358712971217 -1.1136799842443539 0.18169869075037082 0.11898862926802428 0.018939449733597343 0.018279046060530574 0.011688228245061834 0.07118879810839972 0.16332045021393482 0.037111489500201385 0.10381909174229188 0.016742519629994956 0.03383964135473102 0.014974587343044618 0.22436241086182798 0.13314344222840152
a-p,p-s,s-p,p-s 0.016518762335190472 0.09493400812037897 0.25779828670770244 -0.8620308565634339 -1.2522719363911687 -0.012159985108673608 0.03440846097308567 -0.5943912837061169 -0.14386772817422927 -0.7253856587737905 0.1273828373704929 0.05387566948133519 0.013354489797962762 0.02890220288441304 0.03865055072724215 0.1789462911707664 -0.06062980846346795 0.027394006694140313 0.0318552274345181 -0.30129636004999666 0.0031646062036965934 0.30211706709011216 0.1766973318443667 0.021603169820447535 0.012542640893282022 -0.04215239568838369 0.11481941674787964 0.02620659721257711 0.01844623907374806 -0.3054790059836266 0.052934705847578006 -0.19108317898654842 0.12384766833836935 0.07692418450545502 0.08206476925253449 -0.21131631140933727 -0.2415948325880743 -1.1936959396664872 -0.15184226697130512 0.06198845618299728 0.024434291170568355 0.04620474964812433 -0.21795500100229095 0.04521335986273726 0.016759305629491895 0.06707755569786844 0.08201224256407662 -0.2899166978350725 -2.137105520885194 -1.9399686752070802 -0.6910945498559475 -0.38217379396642076 0.048832276975417144 0.06017331962081272 -0.03236986472345244 -0.22980694303793814 -0.6584528955983961 0.09208094264361535 -0.9451063373498239 0.026876826536946855 0.1505248531174832 0.036447687232601285 -0.7557736619929656 -0.5126315080371004
a-p,p-s,s-p,p-s,s-p 0.01078902234788482 0.02656411613633763 0.03675927289039301 -0.21651588556796122 -0.4639261021021387 0.019305578351225382 0.01701055852420663 -0.1431032258298533 -0.033409609037636845 -0.2209947539711538 0.025626151363060082 0.024735603240553378 0.01729362819514421 0.01826103842382819 0.009584375668361041 0.0325799088637118 -0.017080222036712684 0.009209219652483397 0.00869768946407824 -0.07423979376954885 0.015542697485620097 0.05147690705186889 0.03380424034349907 0.007058086183707971 0.009668159025696505 -0.0028409213963137437 0.023028073322182253 0.02210895088911597 0.01635500243344431 -0.1065419333562339 0.03325447864867493 -0.05166323740944268 0.022360576003077334 0.01905188762388959 0.013457127278470643 -0.06463343870295235 -0.061852052991040275 -0.3245153949215097 -0.02915727508228814 0.01467612920040235 0.01802923039664124 0.02407611185148519 -0.08157022059432159 0.012043199625086326 0.004217413094586845 0.013807475067126826 0.01639076648420682 -0.09686112304108097 -0.7393275502232564 -0.6266210739377421 -0.25081474630203376 -0.1319429174346135 0.018576317490241162 0.011827808121319125 0.011602844226841876 -0.060566957077061286 -0.22162748835343074 0.036886442973396646 -0.2600029951613139 0.010506352046702775 0.024467289631962742 0.020434366857064297 -0.30067967113870514 -0.17739012403109633
s-p,p-s,s-p,p-a 0.009815590606348712 0.032438108146374586 0.023499173384486243 0.4091622900327364 -0.8353428582686204 -0.025113150696006455 0.007091640674793773 0.2415324336159098 -0.12500952895410403 -0.5944441410552157 0.016450991088301236 0.009685257917486827 0.009898224039437109 0.0351547370550022 0.01578039360663204 -0.00031537441418162925 -0.055817802634521935 0.030487801430906465 0.009412146969954478 0.09167601157713369 0.0037936250555219157 -0.04344208643713965 7.920416304439825e-07 0.021409329783705876 0.010282000348068556 -0.029125091044385147 -0.004880443215215137 0.025901357609509828 0.01890483730245442 -0.27381928266694194 0.0411776331333963 -0.1254081811074237 0.023183215727127532 0.0043304733780978105 0.03085347452816285 -0.140462185514932 -0.17286543774635227 0.5943144930796839 -0.12205601884310782 0.007521484869944558 -0.016893648402053523 -0.0021591623446004164 -0.15742418900056857 0.026435960581771813 0.013246385931981566 -0.0020336221270182975 0.00026378070954255245 -0.19200087140551017 1.4409062808931858 1.173399823776172 -0.4699216481255852 -0.2517942600817578 0.01158974800332392 0.09217731253264869 -0.03130526121929204 -0.18230621158253205 -0.48642920852416494 -0.0001839731469812378 -0.5374801014185742 0.01597375411396737 0.0017166504037576806 0.00823764140095496 -0.5763473030134766 -0.37399888513019974
p-s,s-p,p-s,s-p,p-a 0.0030616073659689665 0.01491462897621505 0.04680178062379844 -0.3161425738660946 0.08241016058843835 0.014221043671435235 0.009410100487454373 -0.18742673070168522 0.02371007879510635 0.05189673243117154 0.020480977180186637 0.02307554808235407 0.013008239617229652 0.004502732500477164 0.019159537882116853 0.030878806479517393 0.019152888072560482 0.019127265168956353 0.013635819286511953 -0.07845085256973325 0.002883468527909543 0.05887278375333409 0.040379412687346614 0.01113637595757875 0.008525239783382115 0.01669801977415703 0.01890470142648351 0.00946230046990114 0.006096623999489526 0.03548461117505974 0.022618650446534796 0.016509951572012575 0.029981418749115456 0.01990199653948301 0.021472989958871314 0.015066278024864042 0.030479437810899682 -0.45206652768226896 0.027721482688328615 0.012124219432653799 0.011576472932808612 0.026263265187664527 0.0302994853416053 0.01118696745658965 0.012174080159485857 0.014090257494292895 0.027772462174337677 0.033648895218886955 -1.0878976071242707 -0.9074089043149199 0.05860789109292071 0.034201205067909975 0.011167529690979665 0.01767831323757596 0.014932259802305076 0.01967062663653341 0.056598013333334564 0.03826262861006445 0.01882567126776794 0.017562175565335153 0.034651759659695816 0.01501525179344436 0.0701513297823949 0.036387464627910766
p-a,a-p,p-s,s-p,p-s 0.016297463600115525 0.03312590730109893 0.054924094289454384 -0.6427568518420183 0.3147166695888644 0.02088304752321128 0.016551396987017037 -0.3923803706986267 0.08248363079174825 0.2657914656501996 0.03979728921193089 0.021479268425286836 0.014778510139641732 0.016577368854523593 0.022303250970226 0.04076984715271865 0.02304066454144894 0.0157274089068881 0.015973329072718923 -0.17513964335976814 0.010604452522092198 0.08443226127234466 0.051651800892909966 0.015314137072917521 0.01721806491469845 0.019074851362524892 0.04199987845712548 0.01637776274228942 0.021903552293659975 0.10123888267333908 0.03851575711842623 0.04508462884872657 0.04535443305774505 0.02729730363919823 0.015710212403019487 0.08822009102229728 0.09030051475917332 -0.9197204853491467 0.0778696129915846 0.026551876409288532 0.029906007809399972 0.02124720493121804 0.0720435919813645 0.015573686575936534 0.005838662089409736 0.023087427074645013 0.02598541491167366 0.09398648740940235 -1.9028208649961127 -1.6556546463212523 0.20305052883263125 0.1264593713660854 0.02868756638767392 0.03158514851958898 0.0189412594422524 0.08474463026334114 0.19748405226212537 0.06391288581671495 0.10577460431601551 0.008055326406237042 0.05355779343528783 0.017712196791626472 0.2322811492526362 0.14174879291838904
s-p,p-s,s-p,p-a,a-p 0.015078458583686425 0.018992879615287186 -0.021082508697272417 0.22838741391453382 0.3765261163229584 0.013113171623976912 0.004574224613923148 0.18377107352618247 0.06559889730628374 0.22483858078430335 0.017466890733316975 0.013624011697723305 0.011255729319240331 0.019811092340970792 0.011595289352095195 0.0035573950846539888 0.0339143672866304 0.004736303791723194 0.015463928126848166 0.0865609055298554 0.004198023277921165 -0.013098122777185245 -0.023086095549536507 0.0072927485382593095 0.014910648210251393 0.027420626666996652 -2.1480300023070454e-06 0.03051861809666334 -0.0004341416110258504 0.12838808966203724 0.020202929710278497 0.06042099745412171 -0.004345592795112998 -0.006837656057248894 0.01670240319203119 0.0766394523874515 0.07418174147345279 0.2753869296171616 0.057886689153795245 0.01870029269394782 0.03294980758010661 0.017322520752955952 0.0872217495147403 0.022066418441331868 0.012296140999502379 0.0042041784500816215 0.0009567906914590118 0.10967055655557587 0.5456996589589466 0.4765293192138321 0.20296350342716252 0.13553427368448903 0.0240506167133747 0.01711334954769285 0.023092187809099583 0.07012966302722463 0.18228663776208642 0.01605675503142834 0.28859419023946803 0.015351175057969294 -0.010041601880293693 0.008824427374551198 0.25667671827034577 0.14014304080920753
s-p,p-a,a-p,p-s 0.005333897396962538 -0.013450186961622411 -0.06047240108065503 0.9524734692159533 0.078100011535918 -0.003638817966360569 -0.0014157506825814 0.6382465341458667 -0.02095925347304899 -0.09653413511546241 -0.02482249523915667 -0.014640092867679817 0.00545177541229756 0.00894011897631142 -0.0009842265039086459 -0.04150951484248644 0.008997857003741581 -0.006109723646288504 0.004775853598967107 0.31410134747887936 0.010773477306255793 -0.10392971337954265 -0.0702927066961039 0.0120413182367757 0.006791251710624745 0.0066383624277896285 -0.017924151535889703 -0.0002029150042798048 0.00029127906506689586 -0.004361504672616293 -0.013026292147798503 0.02468451304534337 -0.0534372350050892 -0.014786506951964302 -0.0009642532131393149 -0.022834415082702827 -0.013300280367791656 1.3088221541734615 -0.024752365385974407 0.0031682831960950716 -0.0012301885044888495 -0.025504011074697994 0.02185144050608137 -5.2009257867484876e-05 0.00705494186421732 -0.011868744816669849 -0.023234276996356548 0.037892788352450815 2.344676027137541 2.118144951727784 0.008507295759173842 0.027965828323701227 -0.008798359040276666 -0.006263661134310989 -0.003978178949659382 -0.03264521761569834 -0.0565738269059386 -0.05398650308451818 0.22660223459685241 0.00966673962323246 -0.041846226961281464 0.0023842847915784508 -0.00840396002981113 -0.02134868610096798
p-s,s-p,p-a,a-p,p-s 0.00667750118298769 0.015518231490146472 0.003798058341015334 -0.698022652173282 0.30042277642155746 0.019669745706651812 0.01068961992302911 -0.43524960533195595 0.07405988005588207 0.24020175535101565 -0.012812331002385165 0.001698637049672732 0.014834073297177968 0.012724758444883875 0.011077289435720034 0.008979408331580223 0.025329281531371362 0.007767852071814041 0.009228389437370433 -0.20547985683995296 0.005780615706532724 0.020483709794365475 0.009107624410193462 0.009519259915997771 0.002738807203503197 0.018849921335286086 0.016932484256679127 -0.0001959199203991195 0.011538344837495813 0.09101799774073077 0.018433790301607435 0.03768517596605505 0.03544850247618144 0.0005374168407492329 -0.0012792780048661249 0.08134877634182582 0.07815400683507068 -1.001432447347757 0.05294884844416304 -0.001177151234326251 0.028291803999284614 0.0085229335062113 0.05842812203545491 0.009507182058115807 0.007197105931607652 0.01945180668166672 0.014300848052715838 0.08088507259695078 -1.99726017080542 -1.7497452803553253 0.17448309162578324 0.10496544424154212 0.023778793345712354 0.017121853242427557 0.02228817427640675 0.07012753251724345 0.1787302815553398 0.019338593579608848 0.07363436627698623 0.009953167813955643 0.02263784663873967 0.017901798030115244 0.2009331860602688 0.14060460863813176
s-p,p-a,a-p,p-s,s-p 0.01637977965932231 -0.0015630662216188772 0.013854132664034817 0.047454399133969594 0.295603311070865 0.014934727773333807 0.0058016023512346086 0.06850000983163348 0.06685167534669846 0.19459903424398795 -0.013791559327333046 -0.011518120513476796 0.006208122018758159 0.008516964763590514 0.020723006931963227 -0.001928578845177624 0.023209581979833922 0.007129032692831511 0.001609799429268621 0.023248816182980872 0.008721329494601441 -0.024321543815173548 -0.043247002575647946 0.009438872033662539 -0.00041780259563328786 0.015487598685994586 0.0027127595026715974 0.011748720564873708 -0.0010110148411710284 0.08321857512422502 0.008973230619561793 0.05245694534227504 -0.001526052184313808 -0.006557706194659797 0.005840572292102131 0.062118137009883646 0.05411831231806711 0.03010966944872826 0.028417384896034716 0.005211385655022306 0.032381480498462116 -0.004061377668483509 0.06331953481528493 0.016465327761216043 0.00640146166038954 0.0011048074724789047 0.0025321877245236923 0.09049771491086785 1.1372859477691665e-07 0.015536168005378369 0.13846985889485122 0.08731791297814467 0.01165166193028743 0.00897840589784958 0.018316125739280244 0.04881275077303212 0.11822046994350774 -2.6128540672420527e-07 0.26544070573219836 0.008136125409471498 -0.014496136369067728 0.017429452656277086 0.17840013283277445 0.09167398134933481
s-p,p-s,s-p,p-s 0.004830559521165247 -0.007962967428490106 -0.032063632263116044 0.40666841621342836 0.021543641477552642 0.009074073809923065 0.007895693189073287 0.25619003081233205 -0.013891856611456706 -0.04639499408950964 -0.014989795689348325 -0.009058888298668728 0.0015198198740230446 -8.964162999261547e-06 0.00020597938209250189 -0.020637542718208245 0.006796001148579655 0.009813810130262479 0.004023122207382643 0.13375819436266984 0.005989448478521402 -0.05795345231645269 -0.03508916899484735 0.006849296982718412 0.006321623457065111 0.0004320863992571977 -0.01351391640692778 0.001835459086262933 0.005183610324782237 -0.0032000266851634268 -0.00840856930827119 0.01805885944441234 -0.029087033271436184 -0.005944310053613583 0.003928477824308647 0.00016252147390952048 -0.0050679471965259255 0.5822774225486849 -0.003835460544658763 -0.0034536496238979056 -0.004017307488671039 0.0005548021561494033 0.007767283848208003 -0.002298982103105357 0.012260395288223426 -0.006663421693837367 -0.018107204048744042 0.0076134031966686826 1.300560646401519 1.1146300960955005 -0.002299145904278963 0.004721694469830234 -0.007798834705456759 -0.0014064973249614725 0.0033492289521372307 -0.01071891048423434 -0.01144698442525505 -0.02040157660179005 0.07816543086755294 0.005802581981244013 -0.028669950870095023 -0.00570526443972292 0.0020950044205703495 -0.014019169120332523
p-s,s-p,p-s,s-p,p-s 0.01727431840413757 0.023423801816191626 0.04249370717732187 -0.19448024986971293 0.10140188232075557 0.015341481496122536 0.0041100112164044285 -0.11431575326863136 0.030628517603326952 0.08486735600494805 0.016839399765263174 0.024362887193423142 0.01380421130370896 0.005745550580547923 0.00725581558794115 0.03334056608410982 0.01765060825882542 0.018170743585840927 0.012100558406477717 -0.05319994049027668 0.008695277759794265 0.05015353899694892 0.022072636673193303 0.00442000754442217 0.010240281643147976 0.01788072915920975 0.021167615245093776 0.018896787620810235 0.005616103866362978 0.04112804802095648 0.029059153630808635 0.02269244140752459 0.016638323788179688 0.014335465541010936 0.021215917680069387 0.02507131607790591 0.04025952418891588 -0.299172942332814 0.030823911538564102 0.021959261787068075 0.019125597174278 0.023784858000024674 0.03410092909920279 0.01634104768820155 0.008180909398620616 0.02268428297700354 0.013422831190422051 0.036764334758507725 -0.7589138439485226 -0.629541815673535 0.05707012610135962 0.044538557541398495 0.007050739365231892 0.017290551254216 0.005448023770713383 0.038163320832387 0.0556000020911087 0.02364474282584123 0.0475034377660033 0.016441300645682933 0.01856265801853078 0.006603047707737361 0.07014093725606574 0.04435988960929023
s-p,p-s,s-p,p-s,s-p 0.004614072101501818 0.017685366354426125 0.02412061307174493 0.18327212480012012 0.06024931631309063 0.012032841564988461 0.004255455574377318 0.11846241976896307 0.01382418311158835 0.01619583663340308 0.015089522424751435 -0.0004119619414694095 0.018176756883215194 0.01791968466201038 0.007565335541604196 0.012199263908369522 0.009621021206907603 0.016427021009842165 0.016456215663616058 0.07852420204936508 0.002437923243116512 -0.01555442276843692 -0.024659193265223412 0.024324373311103525 0.007443463679177055 0.020432141554701196 -0.0010045106587971983 0.01617019788025346 0.014009442413967524 0.03208417855059323 0.02205491853186416 0.022295232931370385 5.647302802749218e-06 -0.0018807554074910704 0.02675391693816415 0.015903788022170517 0.008771662431747472 0.2565565578010836 -9.620878047577976e-06 0.017723379916394177 0.019047224808411284 -0.0025267434305726814 0.02654944117679429 0.020244114535390257 0.010607689735955708 0.00027038128003491354 -0.0011831312496054143 0.03512583209216138 0.590612093942488 0.4948565765802616 0.0331307879767058 0.03065014091074578 0.004509554463110471 0.046312700235032915 0.005001858133090867 0.012956070475626079 0.03225252921664184 -0.004371208934039068 0.10456051188564339 0.009565774634767609 -0.025727527271239413 0.015288460750041349 0.04240267116740952 0.01309801910647196
