3900 64
b0 0.21928486 0.26063612 -0.24873994 -0.0102495 -0.20322032 0.006083494 0.009460059 0.09769312 -0.12136581 0.2298025 0.085668266 -0.029413182 -0.2085695 0.2729683 0.10376053 -0.14952278 -0.15351407 0.13270664 0.1613601 0.026550194 -0.07901118 0.0035810792 0.2328481 -0.17538492 0.120716974 -0.2690294 0.070017725 -0.01537232 -0.17564428 -0.08387425 -0.10340432 0.27109948 -0.076577105 0.25796503 0.17617315 -0.25084552 0.2098433 0.105196245 -0.22956271 -0.217092 -0.003216373 -0.29335466 0.25142857 0.16984212 -0.0019335031 -0.32603216 -0.13980551 -0.16539192 0.13785316 -0.10108329 0.021686947 0.19682482 0.02893665 -0.20843972 0.16190651 0.1844932 0.21091573 0.05805577 -0.14660594 -0.12945634 -0.14558028 0.01103101 -0.03928376 0.18133578
u0 0.16532432 0.13558905 -0.15959908 0.021291858 -0.24888605 0.0137190595 0.004337697 0.13710138 -0.14899802 0.1837259 0.1245059 -0.068877265 -0.15776266 0.14697823 0.0061963224 -0.1702869 -0.10493543 0.15314142 0.18171859 -0.028485578 -0.12346194 -0.05467726 0.20614956 -0.18054372 0.045708727 -0.16904068 0.038988713 -0.04819212 -0.12006289 -0.12853883 -0.057915106 0.2288607 -0.10424318 0.19600739 0.10993892 -0.1924053 0.2545224 0.09707335 -0.21073477 -0.18774785 0.08610804 -0.21283592 0.20590328 0.17840397 0.08653765 -0.293453 -0.09589167 -0.1067816 0.096838966 -0.095330976 -0.03661758 0.12618752 -0.0056160144 -0.1952633 0.15763915 0.16272886 0.16338387 0.07441726 -0.12094777 -0.08863479 -0.11364261 -0.08694873 -0.018133812 0.15260406
u301 0.17800175 0.02183642 -0.20010905 0.034379493 -0.06489969 -0.013242456 -0.06288449 0.010348872 -0.20302795 0.23280509 -0.062237907 -0.14888968 -0.14963827 0.15488806 -0.10436896 -0.23594047 -0.227526 0.20941016 0.20034643 -0.06701033 -0.027062625 -0.10092389 0.18833962 -0.25026304 0.123391286 -0.29431176 4.1756677e-05 -0.021247026 -0.16278996 -0.055854417 -0.15245816 0.3067158 -0.07542663 0.236231 0.19907187 -0.21872695 0.23529622 0.029101366 -0.15281753 -0.16520308 0.03140828 -0.30544278 0.20622964 0.17591828 -0.030118305 -0.39081538 -0.027602829 -0.12483224 0.14378622 -0.17678335 -0.118911676 0.2733708 -0.035081584 -0.16494825 0.08300551 0.19939515 0.23410568 0.08832306 -0.28642893 -0.04979493 -0.14528199 -0.07454559 -0.074897245 -0.032075804
b673 0.06910924 0.10725048 -0.13869815 0.025821133 -0.1440333 -0.0014157005 0.025205221 0.09446651 -0.12221289 0.15168747 0.102832474 -0.028377669 -0.097083464 0.08321321 -0.022092665 -0.080573246 -0.10965883 0.08330938 0.17517367 -0.0064271274 -0.120003976 -0.062623866 0.10854901 -0.08110005 0.08942981 -0.10559162 0.010761798 0.03112597 -0.0798385 -0.044116978 -0.0530322 0.100724876 -0.045558915 0.1369654 0.048860323 -0.08372146 0.16703705 0.07892815 -0.13917187 -0.1290779 0.03340243 -0.124717 0.14655112 0.12863353 -0.0072904225 -0.13714667 -0.08429105 -0.108418584 0.111532755 -0.09975785 -0.018051893 0.12443646 0.023596944 -0.09220435 0.06240147 0.10980248 0.12595363 0.054645143 -0.11485834 -0.043694373 -0.09110225 -0.044718385 -0.01696371 0.09385866
u481 0.11075968 0.047340337 -0.24577765 0.12943202 -0.13699028 0.0219012 -0.011458529 0.098860905 -0.120463826 0.25070316 -0.01089158 -0.101903334 -0.11822373 0.1696395 -0.0030980373 -0.21918349 -0.13667403 0.08035911 0.20681222 -0.08491851 -0.19655912 -0.17238915 0.29194295 -0.11326715 0.16129738 -0.22642303 0.093437806 -0.021526277 -0.1479073 -0.09250581 -0.12912782 0.23336743 -0.03810291 0.2651409 0.0649451 -0.17183466 0.18490513 0.09961254 -0.24217075 -0.18005583 0.0751796 -0.19530259 0.081549585 0.22212519 0.053855695 -0.34803498 -0.17322871 -0.20003995 0.0805108 -0.037941538 -0.042604644 0.19287057 -0.06593388 -0.24974044 0.2035714 0.1919854 0.18405741 0.009784863 -0.15143882 -0.067585 -0.19516486 -0.1508794 -0.010236283 0.02787221
b78 0.022228168 0.22686437 -0.27045372 0.027268676 -0.29440716 -0.03447901 0.043257575 0.20659833 -0.106398866 0.23715723 0.1398341 -0.0831793 -0.106276385 0.15385805 0.02150518 -0.23837867 -0.08478272 0.1359456 0.123393305 0.044322234 -0.091556475 -0.015641682 0.122649394 -0.11546641 0.04675493 -0.23707514 -0.032904692 -0.06763364 -0.15741673 -0.045586087 -0.032843426 0.23808962 -0.05133241 0.11707798 0.06983904 -0.179359 0.21044044 0.063931815 -0.2369072 -0.12313352 0.11669294 -0.25777775 0.0919408 0.14606039 0.045252506 -0.2591597 -0.085526586 -0.1549883 0.028649453 -0.15891899 -0.048751727 0.16136263 0.016702207 -0.1803823 0.16526008 0.2474446 0.17218827 0.029005602 -0.13454299 -0.16206612 -0.14093597 -0.1039572 0.010945998 0.19006547
u361 0.09786746 0.13566557 -0.16567294 0.03808688 -0.16805406 -0.0037996983 0.00056901335 0.06304906 -0.09511005 0.22286364 0.049111176 -0.1064682 -0.10336882 0.12437255 0.07882204 -0.0637973 -0.056847326 0.13322604 0.14466415 -0.043883074 -0.10099955 -0.01146351 0.18742211 -0.13307422 0.034727342 -0.2364157 0.065598816 -0.078079484 -0.19520278 -0.059266698 -0.0076633696 0.22752318 -0.03948844 0.18775462 0.08353103 -0.17877883 0.18350352 0.027607633 -0.20872848 -0.12665184 0.03912843 -0.22104318 0.07373674 0.15321828 0.049004793 -0.19558686 -0.06982992 -0.14791477 0.12517123 -0.092053935 -0.06004856 0.064761564 0.009572481 -0.116360046 0.048220523 0.1915054 0.1855542 0.06612866 -0.138849 -0.11254875 -0.11577479 0.069177 -0.005133249 0.02532267
b816 0.095426135 0.11985958 -0.19537763 0.13405882 -0.21818496 0.00065182324 0.05401333 0.055443157 -0.07989926 0.21586412 0.12657697 -0.12534076 -0.18662909 0.19888973 0.058644593 0.015695417 -0.12018308 0.19935222 0.16831964 0.08246527 -0.13076298 -0.016026465 0.2151623 -0.13171853 -0.027915383 -0.23373616 0.051048994 -0.025296781 -0.2228367 -0.051602792 -0.101598516 0.23006597 -0.08895155 0.20541981 0.034479175 -0.19345987 0.17837402 0.09807421 -0.19707087 -0.12976085 0.07490424 -0.255158 0.0702572 0.25657767 0.04318495 -0.20969093 -0.16616157 -0.1253569 0.18640012 -0.11384376 -0.09278255 0.110084936 -0.061534632 -0.21441911 0.075576365 0.21021901 0.21869938 0.11427804 -0.1837947 -0.09374971 -0.16543643 0.10988037 -0.055867996 0.05022337
u340 0.16696201 0.18449058 -0.114278615 0.011201444 -0.18029207 0.06288249 -0.023089832 0.09487314 -0.1443178 0.17173822 -0.01131907 -0.01427465 -0.14129633 0.12418771 0.039351642 -0.12117424 -0.079248786 0.12555787 0.19554742 -0.033765044 -0.057487182 -0.017342113 0.17569034 -0.14368322 0.1084557 -0.17233829 0.058217112 -0.012208865 -0.12898375 -0.09716723 -0.162101 0.206688 -0.06884515 0.13694307 0.14943019 -0.1295972 0.30847725 0.16015309 -0.2945488 -0.1678289 0.05771068 -0.22961953 0.15821248 0.14495768 -0.009492832 -0.3845369 -0.09036422 -0.09621936 0.13184151 -0.118888795 -0.025549682 0.16134194 -0.0007504554 -0.1736563 0.14612374 0.1426832 0.18579905 0.044760574 -0.1834936 -0.08107453 -0.1197005 -0.039373748 -0.09226111 0.058683768
b1838 -0.019365653 0.055760507 -0.06669338 0.016082048 -0.08083817 0.04161487 -0.033412494 0.06392352 -0.040060967 0.07947235 0.052017692 -0.047784317 -0.0911478 -0.017573321 -0.019161012 -0.045130823 -0.051506292 0.060488727 0.071816355 -0.048801977 -0.05092905 0.030212235 -0.03171101 -0.049228236 0.02131579 0.01103815 0.048793197 -0.025629446 0.007207867 -0.0632713 -0.044689197 -0.022676762 -0.04256126 0.044234212 -0.010184528 -0.07564324 0.06926608 -0.024237202 -0.051641237 -0.065717734 0.04612378 0.020758487 0.06406641 0.058511797 0.01753923 0.0071979165 -0.028431922 -0.044076253 0.050651483 -0.047444444 -0.027387112 0.08976587 -0.031814307 -0.05916986 -0.03674492 -0.01052225 0.08043475 0.048686665 -0.06255039 -0.044246245 -0.046048645 0.023870641 0.03531695 0.042328645
u640 0.09599443 0.11805622 -0.101900116 0.058426373 -0.18405235 0.018257841 0.021955308 0.06007342 -0.08869983 0.16496663 0.07920871 -0.056789894 -0.15235116 0.08412058 0.04247104 -0.12650113 -0.019532587 0.111158505 0.16611658 -0.059977747 -0.029193701 -0.023206387 0.09423433 -0.09062122 0.034879938 -0.05060607 0.07362764 -0.027823243 -0.09760232 -0.13107866 -0.05987104 0.08370265 -0.12163532 0.09752598 0.109655544 -0.14819282 0.13319507 0.09679219 -0.12612046 -0.15036434 0.072514035 -0.10715572 0.07845031 0.09372985 0.007931195 -0.19152483 -0.096012324 -0.040727936 0.1292574 -0.021021612 -0.04340441 0.14639692 -0.0113151735 -0.10268882 0.052416205 0.09792597 0.091215864 0.056736495 -0.12351534 -0.0009317746 -0.10361832 -0.053841222 -0.0028511498 0.121131554
b943 -0.11272688 -0.115446955 0.046859294 0.1217862 -0.022923753 0.12489234 -0.13921908 -0.14956349 -0.0073332973 -0.04246871 0.031693757 -0.08379399 -0.121181816 -0.16731443 -0.059214275 0.01356605 -0.016894372 0.05058136 -0.0074562333 -0.083538905 -0.05759145 -0.071337074 -0.113758996 -0.09785556 0.019049177 0.30798742 0.14497033 -0.039236415 0.042807028 -0.024329897 -0.11736995 -0.22844474 -0.12266774 -0.022233304 0.0870285 -0.009537708 -0.10297196 -0.019214798 0.063241564 -0.014527273 0.12016464 0.23758928 -0.018487312 0.115796216 0.024458176 0.11730206 0.011089652 0.034194708 0.078418784 0.03560633 -0.09991876 0.04733795 -0.081399165 -0.01656767 -0.16766827 -0.17420849 0.04236103 0.14290285 -0.0007823316 0.08605343 -0.07159178 0.095089234 0.060260896 -0.025076184
u1035 -0.07929125 -0.10481688 0.04495347 0.0742754 0.0077969395 0.0955024 -0.1750452 -0.11441507 0.039576035 -0.040018827 -0.020767286 -0.1088496 -0.02461655 -0.2346678 -0.07729943 -0.001790049 -0.06381988 0.025483854 0.03855494 -0.07935901 -0.036216557 -0.08281167 -0.19059159 -0.06632085 0.020743215 0.35557798 0.15382779 -0.045178756 0.10071091 -0.024322465 -0.11036161 -0.2887666 -0.08087842 -0.01896556 0.09744648 0.016333167 -0.06248416 -0.056079566 0.042845756 -0.0112949405 0.07554342 0.35280865 -0.030624967 0.113261804 0.1354437 0.11188896 -0.015978696 0.03752357 0.10252234 0.018587256 -0.09223114 0.028034141 -0.084366865 -0.019456245 -0.11442159 -0.26648885 0.041879825 0.064336345 0.0026804968 0.054242186 -0.09294891 0.08092533 0.022656059 -0.08037873
b1639 -0.06388094 -0.1280243 0.047633935 0.101948105 0.04471305 0.13873678 -0.213904 -0.18239109 0.039881885 -0.018698823 0.03125715 -0.09847957 -0.02968882 -0.17481042 -0.10072684 0.05038557 -0.05140573 0.047294598 0.023292253 -0.0883687 -0.04561896 -0.121472806 -0.19758262 -0.057881325 0.03673215 0.32250193 0.20830365 -0.072716184 0.0611062 -0.011499126 -0.08754791 -0.30442834 -0.049409647 -0.07564708 0.11396679 -0.04758939 -0.120141745 -0.06328931 0.105457045 -0.039529108 0.032890648 0.28117508 -0.03029418 0.0846095 0.029601168 0.21586792 -0.007041888 0.010606836 0.1268528 0.05113191 -0.06979395 0.01399263 -0.08468066 -0.025204394 -0.23572779 -0.22399367 0.05528992 0.16204268 -0.033202127 0.13397709 -0.1305124 0.02365168 0.10790192 -0.10645734
u423 0.022273963 -0.14242278 0.023354143 0.106951945 0.08836101 0.14328676 -0.20858666 -0.12108469 0.085948765 -0.02390522 -0.094454914 -0.14470106 -0.076231815 -0.24536347 -0.017115427 -0.0035559235 0.024112998 0.015638832 0.032664817 -0.039052967 -0.027096668 -0.18305556 -0.23950079 -0.15879121 0.10982986 0.4488983 0.14801382 -0.04445848 0.08119403 -0.022360751 -0.013783498 -0.23399413 -0.10166181 -0.05714677 0.10652757 -0.023729153 -0.13727242 -0.0725185 0.05564627 0.055911023 0.01218349 0.3388315 -0.03355404 0.14123084 0.036791936 0.07535847 0.050010297 0.00025885485 0.058266282 0.0032621962 -0.15980916 0.06484373 -0.04709848 -0.007328318 -0.1246209 -0.2208081 -0.014832282 0.056777816 -0.055358898 0.044834863 -0.18140963 0.09790071 0.07563673 -0.16201712
b994 -0.14556427 -0.20998691 0.058788903 0.13220622 0.025351379 0.12933402 -0.14757751 -0.21361454 0.05444729 -0.07200536 0.0012486589 -0.14547916 -0.033938933 -0.29059806 -0.1570397 0.023553103 -0.024690654 -0.008570162 0.038757287 -0.057533797 -0.09107941 -0.1144094 -0.28151682 -0.05934193 0.055913463 0.40486166 0.145705 -0.0895986 0.13243684 -0.03497029 -0.12439866 -0.32215035 -0.045435604 -0.023906903 0.11698593 0.048688304 -0.17752966 -0.021106832 0.07707113 -0.015868686 0.13143443 0.38350952 -0.0767434 0.118487634 0.082447015 0.3396892 0.08627809 0.06904593 0.07814861 0.078400075 -0.1326023 0.035780676 -0.16294199 0.02504284 -0.1810121 -0.3273819 0.037494164 0.12032745 -0.03263049 0.07957064 -0.12978202 0.13818613 0.035598822 -0.120575406
u230 -0.1544647 -0.21970038 0.060103428 0.08009569 0.10960531 0.0411222 -0.11032939 -0.1529169 0.108878195 -0.011250565 0.038206197 -0.16611461 -0.06711772 -0.25773263 -0.111611366 0.026219442 -0.02008812 0.0061875856 0.03245853 -0.030597346 -0.049473714 -0.10014471 -0.25425678 -0.08287198 0.03363199 0.41611525 0.088268705 -0.0025487351 0.21242997 -0.037900764 -0.080827504 -0.2772715 -0.013853163 -0.03625182 0.08883705 -0.03236963 -0.1647579 -0.018344626 0.07797203 -0.09940832 0.16099536 0.34799686 -0.12986363 0.18220095 0.13794483 0.03153582 0.054696202 0.07405044 0.09014716 0.042525135 -0.09203665 0.004418319 -0.017440174 0.01223448 -0.10352989 -0.32529238 0.06956233 0.11061816 -0.047710475 -0.0661993 -0.10844956 0.2024229 0.055987768 -0.033872724
u846 0.21200441 0.27636865 -0.21326253 0.038198903 -0.1825587 0.03003289 0.089705 0.06972099 -0.18954238 0.24856026 0.029184565 -0.06192645 -0.20806396 0.20653436 0.13111073 -0.15360601 -0.04927808 0.18647662 0.32509774 -0.06304756 -0.071434386 -0.14064635 0.19650744 -0.15705171 0.09095272 -0.22475916 0.029175686 0.070678025 -0.12049693 -0.16963984 -0.17480017 0.26413205 -0.058331244 0.24407186 0.1249979 -0.25210783 0.30854082 0.12431847 -0.2999109 -0.21720256 0.031068262 -0.27045318 0.22373179 0.2066185 -0.016993565 -0.2652519 -0.2290424 -0.09768807 0.10310219 -0.06211938 -0.016422892 0.21424888 0.084118664 -0.23860052 0.20604736 0.18671526 0.25294882 -0.015345778 -0.16277857 -0.13917246 -0.19512644 0.026628213 -0.03936446 0.09372138
b172 0.24391513 0.07486397 -0.18215692 -0.03861697 -0.19575052 0.108970046 -0.037916508 0.074277125 -0.044018976 0.2551743 0.073350996 -0.16283865 -0.25023556 0.18535145 0.085085526 -0.14972053 -0.05573367 0.1817124 0.28468984 -0.037378564 -0.12352672 -0.07477339 0.22529489 -0.20165406 0.107321404 -0.29329744 0.084823065 -0.043231655 -0.21008581 -0.10072169 -0.13727899 0.333437 -0.14349605 0.19756433 0.18356404 -0.21575797 0.3433715 -0.0003468012 -0.29728162 -0.18979108 0.026938537 -0.30930537 0.16680202 0.15627009 0.08355437 -0.37514326 -0.04889147 -0.12498987 0.09500701 -0.15625998 -0.06127343 0.17049563 -0.048300866 -0.23400371 0.09716553 0.19395973 0.26742202 0.07480912 -0.1528393 -0.15504502 -0.26400897 -0.01193365 0.013680144 0.15766385
u99 0.18416761 0.1974018 -0.15524572 0.041646168 -0.13226806 -0.0030791531 -0.03216667 0.17846847 -0.10245673 0.25383916 0.028461767 -0.10071342 -0.2028468 0.1465145 0.12224254 -0.16271171 -0.096969366 0.23931074 0.2632085 0.005232589 -0.13379346 -0.0024473905 0.2130223 -0.20690128 0.049079135 -0.22049569 0.11241068 -0.0008706681 -0.20240551 -0.1725439 -0.12972239 0.24186699 -0.11002312 0.2326874 0.13674608 -0.18844739 0.26283437 0.008629352 -0.2502839 -0.16148755 -0.06799047 -0.2977729 0.14273076 0.19898808 0.09624997 -0.26541805 -0.11738648 -0.10812954 0.15639043 -0.05953964 -0.033041455 0.15488212 0.046167485 -0.19931166 0.09533874 0.22108981 0.17565319 0.09939828 -0.10460057 -0.010016449 -0.14307705 -0.10540159 -0.03932262 0.14671375
b179 0.1880259 0.21609557 -0.2326089 -0.010136691 -0.24636889 -0.026418211 0.074159235 0.06206149 -0.11609363 0.29704446 0.053362865 -0.08868147 -0.20339881 0.19861051 0.037157044 -0.13014247 -0.17369202 0.2305239 0.30248898 -0.07301568 -0.159078 -0.15700465 0.22098087 -0.20048153 0.12400009 -0.25931388 0.08900112 0.0026035002 -0.19801608 -0.15179354 -0.05962779 0.22054099 -0.0925003 0.24557425 0.18065232 -0.20174523 0.1453998 0.029066062 -0.2552313 -0.15999934 0.08215783 -0.20348828 0.12135669 0.25572035 0.07852799 -0.294553 -0.08977217 -0.14941353 0.12220312 -0.059124418 -0.07715095 0.18770112 0.04630944 -0.22385043 0.13741307 0.16170388 0.19514401 0.0727344 -0.15988377 0.052676596 -0.12819932 -0.08256818 -0.08299144 0.08480495
u42 0.077575296 -0.006132003 -0.024870716 0.058090553 0.014267479 0.16628015 -0.01271745 -0.07496281 -0.12671545 0.06549229 -0.026179856 -0.09749539 -0.06861946 -0.09062859 0.011192902 0.031836074 -0.16430552 0.16698988 0.12335098 -0.0820851 -0.058292612 -0.20379537 0.0041613923 -0.0147224115 0.01813647 0.10687553 0.29607788 -0.072631165 -0.10801349 -0.12925096 -0.14243805 -0.03550427 -0.025901562 0.10071591 0.097016126 -0.027931847 -0.1108286 0.123626634 -0.051853627 -0.014146975 0.09400161 0.078031406 0.07376926 0.22208595 0.13047704 -0.16105162 -0.039940983 -0.07593683 0.059208103 0.053070072 -0.07723504 0.030591726 0.06356883 -0.06287138 0.08945917 -0.06586973 0.12956351 0.1760559 -0.063756146 0.12793107 -0.20148982 -0.016723836 0.06701637 -0.09824838
b891 0.1949945 0.15690967 -0.15539977 0.05254334 -0.15842807 0.062496968 -0.008708997 0.10435326 -0.11146109 0.12979695 0.011164917 -0.079167634 -0.121154085 0.1291889 -0.005819785 -0.091811895 -0.10952204 0.15906794 0.148205 -0.058774296 -0.093535274 -0.09623417 0.14287008 -0.11334764 0.046814814 -0.19419968 0.08437168 -0.05004036 -0.09962572 -0.12107546 -0.09973726 0.21868908 -0.08209309 0.14877452 0.071052685 -0.14690489 0.15847656 0.010321104 -0.14647463 -0.13496846 0.08827934 -0.23439133 0.08686758 0.115076214 0.06476245 -0.42793983 -0.10765463 -0.061648365 0.09331373 -0.06344519 -0.03954536 0.1453929 -0.04727864 -0.1624243 0.0659404 0.18182045 0.14765234 0.11678921 -0.13208815 -0.066150665 -0.16553485 -0.10244716 0.012459596 0.113130786
u530 0.20528226 0.2182962 -0.19959109 0.094128884 -0.22586103 0.034874182 0.032965474 0.22140041 -0.055085693 0.26187894 0.11070892 -0.111690186 -0.15197264 0.21823779 0.06767496 -0.10466234 -0.1528482 0.20274082 0.24156916 -0.0749365 -0.14414401 -0.124214716 0.17458464 -0.1674783 0.090864316 -0.22309613 0.11345347 0.10425528 -0.21752092 -0.12210888 -0.10355559 0.2797886 -0.12860173 0.18513097 0.07989334 -0.2158283 0.25138828 0.057664283 -0.2184259 -0.17902003 0.08927824 -0.2686286 0.16113797 0.19017711 0.09386873 -0.39178237 -0.14591545 -0.14194149 0.0968495 -0.05339562 -0.07544731 0.1848723 0.0063708653 -0.20945528 0.051749185 0.22703785 0.16417982 0.07447038 -0.13005784 -0.003975749 -0.1711993 -0.17961647 -0.045025006 0.1541572
b1258 0.16265678 0.1362129 -0.17264289 0.11293966 -0.11823882 0.057578154 0.027997896 0.08236467 -0.057409015 0.09336972 0.06515669 -0.099833824 -0.117272556 0.13357101 -0.04446089 -0.057267755 -0.10388224 0.12083715 0.20490761 -0.05829909 -0.11055869 -0.13448033 0.13986021 -0.10942159 0.068526864 -0.1090101 0.10076334 0.009875787 -0.17556171 -0.13850984 -0.094460666 0.16060928 -0.06638171 0.11479055 0.07908892 -0.16813281 0.099582 -0.0062267366 -0.13832279 -0.13329737 0.09310378 -0.1722431 0.14294201 0.14108944 0.08605015 -0.22565977 -0.121404976 -0.060928933 0.062122576 -0.05271704 -0.08725281 0.13786751 -0.04085877 -0.12071404 0.07203768 0.12786882 0.14552295 0.067206144 -0.10838558 -0.03257832 -0.1336371 -0.08829405 -0.030557401 0.06577653
u295 0.17669466 0.19786678 -0.2835077 0.07143908 -0.23273122 -0.021958118 0.07120401 0.13488531 -0.22291246 0.24498516 0.07666204 -0.100190416 -0.1895815 0.19746608 0.021328643 -0.03224874 -0.12323026 0.20849966 0.23399174 -0.044716347 -0.1652333 -0.16297793 0.151164 -0.113930285 0.023383431 -0.12671806 0.0781897 0.12037824 -0.17173706 -0.08595605 -0.08856602 0.20067962 -0.06966059 0.16741265 0.100821495 -0.2061793 0.1565133 0.059336483 -0.20685075 -0.16808325 0.016260566 -0.22536562 0.15495065 0.19491377 0.025043417 -0.2518365 -0.09212094 -0.084190965 0.07592177 -0.08085241 -0.04154345 0.11385042 0.02437427 -0.1887035 0.15195845 0.18464448 0.24046612 0.029982451 -0.10486079 -0.14953445 -0.1544255 -0.06434432 -0.049213648 0.19030164
b1015 0.16092567 0.15610576 -0.2052998 0.055222154 -0.16199617 0.026788462 0.048615906 0.12374932 -0.14939831 0.21082053 0.17588301 -0.0544607 -0.19890557 0.19303933 -0.029942205 -0.14749706 -0.17328542 0.049934767 0.2632844 0.022563577 -0.22475937 -0.0029578812 0.22090009 -0.11250545 0.09433745 -0.25904638 0.028078293 -0.028890925 -0.24572428 -0.17055549 -0.1266141 0.3152555 -0.08186393 0.17603298 0.12927812 -0.1869858 0.20856214 0.17025761 -0.3031128 -0.1588882 0.15357573 -0.28817418 0.093118735 0.23358132 0.07333836 -0.28680658 -0.13022551 -0.13151704 0.16615169 -0.0041517024 -0.040144224 0.19004464 0.041722447 -0.14401169 0.11762705 0.21637367 0.18466596 0.044243414 -0.23465261 -0.050699536 -0.16339494 -0.07055863 -0.057727855 0.0668833
u159 0.18104911 0.15696086 -0.24066103 0.008832426 -0.11577095 -0.051002324 0.07068741 0.13116486 -0.18441837 0.18091558 0.1506471 -0.02623983 -0.14641234 0.13046958 -0.06529834 -0.07713791 -0.17187111 -0.022488415 0.2189455 0.016425703 -0.19520795 0.023624338 0.15614809 -0.096087426 0.14997993 -0.2730794 0.04351112 -0.0066062515 -0.15346819 -0.1577602 -0.16896386 0.25704747 -0.0366642 0.17473114 0.1047203 -0.18881455 0.34915918 0.12132517 -0.2507912 -0.20193732 0.15186739 -0.21102685 0.099172615 0.16803606 0.03730675 -0.30151477 -0.07346045 -0.13034755 0.19474444 -0.012180729 -0.083997205 0.21930271 0.07150955 -0.1474844 0.14087237 0.13133475 0.23221852 0.027280815 -0.25913116 -0.11459324 -0.18014634 -0.012155684 -0.0964784 -0.012656355
b1811 0.048336964 0.12899087 -0.118116334 0.022258531 -0.10831442 0.013683494 0.02208462 0.13762467 -0.12705022 0.12352063 0.06443241 -0.013022536 -0.082589135 0.0549707 0.0108631 -0.11217183 -0.03894448 0.06411122 0.1554605 -0.030467112 -0.07693593 0.0025277876 0.075721525 -0.06405239 0.07601819 -0.065626375 0.021447485 0.03441361 -0.046889056 -0.1143051 -0.053884804 0.07185047 -0.06699995 0.09409968 0.06690414 -0.08593856 0.15827128 0.045474324 -0.18146114 -0.11124637 0.081275105 -0.05332222 0.06268996 0.088917285 0.012426365 -0.07135136 -0.13746767 -0.059434697 0.05435141 -0.043227084 -0.0007415576 0.112614 0.015974311 -0.09050714 0.05959932 0.070658624 0.10089654 0.016426506 -0.11152838 -0.03504144 -0.07642469 0.0034567888 -0.054893848 0.04143716
u192 0.0915121 0.3286727 -0.27495262 0.08986751 -0.20452641 -0.013069297 0.04862858 0.12559044 -0.023906013 0.2648844 0.11751323 -0.0764353 -0.1496615 0.17632288 0.072974995 -0.1978315 -0.03163691 0.12411532 0.18877853 -0.016521854 -0.09740508 0.061789803 0.20057197 -0.16556199 0.06556698 -0.30177835 0.060591314 -0.09183368 -0.16696705 -0.1170297 -0.14778572 0.2550911 -0.12852995 0.18428233 -0.034422915 -0.16797604 0.29365888 0.1202255 -0.16973399 -0.15168779 0.046968307 -0.34247082 0.15608758 0.22354203 -0.021590851 -0.37033162 -0.086049825 -0.08237222 0.14040624 -0.08652762 -0.1067064 0.16875911 -0.0023989666 -0.20200236 0.055999253 0.17572147 0.1753105 0.08654038 -0.15603375 -0.047152147 -0.128078 -0.06769301 -0.11736641 0.063095696
b84 0.18048386 0.13198163 -0.21950458 0.05890902 -0.18624051 0.066412695 -0.0070860777 0.1255641 -0.09124375 0.31829688 0.061817963 -0.06537049 -0.20657012 0.14425668 -0.0866716 -0.017914858 -0.11599113 0.17668788 0.2653398 -0.06064727 -0.17025764 -0.13579252 0.2065104 -0.12654278 0.089512385 -0.26075995 0.122425504 -0.019884516 -0.2112944 -0.009878872 -0.16851242 0.2837237 -0.09227025 0.21606074 0.057791337 -0.14507896 0.2201064 0.07810483 -0.24525899 -0.14065793 0.05904846 -0.21966882 0.1004624 0.15992571 -0.03295555 -0.43419755 -0.12777022 -0.102260314 0.16116896 -0.084264584 -0.10074449 0.22992617 0.05360984 -0.14729263 0.09030823 0.26924506 0.18070222 0.08369707 -0.10879322 -0.04608969 -0.19813012 0.039714694 -0.073862776 0.15021129
u988 0.191285 0.12868643 -0.14567056 0.031570077 -0.15293163 0.06801265 -0.067412876 0.047193535 -0.090330034 0.15352865 0.067818664 -0.027113842 -0.14344633 0.14421704 0.015954472 -0.011128591 -0.06329112 0.18638845 0.21627119 -0.04571191 -0.0783122 -0.09560036 0.20537807 -0.1059463 0.103803836 -0.12522088 0.107994914 -0.029019825 -0.15782465 -0.05296095 -0.14834535 0.2194608 -0.13124613 0.109276086 0.13816665 -0.09926668 0.21171555 0.06308509 -0.19837582 -0.16438653 0.19048896 -0.18863297 0.1124583 0.16574034 0.030936686 -0.3450491 -0.13409531 -0.17100854 0.11428073 -0.09036138 -0.009522229 0.22058253 -0.094156995 -0.17693901 0.09040581 0.15121096 0.17454065 0.08812947 -0.13312948 -0.08983227 -0.20615308 -0.049199127 -0.13080333 -0.065772094
b1401 0.10688023 0.26699924 0.010878466 -0.014711206 -0.19346756 -0.07083456 -0.0788175 0.18560666 -0.17796154 0.09857188 -0.04615078 -0.03480654 -0.12434552 -0.00542579 0.115665436 -0.05752952 0.041906737 0.11688695 0.25257206 -0.12962751 0.0034778046 0.054790586 0.05768368 -0.040654343 -0.0079707615 0.037629023 -0.051403314 -0.14545256 -0.23667535 -0.13269992 -0.0042007933 0.06911665 -0.039297804 0.07541443 0.107747845 -0.13335945 0.1783692 0.09969391 -0.29069996 -0.10399272 0.15257286 -0.18840392 -0.044604115 0.16098079 0.18286768 -0.29162055 -0.055836644 -0.00093653996 0.25200248 -0.030669104 -0.03116602 0.05212395 0.015052931 -0.18821594 -0.093074515 0.09025504 0.13267943 0.19216548 -0.03511027 -0.21417776 -0.10811896 -0.081352845 -0.057295196 0.1072997
u456 0.25239393 0.17696805 -0.25768903 0.0039336695 -0.18814002 0.043882225 -0.055768058 0.21318913 -0.020539906 0.23038375 0.083900124 -0.05543524 -0.23699547 0.1283833 -0.044383436 -0.18832013 -0.08645518 0.20710418 0.33449227 -0.08978619 -0.10546563 -0.116916105 0.2508953 -0.19228268 0.10783776 -0.3024512 0.06353503 0.0060616 -0.14391594 -0.099453725 -0.15431675 0.29023838 -0.14053734 0.19852051 0.18090001 -0.20344718 0.1442577 0.13457213 -0.24736126 -0.19209006 0.16257213 -0.3132931 0.16477299 0.21930458 -0.011030943 -0.480159 -0.09074302 -0.0968153 0.117245466 -0.17284423 -0.006861929 0.19027457 -0.070109785 -0.1946642 0.13836154 0.26640952 0.18034253 0.06638343 -0.116976224 -0.061820716 -0.23740168 -0.037999887 -0.08236724 0.06457067
u315 0.17258207 0.22870897 -0.14357474 0.011611893 -0.22305244 0.054449182 -0.027108496 0.122520916 -0.0843379 0.29878882 0.061927658 -0.10929494 -0.198407 0.1284808 0.04175826 -0.15585004 -0.11097157 0.19997351 0.2033669 -0.10699648 -0.06435124 -0.032093838 0.25432184 -0.19688305 0.117202826 -0.36110044 0.10017635 -0.02590811 -0.22696912 -0.103661954 -0.11957647 0.30825263 -0.09554461 0.20576598 0.10729225 -0.20634717 0.11710891 0.09502457 -0.24418034 -0.23837931 0.0134445 -0.30695283 0.14175396 0.16733599 0.003945341 -0.41296098 -0.048003655 -0.124988906 0.20510222 -0.077590145 -0.047976136 0.1902311 -0.05684707 -0.19002861 0.016787091 0.19998519 0.21011588 0.024252906 -0.2455972 -0.10007279 -0.13283646 -0.04934363 -0.034457043 0.025660707
b16 0.14565551 0.24581149 -0.30143014 0.023601448 -0.20368771 0.09067062 0.025794081 0.058171723 -0.045010634 0.28487465 0.15055166 -0.07415729 -0.09583726 0.20003176 -0.018714074 -0.15423489 -0.14879714 0.106359504 0.2654911 -0.07084467 -0.18609326 -0.07383741 0.175448 -0.16986884 0.15233532 -0.34293166 0.122210585 0.0029625974 -0.113414176 -0.08911066 -0.11366396 0.30925682 -0.17652613 0.23667663 0.11998453 -0.22505045 0.23384078 0.048704833 -0.3187597 -0.19445197 -0.04756905 -0.2847185 0.14147149 0.13879694 0.028475322 -0.42888603 -0.14548707 -0.19022147 0.063097134 -0.0852907 -0.019361312 0.20604816 -0.008008753 -0.13803428 0.0894117 0.24605942 0.186857 -0.021814592 -0.17400208 -0.13809104 -0.13602608 -0.038459666 -0.037165143 0.0026470628
u235 0.027584227 0.2582083 -0.23757395 0.05267012 -0.21932273 0.0017618483 0.07888686 0.13463733 -0.15013146 0.29856193 0.12997313 -0.060888536 -0.10352284 0.13349734 0.104991816 -0.14242306 -0.1010062 0.16787083 0.086247526 -0.030939855 -0.07724397 0.046075687 0.14926061 -0.121054485 0.061654408 -0.2774234 0.03596774 0.027396593 -0.07522575 -0.11209953 -0.012828603 0.19884185 -0.03716009 0.2506244 -0.018661577 -0.20311514 0.16365725 -0.012574235 -0.24544306 -0.14398383 -0.0024438433 -0.25200662 0.090104476 0.0938891 0.08504879 -0.13444571 -0.16338693 -0.16883868 0.015157277 -0.24680558 0.021087488 0.063483015 -0.009650214 -0.077717565 0.15563469 0.19260548 0.25779498 0.006256847 -0.15763378 -0.18439555 -0.012549348 0.16452578 -0.08598397 -0.04325143
b640 0.07933722 0.15841323 -0.109632894 -0.0029941155 -0.16220526 -0.025151199 0.05056267 0.13321523 -0.1167376 0.16450842 0.0685162 -0.06439313 -0.1239457 0.08989162 0.06718181 -0.14070763 -0.033415843 0.095506854 0.20405762 -0.039808303 -0.071611814 -0.01684205 0.10271503 -0.09530231 0.087521486 -0.10940803 0.026923837 0.031665463 -0.11082034 -0.05235054 -0.050657447 0.10623778 -0.061337557 0.17070962 0.058645982 -0.14115788 0.1654722 0.08279163 -0.19550653 -0.14378154 0.05805064 -0.09217889 0.07488669 0.06938916 -0.009132075 -0.12537134 -0.10654909 -0.11878866 0.095204 -0.055363677 -0.010434332 0.13037731 0.01498843 -0.14920735 0.04234701 0.091059394 0.11111035 0.039961748 -0.078195214 -0.10262291 -0.06260304 -0.011549616 -0.06131386 0.059047394
u357 0.17074601 0.27031824 -0.16071737 0.020120682 -0.31482688 -0.03382657 0.036487583 0.06286556 -0.27265963 0.27835807 0.07910443 -0.1672405 -0.19431472 0.15094587 0.14109834 -0.22900724 -0.18451513 0.13291556 0.33624363 -0.073288664 -0.1246382 -0.034670796 0.2237129 -0.229798 0.17840156 -0.34624872 0.13494074 -0.00598651 -0.25291482 -0.05376313 -0.14440504 0.28379518 -0.156942 0.29793537 0.14069238 -0.14745182 0.22090872 0.09455044 -0.27859777 -0.16325906 0.03859547 -0.2686204 0.09074577 0.16847338 -0.043949716 -0.37507525 -0.16008057 -0.08916105 0.12749782 -0.09639512 -0.04147958 0.26330522 0.026791045 -0.17022648 0.18375137 0.22556454 0.2431593 0.09690894 -0.21524331 -0.16195774 -0.16199462 -0.020137146 -0.15551701 0.107635655
b1054 0.1612062 0.20112379 -0.24739034 0.033631857 -0.3230073 -0.03817976 0.072392136 0.15104894 -0.18990722 0.2989853 0.089312375 -0.08538087 -0.2150461 0.17528361 0.07594983 -0.24089439 -0.1376111 0.13507544 0.2733367 -0.07966445 -0.10054197 -0.07004676 0.14941394 -0.1819672 0.1492366 -0.26885876 0.11918148 0.07850973 -0.22089843 -0.103923805 -0.13599694 0.28065592 -0.17656362 0.25047588 0.14272492 -0.22747898 0.22800988 0.13659674 -0.31777585 -0.25849372 0.10187367 -0.26102695 0.14722975 0.15787569 0.0035537204 -0.2869664 -0.17927025 -0.13866411 0.21448453 -0.12730141 -0.05383916 0.2383706 0.02239225 -0.17978206 0.10479723 0.18664043 0.1990027 0.05019881 -0.15959395 -0.13078427 -0.12964162 0.0347952 -0.14368512 0.11445361
u176 0.022734528 0.24202998 -0.18791813 -0.03436345 -0.21671164 -0.08238429 0.04459712 0.1419455 -0.15189369 0.35716206 0.15282884 -0.019970628 -0.1988586 0.22644398 0.081369914 -0.088750824 -0.17112257 0.16482276 0.2039129 -0.16042215 -0.09559987 -0.012554179 0.1517366 -0.14551067 0.12240094 -0.27086863 0.11847593 0.058110874 -0.17437686 -0.1842052 0.02598435 0.29770923 -0.06854687 0.21957318 0.07400951 -0.15261291 0.27731723 0.12611087 -0.23447596 -0.23287183 0.01939435 -0.26859492 0.13959312 0.084056914 -0.057405528 -0.17589062 -0.108522 -0.07714404 0.20815733 -0.06418307 0.0060885428 0.078892246 -0.012588868 -0.13818522 0.07290171 0.22466359 0.20372316 0.01764879 -0.11493707 -0.1347546 -0.061073583 0.014075899 -0.092769586 0.12652677
b1184 0.09174231 0.23220108 -0.13243836 0.0045457333 -0.12941104 -0.024550976 0.06610502 0.097992495 -0.14662267 0.33508787 0.08565988 -0.06320991 -0.22001587 0.17435613 0.10763619 -0.14656001 -0.18246633 0.13968849 0.23442595 -0.21922205 -0.05275212 -0.05706895 0.19340783 -0.2130135 0.13615398 -0.21929881 0.12500551 0.08351109 -0.20454241 -0.21086173 -0.016903412 0.27216303 -0.09008333 0.217569 0.09672408 -0.1890753 0.16903475 0.08484725 -0.3422131 -0.1558542 0.052957192 -0.22536626 0.067245945 0.14629728 0.06922483 -0.284434 -0.2581768 -0.14189239 0.19486868 -0.04640494 0.0047050435 0.14805223 -0.004248739 -0.20656464 0.067350656 0.19135694 0.303006 0.020337181 -0.13232079 -0.11406619 -0.11863516 -0.02092062 -0.0634022 0.006484391
u471 0.14145258 0.26021948 -0.1803001 0.021571118 -0.21604317 -0.008132856 0.0048908433 0.0696059 -0.20063144 0.32721168 0.040128417 -0.09073081 -0.22497447 0.18357903 0.07501974 -0.1578387 -0.11515831 0.1881997 0.21458946 -0.21698275 -0.055235006 -0.1837178 0.27540764 -0.12971781 0.06254034 -0.21004108 0.15234765 -0.045545105 -0.26319754 -0.23092645 0.0061794766 0.2927635 -0.06195691 0.26506832 0.13702859 -0.17759104 0.15992087 0.08701631 -0.3449095 -0.15299387 0.10591268 -0.22254534 0.085300654 0.17935276 0.1283607 -0.23732826 -0.17934093 -0.12619199 0.14725533 -0.08675353 0.01584136 0.08825612 -0.033841725 -0.130802 0.09924108 0.23955181 0.28001314 0.1477086 -0.18269347 -0.21890916 -0.058648665 -0.060981646 -0.029296054 -0.13791381
b1 0.1633386 0.12044894 -0.17229362 -0.004019777 -0.15891229 -0.002629881 0.018803112 0.12643588 -0.056479644 0.145462 0.09849925 -0.027120994 -0.14240888 0.10003692 0.039093126 -0.08101726 -0.024127498 0.11554948 0.17883919 -0.081388526 -0.10922397 -0.061848875 0.17887124 -0.13284412 0.047072697 -0.12193161 0.057935983 0.033559848 -0.089532904 -0.100249104 -0.11519968 0.14960071 -0.10700035 0.095069356 -0.02455965 -0.10166652 0.17411774 0.099838145 -0.1552442 -0.10593894 0.076637544 -0.16014129 0.14177515 0.14590678 0.048006266 -0.15240207 -0.12083867 -0.0751461 0.12439597 -0.09114341 -0.054897226 0.1402692 -0.07038193 -0.105939806 0.12574126 0.14171608 0.077838264 0.08443211 -0.10396192 -0.010131747 -0.10221785 -0.102776945 -0.060706895 0.13693786
u223 0.14932737 0.1568056 -0.22135265 0.076140806 -0.19642493 0.034544323 0.08366441 0.21322659 -0.09796541 0.24924177 0.20600994 -0.01669902 -0.14246072 0.18454146 -0.038379624 -0.10174657 -0.07500855 0.09572686 0.24005558 -0.030043688 -0.16840473 -0.059021346 0.1576335 -0.15748222 0.088820696 -0.23158032 0.04132725 -0.04288513 -0.14859179 -0.1705809 -0.06881534 0.22729169 -0.08227551 0.20586234 -0.013968561 -0.18564229 0.22986391 0.12226789 -0.17593934 -0.18559363 0.10661584 -0.24173364 0.1713742 0.14093657 -0.004272534 -0.2472953 -0.064567 -0.14855501 0.118441865 -0.0856502 -0.07004139 0.21756124 0.048518226 -0.14005858 0.11842101 0.2388277 0.08296745 0.07309711 -0.10407042 -0.011492238 -0.08568344 -0.03290594 -0.030962866 0.14461876
b1554 0.16833568 0.18029091 -0.27233955 -0.017476616 -0.25569084 0.01028524 0.054271035 0.14260088 -0.12914112 0.27934167 0.15363394 -0.04075033 -0.1588682 0.15489572 0.04691386 -0.08416378 -0.040640164 0.20525816 0.2951475 -0.067675486 -0.110129 -0.09504382 0.16684581 -0.14392285 0.114606775 -0.17100154 0.023232028 0.03998193 -0.14587212 -0.06360413 -0.06952857 0.20624779 -0.097197436 0.15122521 0.06505425 -0.14436199 0.25217125 0.10636495 -0.27353886 -0.156575 0.054205813 -0.22287601 0.12684782 0.17109609 0.026551282 -0.22328189 -0.12981915 -0.16553687 0.1227047 -0.08670582 -0.040997963 0.24787182 0.0021623257 -0.17745583 0.11266581 0.18000422 0.17222732 0.07299202 -0.13477643 -0.04860976 -0.14518222 -0.18124557 -0.08236205 0.04910775
u926 0.16850531 0.35820845 -0.2376284 0.009702979 -0.16870756 -0.0073249536 0.066823065 0.27851546 -0.098420136 0.21131657 0.08856037 -0.026999602 -0.18444698 0.14771509 0.1173087 -0.15186884 -0.020930108 0.14073202 0.29033604 -0.013238194 -0.098096184 -0.025334472 0.1879719 -0.18746836 0.06625027 -0.21114926 0.029566769 -0.012816984 -0.1281661 -0.1350979 -0.08632175 0.22428165 -0.14666656 0.1417052 0.021981569 -0.13479507 0.28291014 0.092167795 -0.27124843 -0.13850808 0.033383746 -0.21327117 0.17549287 0.1536479 0.0032822103 -0.29129368 -0.1087683 -0.089572705 0.08379748 -0.037482567 -0.03208651 0.19194931 -0.0027732942 -0.13438284 0.10903656 0.14093092 0.12314597 0.058250397 -0.10961181 -0.052210085 -0.1295424 -0.1186208 -0.0015167339 0.15202767
b1559 0.18533532 0.24865611 -0.23939577 0.053697865 -0.16596521 -0.02160943 0.07945234 0.21176179 -0.003945436 0.26892042 0.26214635 -0.005084186 -0.24789262 0.16722006 0.09895265 -0.21442965 -0.03175198 0.10801795 0.34942502 -0.00037773012 -0.10440298 -0.075474605 0.19323868 -0.14026587 0.13940164 -0.22040884 0.03525976 -0.012870449 -0.13984503 -0.07610297 -0.0813792 0.2636532 -0.119960904 0.20793262 0.028164558 -0.13828547 0.19701147 0.09631494 -0.20144676 -0.17593972 0.057269756 -0.2681208 0.08878285 0.16259694 -0.015185728 -0.24226643 -0.15930298 -0.10925044 0.119508624 -0.05379139 -0.08353446 0.23904817 -0.021330284 -0.16507028 0.05986745 0.19642262 0.13200028 0.05677825 -0.12832548 0.022619363 -0.12625122 -0.09629665 -0.13689722 0.11357239
b2535 -0.030541427 0.049462873 -0.050812088 0.034664255 -0.047714543 0.043920774 -0.041749973 0.04688945 -0.04864548 0.043154836 0.045502067 -0.0345692 -0.03797723 -0.01559812 -0.03706446 -0.057019398 -0.045011375 0.040364586 0.052124526 -0.031346552 -0.039738264 0.052108083 -0.013429611 -0.051315024 0.05949875 0.018572053 0.04423807 -0.051124513 0.0258986 -0.04227686 -0.06051414 -0.024545016 -0.058302116 0.049764022 -0.052255623 -0.03673456 0.06134829 -0.04001875 -0.037458684 -0.05973368 0.04080542 0.020368632 0.049986072 0.036879353 0.033966094 0.028497335 -0.05281322 -0.05987849 0.036821894 -0.050119083 -0.037148055 0.035546526 -0.049977634 -0.046241198 -0.036054175 -0.030341921 0.03743665 0.04048332 -0.03991799 -0.057896923 -0.035151962 0.035288595 0.030866046 0.049786434
b700 0.25109282 0.27103153 -0.2800352 0.04201816 -0.26120883 0.011745774 0.088368066 0.21102393 -0.15152963 0.31328914 0.14932987 -0.14158778 -0.18414398 0.24585143 -0.03534366 -0.11488971 -0.15483515 0.20449154 0.28865626 0.008725261 -0.08742787 -0.08984196 0.24496146 -0.19917554 0.12379575 -0.2326353 0.06612356 -0.05460169 -0.22318862 -0.08052414 -0.23478755 0.24643013 -0.11222608 0.19049901 0.10581452 -0.26020104 0.29668087 0.07496146 -0.32826018 -0.22703925 -0.02415101 -0.32571995 0.274296 0.20602056 0.14117476 -0.3367401 -0.11088483 -0.20726557 0.16227026 -0.18427782 -0.08185375 0.12127411 -0.045273107 -0.1882819 0.16397515 0.26133698 0.18004608 0.062103212 -0.16411434 -0.09493983 -0.14502716 -0.1517089 -0.05241748 0.117248796
u757 0.112291165 0.24092805 -0.21720296 0.094641946 -0.089418456 0.05295166 0.033935443 0.19150749 -0.031212427 0.17900154 0.13960047 -0.13112047 -0.203636 0.10199651 0.06548603 -0.043100134 -0.07326926 0.07824617 0.2091719 0.005518172 -0.037367627 -0.057314117 0.19841158 -0.116057 0.02094041 -0.19810358 0.12540004 -0.06338371 -0.11110218 0.0031665177 -0.083409555 0.16768247 -0.12552674 0.17539756 0.06632629 -0.12039044 0.13650836 0.07785518 -0.22095083 -0.08994854 0.04723119 -0.17884627 0.16444393 0.18976188 0.03137659 -0.24923065 -0.0062072836 -0.08631527 0.09795508 -0.01800381 -0.06402393 0.14525673 -0.007769067 -0.1549156 0.094242014 0.07611846 0.16357495 -0.008159366 -0.11699324 0.008295107 -0.16018918 -0.0974441 -0.09534479 -0.03206011
u1148 0.16289763 0.20611124 -0.18903515 -0.0018001151 -0.21137051 0.03500322 0.07629111 0.19351792 -0.14085725 0.22303288 0.09204351 -0.030660821 -0.1922346 0.16951644 0.036183104 -0.07204152 -0.06303556 0.14270268 0.29686144 -0.14603749 -0.088027135 -0.014599218 0.12745012 -0.046618845 0.042409196 -0.19298477 0.055919368 0.029690424 -0.14742339 -0.122310765 -0.10042998 0.16271172 -0.094086535 0.24224484 0.009676134 -0.1597941 0.22886956 0.10289419 -0.17531355 -0.10899927 0.069529034 -0.19180001 0.18896867 0.1504603 0.01953618 -0.1527886 -0.20459375 -0.062277965 -0.0035368404 -0.06359169 -0.066566244 0.2543668 0.03922588 -0.20220974 0.15701605 0.24198242 0.14141546 0.121544905 -0.19877481 -0.064390205 -0.051056385 -0.072085045 -0.1026229 0.06977919
b2049 0.0022192216 0.10065579 -0.09609693 0.007512065 -0.092317946 -0.0076660356 -0.0060483487 0.097521245 -0.082824744 0.11666257 0.027024863 -0.017841907 -0.09837422 -0.009257132 0.0006504067 -0.06744985 -0.0033948817 0.085529305 0.10969133 -0.024148896 -0.062230486 -0.014007636 -0.005171624 -0.05086811 0.023931999 -0.0077916374 0.018175807 0.007997836 0.010396776 -0.08033314 -0.04927416 0.010839472 -0.056791175 0.09619861 -0.017073933 -0.07819759 0.10199664 -0.008329175 -0.105023496 -0.07633814 0.061368275 -0.028314954 0.08863567 0.065941036 0.023064133 -0.021230288 -0.09996212 -0.07488856 0.05658179 -0.048119705 0.0030036105 0.09074812 -0.006445878 -0.07001033 -0.013052441 -0.00086970755 0.073970996 0.036606286 -0.08206185 -0.042353347 -0.048159003 0.0073335734 -0.0046241274 0.06678533
b191 0.18145323 0.30857226 -0.2294581 -0.0017603982 -0.14932668 0.023755109 0.0110802725 0.09934076 -0.21474053 0.24374358 -0.002498935 -0.07167267 -0.2318383 0.13870561 0.035559483 -0.24624269 -0.108937815 0.075305246 0.3098754 -0.13330945 -0.16308855 -0.07022375 0.25250283 -0.12248622 0.11923977 -0.27208313 0.118676595 -0.03226707 -0.09985115 -0.09633581 -0.08498764 0.28950348 -0.07832827 0.2574191 0.1292686 -0.22886881 0.29769108 0.18111297 -0.26114738 -0.1889001 0.096092075 -0.24760991 0.17266801 0.15955602 0.09889236 -0.38878274 -0.1713166 -0.13836536 0.11497641 -0.027457105 0.039989203 0.19101691 0.0080819195 -0.16106252 0.109082595 0.23943365 0.22029275 0.02693388 -0.20461549 -0.12240095 -0.12353252 -0.13302171 -0.06640942 0.096558094
u217 0.19656116 0.16973266 -0.21305029 0.08476976 -0.16957775 0.051511187 -0.014487646 0.23567005 -0.12940282 0.21156406 0.06295086 -0.13381553 -0.2136293 0.2083215 0.06958413 -0.1470716 -0.12965256 0.17561847 0.26707223 0.017155996 -0.06483449 -0.090694375 0.22174446 -0.18555897 0.09417198 -0.28592202 0.06639671 -0.027102994 -0.19290987 -0.10252081 -0.11695973 0.31723154 -0.15286398 0.19951618 0.12276577 -0.2252592 0.21676151 0.091948435 -0.26127863 -0.15949474 0.10685339 -0.36054128 0.14001092 0.13063043 0.09947547 -0.46839574 -0.099069096 -0.104259975 0.14401484 -0.18905705 -0.056817137 0.1824276 -0.021057498 -0.23214735 0.12977318 0.23617153 0.21191859 0.14797775 -0.14822584 -0.10115384 -0.2357272 -0.014618883 -0.16166136 0.18440042
b57 0.12184055 0.10498343 -0.26014188 0.05649578 -0.14210549 0.021569515 -0.048948284 0.18975413 -0.075074315 0.24054217 0.09053402 -0.09630935 -0.22141641 0.1283216 0.016843496 -0.21563487 -0.18173851 0.22022286 0.30030167 -0.031400215 -0.07153903 -0.060063425 0.26881823 -0.20973031 0.13501438 -0.37264183 0.06922995 0.043507505 -0.1715183 -0.046566706 -0.15702242 0.27291906 -0.13428709 0.25918916 0.15445703 -0.2181706 0.18993811 0.12288251 -0.27139062 -0.16459222 0.11378296 -0.31662977 0.20906354 0.15354417 -0.05094803 -0.44841823 -0.14712112 -0.070938334 0.13160674 -0.1376546 -0.09212038 0.23726958 -0.032568336 -0.22604787 0.14610507 0.22514082 0.2635327 0.032743815 -0.18916938 -0.058399834 -0.21118009 -0.017211894 -0.077688076 0.11417604
u886 0.18125819 0.10889689 -0.21655811 0.04688766 -0.219488 -0.00878867 -0.0029996284 0.05880555 -0.057319723 0.20348512 0.06752311 -0.06903447 -0.20670718 0.10872624 -0.036154408 -0.12372727 -0.07149206 0.12738685 0.24764106 -0.098263204 -0.100436896 0.037834696 0.19481283 -0.1210818 0.13637882 -0.2423213 0.04491114 -0.07011131 -0.16608007 -0.085671455 -0.09632268 0.26296112 -0.079154596 0.19984491 0.13371217 -0.1860673 0.21251138 0.04703254 -0.3251234 -0.17454955 0.03689327 -0.22656044 0.12045623 0.15923414 0.032579225 -0.31306982 -0.064354494 -0.11693603 0.07170907 -0.10868673 -0.02178908 0.15256062 -0.0302731 -0.19812661 0.09360013 0.2214007 0.1982585 0.059474293 -0.07468733 -0.110740274 -0.1878268 -0.21108747 -0.10167082 0.10449518
b1131 0.2147758 0.18997218 -0.18156461 -0.00046853852 -0.22072323 -0.06470845 0.030090922 0.30028784 -0.06351816 0.2903544 0.015311209 -0.033679478 -0.20894913 0.11499647 0.060916103 -0.20873368 -0.119876735 0.19438249 0.2624191 -0.07272388 0.020589592 -0.09148613 0.2150248 -0.20563063 0.09718138 -0.30939212 -0.022591958 0.04149624 -0.13914672 -0.115664035 -0.13018437 0.24415338 -0.099034384 0.18229698 0.19791393 -0.1912919 0.2371896 0.059820376 -0.26392198 -0.16073652 0.09772176 -0.16334619 0.15793589 0.16354738 0.011492509 -0.29994348 -0.13832471 -0.12814547 0.11595699 -0.09616304 0.0058345906 0.19259119 -0.080650076 -0.19873214 0.100469165 0.17922045 0.1969713 0.011040966 -0.18650876 -0.029192809 -0.098442905 -0.13565013 -0.15555581 0.0059386063
u539 0.1900024 0.039689984 -0.27246913 0.12101858 -0.10331435 0.08729245 0.038610145 0.097615585 -0.1275225 0.2330913 0.088311866 -0.09277252 -0.16589914 0.10675865 0.037736017 -0.07344569 -0.08279714 0.12697227 0.26529238 -0.071363986 -0.059229806 -0.15495643 0.2543748 -0.15897384 0.12091983 -0.15846373 0.15456489 0.006195375 -0.1510363 -0.058674816 -0.16459988 0.24148515 -0.10807602 0.13370329 0.10349793 -0.10127812 0.14265351 -0.001415571 -0.29476857 -0.10205568 0.10463187 -0.19745795 0.015775852 0.17851172 0.02921231 -0.37753993 -0.09751946 0.012307923 0.054967258 -0.037741054 -0.062859714 0.13142467 -0.044004545 -0.12952866 0.12069557 0.14475422 0.12013748 0.08139114 -0.16588907 -0.044001177 -0.2624604 0.010298959 -0.05290045 0.050863054
u545 0.14007637 0.117333055 -0.22040479 0.13476902 -0.15431082 -0.012905834 0.08434989 0.107357316 -0.11588587 0.17186227 0.052952133 -0.10770346 -0.14060135 0.13051124 -0.0037962347 -0.021037016 -0.08688469 0.12398397 0.264782 0.057880364 -0.16396569 -0.0799026 0.16186242 -0.11904064 0.039754815 -0.16304137 0.03969504 0.11550457 -0.09565385 -0.07801563 -0.074471645 0.1675542 -0.116688184 0.20488943 -0.03874913 -0.041814048 0.18514898 0.089443386 -0.18997295 -0.12964278 0.10520198 -0.13617426 0.13958946 0.17846514 -0.057568327 -0.15865894 -0.16361964 -0.104267046 0.041862275 -0.08524047 -0.026792284 0.21610789 0.044632737 -0.13640584 0.121358685 0.1519614 0.16235158 0.04992049 -0.109225966 0.009193315 -0.14169799 -0.07693243 -0.11016496 0.04748594
b593 0.24863562 0.29146764 -0.35359 0.10541846 -0.27798158 0.023299795 -0.075380094 0.23454867 -0.10798395 0.3465729 0.041291058 -0.14366527 -0.14735761 0.19195206 0.047418274 -0.046497323 -0.04213242 0.22460268 0.28235313 -0.066262744 -0.103986464 -0.1123657 0.2568032 -0.09814625 0.10835837 -0.18097423 0.09932099 0.09358318 -0.10861219 -0.21756642 -0.04204874 0.2270779 -0.08248804 0.21479663 0.075756736 -0.1620353 0.39040843 0.1415756 -0.29415435 -0.1333687 0.09936153 -0.31291106 0.2685126 0.13476686 -0.041496255 -0.2938365 -0.18296434 -0.14432727 0.04514113 -0.07685137 0.00874877 0.25741908 0.0025924526 -0.1817339 0.14463645 0.3004066 0.1771342 -0.0027717391 -0.16237952 -0.068912216 -0.18976772 -0.015498352 -0.17750518 0.115009084
u1103 0.16790268 0.16234131 -0.16458073 0.05335433 -0.14631799 0.06730191 -0.001452939 0.11844011 -0.10385885 0.17736778 0.05578005 -0.08820108 -0.15759096 0.14359128 0.029216696 -0.09274556 -0.07889142 0.12961622 0.1905019 -0.037189506 -0.11040832 -0.064869896 0.15693395 -0.08884686 0.07978179 -0.20603779 0.083466396 0.012768609 -0.09317437 -0.15139797 -0.07508984 0.20361364 -0.13565159 0.15784612 0.06356992 -0.13152288 0.16830383 0.07076238 -0.18144956 -0.15029302 0.082372725 -0.17324786 0.1343096 0.112441815 -0.0120796785 -0.1682002 -0.11482434 -0.11112566 0.069895834 -0.1020359 -0.046936844 0.12572712 -0.0074287225 -0.13539962 0.08044289 0.19775143 0.1335943 0.07586125 -0.11820427 -0.05101817 -0.12825386 -0.033670254 -0.0821143 0.11740635
u453 0.18357538 0.099960156 -0.15465945 0.023262767 -0.13752164 0.0073508276 0.029476698 0.10414524 -0.09776373 0.19171283 0.024179593 -0.06747399 -0.17252411 0.14825442 -0.01059166 -0.18891786 -0.13538645 0.12684302 0.24822211 -0.058998406 -0.09552591 -0.093436204 0.18560798 -0.21118325 0.110125124 -0.2597453 0.12769768 0.051535927 -0.17468515 -0.107016474 -0.1525779 0.23846938 -0.114834 0.17276853 0.1465983 -0.15795887 0.16262832 0.05612295 -0.24214493 -0.12394994 0.11229612 -0.19310787 0.12666821 0.2449816 -0.004741757 -0.3590339 -0.067391016 -0.091959484 0.21328263 -0.14491402 -0.036108244 0.21099634 0.021663677 -0.19313769 0.11233202 0.18080871 0.11479599 0.13780275 -0.21135904 -0.025639733 -0.18222208 -0.108996384 -0.1247419 0.048031244
b60 0.21444099 0.19406518 -0.33948994 0.059259 -0.35925427 -0.019537468 0.04913212 0.24640615 -0.08984083 0.3190346 0.09153229 -0.09889075 -0.19328372 0.22113892 0.049963944 -0.14733525 -0.11676709 0.20288028 0.3017477 -0.05425775 -0.06548969 -0.037098266 0.23277736 -0.14694335 0.037452064 -0.27844825 0.03887011 0.0764477 -0.15330258 -0.08769958 -0.047062628 0.19595475 -0.0869966 0.25985354 0.041779656 -0.18325536 0.26507738 0.16540039 -0.3395767 -0.21710244 0.138431 -0.21876167 0.08445679 0.14647587 -0.09110004 -0.32472062 -0.090471216 -0.09955204 0.091104254 -0.13524301 0.017298369 0.23982117 0.025663352 -0.29717687 0.093693994 0.23387383 0.23202212 0.10421224 -0.10868087 -0.043790255 -0.27113655 -0.14665958 -0.1109546 0.14157237
u1186 0.18290009 0.16759285 -0.19482654 0.06587687 -0.22499575 0.06447686 0.015671445 0.24785806 -0.06932222 0.26127654 0.04409769 -0.06840376 -0.115225784 0.16961347 0.03290974 -0.20928606 -0.10304545 0.16252181 0.24215248 0.019001748 -0.08468167 0.0012473668 0.20141155 -0.1610138 0.052963447 -0.26763538 0.033932954 0.045395352 -0.1241958 -0.17786567 -0.044640373 0.23487292 -0.110909715 0.22274658 -0.061365943 -0.16649069 0.29997584 0.039218284 -0.19933672 -0.18205577 0.07303453 -0.2586773 0.082353696 0.14164782 0.0033325923 -0.2448798 -0.18322891 -0.15701589 0.011066777 -0.1403614 -0.04526762 0.10817062 0.0019503233 -0.20690022 0.033964086 0.22633387 0.18636212 0.0894347 -0.103965305 -0.056893352 -0.20034881 -0.038090233 -0.10215058 0.10995245
u209 0.19571546 0.16580747 -0.21286763 0.0773397 -0.31834966 0.02015183 0.09843504 0.12460346 -0.07840179 0.2861718 0.22466227 -0.043439247 -0.17074311 0.2634508 -0.14664242 -0.15383977 -0.14785007 0.13839553 0.22633785 -0.028925542 -0.14276873 -0.11576596 0.19507398 -0.10773484 0.114003554 -0.32555044 0.03611329 -0.03977916 -0.119545594 0.0013245005 -0.122456744 0.24078327 -0.16441852 0.27974734 0.09915493 -0.18460123 0.31642658 0.109470844 -0.2365892 -0.16858883 0.12286396 -0.3004156 0.21346323 0.22692984 0.023021918 -0.35520682 -0.053109843 -0.14425401 0.124887265 -0.15523037 0.03723403 0.12465651 -0.06413046 -0.17632258 0.12425771 0.30058703 0.19982563 0.11183188 -0.16326396 -0.033023976 -0.19682737 -0.10175782 -0.082844436 0.26564527
b902 0.13057594 0.2004594 -0.21210063 0.08776969 -0.21468309 -0.0148660345 0.08432077 0.21955289 -0.045408104 0.21837671 0.16950299 0.013543811 -0.118826084 0.1582471 0.031072192 -0.12978336 -0.08768243 0.10585605 0.2696109 -0.008906404 -0.07029546 -0.057212457 0.16681254 -0.091111474 0.040110525 -0.19083165 0.029985197 0.044932 -0.14011143 -0.1358511 -0.018780285 0.17850927 -0.11014274 0.20063391 0.0995208 -0.1163373 0.24233241 0.0939311 -0.2095585 -0.19799726 0.17777841 -0.1685364 0.15004031 0.13781895 -0.036197916 -0.22886617 -0.14729285 -0.10830876 0.13890536 -0.08662744 -0.026157098 0.16455348 0.08468519 -0.1682806 0.09659945 0.19540635 0.102322325 0.06824226 -0.09532225 -0.0011046467 -0.12255276 -0.06642316 -0.09378306 0.19484602
b50 0.12080459 0.12098609 -0.16584691 0.041186903 -0.23106518 0.051119827 0.0024472473 0.12400731 -0.044833854 0.2857589 0.13548589 -0.043777894 -0.11197724 0.16554072 0.13056111 -0.085995875 0.049038313 0.12418642 0.29472056 -0.095979206 -0.0973075 -0.025965918 0.2534198 -0.19538888 0.02069632 -0.26570448 0.04952503 0.0797294 -0.17618601 -0.17445152 -0.1143052 0.2756088 -0.14471221 0.1780148 0.0978941 -0.18482375 0.30990428 0.076018296 -0.3296096 -0.14968051 0.13198262 -0.3274401 0.13571557 0.20336697 -0.03644368 -0.35060415 -0.088936836 -0.14384778 0.1396247 -0.08397354 -0.036032308 0.09504953 -0.058367472 -0.16647328 0.111227565 0.24525334 0.2162105 0.08830028 -0.14152317 -0.12383217 -0.20282303 -0.08408051 -0.014659082 0.17256919
u189 0.17731494 -0.07025929 -0.17755033 0.067430176 -0.16602938 0.033452835 -0.103668764 0.06712681 -0.059351042 0.21274936 -0.002323394 -0.06809051 -0.19527762 0.13832037 -0.103599936 -0.058165696 -0.049866248 0.15165614 0.21662728 -0.09905743 -0.14645289 -0.14027028 0.15739124 -0.17147513 0.18479256 -0.21353985 0.07964167 -0.10521574 -0.19465046 0.0439679 -0.11135907 0.223279 -0.12624802 0.20734131 0.20236656 -0.10327158 0.15293124 0.061615497 -0.2093504 -0.17154625 0.051865358 -0.22190195 0.07610266 0.15566592 -0.0067605646 -0.38809147 -0.040525384 -0.090327755 0.13736919 -0.0979056 -0.073718175 0.16452496 0.008549429 -0.11993376 0.10240529 0.13555449 0.21809126 0.034332793 -0.14954865 -0.12426823 -0.24834675 -0.123237334 -0.13271917 -0.053968124
b415 -0.053049956 0.039080154 -0.07926287 0.044879843 -0.030484697 0.025955202 -0.08978719 -0.10343491 -0.014123375 0.09262239 0.14832912 -0.053928174 -0.079334736 0.08904679 -0.09508468 0.013616205 -0.13282897 0.07989833 0.10672912 -0.1633737 -0.05902585 -0.0036959753 -0.05476713 -0.057161868 0.10931456 -0.16078645 0.15195528 0.07142417 0.04737484 0.05926925 0.050669428 0.12425928 -0.0009101802 0.121145606 0.08237324 -0.04090256 0.058261678 -0.105295606 -0.14876062 -0.07801959 0.10950326 -0.106064595 0.026307844 0.022306945 -0.06878847 -0.053396795 -0.19674708 0.030705908 0.084920675 -0.119856216 -0.03851692 0.026520357 -0.040708814 -0.036038477 0.0345077 0.12719707 0.085484 0.08172834 -0.008671649 -0.16331582 -0.030850157 0.024072073 0.12726142 0.04906692
u564 0.27162603 -0.017604074 -0.2232523 0.034966975 -0.3107327 0.060437776 0.038738396 0.1505904 -0.023813197 0.3195369 0.053965982 -0.10090973 -0.2456087 0.23633434 0.03906955 -0.17972122 -0.09244927 0.1956332 0.3276679 -0.1908975 -0.18547636 -0.15358008 0.17756945 -0.23880258 0.18882208 -0.31384084 0.03914275 -0.047823977 -0.17262167 -0.11433879 -0.08146008 0.31804955 -0.20212376 0.2456867 0.1908123 -0.15702552 0.23741695 0.16602576 -0.37478969 -0.24353702 0.040277 -0.28246552 0.2397826 0.2376569 -0.032148175 -0.4907733 -0.10419047 -0.17722972 0.23320176 -0.23566133 -0.011444364 0.25025168 0.020303126 -0.18795307 0.18571469 0.26697797 0.24198258 0.050929125 -0.18137579 -0.08383894 -0.24700773 -0.07687564 -0.06931763 0.20714772
u1246 0.10097673 0.1908761 -0.18650648 0.041107856 -0.27440032 -0.052380286 0.034745466 0.20158477 -0.074047744 0.3821815 0.14400022 -0.049274046 -0.2632517 0.16495644 0.07070056 -0.042062137 -0.1130064 0.08323771 0.27092168 0.003986109 -0.06005606 -0.025447408 0.234916 -0.1621589 -0.079149626 -0.31604496 0.014506889 -0.02587088 -0.14515492 -0.20647646 -0.107545316 0.33500847 -0.075248875 0.25707462 0.18092297 -0.10153361 0.19113947 0.12657763 -0.27020007 -0.1801507 0.002396242 -0.24718893 0.091423765 0.13249077 -0.011084189 -0.2651593 -0.15482183 -0.14932948 0.19236253 -0.14254154 -0.07675415 0.17156139 0.010476329 -0.19451712 0.031388976 0.24289742 0.24785103 0.07173131 -0.15987869 -0.17184535 -0.11774494 0.013846686 -0.13906428 0.041008983
u735 0.1711748 0.17523237 -0.19672398 0.025830816 -0.25819772 -0.022601342 -0.005299445 0.19070485 -0.14248815 0.23307417 0.08560891 0.0026522041 -0.12058403 0.13688596 0.055064205 -0.08339603 -0.07246397 0.099231325 0.24944918 -0.03407862 -0.12681438 -0.022872223 0.16239092 -0.14200749 0.019554745 -0.1729056 0.09352232 0.034344036 -0.15784886 -0.06915797 -0.09478078 0.18548311 -0.11524055 0.1357884 0.004011671 -0.1511322 0.25110146 0.10720054 -0.26434976 -0.12216543 0.03369179 -0.19748396 0.14095363 0.17919798 0.006885719 -0.257204 -0.10615401 -0.08883227 0.12194238 -0.11688263 -0.03578047 0.10125876 -0.070581995 -0.15700199 0.08429874 0.16463819 0.11123604 0.070316404 -0.07988336 -0.1330987 -0.13748094 -0.07284334 -0.07945015 0.14540651
u472 0.11651999 0.06357604 -0.24449022 0.015600626 -0.1633713 0.026430935 0.015862225 0.14365771 -0.08687451 0.20895767 0.043982927 -0.019907884 -0.111617565 0.10135652 0.00773301 -0.12861818 -0.083686925 0.1365376 0.20886205 -0.03545273 -0.060248625 -0.09671204 0.13556628 -0.16443768 0.070441484 -0.19256814 0.07511519 -0.008089854 -0.11297298 -0.05041752 -0.09930514 0.21962559 -0.06874533 0.15221415 0.13208017 -0.09913513 0.19949181 0.097648926 -0.22631298 -0.114069685 0.007977978 -0.17160803 0.1107749 0.133441 -0.0009118654 -0.22873501 -0.124015205 -0.062179945 0.0507258 -0.09530856 -0.065678574 0.11187229 -0.04519247 -0.20309743 0.07362184 0.14556962 0.15520616 0.010634978 -0.116638355 -0.08762468 -0.18352331 -0.09578891 -0.07661424 0.115011856
b456 0.17971994 0.16708289 -0.18637295 0.109595925 -0.19975449 0.07994779 0.058685064 0.15846522 -0.056911055 0.32326168 0.070695825 -0.05678645 -0.19037424 0.17394061 0.10557717 -0.07695764 -0.11261693 0.17387171 0.21977723 -0.038527586 -0.16187276 -0.03765276 0.2606642 -0.13884547 0.020220727 -0.32612002 0.020423915 -0.01669902 -0.12781125 -0.089768484 -0.088181004 0.2825843 -0.05208971 0.2272266 0.06313818 -0.12805885 0.18412253 0.10686886 -0.17724195 -0.20409739 0.008026509 -0.26521653 0.18413815 0.24521837 0.029356577 -0.36291656 -0.18320246 -0.1526363 0.09503609 -0.10828145 -0.06650157 0.10081465 -0.049616575 -0.188105 0.07893258 0.16600043 0.22143166 0.07393741 -0.112729974 -0.10044921 -0.1414008 -0.079766735 -0.059214327 0.13194351
u348 0.16831726 0.1740455 -0.16772655 0.046894956 -0.14732295 0.051142983 -0.014344137 0.1771218 -0.09043291 0.23468123 0.08729571 -0.016473273 -0.14396954 0.100616165 -0.015009993 -0.11464498 -0.080150954 0.115934156 0.26823604 -0.08912205 -0.102262825 -0.04330007 0.21154301 -0.12349852 0.09280882 -0.2324529 -0.0067814025 -0.022637935 -0.15281795 -0.11617827 -0.098771766 0.25742146 -0.0648557 0.15774424 0.046203587 -0.12442763 0.21188067 0.0013891492 -0.22697398 -0.1784629 0.09259501 -0.24643902 0.13030891 0.14119759 0.0069109336 -0.40533996 -0.07353099 -0.09265031 0.06126746 -0.0765523 -0.010130341 0.13876884 -0.07245364 -0.09831826 0.05338456 0.16687012 0.10022363 0.023532275 -0.08356577 -0.11928339 -0.17895441 -0.031305246 -0.077401824 0.12084529
b827 0.17802024 0.27903476 -0.2714504 0.06349536 -0.28727752 -0.012305232 0.032249402 0.19066066 -0.115070395 0.34384266 0.07067015 -0.0050744815 -0.22605792 0.18697448 -0.013711225 -0.15538527 -0.12734795 0.17780352 0.2978142 -0.054829527 -0.10320701 -0.10905558 0.2090256 -0.13660477 0.081183404 -0.3045493 0.04339489 -0.03208695 -0.13234894 -0.1681352 -0.07967024 0.25269282 -0.099624045 0.2823778 0.119183846 -0.20798974 0.28888702 0.13269897 -0.32719177 -0.22349724 0.09282797 -0.26638976 0.21971714 0.20176923 -0.058581732 -0.40107796 -0.19983174 -0.18275999 0.19647004 -0.1576361 -0.012333464 0.2342685 -0.011963215 -0.21102132 0.08251475 0.23428966 0.20352665 0.05857988 -0.09397408 -0.09313466 -0.19742368 -0.16288391 -0.06712335 0.109420136
u712 0.19177312 0.22606462 -0.17275935 0.05153338 -0.25176567 0.04674759 0.05582925 0.22867043 -0.108812325 0.2265411 0.05415624 -0.053752985 -0.14344588 0.16798486 0.004388176 -0.17330717 -0.11469418 0.1382461 0.29535884 -0.06511333 -0.09942164 -0.09104788 0.28165752 -0.17900708 0.047058146 -0.27031514 0.058031246 -0.0036035073 -0.0869461 -0.14240792 -0.15609556 0.31281254 -0.13517393 0.19905135 0.08900816 -0.1346334 0.20477685 0.12621643 -0.32213807 -0.13145998 0.109877355 -0.30116218 0.078519344 0.24558981 -0.039010715 -0.40604153 -0.10439171 -0.07561695 0.12282679 -0.10080727 -0.11202161 0.06857001 -0.07996945 -0.19085924 0.16011897 0.20313177 0.06444185 0.103454016 -0.04977619 -0.0551088 -0.16859013 -0.15246645 -0.070334055 0.084948614
b447 0.2125709 0.10693823 -0.20024306 -0.051523916 -0.17040828 -4.3796772e-05 0.020736948 0.2041991 -0.07042193 0.24458513 0.12643771 0.021924209 -0.22561572 0.19971403 0.007909624 -0.2689343 -0.066980764 0.080952026 0.28973225 -0.1867277 -0.0940059 -0.15820807 0.19230315 -0.098243125 0.17968908 -0.18670966 0.07750619 -0.053451877 -0.19141388 -0.04315335 -0.23473309 0.24345306 -0.16260342 0.22326988 0.14949846 -0.20536232 0.24319325 0.18188289 -0.36715922 -0.19835971 0.09842844 -0.2040406 0.16602132 0.19111796 -0.074958764 -0.29878843 -0.11597764 -0.07452605 0.21789064 -0.061599046 -0.006625986 0.16357054 -0.1688688 -0.21718358 0.116244 0.17507794 0.17648324 0.16982342 -0.1487324 -0.07578096 -0.21813047 -0.12587517 -0.114066936 0.13388985
u171 0.11297369 0.0105502 -0.16090278 0.015917648 -0.18354382 0.06731138 -0.090519175 0.08802785 -0.038821198 0.23397747 0.071513176 -0.0116709685 -0.08756123 0.08762554 -0.015856719 -0.07370366 -0.0994973 0.18157448 0.2266928 -0.0019498958 -0.099060185 -0.0948828 0.14426021 -0.13425566 0.16166116 -0.33065322 0.113404304 -0.11085468 -0.13716862 0.04672006 -0.1313687 0.26631343 -0.041058164 0.206363 0.16268532 -0.17509139 0.2297533 0.043978836 -0.20898731 -0.13170858 0.025731757 -0.2171462 0.048241895 0.16532502 0.04513416 -0.40186706 -0.08919096 -0.14159852 0.07802141 -0.11989808 -0.03487542 0.11438259 -0.108683735 -0.14710832 0.11694674 0.21654886 0.1836626 0.0554013 -0.18762316 -0.049144834 -0.1994458 -0.08207787 -0.04763388 0.057290778
b2 -0.22635353 -0.13555653 0.06575153 0.14474827 0.19954987 0.19989403 -0.22140478 -0.109348126 -0.02866919 -0.10295289 -0.047453165 -0.19457196 -0.104459785 -0.30747622 -0.19299933 -0.0025548032 -0.14033547 0.095294416 0.052540347 -0.036664728 0.06385053 -0.12595859 -0.17347468 -0.043009575 0.005203647 0.32009062 0.12352461 -0.051808517 0.20105565 0.020284463 -0.10538967 -0.37746555 -0.10310311 -0.082749955 -0.13004845 0.10279115 -0.18359922 -0.11474771 0.12707064 0.044358622 0.0950977 0.32205456 -0.05686463 0.13839817 0.06872703 0.37195304 -0.10055167 0.08765613 0.111623384 0.08347686 -0.11122787 -0.05651258 -0.117441624 0.016935833 -0.09957163 -0.22944878 -0.078898996 0.041576847 -0.1512384 0.12300246 -0.12452861 0.17908275 -0.044029675 -0.18870066
u903 -0.1256546 -0.15081197 0.025876421 0.11161596 0.15654776 0.12522818 -0.13244727 -0.17128639 -0.0823419 -0.083855145 -0.07449632 -0.14427191 0.073356226 -0.34237507 -0.1368194 0.056766752 -0.09760446 -0.0054705064 -0.017111497 -0.05195296 -0.085178874 -0.11151347 -0.24310024 -0.022628449 -0.033274483 0.43795022 0.19675617 -0.13561106 0.26475528 0.043433018 -0.110031135 -0.3856148 0.12720229 -0.015584651 -0.025122296 0.11494663 -0.07316911 0.06612947 0.0964211 0.11093564 0.1238564 0.4316983 0.022168482 0.18859783 0.12702553 0.18491633 -0.097087964 0.09834835 0.18470469 0.14341412 -0.1269399 0.028774818 -0.058511812 0.15468322 -0.10828451 -0.36344543 0.030468632 0.15018652 -0.07916008 0.18983655 -0.06457565 -0.10906863 0.16733061 0.0059049986
b325 -0.24475572 -0.19857514 0.1033898 0.15886338 0.16581838 0.22578917 -0.24879853 -0.17261761 -0.083506234 -0.10874215 -0.051906317 -0.13700359 -0.06813403 -0.34178236 -0.20553061 0.0057009845 -0.10112109 0.026715528 -0.019751465 -0.09831546 -0.12301049 -0.1331536 -0.21133491 -0.05681537 0.054675482 0.31967542 0.22146238 -0.07515889 0.22082745 0.16176572 -0.10834236 -0.41267753 -0.018483732 -0.011011699 -0.00089022005 0.123881675 -0.08877356 -0.06487527 0.14459012 0.073020406 0.07044505 0.38833708 0.03550574 0.17983992 0.15336388 0.13144523 -0.14590676 0.059315223 0.19256353 0.14706643 -0.20977816 0.020850984 0.051135764 0.10061402 -0.024759227 -0.38494247 0.034172453 0.21768297 -0.10572478 0.115193665 -0.056537934 -0.103493534 0.052495815 -0.124973215
u548 -0.14744775 -0.20065388 0.03539451 0.1279695 0.17283209 0.08491057 -0.19899267 -0.13019136 -0.06982693 -0.0637041 -0.08582901 -0.18564835 0.051349133 -0.31269228 -0.13914885 0.16191474 -0.08400667 -0.032466814 0.0109193055 -0.15180781 -0.085365094 -0.043928232 -0.2562416 -0.08052518 -0.02559558 0.3491687 0.21780698 -0.119346984 0.20628591 0.019019851 0.012954343 -0.3025582 0.049999837 0.002933515 -0.03612768 0.037072808 -0.058677316 0.017401922 0.14788812 0.040302183 0.06415171 0.39277154 -0.072413 0.091592304 0.053573128 0.29692033 -0.18138936 -0.033397667 0.080491014 0.12883413 -0.14093831 0.02416644 -0.09819566 0.118878044 -0.08138702 -0.3839822 0.035539035 0.08909565 -0.026037227 0.099531025 -0.07462962 -0.03194105 0.08730742 -0.096616685
b1052 -0.07406503 -0.013493308 0.0006345126 0.10431227 0.024156325 0.066088855 -0.08800642 -0.032465402 -0.03935153 -0.0009002764 0.002231155 -0.103087045 -0.005685352 -0.12728252 -0.10270593 -0.0047409916 -0.047083806 0.021991733 0.018133443 -0.06522844 -0.015204472 -0.01186609 -0.13481107 -0.025722198 0.025402745 0.14316459 0.11583623 -0.052231137 0.13628425 -0.006373986 -0.058563057 -0.13880368 0.0027393606 -0.0024635196 -0.0074383337 0.00812915 -0.00633091 -0.04505016 0.00020127161 0.02443281 0.07330413 0.13748814 -0.026053272 0.07189741 0.06752779 0.12532458 -0.029354513 0.024822587 0.091233425 0.009582363 -0.06523466 0.024168853 -0.05532285 -0.0027778186 -0.05099291 -0.14617658 0.020496208 0.078416355 -0.01958554 0.015469853 -0.028539907 -0.010419304 0.06001073 -0.0018748206
u492 -0.14999953 -0.15526435 0.054391507 0.111956164 0.04781954 0.16171876 -0.13881156 -0.12951615 -0.00077488704 0.0028473372 -0.12609266 -0.13922772 -0.029896617 -0.25460953 -0.10828576 -0.048717733 -0.026654497 0.07347154 -0.036262732 -0.13580209 0.051995613 -0.08643934 -0.22446735 -0.006152933 -0.0051213508 0.40854374 0.14869606 -0.07126181 0.15638436 0.10755974 -0.06234289 -0.32067448 0.01403543 -0.12002472 0.0469036 -0.0031653412 -0.11163282 -0.07918336 0.034746293 0.094231084 0.13865201 0.37302706 -0.06202719 0.14287621 0.12270583 0.3117739 0.029524986 0.08956084 0.10829902 0.004643391 -0.17775328 0.03568634 -0.0050693103 0.09259088 -0.06056468 -0.28846487 -0.04523108 0.124703534 0.007811109 0.03136855 -0.14818926 0.010930792 0.13691105 -0.059908606
b294 -0.21608663 -0.22619063 0.009944171 0.12227213 0.12967983 0.114397004 -0.03656944 -0.12777676 -0.051188387 -0.011356017 0.019491924 -0.18533953 9.2427006e-05 -0.3081273 -0.23463249 0.15043627 -0.0331065 0.07950108 -0.038689278 -0.093863085 -0.038775332 -0.11365469 -0.26234028 -0.02473331 0.06267053 0.4271102 0.25025228 -0.058127027 0.10545439 0.052346013 -0.13642749 -0.3309054 -0.09389898 0.017162016 0.037157528 -0.019873623 -0.24591058 -0.0009859493 0.13547906 0.08041813 0.107611954 0.4336538 -0.05667683 0.1363805 0.09466149 0.16030285 0.042259738 -0.06431823 0.10313378 0.033699077 -0.105631284 0.018997602 -0.19364455 0.093358874 -0.09643244 -0.28533128 0.015982777 0.12607133 -0.06794837 -0.07259896 -0.04437648 0.03321653 0.049318332 -0.10500678
u648 0.008515104 -0.06811973 -0.05668601 0.0794151 0.06312258 0.036031473 -0.08923649 -0.1712673 0.038616095 0.048288614 -0.05790633 -0.09782056 -0.013499795 -0.17460068 -0.15952891 -0.01893029 -0.079767615 0.08511961 0.123630606 -0.02052056 -0.07115065 -0.10678151 -0.028233446 -0.045854658 0.019292438 0.17742272 0.18716775 -0.030069623 0.058099177 0.03805814 -0.064125955 -0.18590672 0.010825841 0.010418256 0.018444562 0.015953064 -0.07505095 -0.044123992 -0.0015569361 -0.028623499 0.060069203 0.18446015 0.016072389 0.14440279 -0.030782811 0.104058124 0.030651491 -0.017005391 0.049661346 -0.078735396 -0.09016768 0.049901154 -0.050250456 -0.032124095 0.048186783 -0.06755429 0.039326597 0.047301188 -0.11773788 0.014686768 -0.07938731 -0.086345755 0.06506549 -0.10524165
b23 -0.13013476 -0.113054134 0.06626441 0.1504355 0.11577699 0.1823171 -0.07672117 -0.1942658 0.08198224 -0.07292315 -0.057005707 -0.23754238 -0.06587174 -0.22797893 -0.16605875 0.06443354 -0.03949755 0.06549498 0.03406963 -0.15428902 -0.022680655 0.05148696 -0.16820899 -0.08127077 0.041091286 0.42001987 0.257484 -0.020559125 0.2013768 0.052167322 -0.12899566 -0.3801232 0.011698223 -0.085333794 -0.042115822 0.10193165 -0.16079858 0.08566703 0.048375264 0.16924159 0.10312229 0.42768753 0.034217585 0.19534273 0.01788544 0.22681145 0.000816001 0.024188338 0.11860649 0.02940071 -0.16189466 -0.03585125 -0.104549885 0.024083065 -0.11378032 -0.21986645 -0.048428692 0.114341 -0.0061575505 0.14126952 -0.105991215 -0.021899993 -0.0402066 -0.11505674
u571 -0.11904834 -0.1512486 0.010738106 0.0811667 0.16421773 0.15337522 -0.10338983 -0.13165224 -0.0341041 -0.04288965 -0.0875178 -0.14070006 -0.01571716 -0.24691938 -0.12871087 0.056574956 -0.07805857 0.038507827 0.12065488 -0.11527464 -0.006446087 0.012280878 -0.20557323 -0.08126616 -0.07544982 0.37097675 0.17182083 -0.03493621 0.24374658 0.043773536 -0.0844868 -0.21034922 -0.049505945 0.022255035 -0.013509483 0.037372023 -0.13521554 -0.016571471 0.13509694 0.0582037 0.06102731 0.38360563 0.013630396 0.123591565 0.104075156 0.30555665 -0.053945687 0.015408228 0.14870498 0.06339348 -0.16532888 0.027555 -0.04963525 0.045903526 -0.013518657 -0.21220784 -0.060883615 0.10145186 0.04793865 0.10308328 -0.064349756 -0.03666036 -0.007053295 -0.08890221
u175 -0.23177828 -0.012467312 0.068301916 0.09798793 0.21596365 0.13143057 -0.1198061 -0.19252986 0.07736007 -0.13946842 0.0075102593 -0.21496238 -0.08395088 -0.33098567 -0.22425963 -0.022953138 -0.09392193 0.08436815 0.19879252 -0.04055602 0.010388755 -0.03191013 -0.21548015 -0.08607364 -0.069473974 0.3983646 0.08835398 0.008468134 0.16194846 0.0029357034 -0.14749543 -0.4125829 -0.081493914 -0.064230956 -0.11982837 -8.255723e-05 -0.18726291 -0.07769048 0.1530826 -0.012513244 0.13608149 0.40372166 0.012885458 0.093713425 0.04318607 0.42049778 -0.13676362 0.07943698 0.056017652 -0.028515534 -0.108879544 -0.06326669 -0.07796679 0.023740593 -0.17860211 -0.16878098 -0.05915869 0.021026758 -0.05756129 0.07769553 -0.15235525 0.07528027 0.035712637 -0.0226952
b68 -0.12933958 -0.09578397 0.05972 0.18114603 0.09118273 0.11254719 -0.15728065 -0.105368234 0.13153368 -0.072955005 -0.03651633 -0.21149111 -0.040587675 -0.3397761 -0.2548903 -0.026262289 0.03204104 0.016135389 0.028260654 -0.050153587 0.017385678 -0.14069997 -0.25603384 -0.11645476 -0.003303611 0.36701775 0.066778585 0.03490345 0.24341963 -0.058693472 -0.20284104 -0.34975836 -0.031423546 -0.06633966 -0.14282261 0.110545754 -0.17265849 -0.024138942 0.08796066 0.08593189 0.11915549 0.38343433 0.091754876 0.09443497 0.058624476 0.25657547 -0.12488991 0.14635943 0.04248024 -0.057745703 -0.11110087 -0.024140734 -0.059620474 0.029025828 0.0071188933 -0.19066478 0.006554032 0.021019131 -0.11659124 0.09233445 -0.06886458 -0.13322657 -0.12321862 -0.053897735
u1064 -0.17029136 -0.1648306 0.039473243 0.11419764 0.10953444 0.15918566 -0.17269266 0.025134694 -0.017675586 -0.043524936 -0.043484114 -0.1575352 -0.21434583 -0.19329733 -0.18745552 -0.04156449 -0.07682355 0.06829143 0.13263597 -0.08818218 0.12562777 -0.15190336 -0.116529584 -0.07287647 -0.007617086 0.34621534 0.13039465 0.03951286 0.14689289 -0.050728623 -0.04449145 -0.27803463 -0.045126576 0.04045594 -0.07001532 0.0023086914 -0.17710201 -0.13753949 0.020248288 0.0014236142 0.04307551 0.33616644 -0.05214888 0.1428904 0.1742605 0.1883011 -0.13670366 0.013362696 0.034990363 0.084258735 -0.1409381 -0.08073586 -0.13052794 0.036469728 0.021740139 -0.2614022 0.033503175 -0.056474984 0.05314442 0.14916639 -0.14709467 0.060051825 -0.082415946 -0.13859281
b387 -0.09769958 -0.21158087 0.04426714 0.10942599 0.22146071 0.20489892 -0.13983679 -0.15838185 0.06052172 -0.036803663 -0.0074497433 -0.14811291 -0.10758977 -0.3115679 -0.14773378 -0.008972343 -0.037269827 0.08484123 0.05450852 -0.12839423 -0.08358647 0.019013483 -0.22044124 -0.0916831 0.009402827 0.3871963 0.11414509 0.08968164 0.14110772 0.07684544 -0.11822549 -0.398043 -0.08083019 -0.05078678 0.02749509 0.04899866 -0.28148913 0.08253887 0.09870586 0.020716941 0.12765343 0.4000018 -0.07915455 0.13082765 0.19923031 0.29996356 -0.004233114 0.015778271 0.095143825 -0.0021781828 -0.20804487 -0.055072818 -0.09695915 -0.035136435 -0.05814981 -0.23746349 0.0600684 0.07651288 -0.056746785 0.029381882 -0.10926165 0.116623126 -0.08671205 -0.0017872857
u107 -0.13167767 -0.16989595 -0.08751518 0.11073686 0.045962825 0.092625946 -0.14082481 -0.11805554 0.0028107045 0.064496286 -0.04462295 -0.12957472 -0.05762062 -0.18678862 -0.038469426 0.11623758 -0.06842718 0.05410177 0.12066593 -0.08476258 0.07586556 -0.122357704 -0.21527831 -0.04690001 0.024286717 0.41833228 0.1901419 -0.055433992 0.112624824 -0.011272193 -0.062474377 -0.25027117 0.007991047 0.09505194 0.071028255 -0.04248909 -0.13366164 0.0066526146 0.065192185 0.0051808916 -0.04435677 0.35822323 0.0076852245 0.14290944 0.07086034 0.13830842 -0.03433632 0.011038603 0.03580548 0.1637502 -0.13582937 -0.064865075 -0.0128304 0.021217486 -0.10347772 -0.19472964 0.11990506 0.15886825 -0.05187362 0.14242837 -0.137715 -0.13748887 -0.00025375932 -0.1611238
b393 -0.0876007 -0.13477042 0.11629603 0.12737061 0.058580678 0.12968242 -0.14313222 -0.071755566 0.03392705 -0.029384963 -0.022393763 -0.14241733 -0.02834695 -0.31719214 -0.2091358 0.04089497 -0.053916607 0.01705922 0.06723234 -0.013358632 -0.017242448 -0.09887142 -0.19849743 -0.03654352 -0.037297424 0.46381414 0.1957618 -0.028176894 0.25992498 -0.07145356 -0.07543063 -0.39526445 0.059395045 -0.023653097 0.042307302 0.088891566 -0.032954305 -0.13090707 0.054530043 0.06746874 0.055858407 0.4409052 -0.06839958 0.15678205 0.1256055 0.24548139 -0.08101393 0.057691857 0.107762985 0.06263432 -0.2358891 -0.048462745 -0.106319554 0.08378371 -0.01079439 -0.46227238 0.006954755 0.0395516 0.063244954 0.06648008 -0.027392177 -0.052380674 -0.030742858 -0.067123644
u1011 -0.2014542 -0.20519151 0.029514814 0.13393648 0.0674841 0.1625477 -0.1953422 -0.033793334 -0.08771621 0.06336616 0.025650952 -0.11043571 -0.013265699 -0.2725044 -0.08872343 0.16017443 -0.001995285 0.091653146 -0.005784362 -0.20462337 0.059713427 -0.10906412 -0.21388412 -0.0038073487 -0.0007430486 0.36351284 0.17836377 -0.16804188 0.33487284 -0.009400068 0.066307835 -0.2733699 0.13181825 -0.0841155 -0.13909262 -0.011679812 0.025852151 -0.018210992 0.057808008 0.061032366 0.10095712 0.3617019 0.03971603 0.11339246 0.124589816 -0.16667758 -0.15736729 -0.094561316 0.15188508 0.12881362 -0.14886092 0.054272685 -0.04227622 0.14167005 0.08703844 -0.33991852 -0.00451542 0.115908526 -0.057256594 0.12771457 -0.06386458 -0.21304467 0.074407294 -0.12927067
b382 -0.14423698 -0.1415637 0.10231139 0.18687844 0.05402012 0.17171748 -0.19294475 -0.0715714 -0.055963136 -0.07337486 0.09263062 -0.17559548 0.00032797447 -0.27152294 -0.31161058 0.082287356 -0.059495706 0.030304568 -0.1271956 -0.1638157 -0.019176716 -0.1934036 -0.27205518 -0.025686072 0.06636474 0.33059213 0.2360847 -0.12526335 0.17077996 0.08955945 -0.070347235 -0.32423705 0.05513529 -0.06947829 -0.14455046 0.0963087 -0.105138086 -0.118133575 0.16185412 0.066298746 0.104546666 0.40637487 0.015276835 0.19547299 0.17993008 -0.0035027256 -0.049748138 -0.03315067 0.03354809 0.12044712 -0.20422195 0.024848113 -0.15113378 0.12470681 -0.1500219 -0.39631522 0.04573852 0.041457657 -0.03313842 0.10254 -0.03767648 -0.039375614 -0.04093032 -0.13181753
u341 -0.18738548 -0.15670836 0.021782793 0.13979341 0.08685162 0.13204576 -0.11179776 -0.11818876 0.0093873795 -0.09456115 -0.019559376 -0.1813562 -0.004325422 -0.24640769 -0.14637503 0.04709306 -0.029124469 0.04242315 0.068443835 -0.03146225 0.01898997 -0.101843685 -0.18913248 -0.028375775 0.024445523 0.30773777 0.2119778 -0.04313053 0.20171069 0.060226362 -0.13367893 -0.27014416 -0.037264653 -0.033826202 0.0076543046 0.060048964 -0.12074909 -0.056558587 0.03714135 0.012693047 0.03856556 0.3600405 -0.07469264 0.13167839 0.10018593 0.21766241 0.015884915 0.018605819 0.03853337 0.04527512 -0.14714004 -0.019577319 -0.08975875 -0.012764628 -0.07585252 -0.22500649 0.024090614 0.061593834 -0.028822215 0.09200526 -0.10280425 -0.016505023 -0.026276145 -0.12483789
u356 -0.053588543 -0.34207755 0.10309193 0.22094667 0.15359588 0.16826816 -0.16285986 -0.13640828 0.09927529 -0.008268918 0.014389264 -0.18619749 -0.11367045 -0.33669952 -0.10696642 0.14175162 -0.05221206 0.047412865 0.06891481 0.054732483 0.04587097 -0.16016908 -0.30232474 -0.061969828 -0.056453615 0.46380326 0.14693218 0.039347984 0.20134741 -0.017603042 -0.09035873 -0.36196825 -0.09848844 -0.08887787 -0.07715349 0.005652621 -0.24372602 -0.103172235 0.15794152 0.027121605 0.06140586 0.48752546 -0.062607914 0.09360576 0.116662666 0.2226468 0.07243207 0.09936694 0.10630475 0.033515695 -0.18088199 0.021052636 -0.16946508 -0.054647148 -0.11866271 -0.37440512 0.065447964 0.16157854 -0.031358056 0.10806784 -0.16254584 0.028890228 0.13113336 -0.16961448
b410 -0.16763721 -0.3264486 0.027823547 0.16864625 0.10538656 0.109101586 -0.12452589 -0.16690367 0.04967394 0.020364488 0.09051063 -0.22635685 -0.10610343 -0.32953006 -0.20089322 0.015628414 -0.053016324 0.17517011 -0.05525817 0.035873547 -0.02783666 -0.2687849 -0.2340582 -0.032406904 -0.026145536 0.42432395 0.22119968 0.02517726 0.24046104 0.19453448 -0.16943653 -0.34989434 -0.1367974 -0.12812397 0.08186922 0.030907428 -0.2275634 -0.07873643 0.1863765 -0.0468074 0.20213301 0.37642792 -0.123013005 0.24504395 0.156478 0.08338462 0.03396312 0.023895375 0.035159368 0.024014452 -0.12301177 0.115382046 -0.24258432 -0.0016927178 -0.053792283 -0.27850932 -0.017493632 0.12636901 -0.080012426 -0.006322341 -0.15253183 0.114964664 0.059609726 -0.32686162
u48 -0.1932292 -0.23170862 0.07696634 0.12329901 0.12964903 0.12132829 -0.18056135 -0.23541377 0.05721583 -0.02401736 -0.016533477 -0.20893997 -0.07228959 -0.35348824 -0.19802451 0.15973574 -0.071944885 0.12112871 -0.02076789 -0.03594558 -0.010087712 -0.10178586 -0.23256317 -0.13752523 0.07374575 0.43131128 0.17204763 -0.17998905 0.050807185 0.11247913 -0.07360897 -0.2489523 -0.09241422 0.014314604 -0.15600373 -0.008862213 -0.19203949 -0.13881373 0.05780352 0.0789461 0.06934513 0.41932237 -0.13243349 0.094695084 0.12675518 0.26447877 0.032509748 0.040088 0.040745854 -0.024862343 -0.15391338 -0.03281876 -0.066339135 0.05007639 -0.18738021 -0.2645744 0.06587112 0.1531097 0.028142976 0.16480497 -0.13988754 0.023664169 0.13654111 -0.20500205
b1095 -0.092307106 -0.22242412 0.102070436 0.10809058 0.17707014 0.23007302 -0.088060446 -0.24594322 -0.010154113 -0.0074815964 0.075419076 -0.15433295 -0.013804394 -0.3123054 -0.23474023 0.030981703 -0.011882712 0.030802844 0.05306129 -0.080239 -0.037913583 -0.015022637 -0.24997854 -0.014740475 0.060156234 0.4163562 0.20718624 -0.066061154 0.1623503 0.04162613 -0.10321592 -0.36121494 -0.0038934331 -0.055039488 -0.029431913 0.09911633 -0.19556049 -0.09923075 0.061806057 0.00864403 0.12503849 0.4638897 -0.08276821 0.06405212 0.09813732 0.2275059 0.07988753 0.021529619 0.055765986 0.020870596 -0.1446682 -0.067932576 -0.1497404 0.032654814 -0.12531292 -0.2950291 0.06520648 0.08077682 0.012866487 0.07323907 -0.17987648 0.06851283 0.10019807 -0.23992749
u78 -0.14144225 -0.21287152 0.08691601 0.13986771 0.09792672 0.031746972 -0.1315851 -0.062488172 0.06067746 0.03159119 -0.096087225 -0.16611004 -0.07975177 -0.24476194 -0.21741107 0.05836234 -0.06980128 0.1088773 0.10826281 0.0016085071 0.0036944111 -0.21518834 -0.23079923 -0.09561998 0.03132301 0.29605445 0.15449452 -0.068506576 0.20019211 0.07242251 -0.09050377 -0.31265676 0.013323157 -0.048064303 0.09966813 -0.025313068 -0.10801206 -0.1025348 0.03664474 -0.06226511 0.04627697 0.45270017 -0.09538567 0.024571748 0.08017139 0.27874774 0.02626786 -0.04894808 0.052241534 0.075015865 -0.12708773 0.048591748 -0.12669529 0.0033731575 -0.16381538 -0.20094135 0.091094345 -0.021487616 -0.09148778 0.13740514 -0.104958475 -0.10711163 0.0324609 -0.12125002
b448 -0.16407652 -0.17376591 0.041905586 0.16840088 0.16172375 0.11817621 -0.18986994 -0.116976425 0.04360854 -0.010501462 0.0048684026 -0.13642894 0.004504092 -0.37615725 -0.22163187 0.15724891 -0.086409904 0.039801255 -0.035067804 -0.1087917 -0.02475069 -0.10640312 -0.2393828 -0.06658557 0.013179641 0.5033843 0.22838105 -0.024819694 0.19798173 0.018718876 -0.09202582 -0.381659 -0.008149668 0.011428369 0.007244448 0.050012693 -0.11578995 -0.087668106 0.118181236 0.059163842 0.07876687 0.4696555 -0.013438067 0.14768606 0.14686054 0.076547556 -0.061880656 0.026948811 0.13327146 0.114940636 -0.16400531 0.03142331 -0.119492285 0.019295208 -0.12712294 -0.31429824 0.06989145 0.044025686 -0.023987219 0.12704022 -0.03622115 -0.10560494 0.0037433682 -0.1528222
u1159 -0.12348841 -0.16908893 0.05947343 0.19569947 0.15552108 0.13003606 -0.13289534 -0.15878025 0.054910563 -0.07015433 -0.036194205 -0.19442105 -0.057721075 -0.26651734 -0.22317843 0.102842346 -0.09168946 0.0708731 0.01458454 -0.032563876 0.01946043 -0.046354458 -0.13993002 -0.06750078 0.07632692 0.35567144 0.15952541 -0.01583934 0.1771785 0.112529226 -0.18197525 -0.3282766 -0.028856896 -0.06753948 -0.15576956 0.12068029 -0.19043173 -0.16478245 0.05081935 -0.0031159995 0.078022785 0.32993647 -0.03610162 0.21688567 0.14807716 0.19798315 0.023120927 0.10190585 0.09590738 0.056412842 -0.14843698 0.025420658 -0.17785278 -0.046413776 -0.09267441 -0.14468832 0.05136635 0.10603505 -0.074664965 0.08706346 -0.19870137 0.08221024 0.07223831 -0.11506881
b438 -0.15875942 -0.20158266 0.07854776 0.24130897 0.16376424 0.17890935 -0.1587183 -0.11469646 -0.018375626 -0.073609084 -0.0014046768 -0.17725785 -0.06976228 -0.3243171 -0.20987128 0.14128853 -0.053413615 0.10008539 0.03549275 -0.0798771 -0.08150182 -0.114138946 -0.217756 -0.006446602 0.05354042 0.41672662 0.10791615 -0.08695362 0.16603331 0.15274587 -0.06980885 -0.32387754 -0.09612392 -0.07534067 -0.028951446 0.11454357 -0.113458976 -0.10443931 0.09825795 -0.004577696 0.05325604 0.35133222 -0.06647474 0.16456135 0.04344549 0.07226258 -0.048695844 0.022533048 0.09259461 0.09861643 -0.12792486 0.063957386 -0.14782682 0.005926912 -0.074718624 -0.25553775 0.038126517 0.07345045 -0.12751357 0.048424836 -0.09821085 0.108849466 0.1386399 -0.07490612
u47 -0.19521156 -0.20187318 0.10771702 0.17369096 0.028721172 0.12466534 -0.14505562 -0.16152313 0.0076496056 -0.011887062 0.017346047 -0.15679279 -0.06323065 -0.22902006 -0.13428703 0.12348351 -0.07671072 0.037698507 0.039841015 -0.051822584 -0.02791803 -0.08035769 -0.18968172 -0.026246449 0.09708979 0.3032795 0.13771333 -0.024619015 0.122798525 -0.015878305 -0.13872375 -0.25457376 -0.019480908 -0.013023917 0.026115723 0.051443413 -0.19085298 -0.03742647 0.11489953 0.0017478785 0.15547106 0.36171454 -0.13615695 0.16116531 0.108258106 0.25333112 0.03110037 -0.0073694275 0.058623124 0.021192478 -0.17650658 0.04905126 -0.12383046 -0.02800046 -0.17541029 -0.20335622 0.046738464 0.072446436 -0.019046346 0.013821182 -0.09979744 0.074888475 0.07612368 -0.1748057
u490 -0.08460767 -0.16075595 0.010875017 0.106807545 0.07550245 0.12564597 -0.1369514 -0.06785264 0.005869185 0.03573934 0.042230982 -0.062075358 -0.13324156 -0.17348774 -0.05190744 0.0073675625 -0.12097873 0.0787319 0.029951334 -0.06502248 -0.00012046238 -0.11267437 -0.06941722 -0.011163095 0.05410596 0.2626415 0.11857493 0.0036570022 0.07266889 0.019275002 -0.026728062 -0.09392027 -0.0673546 -0.056395885 0.016372329 -0.021518536 -0.08075749 0.031506438 0.02431629 0.022908686 0.13222647 0.25429586 0.011251133 0.13938601 0.078503706 0.010586743 0.013189851 0.03356655 0.080390036 -0.04331579 -0.07156235 0.15342985 -0.12822622 -0.03355585 -0.052136835 -0.026328577 0.012317686 0.00022794743 -0.13967794 0.02584625 -0.16082227 0.1529497 0.12947874 -0.10398923
u852 -0.1050023 -0.21139728 0.045824315 0.21529293 0.13319021 0.184861 -0.19238232 -0.12354423 -0.054107502 0.0012735628 -0.13155982 -0.20802261 -0.16026306 -0.25908816 -0.093647 0.1361692 -0.12577243 0.00751613 0.120239906 -0.05612882 0.008128426 -0.1337981 -0.17026703 -0.06075427 0.08712262 0.4103092 0.15481457 -0.051953364 0.105468586 -0.004931159 -0.09466913 -0.23588763 -0.1621127 -0.017572204 0.0636007 0.027157841 -0.19823758 -0.18009564 0.15288077 0.032193065 0.0815867 0.2860726 -0.061145343 0.10759156 0.18507436 0.13153526 -0.045967717 0.07046334 0.1767721 0.09628946 -0.22518067 0.041748803 -0.1669755 0.05556177 -0.08008995 -0.315905 0.046798088 0.12876707 -0.05853791 0.09249128 -0.14801514 0.111625195 0.06453456 -0.15596373
b884 -0.13683312 -0.28879458 0.08270855 0.14572176 0.12600356 0.2568926 -0.22150265 -0.21313053 0.014965701 -0.017472578 -0.0998577 -0.17026648 -0.01211205 -0.2604102 -0.092607394 0.11014383 -0.087230064 0.027877595 -0.0058739046 -0.17352311 0.013581603 -0.0630905 -0.22797179 -0.08037606 0.058234833 0.38047567 0.15209799 -0.04240114 0.07298724 0.0012838831 -0.07778619 -0.22594854 -0.08758234 -0.096036434 0.054217245 0.01721772 -0.112813644 -0.12974039 0.13423072 0.00096088444 0.028912414 0.34256068 0.0032159062 0.17151634 0.13810632 0.27569583 0.023366421 0.057338174 0.039170083 0.110323645 -0.17179702 0.047471564 -0.12794124 -0.06854089 -0.13550603 -0.26751268 0.008417024 0.18407221 -0.09257129 0.09462029 -0.15736414 0.077275164 0.13205446 -0.108126
u319 -0.027646614 -0.372474 0.0724773 0.15402143 0.1328993 0.19936092 -0.2389673 -0.22648907 0.037069187 -0.00042077538 0.06991468 -0.20495504 -0.08371785 -0.42483237 -0.024318958 0.12649341 -0.16615975 -0.0001487303 -0.029802717 -0.09894789 -0.064582236 -0.10722587 -0.21474929 -0.030047797 0.044811632 0.47368178 0.07843616 -0.04102601 0.21171215 0.0520337 -0.035083923 -0.3352807 -0.09644118 -0.04112829 0.04192125 0.0048278975 -0.1793101 -0.020245204 0.07929567 -0.0069633164 0.08363248 0.30268815 -0.10242416 0.15162475 0.06677764 0.27438495 0.09463385 -0.007233321 0.062312182 0.0642511 -0.1718056 0.09730384 -0.08336213 0.0055290125 -0.19066843 -0.3419658 0.05543063 0.13942009 -0.08680624 0.05789401 -0.15519677 0.14769876 0.07673529 -0.19907157
b70 -0.07744805 -0.22954926 0.06746663 0.117693245 0.10806223 0.24356824 -0.17511712 -0.2405344 0.074835025 -0.037294794 -0.07648629 -0.19087899 -0.095363885 -0.3096052 -0.16197309 0.096266806 -0.14421792 0.039142363 -0.025868606 0.031487145 -0.01852191 -0.12905426 -0.23749766 -0.13058724 0.044056628 0.42072418 0.15899414 0.01738775 0.1696774 -0.038203873 -0.10757626 -0.30481425 -0.1821868 -0.061061207 0.06421255 0.025394775 -0.20744535 -0.13280381 0.09153676 -0.036565796 0.07759855 0.41640306 -0.03729884 0.18085013 0.12931034 0.10033438 0.03709549 0.101757094 0.062269356 0.06987118 -0.15540913 0.120703585 -0.0754584 -0.012902948 -0.14400879 -0.22008963 -0.04286472 0.21125421 -0.0929599 -0.06451397 -0.19509278 0.19819295 0.014825922 -0.14242037
u101 -0.0077840597 -0.18927146 0.06545319 0.11665719 0.13795163 0.14815594 -0.13531648 -0.12368981 0.10496072 0.00061183656 0.08088101 -0.17466588 -0.08402551 -0.26994562 -0.17253089 0.113268845 -0.041151576 0.08755331 0.02598957 -0.060371652 -0.042840917 -0.06503337 -0.1425572 -0.10752649 0.1319947 0.26988268 0.1746262 -0.11711963 0.074743606 0.050225325 -0.114374936 -0.13848142 -0.12905058 0.09637903 0.032763828 0.017297132 -0.3602412 -0.10708202 -0.023703335 -0.0028546802 0.099687554 0.26847354 -0.19183967 0.095296614 0.08657038 -0.00895722 0.12597446 -0.05574516 0.01799863 0.13149886 -0.19069509 -0.0064492095 -0.13799728 -0.016698288 -0.056959383 -0.12027176 0.0952149 0.11156439 -0.085317194 0.14874318 -0.19711284 0.062812224 -0.013860642 -0.18398106
u1006 -0.1269789 -0.19794925 0.10564714 0.13065684 0.15548587 0.16794612 -0.18393078 -0.12783724 -0.00094623695 -0.054285068 -0.032115467 -0.18006685 -0.029035885 -0.3308736 -0.13314871 0.08528236 -0.059540786 0.047571875 -0.029089946 -0.09613737 -0.062225513 -0.10910881 -0.20399837 -0.044167798 0.07488464 0.45083517 0.16315952 -0.06759004 0.14061953 0.0603277 -0.06964906 -0.24301222 -0.11083553 -0.06170902 -0.027545834 0.062173083 -0.17428866 -0.041779157 0.08953799 0.041115496 0.022929648 0.39348754 -0.06784191 0.10580709 0.075483665 0.27626646 -0.025477948 0.03249288 0.0630197 -0.002476736 -0.13705285 0.03986422 -0.10011034 -0.031298324 -0.019718928 -0.3213796 -0.0008560691 0.08969739 -0.11440115 0.0376201 -0.12366621 0.0692125 0.06258769 -0.054436315
b490 -0.13249296 -0.1910951 0.054351583 0.16079137 0.13755666 0.16793184 -0.19627488 -0.18132159 0.073711045 0.018967101 -0.05045476 -0.15049349 -0.0627232 -0.22483914 -0.09463612 0.11500469 -0.065955795 0.021369427 0.024195803 -0.11022521 0.011961898 -0.12968768 -0.24961333 -0.06470226 0.017321387 0.3508213 0.20937282 -0.04571334 0.08524974 -0.017019765 -0.09525156 -0.2668931 -0.15110177 -0.1052414 -0.0002949182 0.027961368 -0.18490982 -0.15835837 0.11229295 0.0027346655 0.09313691 0.2711593 -0.11976651 0.14289382 0.119919814 0.02061201 0.08815905 0.004092269 0.15984944 0.08502794 -0.17901559 -0.021211438 -0.101707496 -0.0056114458 -0.10602286 -0.29793596 0.003927009 0.13852435 0.0010892756 0.036576428 -0.097836174 0.010872873 0.13864484 -0.14385663
u1015 -0.071870744 -0.04047208 0.016259639 0.107088976 0.03334454 0.08154756 -0.11793843 -0.0389891 -0.016642705 0.022640195 -0.011873767 -0.09777767 -0.016298385 -0.12330805 -0.11409697 0.03346006 -0.085873514 0.007109126 0.047114532 -0.082974434 -0.0424826 -0.03577179 -0.106022984 -0.03494651 0.008717943 0.1721799 0.112913415 -0.04869684 0.06540344 0.008401074 -0.07507776 -0.08938237 -0.027283156 0.008499398 -0.004768573 0.015469721 -0.044626772 -0.09016427 0.038078636 0.028375013 0.048045974 0.12705484 -0.030323228 0.11842181 0.09262982 0.07927317 -0.008405343 0.03277935 0.10252957 0.027254213 -0.09448639 0.030981347 -0.07447649 0.01054653 -0.067279845 -0.106011845 0.047645368 0.08341099 -0.031160153 0.030549577 -0.062121514 0.0143878115 0.07584823 -0.039271813
b115 -0.12006791 -0.21872641 0.11567085 0.13089773 0.08532038 0.23070681 -0.21090217 -0.099212065 -0.023619207 -0.005312499 -0.03224368 -0.201856 0.0020215623 -0.2870463 -0.03821681 0.1865468 -0.10411985 0.015635999 0.012389849 -0.10557791 -0.053150207 -0.1051074 -0.19614641 -0.047315814 0.038260147 0.3555355 0.21674079 -0.119577914 0.03840603 -0.027541498 -0.10765363 -0.24137694 -0.111570336 -0.061691158 0.08587011 -0.016287612 -0.095378906 -0.0009551949 0.16304587 0.059298832 0.07271116 0.31381434 -0.0863753 0.10396638 0.09844509 0.13885361 -0.011580852 0.1216582 0.18209726 0.08087012 -0.19521008 0.034023296 -0.11632409 -0.0032116629 -0.113185786 -0.21465676 0.025179345 0.15079938 -0.034673158 0.13986847 -0.09859975 0.05379143 0.0962948 -0.23327626
u120 -0.13444507 -0.19447637 0.124550946 0.12789932 0.12260428 0.1888078 -0.23064719 -0.14503786 0.041755185 -0.020912599 -0.07603664 -0.19966605 -0.06985632 -0.24909596 -0.11388644 0.14546962 -0.09110693 0.016054599 0.023936601 0.0045918077 -0.02042703 -0.102592975 -0.26139635 -0.036409885 -0.016475253 0.37350616 0.18656896 -0.05192036 0.11561279 0.04607293 -0.11153554 -0.35200626 -0.123237096 -0.05988784 0.0456504 0.012477553 -0.1617499 -0.089443624 0.08043655 0.05085901 0.07012598 0.37284222 -0.0851889 0.10465609 0.11277102 0.21675612 -0.04645159 0.09063231 0.12678051 0.03851633 -0.11968451 -0.023188842 -0.12624009 -0.028303415 -0.070069976 -0.2574902 -0.023947848 0.21393782 0.014689164 0.10309271 -0.11409243 -0.02685647 0.09971825 -0.123298526
b850 -0.2073058 -0.14093494 0.061516 0.045354545 0.025636027 0.1507846 -0.21967849 -0.16850503 0.099941306 -0.055213947 -0.06466259 -0.1531541 -0.0028925284 -0.3432123 -0.19819497 0.09593099 -0.07473159 -0.017495554 -0.059219703 -0.09818505 0.012405267 -0.15593848 -0.29622847 -0.042388484 -0.013951262 0.49677837 0.20388924 -0.08414376 0.07797908 -0.07306945 -0.08975633 -0.40085888 -0.06817807 -0.06542778 -0.053067315 0.02110285 -0.2587983 -0.07665163 0.101168916 -0.0013873681 0.060650036 0.4315597 -0.110896565 0.16991617 0.176164 0.26917827 0.08781182 0.03866465 0.053965528 0.05226673 -0.151815 -0.010714128 -0.12830353 0.04700593 -0.23868068 -0.3143202 -0.022561768 0.13904533 0.013271246 0.062589556 -0.06952329 0.10535892 0.021888891 -0.16500685
u122 -0.12877214 -0.0803779 0.03877857 0.17512088 0.13319927 0.14797947 -0.18333629 -0.15265922 0.14949417 -0.055950888 -0.032566916 -0.14913687 -0.027600182 -0.29606408 -0.19211379 0.14970349 -0.053254806 0.0058651227 0.053060595 -0.11667357 0.00072909804 -0.1425675 -0.24102864 -0.05212083 0.03408417 0.45802358 0.23610376 -0.03329187 0.111802325 -0.0418245 -0.14350235 -0.32130426 -0.15376814 -0.04766465 0.06152614 0.019061945 -0.12919359 -0.1064242 0.15838557 0.056328386 0.11753541 0.40131867 -0.005509714 0.14454561 0.0946935 0.20550916 -0.014619384 0.088520356 0.10203386 0.0043443185 -0.19228394 0.0027223483 -0.07362068 -0.011040551 -0.14359798 -0.1689737 0.00046167008 0.11632517 -0.048345763 0.12502459 -0.09127883 0.07856025 0.08616378 -0.16022395
u118 -0.20434268 -0.21647207 0.08514673 0.15759173 0.13489194 0.15380496 -0.22464958 -0.2524241 0.046107333 -0.0170156 -0.008564545 -0.22053634 -0.12529379 -0.33185437 -0.1707892 -0.007396311 -0.04602909 0.020897338 0.033918727 -0.01700195 -0.010632537 -0.05144045 -0.21468253 -0.024491597 0.0062534586 0.3411695 0.16523214 0.11291564 0.25796926 0.013705171 -0.15664083 -0.3886801 -0.14060631 -0.005657905 0.040255982 0.032108866 -0.16428718 -0.09001058 0.12257963 0.023972195 0.14145792 0.39051777 -0.06730705 0.14928618 0.10861983 0.30954206 0.07828185 -0.035843294 0.089219585 0.09944612 -0.12390086 -0.0009304157 -0.13216393 -0.076500036 -0.12166958 -0.23019768 0.020582387 0.19938673 -0.03448852 0.10381976 -0.14637193 0.04292714 0.045510124 -0.23669703
b3 -0.12839928 -0.08655295 -0.032254204 0.1415334 0.084648356 0.18223989 -0.1983524 -0.19539374 0.11339945 -0.10970399 0.07216687 -0.2389672 -0.12203181 -0.2124816 -0.09689484 0.046632953 -0.017780323 0.017136356 -0.017948296 0.010401744 -0.088331565 -0.18633996 -0.18982922 -0.094659485 0.12894082 0.2901236 0.18128175 -0.059503373 0.14247435 0.027963825 -0.18270983 -0.186967 -0.087858774 -0.076274164 -0.035323873 0.022451194 -0.2476042 -0.13851714 0.14572667 0.032484118 0.13727771 0.32637134 0.010410351 0.10321863 0.17406806 0.13142306 0.09736479 0.07064306 0.06620655 0.034353077 -0.19335492 -0.022985483 -0.14766283 -0.0962459 -0.16507572 -0.21119931 0.07592596 0.16957201 0.03450217 0.09054609 -0.1843001 0.060268417 0.04306031 -0.24104834
u184 -0.18693867 -0.19906634 -0.02861485 0.11531806 0.08372395 0.118185245 -0.1758525 -0.12676017 0.080842316 -0.10872994 -0.07183751 -0.22958 -0.043175638 -0.3205733 -0.092927754 0.027605988 -0.067424096 0.075468555 -0.06639355 0.043114234 -0.027107937 -0.14059804 -0.23604031 -0.03864239 0.04440136 0.37435097 0.22525278 -0.016761782 0.07335042 0.05954504 -0.114012115 -0.3493819 -0.07013193 -0.062501684 -0.09253032 0.061653215 -0.22523773 -0.13525005 0.051963564 0.05223392 0.09358754 0.42428267 -0.020416597 0.15602627 0.17043065 0.19527549 0.19208851 0.060776304 0.0692273 0.02921508 -0.11268629 0.031511325 -0.09203859 -0.047247257 -0.13333453 -0.28777286 0.013855707 0.18814814 -0.020570165 0.09167364 -0.12802014 0.076969 0.07870964 -0.17811511
b207 -0.12692489 -0.2238316 0.038992252 0.17102982 0.1765193 0.11860022 -0.22010346 -0.15626389 0.09019614 -0.11075899 0.0792199 -0.18634118 -0.035951313 -0.40966925 -0.13990092 -0.0073497123 -0.038532693 0.017894857 0.030428177 -0.032868076 -0.1487283 -0.294238 -0.19842829 -0.017903788 0.013855756 0.5388847 0.23519078 0.10845961 0.08646267 0.054159343 -0.13206778 -0.31623945 -0.14058985 -0.038127184 -0.0081878025 0.045696452 -0.18881701 -0.061261807 0.13067399 0.010076639 0.1423862 0.43528113 -0.08745107 0.17786878 0.14562905 0.09651462 0.023821082 -0.03252542 0.14007373 0.020258207 -0.21187067 0.10928465 -0.123464614 -0.017656032 -0.100430906 -0.2663793 0.015387387 0.12321789 -0.047349807 0.07032999 -0.08047294 0.11071699 -0.04833465 -0.17745876
u1098 -0.14880079 -0.28582913 0.043303866 0.1631398 0.104122445 0.11447213 -0.11786219 -0.022895483 -0.059034098 -0.025928464 0.025930267 -0.17233858 -0.034763124 -0.2749889 -0.15404864 0.052717283 0.000604101 -0.04315648 0.03814119 -0.10038624 -0.03808598 -0.020699248 -0.25831348 -0.024343595 -0.065335296 0.37926543 0.14008419 0.045738593 0.16816264 0.1668406 -0.070581615 -0.31579646 0.023946038 -0.096718475 -0.09685774 0.008137169 -0.16215158 -0.025276316 0.059964743 0.037490398 0.07256388 0.36233437 -0.039108675 0.100550696 0.016875817 0.31304058 -0.036831323 0.07376967 0.10679846 0.0021774431 -0.11595753 -0.018862322 -0.0041171517 0.00589902 -0.014061559 -0.26675972 0.03772603 0.04935684 -0.03613787 -0.0006884464 -0.086954184 0.13941357 0.08225708 -0.08841444
b1663 -0.081348926 -0.029899968 -0.0016213449 0.09678033 -0.0031842564 0.07852097 -0.09379989 0.026033541 -0.058453698 -0.020260565 0.013864958 -0.09288644 -0.0531538 -0.13546826 -0.07406295 0.013633846 -0.01691849 -0.016821994 -0.005874424 -0.06068363 -0.012504203 -0.0038266855 -0.10173691 -0.023448214 0.024354355 0.15467787 0.08399516 -0.067613035 0.058300577 0.01927004 -0.03351521 -0.13375957 -0.011585513 -0.0013009505 -0.08567034 0.018110838 -0.037602775 -0.08731393 0.0049002217 0.023919998 0.050261304 0.14325465 0.017054882 0.07316635 0.065117985 0.10001169 -0.050425537 -0.00087367906 0.07747496 0.0068192836 -0.09440939 0.01271829 -0.021573735 -0.057202715 -0.083459534 -0.123535335 0.01572642 0.072806045 0.021763718 -0.01925242 -0.04862749 0.04929431 0.056640916 -0.021574253
u1072 -0.07108825 -0.1614024 -0.00969569 0.106208645 0.03561959 0.14218324 -0.05406414 0.059128482 -0.0035904543 -0.050478805 -0.048444264 -0.11608835 -0.10320428 -0.18890014 -0.07405789 -0.026848748 -0.056879364 0.0168023 0.042129587 -0.061687913 0.07652794 -0.031474337 -0.16279213 0.013845748 -0.03491766 0.25148654 0.14956458 -0.01314853 0.06279333 -0.029444613 -0.016347975 -0.19534393 -0.010590486 -0.025161766 -0.12754987 0.05961084 -0.21434069 -0.11670868 0.042787105 0.04455774 -0.021262087 0.2401187 0.032475576 0.10813219 0.12804301 0.38485694 -0.01490525 0.036469456 0.058362097 0.030201375 -0.11803107 -0.06777191 -0.024130333 -0.09564984 -0.031064764 -0.23610611 0.07742573 0.032015644 -0.025619423 0.029808657 -0.07109843 0.042357676 0.013260838 -0.04999792
b989 -0.21345156 -0.17688783 0.030069662 0.01545 0.1156131 0.038817145 -0.019528477 -0.014803207 -0.025800237 -0.045263812 0.007880017 -0.09718423 -0.055226706 -0.2513392 -0.1315376 -0.000478102 0.008464162 -0.029531863 -0.012331156 -0.031368658 -0.0055654845 0.092313685 -0.18371752 -0.048404746 -0.06558064 0.3397978 0.12996142 0.010450228 0.086854145 0.05993878 -0.011784655 -0.27808884 0.03918541 -0.023944667 -0.06541126 0.042262334 -0.14448099 -0.058094688 0.026925104 0.006805815 0.12594156 0.29989222 -0.028080253 0.034552522 0.113837056 0.37163022 -0.052268207 0.017460994 0.17617498 -0.020673333 -0.051629167 -0.0012899049 -0.055484943 0.003759422 -0.030782849 -0.2854756 0.025969354 0.0066119754 0.007193024 -0.025245108 -0.05274658 0.09709955 -0.0067823697 -0.096109524
u1197 -0.07726543 -0.26795974 -0.00182389 0.20164998 0.05235193 0.15864633 -0.23359334 -0.015012814 -0.043967072 0.05138008 0.038399015 -0.123918064 0.009208378 -0.22221214 -0.18340002 0.10529737 -0.035968486 -0.097399294 -0.15700392 0.024869848 -0.023207543 0.017606094 -0.25251606 -0.05915481 -0.054700874 0.3769524 0.1746853 -0.01078517 0.30264848 0.15229918 -0.08123442 -0.2534125 0.06141354 -0.051443122 -0.10924172 -0.01580852 -0.07389946 0.0077737886 0.10526576 0.1484854 0.11517833 0.3461306 0.01672259 0.081083275 0.05612453 0.37270367 0.01739448 -0.054871604 0.10022921 0.0500443 -0.21399969 0.009857651 -0.04547251 -0.07907026 -0.14678158 -0.31204733 -0.02217577 0.08180059 0.12919107 0.019082714 -0.043008532 0.12238338 0.13293184 -0.014441307
b1028 -0.044891715 -0.100618236 0.058360342 0.16062647 0.056063168 0.041706324 -0.07995887 -0.013348263 0.009747652 -0.005558567 0.008621457 -0.057329323 0.008729069 -0.19500934 -0.14129998 0.0686618 -0.038760774 -0.036304154 -0.05963375 -0.06125681 0.0054902555 0.083707936 -0.18962955 0.017821614 -0.025678525 0.25963584 0.103337914 -0.058941603 0.19327348 0.055496406 -0.024307087 -0.19589436 0.026537547 -0.015657809 -0.10836283 0.021626381 -0.047322977 -0.06376423 0.055636104 0.038560286 0.027143199 0.27370352 -0.001368089 0.022377495 0.041607 0.3212505 -0.0017808118 0.013430133 0.07933677 0.011764018 -0.06816537 0.004499617 -0.028675133 -0.064760596 -0.070676975 -0.25569734 0.005766566 0.040454853 0.053695396 -0.015321328 -0.031684622 0.097142726 0.13245367 -0.0029920728
u992 -0.08320769 -0.13997312 0.10485919 0.19694541 0.069024734 0.08581462 -0.069204345 -0.04732598 -0.033367347 -0.030135697 0.03375484 -0.06809334 0.012500551 -0.16551027 -0.12364483 0.032934465 0.024459828 -0.009576916 -0.025158986 -0.047113776 -0.036967132 0.029215094 -0.18638766 -0.032891385 -0.07631497 0.3110228 0.11080268 -0.020217411 0.20803277 0.07057478 -0.034028754 -0.15111288 0.031468056 -0.024051074 -0.09848162 0.017614396 -0.07586649 -0.03650618 0.06390153 0.058708582 0.09225884 0.32372 0.07024449 0.0074528293 0.030326016 0.30327293 -0.014666666 -0.005989932 0.08347749 0.03842638 -0.11212541 0.021416653 -0.05657292 0.009053039 -0.057349574 -0.26585585 0.036498662 0.013644275 -0.01588419 0.01494475 -0.021969814 0.08750407 0.14498651 -0.06923322
