3900 64
b0 0.2679962 0.10943734 0.07950693 0.09676865 0.14537741 -0.02134825 0.0937082 0.09210984 -0.010500162 0.13387695 -0.1374881 0.177623 0.044121735 0.18897262 -0.32956257 -0.17231587 -0.10693793 -0.21956307 -0.12310794 0.012670391 0.16605908 0.2703966 -0.06964107 -0.1871634 -0.28403577 -0.22758994 -0.18354334 -0.15734537 0.22661129 -0.21748444 0.17534408 -0.16506714 0.15102075 -0.010753073 0.13186786 0.09123687 -0.08289365 -0.4365849 0.28706744 -0.24304461 -0.15594321 -0.010315031 -0.15052806 -0.10983626 -0.27319974 0.043555103 0.11405927 -0.09813883 0.16296898 0.09332462 0.1825328 0.084475376 -0.20148398 -0.03742402 -0.08332937 0.11458593 -0.09081049 -0.17586328 -0.2268946 0.07025271 0.07947113 0.11238452 -0.10908242 0.04725548
u1142 0.2255852 0.0837105 0.051952276 0.12728553 0.123597875 0.05967984 0.10648649 0.025934149 0.11938691 0.015507389 -0.061171874 0.24281618 0.03970931 0.19838399 -0.27727258 -0.13290043 -0.007411778 -0.23741655 -0.11292214 0.049896948 0.121799566 0.28303546 -0.106979094 -0.17120817 -0.23440765 -0.24016006 -0.18202916 -0.16884725 0.28186283 -0.18725672 0.1686738 -0.21274133 0.12429931 0.058011495 0.12299345 0.12522273 0.01381712 -0.31493714 0.39381912 -0.22492795 -0.15096971 0.05497924 -0.06985755 -0.0008845151 -0.21670862 0.15914473 0.11058003 -0.15013401 0.12506397 -0.051920243 0.18533738 -0.068264395 -0.2560179 0.018465329 -0.06863507 0.100660525 -0.074125476 -0.16517542 -0.12513739 0.11491054 -0.007633106 0.06752929 -0.034967113 0.0705727
b732 0.26908746 0.03869883 0.07005112 0.15631218 0.20785363 0.04505521 0.09008564 0.02979229 0.0392575 0.07964387 -0.065036766 0.1272307 0.016574835 0.19075574 -0.3111257 -0.16034488 -0.070020884 -0.18948178 -0.15111956 0.011808476 0.18133923 0.26365328 -0.17508323 -0.2471724 -0.1817677 -0.26880488 -0.17192899 -0.13533802 0.25308228 -0.1641951 0.24164829 -0.19037727 0.14082094 -0.0057318727 0.08527366 0.066111416 -0.06452514 -0.4154523 0.35365173 -0.283188 -0.1389564 0.089768864 -0.16407757 0.0010407853 -0.27401447 0.11737048 0.13174151 -0.04506813 0.11373836 -0.02355663 0.196471 -0.13678257 -0.2570148 0.02892682 -0.11004159 0.12594727 -0.004741747 -0.18252487 -0.2167311 0.06827677 -0.012639761 0.11571314 -0.12728706 0.045649778
b128 0.28856602 0.07064306 0.05522289 0.092049316 0.08443171 0.09788835 0.21251735 0.024576506 0.13086818 0.123258404 -0.21318556 0.14346986 0.0325265 0.16328515 -0.2555012 -0.14467572 -0.025338067 -0.2584802 -0.15634473 0.072342336 0.16469218 0.26337373 -0.088356726 -0.1420601 -0.23440625 -0.18441714 -0.18621379 -0.15884586 0.24161665 -0.207845 0.22133683 -0.19313714 0.10592799 0.055802967 0.10595914 0.120277 0.04727465 -0.56739604 0.3158022 -0.3021664 -0.14068094 0.044744737 -0.13663359 -0.017038753 -0.31630448 0.021595433 0.120925784 -0.12318135 0.16455132 0.10650267 0.2544305 -0.12609096 -0.222703 0.010786181 -0.03864168 0.122939594 -0.006796771 -0.22216387 -0.2131325 0.07073596 0.122354284 0.13987808 -0.09082449 -0.075162776
u413 0.27184457 0.056282904 0.08211224 0.053636152 0.19585784 0.10184742 0.06427509 0.051694065 0.038017947 0.06275992 -0.094674505 0.20970236 0.059531663 0.2196803 -0.305222 -0.1996973 -0.08475118 -0.22662736 -0.15288353 -0.009436854 0.1061186 0.28282434 -0.091426745 -0.1529792 -0.2979375 -0.29656687 -0.18635814 -0.076854266 0.31651843 -0.14050345 0.25320226 -0.18419302 0.1433081 0.06759149 0.050197296 0.090686016 -0.0075290035 -0.58577174 0.45648146 -0.27348664 -0.13469893 0.08627286 -0.058829017 -0.021867169 -0.28307372 0.004793148 0.13175064 -0.05129012 0.12206932 0.0028855754 0.14896095 -0.033855543 -0.24819173 0.046420522 -0.03700323 0.077420056 -0.053623993 -0.15830967 -0.17809802 -0.021263545 0.05168397 0.11262369 -0.06431966 0.07344852
b767 0.28556025 0.05233478 0.026951833 0.08953246 0.2435715 0.042274974 0.059432857 0.09292252 0.034975745 0.085423104 -0.094197325 0.19508693 0.108229555 0.1324023 -0.3174003 -0.14008328 -0.08391988 -0.13921195 -0.0393881 0.0237777 0.14052804 0.29407942 -0.13751969 -0.16863362 -0.1950335 -0.2330501 -0.24403363 -0.14310184 0.21636601 -0.20695128 0.29420382 -0.19496244 0.10311218 -0.008542046 0.051534638 0.16346948 -0.041496653 -0.3707551 0.37971845 -0.32279187 -0.0956561 0.016181005 -0.050844274 -0.04152129 -0.24651021 -0.019642824 0.11118253 -0.03372381 0.13578878 0.0015162335 0.26562 -0.06225564 -0.26255757 0.027778894 -0.117449164 0.18823583 0.0004609086 -0.17977625 -0.18581018 -0.050736725 0.010746246 0.232538 -0.089215755 0.07787398
u192 0.2756458 0.061275624 0.031425778 0.04205144 0.104204044 0.09524942 0.10983634 -0.008354701 0.037018288 0.045338523 -0.13959013 0.1185378 -0.0030416267 0.15419284 -0.27594912 -0.17187843 -0.09573885 -0.19437587 -0.12818283 0.007130854 0.1366727 0.20789681 -0.059508447 -0.118662246 -0.17275354 -0.1481863 -0.09931918 -0.07488818 0.19394577 -0.15181437 0.21028936 -0.09917548 0.10534377 0.091509104 0.10821748 0.09299619 -0.019138291 -0.598984 0.30149773 -0.29356673 -0.0672351 -0.026071575 -0.11468557 -0.058565408 -0.271817 -0.07613584 0.07320808 -0.053854197 0.108155146 0.073403314 0.12348212 -0.03147684 -0.25564113 0.033083845 -0.066604845 0.08737588 -0.03795542 -0.21304694 -0.24171509 -0.026003584 0.056940988 0.17537422 -0.0934144 -0.029381149
b2531 0.052510425 0.029125065 0.037327383 -0.024362251 0.043264937 0.04798262 0.035323896 0.047266588 0.045059822 -0.045694847 -0.042026076 0.05270902 -0.04921634 0.04568632 -0.03459341 0.04111798 0.046127055 0.029082984 -0.030416092 -0.041321896 0.038089644 0.048403777 0.048357308 -0.049120422 -0.029532922 -0.042143367 -0.03905632 0.049911328 0.048374206 -0.02801583 0.03390545 -0.027021954 0.038677618 0.043232355 -0.046954405 0.044146556 -0.0517302 -0.014343965 0.03127686 -0.026095524 -0.025411684 -0.04753693 -0.055343904 -0.03698584 0.020824736 -0.03051037 0.040659502 0.03810492 -0.036724538 0.039400347 0.045136 0.031135526 -0.050862003 -0.043151 0.027093446 0.029801032 0.025242824 0.038772345 0.01576402 0.042117897 0.04921018 0.04235458 -0.047816463 -0.048083853
u456 0.28485602 0.004095833 0.11838562 0.069150485 0.126997 0.09075095 0.097985156 0.007490304 0.07962525 0.08152481 -0.17001256 0.18387717 0.006990681 0.17953366 -0.2953837 -0.19869383 -0.02218538 -0.2737627 -0.10487503 -0.13029452 0.1603129 0.2405227 -0.020291451 -0.122245625 -0.21509263 -0.25114495 -0.16798492 -0.12160044 0.21580426 -0.18860209 0.14989236 -0.15555681 0.09375444 0.009406979 -0.039452445 0.087997116 0.00046614595 -0.5903893 0.19202706 -0.31131524 -0.16861284 0.010006453 -0.090308845 -0.07165334 -0.21146399 0.07905647 0.15638791 -0.028765177 0.10407191 0.096943274 0.10884475 -0.12236224 -0.32676995 0.087751165 -0.09450321 -0.0056357374 -0.06618896 -0.11379605 -0.19609033 0.077104285 0.01048704 0.14207917 -0.17573749 -0.032039054
u846 0.28475106 0.080744185 0.06077804 0.03495198 0.07097537 0.08004639 0.10362067 0.052330583 -0.029091142 0.18078247 -0.13687512 0.12745501 0.07938238 0.21188891 -0.25820062 -0.12938222 -0.058436047 -0.17740288 -0.1601162 -0.10218779 0.12776409 0.20530693 -0.0026532242 -0.11068299 -0.13908686 -0.0568001 -0.19248466 -0.120769344 0.2125315 -0.13626163 0.2060829 -0.15684013 0.04920879 0.05256202 0.05196295 0.07467773 0.007904582 -0.41965404 0.079650275 -0.2600972 -0.09676371 -0.046740722 -0.16901383 -0.10442995 -0.25463563 0.010807794 0.052130956 -0.08667569 0.15973756 0.018807707 0.17908677 -0.098691754 -0.22450507 -0.05945459 -0.074545905 0.1264436 -0.044936765 -0.2133008 -0.29291433 0.04230609 0.16127011 0.17784344 -0.17186877 -0.037386626
b609 0.20736113 0.06680756 0.059133604 0.043760456 0.12572393 0.07269001 0.061345216 -0.0071584014 -0.020088594 0.1227852 -0.13660036 0.15911534 0.03031674 0.15094802 -0.20663057 -0.10792776 -0.015148531 -0.12871757 -0.06349897 -0.026907826 0.082519785 0.173358 -0.028709738 -0.13483998 -0.18227063 -0.12134551 -0.12701035 -0.05149205 0.14568159 -0.08305826 0.1779634 -0.120326184 0.10027323 -0.008211479 0.009904291 0.14036198 0.030537674 -0.27497774 0.22113718 -0.2220638 -0.06834748 0.028120082 -0.12258654 -0.023017045 -0.16172245 -0.041862383 0.0026530433 -0.067970656 0.11681029 0.026877549 0.16254912 -0.11390925 -0.19309115 -0.025238266 -0.04017755 0.14851059 0.004450433 -0.13743733 -0.14602807 -0.04117487 0.011145391 0.17302205 -0.109363414 0.04860338
u580 0.27114385 0.090473406 0.15580325 0.060612142 0.1843593 0.022230607 0.0634488 0.06109503 -0.014238884 0.12366835 -0.093290485 0.1241181 0.08136248 0.13293286 -0.24687767 -0.11766642 0.05693171 -0.18578574 -0.1070874 0.0020496477 0.18074529 0.25537586 -0.0693335 -0.16393356 -0.2147327 -0.19934319 -0.21560809 -0.054224543 0.21467304 -0.119029716 0.21396784 -0.13363388 0.14954059 -0.04854763 0.032781202 0.053628545 0.045653366 -0.5550208 0.4010859 -0.31907788 -0.11473257 0.003223064 -0.11678134 -0.063412465 -0.23938757 -0.013128963 0.013091023 -0.13720603 0.083374366 0.075932726 0.14072017 -0.03270531 -0.27499196 0.014107191 -0.059666067 0.21496645 0.008966719 -0.20257576 -0.23032826 -0.05467896 0.051164415 0.2745552 -0.11406613 -0.025994474
u331 0.2199407 0.1009781 0.1470332 0.08979512 0.15152292 0.09418804 0.14957476 0.11485294 0.020591479 0.14988299 -0.21678632 0.21959722 0.0551928 0.16676416 -0.25596634 -0.15977336 -0.004293117 -0.18392289 -0.12504373 0.012465343 0.20177566 0.2134812 -0.035256945 -0.17392336 -0.238043 -0.19008994 -0.14103593 -0.05372608 0.19812931 -0.116994604 0.19589634 -0.14555529 0.097150914 0.068064794 0.100556746 0.0810493 -0.027162353 -0.4616121 0.23853406 -0.24451666 -0.13822535 0.023819271 -0.1728616 -0.019697107 -0.2518277 0.13864826 0.12518875 -0.07749551 0.15636648 0.026650518 0.14572027 -0.1972488 -0.2627433 -0.012775955 -0.056838535 0.07941291 0.02539162 -0.16339105 -0.21808206 -0.09347592 0.059527643 0.14650628 -0.14475939 -0.034367017
b452 0.20872901 0.119156085 0.12450353 0.17582567 0.2208955 0.10003898 0.036795918 0.019591598 -0.018794555 0.07737008 -0.17002732 0.1869141 0.098848075 0.13611585 -0.31160364 -0.20968676 -0.09682576 -0.289842 -0.10472754 -0.05430178 0.16465871 0.17980158 -0.13143742 -0.18774801 -0.2586118 -0.27562687 -0.24746174 -0.1555476 0.21598819 -0.09662737 0.14206177 -0.1396972 0.1442228 -0.0694906 -0.039682753 0.1372636 -0.02189704 -0.5298977 0.35686892 -0.2937124 -0.14581789 -0.025939899 -0.1591705 -0.08889402 -0.2063328 -0.112941325 0.014915214 0.06795802 0.16934317 0.09091729 0.18746343 -0.09026278 -0.24104437 -0.0060798978 -0.04233335 0.21971413 -0.0303729 -0.14624803 -0.20669763 0.057830688 0.049559865 0.18907723 -0.16006213 0.086263046
u484 0.26485643 0.08940301 0.09216342 0.0723062 0.21267982 0.094794124 0.053290036 0.018661655 -0.041659944 0.117721766 0.0041565946 0.16569842 0.088502236 0.083353154 -0.27163872 -0.15368272 -0.026703656 -0.14759493 -0.14241947 -0.10769682 0.13382833 0.20663333 -0.12844394 -0.20148408 -0.2056782 -0.1372473 -0.18659253 -0.12281925 0.1906778 -0.17770645 0.14894892 -0.23408735 0.094438225 0.074089594 -0.041162543 0.052458428 0.06235896 -0.479778 0.19453856 -0.23620068 -0.06872356 0.060108658 -0.0957813 -0.05422016 -0.19115055 0.14513445 0.051059812 -0.04352511 0.12972903 0.00887605 0.101471536 -0.101431645 -0.29482377 -0.032503583 0.017948613 0.12767324 0.10847739 -0.17547049 -0.19881286 0.05996418 -0.014560722 0.13837364 -0.19566144 0.09436008
b654 0.12608519 0.17680524 0.060481418 -0.06753423 -0.035814833 -0.036171544 0.10517904 -0.003923099 -0.039625447 0.026485328 -0.009996027 0.22777139 -0.009662472 0.18377697 -0.15664616 0.06631493 0.071633935 -0.005226902 0.04906737 -0.028334415 0.054184057 0.07698989 -0.037261724 -0.13323987 -0.0868537 -0.044937465 -0.050347872 -0.06398479 0.08207604 -0.108797014 0.2345501 -0.13309693 0.06348542 0.113105014 0.027782617 0.1676405 0.028091548 -0.2612562 -0.06587738 -0.093357235 -0.040618178 0.13592874 -0.059269495 -0.07100648 -0.024212128 0.21582794 0.029388746 -0.19096719 0.00072445546 0.07545827 0.07973178 0.08952647 -0.21634443 0.050270494 0.007195663 0.051391765 0.008989603 -0.21501546 -0.09336165 0.072138034 -0.08636016 0.11050161 -0.14613417 -0.15113892
u1104 0.20450088 0.11637428 0.07666273 0.017368753 0.11116158 -0.07429287 0.119206004 0.002238364 -0.038678758 0.11298437 -0.13425441 0.15554747 0.08293023 0.18094626 -0.3071775 -0.10125036 -0.009626496 -0.20310056 -0.04366642 -0.02976432 0.09886411 0.2533808 -0.049623914 -0.21799622 -0.12222988 -0.24330482 -0.1988251 -0.04424512 0.25054416 -0.14394599 0.27493095 -0.14652273 0.11516603 0.13348588 0.07546457 0.18660639 -0.010631191 -0.51124847 0.23094234 -0.343186 -0.15893348 0.014497443 -0.23025116 -0.11974119 -0.19568385 0.13760471 0.0177636 -0.21981366 0.109201685 0.08008675 0.19764619 -0.13797423 -0.33340028 0.19424297 0.053501807 0.13770483 0.059140544 -0.17998977 -0.17589262 -0.016000614 -0.04378341 0.1769828 -0.24315561 0.08426105
u100 0.28856224 0.07284478 0.12477057 0.071221866 0.16970795 0.07838623 0.08526566 0.04943454 -0.07721615 0.114529334 -0.016158342 0.19455269 0.06099981 0.09925574 -0.33961222 -0.16621086 -0.04454198 -0.20753142 -0.112148605 0.048084535 0.12643433 0.18924119 -0.04054311 -0.16552256 -0.2679945 -0.21844435 -0.21557571 -0.10796565 0.22006969 -0.16126856 0.16756238 -0.058161177 0.08897113 0.06268855 -0.0065814876 0.13709058 -0.037607368 -0.7114758 0.2750797 -0.3185769 -0.14108205 -0.04495909 -0.12145813 -0.038014937 -0.30793253 0.009357114 0.08052834 -0.0062581194 0.19490236 0.025352966 0.119904056 -0.15569958 -0.29940823 0.037817866 0.00041930386 0.099925205 0.03487596 -0.25682235 -0.29807222 -0.02407938 -0.02266944 0.20790121 -0.18971112 -0.019642854
b765 0.21179862 0.081834815 0.110655405 0.14804612 0.17191228 0.05841093 0.04201771 0.12198709 0.06679939 0.0530888 -0.118562505 0.14885919 0.05985823 0.07531663 -0.2645923 -0.1529633 -0.10935528 -0.14988998 -0.17443593 0.043104105 0.2212188 0.23776351 -0.05473212 -0.07101397 -0.16595292 -0.17287613 -0.17404512 -0.12927523 0.22153579 -0.22314702 0.15425664 -0.10243787 0.06214299 0.027659036 0.044119816 0.111724064 -0.0021162336 -0.48246428 0.101899154 -0.2124607 -0.10666068 0.008086996 -0.17524995 -0.015557083 -0.21686456 -0.047958884 0.085999295 -0.09338187 0.19074157 0.023712335 0.2084921 0.025584346 -0.27707872 -0.048022456 -0.04671449 0.084196344 -0.0054593044 -0.1878682 -0.18502378 0.115022026 0.008433058 0.13429254 -0.19547893 0.003888875
u1089 0.25258437 0.10829652 0.08611886 0.09353477 0.13504475 0.07063798 0.08508442 -0.03086317 0.034311786 0.06210685 -0.17916706 0.15154523 0.02992455 0.18216431 -0.28287473 -0.20517062 -0.06326133 -0.1892248 -0.14121856 0.06540869 0.16297476 0.22352241 -0.06854041 -0.18249547 -0.22413534 -0.24132209 -0.24944289 -0.10456452 0.18589859 -0.18510206 0.18284369 -0.16987966 0.072895326 0.056415867 0.15788741 0.12578547 -0.0047072256 -0.56888413 0.22554946 -0.27395293 -0.18179248 -0.0134836165 -0.15469766 -0.05945576 -0.28937295 0.028250355 0.12111486 -0.001423317 0.21275234 0.03770853 0.11965411 -0.002710966 -0.26147136 0.091289386 0.026482243 0.020287804 -0.011028756 -0.17913043 -0.22663487 -0.020295681 0.08282124 0.1335038 -0.18490991 -0.040768825
b177 0.29263666 0.033168294 0.13839602 0.07123032 0.17257486 0.110864796 0.092342585 -0.0011375104 0.036814652 0.137596 -0.07596471 0.18904547 0.06663298 0.1677579 -0.3381942 -0.20111722 -0.04668052 -0.2360703 -0.16173926 -0.114576526 0.11499896 0.30759543 -0.055863243 -0.14906889 -0.24751565 -0.2443779 -0.18071018 -0.04816276 0.20643887 -0.18377551 0.21130116 -0.13791102 0.04447413 0.07296069 0.029575942 0.04723451 0.0756235 -0.6423852 0.26789954 -0.3255688 -0.12203372 0.09576311 -0.1832512 -0.02858352 -0.24106488 0.020928806 0.07775124 0.00405027 0.1390491 0.07557777 0.17545897 -0.10296962 -0.31038356 0.01699384 -0.034213785 0.13104665 -0.015006167 -0.15067427 -0.19079988 0.051026717 -0.0034027505 0.08745419 -0.11658787 -0.016094299
u77 0.26074746 -0.0108349705 0.15278807 0.019720882 0.08942927 0.13894647 0.13634337 -0.061791863 0.012930318 0.13910295 -0.0730651 0.15618132 0.11242649 0.12859309 -0.31345946 -0.12911676 0.013442889 -0.28333953 -0.11049698 -0.07612946 0.17056568 0.2044854 0.013119388 -0.10457759 -0.1982341 -0.25188336 -0.30721 -0.051855825 0.22902845 -0.17860492 0.16777353 -0.13318723 0.08660979 0.016708096 0.021985613 0.051810313 -0.024390286 -0.57032424 0.32900107 -0.31414497 -0.12966049 -0.039206177 -0.112954535 -0.131678 -0.21793622 0.10421389 0.05353109 0.082326956 0.057596363 0.10267535 0.04050438 -0.053779274 -0.29612914 0.07580843 -0.01778309 -0.06762031 0.1129935 -0.20347835 -0.18998526 -0.1439223 0.038162574 0.03376668 -0.19507924 0.12295338
b775 0.19108558 0.1348011 0.007927843 0.0421634 0.058290992 0.06407363 0.057135336 0.041590095 -0.008998258 0.008289841 -0.04225344 0.14246373 -0.03496123 0.06167988 -0.17629474 -0.111594684 -0.10945822 -0.095637135 -0.07822044 -0.078876205 0.17989263 0.124250054 0.011432223 -0.14793675 -0.13183022 -0.1284819 -0.1673843 -0.07085609 0.18433045 -0.17521816 0.046560414 -0.17102583 0.0697278 0.088330194 0.10081761 0.07431313 -0.04032044 -0.48014513 0.09034901 -0.19037409 -0.21554674 -0.0030528258 -0.04020336 -0.09100921 -0.14733069 0.09308456 0.053652108 -0.0489031 0.09786906 0.08812766 0.15641987 -0.01526445 -0.15591425 0.0527341 0.03147639 0.043670192 0.03972636 -0.11314665 -0.09099207 0.03544256 0.07687136 -0.13849817 -0.15562683 -0.04398623
u690 0.17356561 0.06750613 0.12689053 0.1382256 0.17946887 0.07178573 0.04463941 -0.02674684 0.049823485 0.09191382 -0.17610788 0.23515888 0.118772134 0.14989728 -0.2932724 -0.1606407 -0.13161218 -0.22718832 -0.084967546 -0.0058873612 0.20844327 0.20563802 -0.075301416 -0.115247376 -0.25940982 -0.16605768 -0.121218994 -0.13247727 0.2351568 -0.22687086 0.16964656 -0.18545933 0.08113446 0.025477799 -0.03470834 0.09977985 0.03845578 -0.37487704 0.3130918 -0.27701333 -0.2204403 0.05692903 -0.10765069 -0.06314624 -0.23022309 -0.1198518 0.050282095 -0.078313075 0.13747391 0.12441112 0.17038234 -0.069592826 -0.20501141 0.03730856 -0.049620375 0.08055435 -0.03234847 -0.1604484 -0.1282646 -0.010916695 0.05669553 0.061990917 -0.2095521 0.018123455
b1258 0.12999657 -0.09842474 0.081167534 -0.059590906 0.27938342 0.28483352 0.16122028 0.07294561 0.112166405 0.14043863 -0.07824822 0.15441144 0.14644629 0.22178553 -0.21719456 -0.21087418 -0.16166623 -0.16686761 -0.15951669 0.032088514 0.25912014 0.15377407 -0.101309836 -0.13556015 -0.12984869 0.038603146 -0.20953092 -0.14320982 0.27158794 -0.22191772 0.11367581 -0.24478216 0.12779485 0.020786563 0.17224759 0.049443856 0.09662821 -0.41353047 0.07120781 -0.25608462 -0.2963261 -0.0062647727 0.04614536 0.051764566 -0.22383782 -0.084974065 0.054727297 -0.16270491 0.15347315 0.09825045 0.17654927 0.05887995 -0.17748049 -0.089794144 0.085494205 0.11999106 0.05630775 -0.12366099 -0.07532869 0.08933192 0.09118301 -0.08995295 -0.17121665 0.024737991
u324 0.10883898 0.008107439 0.07136131 0.06915526 0.10218542 0.09080579 0.058582686 0.0163817 0.0018988235 0.0347516 -0.056758348 0.10589516 0.09717556 0.081223436 -0.19674529 -0.110242456 -0.12767902 -0.12150156 -0.051727448 -0.043939054 0.07625385 0.12919968 -0.019673085 -0.067853905 -0.1190666 -0.09088306 -0.1449671 -0.08143777 0.13672821 -0.12616889 0.080543704 -0.08219645 0.06750598 -0.013096769 0.0028065483 0.07553374 0.022492895 -0.33228287 0.18750553 -0.14388755 -0.09940108 -0.02776173 -0.09298457 -0.025890844 -0.11851994 -0.056348987 0.051229917 -0.028112432 0.097452566 0.022997461 0.15461358 0.01784542 -0.16287921 -0.02836397 0.018481899 0.07179071 -0.038883116 -0.07350422 -0.07467434 0.018650899 0.048916828 0.0020644774 -0.09083635 0.018562375
u679 0.29906902 0.026456445 0.10088606 0.068980426 0.12155955 -0.008527211 0.1456868 -0.0428394 0.07639591 0.14449446 -0.14970386 0.14058991 0.041486166 0.11387321 -0.3669611 -0.18915488 -0.04432936 -0.18452007 -0.15379551 0.03610931 0.17190854 0.28488714 -0.0715962 -0.12935577 -0.11042257 -0.25107297 -0.16684142 -0.039123245 0.15290041 -0.08206919 0.19313799 -0.10374617 0.07405023 0.038614064 0.14908 0.13365768 -0.0055349343 -0.46046427 0.118463084 -0.2917749 -0.11033312 -0.015534478 -0.054822516 -0.063328624 -0.26930323 0.019430256 0.15921503 -0.050467424 0.14285113 0.019322464 0.121088214 -0.08578059 -0.28415826 0.061582122 -0.036768477 0.1141743 0.07615647 -0.1584337 -0.26046383 0.05508155 0.036163475 0.13260381 -0.16377881 -0.04520028
b209 0.28296167 0.1671325 0.04750739 -0.06413437 0.22651266 0.042122357 0.067377515 0.004057938 0.061948802 0.120662905 -0.047077555 0.06335311 0.049839556 0.15877926 -0.341579 -0.1768481 -0.17526798 -0.32661614 -0.14131057 -0.014621911 0.1417427 0.32771942 0.015030856 -0.21842796 -0.15257202 -0.09111701 -0.23987556 -0.11876402 0.21062325 -0.20858923 0.18730962 -0.21974525 0.10007282 0.034842815 0.028041607 0.10161759 -0.0966314 -0.5905442 0.18260765 -0.3364975 -0.11787003 0.033780377 -0.0567824 0.023219693 -0.29590625 0.047238693 0.017356247 -0.01081791 0.13569938 0.078940794 0.1294297 -0.1671982 -0.24232617 -0.07326232 -0.005841238 0.15536584 0.022711787 -0.16948786 -0.1696853 0.01967753 0.02468449 -0.018066185 -0.042841394 0.05979272
u119 0.15096432 0.16856389 0.08434587 0.10124072 0.073793106 -0.004876477 0.07241941 -0.053550683 -0.012384735 0.050115444 -0.16728818 0.14386597 -0.00034689935 0.17789848 -0.23437217 -0.10527554 -0.03878583 -0.22975396 -0.12413746 -0.14938073 0.16284199 0.12423217 -0.0361101 -0.094146416 -0.1349341 -0.2103473 -0.13093023 -0.092990704 0.24292278 -0.11251534 0.19055623 -0.022381157 0.076143436 0.0011835792 -0.04381094 0.064933375 0.055439636 -0.5338365 0.14321055 -0.27035582 -0.1735231 0.046209432 -0.16684553 -0.04873333 -0.14738204 -0.07018732 0.017480617 -0.044497866 0.089542665 -0.05524254 0.05839908 -0.09708109 -0.22012393 -0.031194648 0.06763063 -0.03526917 0.10645662 -0.19158483 -0.119657435 -0.045585748 -0.032192048 0.2645019 -0.09000352 0.060224712
b16 0.31531268 0.021624288 0.12893648 0.008178845 0.18371977 0.0059330203 0.18228327 -0.08698193 0.16647497 0.07513366 -0.06789097 0.032777414 0.041372374 0.22697541 -0.39893788 -0.26655102 -0.14112335 -0.3225604 -0.16507415 0.017591167 0.21377727 0.24104686 -0.06288125 -0.32038078 -0.18558036 -0.26609966 -0.2545881 -0.116356574 0.23898079 -0.23266862 0.26547942 -0.20382947 0.08520798 -0.07095638 0.16451088 0.07712257 -0.012636519 -0.6477978 0.007080232 -0.32737973 -0.2151436 0.021354338 -0.08095973 -0.06067058 -0.27649796 0.03677046 0.17838292 -0.011828146 0.14014535 0.08373611 0.28729856 -0.13159643 -0.31042692 -0.08620607 0.049651936 0.072136864 -0.045682926 -0.040210485 -0.23271357 -0.07633331 0.06406969 -0.030542137 -0.12271044 -0.009013258
u565 0.24644744 0.10385414 0.118378386 0.054635856 0.1621208 0.09573509 0.11105029 -0.052814733 0.016875327 0.06930962 -0.13441986 0.15680166 0.07180681 0.13692012 -0.27727225 -0.16128166 0.0007906819 -0.25558373 -0.10747041 -0.060939282 0.1690009 0.21796004 -0.06170916 -0.21030383 -0.1867584 -0.1748273 -0.1793556 -0.10781243 0.20827681 -0.1225263 0.2153744 -0.16299273 0.13177142 0.017348167 0.062065404 0.055368103 0.05049296 -0.4566534 0.18870938 -0.3039464 -0.120902814 0.028992137 -0.108746395 -0.045310576 -0.22942202 0.04053909 0.10816659 -0.017419342 0.15601598 0.08090565 0.17663227 -0.114754476 -0.25487354 -0.02120238 -0.024314016 0.08505097 0.061486773 -0.19323048 -0.18789828 0.030657195 0.05037521 0.01842952 -0.14417727 0.043417424
b272 0.2538211 0.11028027 -0.03803988 0.059707638 0.0975096 0.013823613 0.03973641 0.0478595 -0.009922873 0.019600982 0.09045513 0.0026065556 0.011441955 0.109129414 -0.17297904 -0.06258566 -0.08900074 -0.063070424 -0.08085145 0.038696367 0.09281567 0.21035613 -0.03092633 -0.14835697 -0.103084855 -0.07454751 -0.120724216 -0.028338857 0.2482844 -0.1394795 0.20679037 -0.12839617 0.024759492 0.049780462 0.016417546 0.103991464 0.034623496 -0.48181129 0.169576 -0.21423472 -0.12264953 0.101237126 -0.012029068 -0.122466356 -0.18066008 0.086291395 0.054075234 -0.048943914 0.121909015 0.11561594 0.20541997 0.07116618 -0.22200948 -0.03838143 0.009463599 0.15765075 0.057673328 -0.0759547 -0.15930597 0.020069813 0.03839994 -0.090829864 -0.10579583 -0.07032661
u56 0.18842517 0.06260227 0.15209688 0.06827285 0.07190071 0.08387358 0.13285457 0.04897345 0.09988165 0.0039135567 -0.092493504 0.064362094 -0.008919417 0.2555434 -0.25252074 -0.20812985 -0.007177654 -0.16036129 -0.065488525 0.0154875675 0.16068408 0.16929528 -0.02377166 -0.10332092 -0.15682693 -0.15068334 -0.13318735 -0.07570689 0.19934179 -0.2286108 0.1632559 -0.16840047 0.06668184 0.06529811 0.08423514 0.08472721 0.055057377 -0.6369819 0.14114746 -0.22777458 -0.14606673 0.10539353 -0.012363497 -0.033582136 -0.2717042 0.028461022 0.08155433 -0.064269856 0.05620596 0.11017987 0.23766805 -0.25049722 -0.26055473 -0.049470633 -0.024786307 0.122159995 -0.008883559 -0.1775379 -0.24714047 0.16966368 0.12619993 0.16102669 -0.10987771 -0.04257643
b2601 0.04550795 0.058892097 0.041470833 -0.047672637 0.05499593 0.052528616 0.03465111 0.03943435 0.058642074 -0.040384308 -0.054988407 0.05086046 -0.041118324 0.051462356 -0.04429195 0.037094824 0.0377432 0.022713069 -0.059627686 -0.054028645 0.04440552 0.031345513 0.043070253 -0.05437213 -0.034236334 -0.04081764 -0.04615991 0.04075278 0.03920989 -0.04064633 0.040895272 -0.03257938 0.059391167 0.040417545 -0.039364696 0.040261224 -0.03764047 -0.058837768 0.035037585 -0.044419345 -0.05749082 -0.024276907 -0.03509357 -0.03346286 0.010297461 -0.051933844 0.053799603 0.026352596 -0.0107824635 0.032000672 0.061787616 0.027402036 -0.049842067 -0.047072027 0.041820038 0.033662323 0.04917278 0.031002684 0.038098376 0.039644554 0.03619265 0.043291476 -0.057586737 -0.022882124
u1049 0.2518537 0.1335334 0.14721122 0.13619657 0.12886353 0.08415168 0.09689636 -0.065018326 0.041655317 0.18233992 -0.20783092 0.19895776 0.054031715 0.14973736 -0.32014108 -0.21812946 -0.09045107 -0.14902224 -0.19560905 -0.024769932 0.20692535 0.30470347 -0.0948491 -0.17835307 -0.22327684 -0.21431102 -0.16898695 -0.13683447 0.18924443 -0.22375996 0.18996885 -0.13541675 0.13349035 -0.03847911 0.13206837 0.09248946 0.08180092 -0.45953578 0.2220934 -0.21909408 -0.17967862 -0.005031345 -0.1343763 -0.07954638 -0.2698471 -0.07520218 0.08226831 -0.10386729 0.19754031 0.016874082 0.22162421 -0.12936874 -0.29593638 0.0766641 0.004430594 0.13890441 -0.028794792 -0.21766964 -0.1788921 0.03996245 0.05852824 0.14575143 -0.1727731 -0.048814014
b514 0.3488613 0.21888092 0.110010386 0.09734272 0.17073093 0.03804313 0.12366871 0.06882129 0.023708116 0.13693455 -0.17346632 0.023341391 0.04587769 0.19826257 -0.35126802 -0.27339694 -0.0718564 -0.29582754 -0.18203783 -0.046653956 0.18593289 0.25391105 -0.053284038 -0.24375899 -0.18338075 -0.14087674 -0.22355273 -0.11064447 0.23249023 -0.18715675 0.31234586 -0.15054032 0.15388995 -0.10569065 0.13494068 0.14138609 0.06857932 -0.57490003 0.30767956 -0.2999061 -0.18328987 -0.05381873 -0.06519976 -0.08077342 -0.30168077 -0.0054043 0.13294621 -0.037255127 0.17329139 0.11070001 0.10350669 -0.051216308 -0.32509062 0.022914926 -0.024970457 0.057457455 -0.087928 -0.23724228 -0.22553118 0.05740284 0.09543184 -0.045495056 -0.15930104 0.028134316
u355 0.26731 0.04182768 0.101727925 0.057867408 0.0233043 0.05961683 0.13599584 -0.030086908 0.056999028 0.09510963 -0.08397716 0.09781471 0.014050106 0.11662359 -0.27939668 -0.19169599 -0.058335196 -0.077535786 -0.16550729 -0.036512375 0.17298543 0.19805878 -0.065355994 -0.077635646 -0.1352132 -0.16264798 -0.15554309 -0.095695645 0.19233711 -0.18970552 0.22692576 -0.19316866 0.13242488 -0.05544031 0.08330718 0.07825933 0.061408322 -0.50036645 0.065943964 -0.25680646 -0.15670517 -0.039672736 -0.14292721 -0.12055652 -0.20455246 0.03536696 0.1293989 -0.043768357 0.110019416 0.05535352 0.23525533 -0.124802895 -0.2231797 0.0072113313 -0.039927382 0.043703463 -0.06075746 -0.15015921 -0.17925073 -0.048677616 0.035439055 0.013103088 -0.10902928 -0.05532271
b352 0.24897367 0.09380309 0.0735898 0.020382019 0.15145634 0.09575027 0.13822225 -0.015320287 0.10125779 0.12254243 -0.1848132 0.085537896 -0.0065532606 0.21904291 -0.3257566 -0.14579174 -0.06499909 -0.112968974 -0.1802233 0.03514208 0.2059906 0.30059627 -0.13474208 -0.13088201 -0.11614094 -0.18989833 -0.22437178 -0.070559576 0.17226692 -0.1707654 0.23114142 -0.12894021 0.11625466 0.004056896 -0.03242615 0.14341864 -0.014834159 -0.44138023 0.2583976 -0.40402973 -0.07908673 -0.02639965 -0.11202367 -0.03127365 -0.18269217 0.021199513 0.023475647 -0.12025599 0.07966541 0.06647771 0.25126085 -0.121833935 -0.280732 0.023764541 -0.024339024 0.15722807 -0.113567434 -0.18992941 -0.16427064 0.007500287 0.045680992 0.0919981 -0.12247622 0.058335923
u1044 0.25363314 0.0784578 0.06139246 0.041823976 0.09574509 0.07575979 0.095218554 0.063034676 0.06024736 0.1199485 -0.11729504 0.10348948 0.036187075 0.11714418 -0.22394328 -0.15242858 0.012068637 0.011142986 -0.1488152 -0.01144371 0.097486265 0.23094377 -0.11942938 -0.10107747 -0.1332618 -0.1145785 -0.17956308 -0.1353106 0.17954043 -0.105146244 0.25345677 -0.13989633 0.06994006 -0.0012239376 0.016421897 0.058386154 -0.04911955 -0.36414066 0.16521545 -0.16756655 -0.11773889 -0.06511349 -0.13542244 -0.10951555 -0.20741735 -0.0070795612 0.071011275 -0.069565006 0.114532866 0.13278356 0.14669052 -0.030761644 -0.1708907 -0.15419811 -0.07117773 0.087866016 -0.0731275 -0.17760143 -0.17709851 -0.016859157 0.022422034 0.07441377 -0.12635039 -0.016676309
b946 0.12817182 0.04475504 0.05848517 0.046585903 0.08113831 0.033519335 0.05901446 0.021960776 0.03659186 0.05263204 -0.10023623 0.10273637 -0.0009421826 0.06927477 -0.16400328 -0.06535959 0.00044509518 -0.06258823 -0.06460684 -0.01578313 0.09101553 0.136052 -0.02208149 -0.063739 -0.11273349 -0.093373306 -0.09333597 -0.03300222 0.09929571 -0.08452133 0.12503235 -0.10083278 0.061147127 -0.0014668143 0.0062166313 0.07819913 0.0082688145 -0.20423986 0.15887624 -0.14108951 -0.069029294 -0.010980387 -0.09393566 -0.01261757 -0.06854391 -0.020538535 0.050371863 -0.043632302 0.05264802 0.028427677 0.08158549 -0.07221793 -0.14099862 -0.008607206 -0.04050484 0.061143316 -0.019880073 -0.06373294 -0.0567124 0.023552911 0.04399888 0.06319358 -0.061454248 -0.015360451
b1549 0.17987534 0.005282819 0.096016474 0.067157626 0.21493915 0.072578914 0.09315464 0.03566879 0.023988642 0.11422508 -0.15585683 0.2167261 0.04513761 0.12933314 -0.26656246 -0.15740798 -0.025586402 -0.1423952 -0.17458186 -0.0040942226 0.1595363 0.21689293 -0.03668706 -0.10759125 -0.17964906 -0.15621226 -0.21849005 -0.08538425 0.19269417 -0.11015173 0.198601 -0.14694673 0.055121403 -0.053066872 0.14415054 0.06410506 -0.005948681 -0.3462033 0.11111032 -0.1979101 -0.10223288 -0.018761555 -0.17829487 -0.049296714 -0.17535478 0.040010717 0.0740463 -0.07414478 0.1084935 0.01716533 0.14062153 -0.047124248 -0.22609945 0.0056737647 -0.01617516 0.010101625 -0.07697068 -0.09520341 -0.15467389 -0.011559588 0.026227875 -0.05438696 -0.13454081 -0.037832633
b1 0.14348081 0.055181537 0.098301694 0.03633282 0.15415467 0.07418905 0.060942378 -0.033085782 0.016908485 0.0776946 -0.06947901 0.12916277 0.037486978 0.13403113 -0.14546786 -0.06688014 -0.060693346 -0.107144915 -0.11248929 -0.059456605 0.116723806 0.15033868 -0.040586177 -0.103984736 -0.14377362 -0.11108146 -0.13359414 -0.08198299 0.13230656 -0.108691886 0.12343461 -0.11892846 0.09276519 0.058967147 -0.03879642 0.09323461 0.059353296 -0.19932772 0.19947028 -0.1803339 -0.101589985 0.018277049 -0.11393814 0.019096112 -0.085080355 0.019248107 0.04290977 -0.048245225 0.09561964 0.018360663 0.12885106 -0.06508255 -0.14242929 0.017769968 -0.008045844 0.10006076 -0.013098929 -0.08788062 -0.07802374 -0.0017734529 0.05623747 0.09966474 -0.107284606 0.025224803
u561 0.37950367 0.08005958 0.0882798 0.026470415 0.17780581 0.13143343 0.24765112 -0.13366647 0.012806365 0.15421882 -0.029965091 0.22234644 0.11965253 0.29432708 -0.36947322 -0.1502578 -0.20625664 -0.2249833 -0.2414225 0.0064138463 0.21973667 0.32853094 -0.14401355 -0.29256183 -0.25514084 -0.24059576 -0.3271813 -0.15599401 0.33745396 -0.31123745 0.24556914 -0.26656643 0.110452704 0.15222248 -0.074835375 0.10743516 0.12552276 -0.43007284 0.31356874 -0.35566908 -0.33310583 0.06132206 -0.1867789 0.07823193 -0.17423838 0.010387352 0.101805985 -0.09003951 0.18185253 0.049141902 0.25082916 0.0056487285 -0.26224303 0.07008225 -0.08024391 0.01845871 -0.11674641 -0.2142501 -0.19167487 -0.07350259 0.14019106 0.12716009 -0.23843278 0.10761677
b196 0.23886676 0.050656214 0.15435763 -0.005382424 0.18953928 0.08573123 0.020006329 -0.11132977 -0.05127526 0.15962698 -0.05697651 0.14136039 0.07432221 0.22679599 -0.27756026 -0.03850854 -0.08046122 -0.22780077 -0.19759211 -0.028985476 0.16218632 0.22006622 0.0007873945 -0.2006131 -0.1939375 -0.15133439 -0.25722554 -0.11179712 0.22839184 -0.06464569 0.23714891 -0.22829507 0.13894828 0.057553515 -0.082600534 0.0052137566 0.0894917 -0.3978929 0.32190606 -0.31857243 -0.1461489 0.04940468 -0.17995599 0.01830735 -0.15089807 0.0063462504 0.018761573 0.07171503 0.09295782 -0.027549947 0.13791347 -0.14204137 -0.283024 0.023504404 -0.06583612 0.049651846 -0.034487657 -0.16200247 -0.1319044 -0.04632398 0.06571039 0.12029567 -0.16673708 0.11707271
u635 0.26783183 0.09777076 0.07168919 0.039998133 0.15683359 0.07723391 0.08093636 0.0064227665 -0.03161382 0.07657047 -0.087836795 0.19786263 0.14313757 0.16362035 -0.21457796 -0.13334477 -0.09552382 -0.18673411 -0.13905807 -0.011737035 0.12015483 0.22273311 -0.0829458 -0.16145532 -0.17888583 -0.19550432 -0.24569951 -0.106969275 0.2325893 -0.11213279 0.16658187 -0.19461636 0.06448477 0.06341865 0.01929783 0.0516417 0.08329305 -0.39609325 0.31659576 -0.29143208 -0.07277989 -0.00820823 -0.117281176 -0.007507253 -0.2161221 -0.042413507 0.057358675 0.027512418 0.11542578 0.004281041 0.17824231 0.06796663 -0.24312216 0.03334032 -0.057702277 0.19972932 0.018454818 -0.16254802 -0.15636842 0.028369518 0.030292582 0.117306836 -0.08909297 0.0005596687
b818 0.23985174 -0.0073028477 0.08970546 0.006917975 0.27237803 0.100489415 0.056665786 0.072759226 0.06312214 0.17189945 -0.16129588 0.2828124 0.14295553 0.21913294 -0.28555143 -0.03903155 -0.14365055 -0.24866238 -0.11993872 0.06495511 0.15756951 0.20426242 -0.07012431 -0.14865068 -0.18957597 -0.113798484 -0.121904574 -0.1874976 0.22818899 -0.14474638 0.18894722 -0.18380725 0.0695843 0.044813983 0.098140076 0.0035939137 0.14769647 -0.3873823 0.1408693 -0.28177145 -0.11311069 -0.013721034 -0.14655763 0.0789936 -0.15957844 -0.027169287 0.058440257 -0.08899098 0.24173549 -0.010083216 0.13035458 -0.048969638 -0.2442083 0.09900603 0.023064708 0.15343963 0.007639216 -0.15820044 -0.23047605 0.012128242 0.06526542 0.09596025 -0.17934228 -0.09123817
u530 0.2937496 0.05419134 0.052009996 0.054047283 0.27205238 0.22211029 0.105744705 0.119964465 0.118386775 0.24192615 -0.15188755 0.21750906 0.1751491 0.2284642 -0.3074093 -0.1570407 -0.19784036 -0.37885323 -0.18873002 0.02901084 0.29013476 0.31291562 -0.08371753 -0.19213013 -0.11090347 -0.1851554 -0.14057519 -0.20536296 0.31529653 -0.20375472 0.22258383 -0.19290392 0.11101034 0.06852903 -0.002417748 0.11382361 0.14237769 -0.47369468 0.22271653 -0.24746098 -0.15902446 0.049458213 -0.09368195 0.010550529 -0.27975312 0.047695775 0.08269777 -0.11351417 0.27014327 0.09681977 0.2037458 -0.006902438 -0.26206228 -0.051797487 0.03743373 0.07251127 0.010946448 -0.22831975 -0.25816414 -0.0069340267 0.060720257 0.10685755 -0.1578202 -0.11878493
b891 0.17748411 0.011458141 0.082004786 0.024106441 0.09474621 0.05617417 0.12981082 0.09556358 0.11616205 0.093185894 -0.09977706 0.10446807 0.0334042 0.11853006 -0.25741783 -0.07281577 -0.07324576 -0.1292024 -0.12770608 -0.0033241988 0.16755788 0.19773057 -0.016433192 -0.12521572 -0.10826495 -0.10130341 -0.16289885 -0.058888383 0.22166625 -0.15756641 0.16395193 -0.1613094 -0.00797313 0.06070388 0.1535626 0.08988681 -0.028529435 -0.4774963 -0.049295396 -0.20571648 -0.14801171 -0.0064726784 -0.09831684 -0.098781526 -0.22734755 0.06918701 0.057269875 -0.10346642 0.08908285 0.038123798 0.13661724 -0.08648502 -0.18548693 -0.002916795 0.010824735 0.027671183 0.052453008 -0.1406811 -0.1833033 0.04867557 0.06852879 -0.049802173 -0.111571014 -0.06756598
u183 0.17996603 0.027397497 0.10310567 0.015410718 0.20030192 0.07796018 0.008940789 0.004541966 0.025052452 0.07666856 -0.117383055 0.21620017 0.07657845 0.071153335 -0.33313262 -0.13068676 -0.12111721 -0.19949825 -0.16131061 0.019090531 0.24020995 0.2613787 -0.04521288 -0.24174014 -0.21573761 -0.13681796 -0.24653116 -0.14111674 0.22132811 -0.23037542 0.097450815 -0.13405605 -0.022551471 0.21475856 -0.025652658 -0.012622763 -0.02387512 -0.54164016 0.040774446 -0.30687276 -0.057933297 -0.09947253 -0.19176382 0.04598582 -0.24688521 0.06088157 0.053169448 0.013463187 0.17440832 -0.055021416 0.17850383 0.09445173 -0.26022553 0.03888234 0.04609789 0.14489344 -0.020040937 -0.1531343 -0.23625425 0.12589917 0.092536725 0.15244855 -0.12815899 -0.07299808
b157 0.14476119 0.04188176 0.07124382 0.01976476 0.16994523 0.04002022 0.042575676 0.01824834 0.038428016 0.06462105 -0.12481402 0.13024096 0.04738271 0.09527584 -0.14662929 -0.06285261 -0.08005975 -0.09608275 -0.10017391 -0.003953759 0.102701336 0.15469873 -0.02952109 -0.13988324 -0.15168849 -0.13020009 -0.10729578 -0.050383497 0.13262443 -0.11731839 0.114050314 -0.085881114 0.041929565 0.07295936 -0.04907642 0.056298062 0.010362733 -0.1970705 0.040119912 -0.11614491 -0.08764011 -0.020068798 -0.12290161 -0.010840225 -0.060988132 0.018403031 0.05664852 -0.056560043 0.07157709 0.03576266 0.13153514 -0.030196255 -0.1450864 0.018235918 -0.020830594 0.07890017 -0.019658195 -0.06447659 -0.07700308 0.05691311 0.028503787 0.01459226 -0.12560251 -0.0031637223
u198 0.2329281 0.09097335 0.07457639 0.046211775 0.16652977 -0.06810684 0.07314917 -0.051871274 0.13113298 0.111130804 -0.11355148 0.049484283 0.088731915 0.16030261 -0.3626182 -0.15087815 -0.16749933 -0.16442665 -0.15483472 -0.005639415 0.1872301 0.27641907 0.0154775595 -0.27818075 -0.18863766 -0.17246312 -0.19022432 -0.16422074 0.20088136 -0.2569167 0.19717623 -0.14011067 -0.057673305 0.10324883 0.094053224 0.14938737 -0.0359898 -0.38805822 -0.019000785 -0.24582928 -0.13499667 -0.020398948 -0.21038376 -0.0037536554 -0.20974545 0.055984493 0.041593473 -0.14322919 0.14370005 -0.016832013 0.22195992 -0.111802585 -0.35137004 0.045156572 -0.029967923 0.007866921 -0.06181291 -0.17460027 -0.23122698 0.039815262 0.119729064 -0.0984587 -0.16860698 -0.020048557
u1 0.2248121 0.06323027 0.10599356 0.08078449 0.05158977 0.09129365 0.06564866 -0.0390102 0.055380378 0.03884563 -0.018283887 0.107389204 0.05741943 0.091909125 -0.22316505 -0.11744301 -0.015763674 -0.107057355 -0.059071735 -0.04250076 0.05985549 0.17439772 -0.120188385 -0.13085327 -0.18620867 -0.14986782 -0.14815111 -0.12451339 0.19144297 -0.14850397 0.20517792 -0.059223283 0.13832507 0.07105102 -0.12840784 0.01950978 0.04604271 -0.4279465 0.20633651 -0.19306982 -0.10401225 0.06298743 -0.08296022 -0.032091685 -0.124101706 -0.08292789 0.04152682 -0.04961528 0.14091848 0.07988498 0.19927466 0.048147213 -0.17272015 -0.011751849 -0.028119558 0.044602353 0.006945032 -0.16950119 -0.20631112 0.03562877 0.037525665 0.09113849 -0.12280208 0.005971059
b1262 0.19038734 0.07192883 0.06503352 0.06391029 0.11443155 0.0473626 0.12515955 0.03772332 -0.026849836 0.09677278 -0.11629624 0.17773545 0.018684788 0.10109749 -0.26461172 -0.15680094 -0.071502864 -0.20349662 -0.12681146 -0.05866994 0.15129252 0.20047612 -0.11133058 -0.13605821 -0.22633024 -0.17919837 -0.20120394 -0.06318705 0.15281223 -0.13542262 0.19695719 -0.11320476 0.086835645 0.009490124 -0.032663558 0.07897636 0.080247745 -0.40619054 0.21163194 -0.23899882 -0.11860992 0.031819224 -0.08015524 -0.06653502 -0.19915715 -0.042978905 0.06411065 0.08452683 0.11196626 0.08876691 0.20919548 -0.053712834 -0.21682899 -0.08112415 -0.066678286 0.08725818 0.011725124 -0.19428629 -0.22218269 0.00729343 0.08781992 0.09517081 -0.14846942 0.08754323
u239 0.21144517 0.08243972 0.094601944 0.07172121 0.07008515 0.049442556 0.20560242 -0.015867006 -0.020392505 0.0947833 -0.079936296 0.122066595 0.07633692 0.14961351 -0.28879052 -0.10330321 -0.045562875 -0.19809729 -0.112464935 -0.07054073 0.140365 0.12257608 -0.09942022 -0.18468639 -0.19314094 -0.23254088 -0.17473114 -0.12015035 0.2305299 -0.17830884 0.17453873 -0.19856474 0.043353904 0.011290519 -0.07309036 0.10647533 0.051349316 -0.371708 0.18225709 -0.24972826 -0.18592075 0.015115248 -0.1387829 -0.03425535 -0.18741111 -0.05920737 0.07846223 0.07048663 0.12414315 0.091565855 0.18271077 -0.062100697 -0.23870462 -0.020725045 -0.016336951 0.15221283 -0.05792004 -0.15473463 -0.14721662 -0.049945578 0.07470309 -0.022282735 -0.19375987 0.12321838
u217 0.27082357 0.03201522 0.12362147 0.037711397 0.05137923 0.08634163 0.12300515 -0.023840144 -0.0077682203 0.16882576 -0.12801036 0.1780369 0.07910007 0.097175494 -0.30457762 -0.15829654 -0.06870243 -0.13088673 -0.13819897 0.10818019 0.18708138 0.17791449 -0.026606359 -0.17540759 -0.19681892 -0.21172538 -0.25582707 -0.068699226 0.14178748 -0.18650514 0.20061187 -0.17717953 0.045276027 0.023932131 0.1421281 0.12086279 -0.003945722 -0.52966374 0.18509932 -0.3483308 -0.21505386 0.010149944 -0.08841891 -0.096880384 -0.30682418 -0.044205036 0.21305305 0.09970662 0.14001626 0.06494124 0.22602607 0.0065480005 -0.2609118 0.05008755 -0.02283076 0.091804 -0.038108654 -0.28180033 -0.22267507 -0.012266353 0.045286458 0.020334937 -0.2212706 -0.012742835
b575 0.34265387 0.10018455 0.10372337 0.06980203 0.1639559 0.013601817 0.03068451 -0.048913255 0.015511574 0.15451212 -0.083181016 0.25388342 0.11856937 0.16470172 -0.33390883 -0.20882955 0.02794261 -0.2317708 -0.1777545 -0.045254525 0.123397954 0.2654967 -0.046717662 -0.1304922 -0.18305989 -0.21790528 -0.18957661 -0.07735364 0.21524818 -0.13632071 0.2506738 -0.23838985 0.088322304 -0.004362321 0.13215987 0.19693674 -0.057428632 -0.526647 0.21393634 -0.380654 -0.20333757 0.0281266 -0.035890844 -0.07042768 -0.32276314 0.076451354 0.11322821 0.06893185 0.15390852 0.017611898 0.20499709 -0.019461159 -0.3306873 0.036833834 -0.06320123 0.12604505 0.022688234 -0.20950912 -0.22926477 0.029512458 0.0132943 0.06912076 -0.10658859 -0.022560311
u446 0.26392958 0.014599812 0.1260923 0.073936924 0.17501843 0.090826385 0.10764809 -0.006154546 0.038809903 0.1709179 -0.19614321 0.2385812 0.15001294 0.13406497 -0.35128078 -0.21555988 -0.1655771 -0.18889807 -0.20011173 0.0029642624 0.18979025 0.26708877 -0.08268549 -0.187867 -0.29242086 -0.27412528 -0.2608405 -0.096332714 0.20656268 -0.20408042 0.18373112 -0.20262961 0.037449673 0.04532755 0.18322079 0.081038915 0.08490974 -0.5187888 0.26808593 -0.31880233 -0.19335242 -0.014575875 -0.20888683 -0.044274755 -0.246994 0.03732682 0.0821219 0.1560302 0.20483753 0.10429976 0.26870432 -0.08480524 -0.2905369 0.09630141 -0.0018192863 0.16637418 -0.07807277 -0.22451384 -0.2303766 0.06130216 0.061258487 0.026380356 -0.17376527 0.04532747
b756 0.26011047 0.0978561 0.13010317 0.06871968 0.18716958 0.024110094 0.11446601 -0.009136528 -0.0070769223 0.17933305 -0.13620308 0.17578562 0.086320944 0.12410637 -0.2672204 -0.12456956 -0.08743201 -0.14309639 -0.10712872 -0.06985317 0.17955877 0.20368248 -0.08255897 -0.15632911 -0.23132557 -0.18243974 -0.13735178 -0.07707179 0.19196443 -0.21535395 0.18831503 -0.1695961 0.08094605 -0.0071293577 0.14592202 0.107430495 0.08612985 -0.5417323 0.116945356 -0.28532663 -0.11708212 0.02139423 -0.12751757 -0.07100898 -0.2635112 0.043807138 0.047657404 0.10961304 0.19722804 0.028323086 0.22423272 0.019612018 -0.24849558 -0.027506284 -0.04190102 0.25521317 -0.12864462 -0.21918769 -0.27156875 0.11919213 0.0496891 0.1531146 -0.21107146 -0.082598954
u1170 0.26572344 0.13632485 0.04876728 0.09886929 0.087050036 0.07978283 0.16748816 0.023038067 0.053105686 0.13184203 -0.20756346 0.11714908 0.060691234 0.06857881 -0.31330377 -0.12328509 -0.13461272 -0.14130017 -0.12300474 0.033199083 0.15770555 0.25940698 -0.017640533 -0.11909575 -0.2332717 -0.1607943 -0.18198057 -0.07161842 0.20128772 -0.11451004 0.22324443 -0.16782492 0.03288764 -0.09077648 0.16891752 0.065022334 0.05467339 -0.3323713 0.13742404 -0.33584732 -0.17128235 0.014330491 -0.11228977 -0.03585102 -0.20797738 0.052471608 0.14523612 -0.010495311 0.18009734 0.08814143 0.22183149 0.018013006 -0.21386287 -0.06324744 -0.033064403 0.07178368 -0.02851006 -0.15448403 -0.16912119 0.04096529 0.029103309 0.024922295 -0.105962045 -0.057481743
b870 0.29823607 0.058086485 0.040941045 0.091559544 0.19984998 0.05525291 0.15346864 -0.048075505 -0.04770039 0.12140275 -0.12796535 0.27261633 0.1101754 0.14470977 -0.3198591 -0.12603134 -0.08933914 -0.16024235 -0.18608083 -0.060563903 0.15518053 0.23099221 -0.08227257 -0.15813448 -0.19175762 -0.20514305 -0.19185245 -0.07631946 0.28222385 -0.22329871 0.26583895 -0.14338095 0.06945269 -0.0036499707 0.056998365 0.11192286 0.09494563 -0.49500203 0.24174078 -0.2803396 -0.14931476 0.05420668 -0.17649455 -0.024358988 -0.1926286 0.039027784 0.042515263 0.008940066 0.14020388 0.029490754 0.19995719 -0.086617514 -0.29843774 0.04710245 -0.043771744 0.085627966 -0.05469398 -0.20814045 -0.18661512 -0.042718977 0.0077035036 0.16285643 -0.14871752 0.06736906
b189 0.3235597 0.05172368 0.099489875 0.030361274 0.17038882 0.0788981 0.1817022 0.0029171412 0.07784174 0.13675666 -0.23201065 0.14816129 -0.019190418 0.1937147 -0.3011449 -0.21574835 -0.091447465 -0.2693143 -0.1798262 -0.052463077 0.21545391 0.26716667 -0.037851226 -0.2074012 -0.28226823 -0.17666143 -0.1541519 -0.08124884 0.27703965 -0.20857197 0.182295 -0.24178869 0.15634188 -0.026815139 0.1648176 0.12411857 0.029385328 -0.5693958 0.16455053 -0.282588 -0.16811772 0.035129268 -0.09280296 -0.05769132 -0.26282609 0.07772884 0.1011001 0.0054170694 0.12888755 0.04523234 0.16454324 -0.27417603 -0.30256954 0.074782416 -0.0010811597 0.08799833 0.033753652 -0.20897943 -0.24709685 0.049164675 0.09965642 0.07988458 -0.17410195 -0.110408366
u988 0.2333462 0.06489029 0.024256954 0.08942575 0.12254268 0.15647249 0.14929444 0.013189323 -0.109945916 0.070905074 -0.10115671 0.17546833 0.020795226 0.12204533 -0.27991644 -0.18276376 -0.19719365 -0.16748492 -0.1003208 -0.03237999 0.2114703 0.26703227 -0.1010294 -0.11917552 -0.14946605 -0.19405952 -0.26154128 -0.04576769 0.22420712 -0.22874746 0.15828615 -0.16773163 0.13867058 0.003687863 -0.0017023194 0.18487892 0.026883258 -0.41629124 0.18086264 -0.30603126 -0.16758206 0.070959255 -0.22205713 0.0049770284 -0.20166807 -0.053536754 0.09902958 -0.0071240007 0.07054975 0.047247104 0.20995566 -0.2088763 -0.26369298 -0.04022447 0.04056617 0.06742599 0.06647059 -0.16286455 -0.23076957 -0.03636736 -0.051582973 0.062026363 -0.1495377 0.028723702
b885 0.21387495 0.052643955 0.092564054 0.059351858 0.10313549 0.12797709 0.1031578 0.009984495 -0.07856534 0.080133535 -0.086832866 0.17099847 0.056442175 0.16664903 -0.3000673 -0.15713285 -0.11308352 -0.18899536 -0.08827863 -0.041149225 0.20293728 0.21636665 -0.091020495 -0.16959399 -0.17202576 -0.28872994 -0.2760623 -0.10310283 0.26010972 -0.16753231 0.23169538 -0.09630895 0.077800915 0.015327525 -0.16074121 0.11770542 0.047020927 -0.39980075 0.2990398 -0.29707894 -0.1442846 0.09719553 -0.0866734 -0.03167959 -0.20669366 -0.046485644 0.090755746 -0.05234293 0.15553011 0.056815304 0.2186635 -0.24827547 -0.27621266 -0.0037134532 -0.044616353 0.088019475 0.09453197 -0.13528407 -0.22813077 -0.12191398 -0.0136127565 0.2029822 -0.10718615 0.08541371
u1063 0.2126791 0.15854506 0.043501537 0.039069463 0.043914303 0.08308828 0.14693095 0.15381089 -0.10121327 0.12068542 -0.11988565 0.14389943 0.09450647 0.15770784 -0.30804127 -0.17055784 -0.13946533 -0.21359324 -0.12942874 -0.09698034 0.07031627 0.1780788 -0.11561634 -0.16184655 -0.1335259 -0.25686508 -0.19196625 -0.1041675 0.26839477 -0.1759915 0.21828607 -0.1542841 0.14773422 0.054760177 -0.15125972 0.2183503 0.054771066 -0.36211935 0.44485545 -0.26987767 -0.18490753 0.056556888 -0.059204616 0.039387148 -0.19260462 0.0087887 0.055563197 -0.023888344 0.16636515 0.05208188 0.10287366 -0.17303267 -0.29987046 -0.12042985 -0.099181 -0.014190771 0.066778906 -0.15661292 -0.22317612 -0.1410141 -0.031576496 0.26942417 -0.10257775 0.12580584
b629 0.25282946 0.11847116 0.1010977 0.10883427 0.13153651 0.045029588 0.10707938 0.0037104012 -0.08036145 0.120669454 -0.10935489 0.18232809 0.09765222 0.18913709 -0.30025598 -0.16561118 -0.09574071 -0.23556937 -0.18370685 -0.058591925 0.16896456 0.19830517 -0.09451617 -0.13643222 -0.22709967 -0.23205495 -0.2804029 -0.03962017 0.22889851 -0.17603035 0.17077924 -0.15723504 0.12458044 0.03497901 0.014562675 0.1715508 0.07404712 -0.4952345 0.3337164 -0.3163607 -0.14627635 0.07500748 -0.12313575 0.012646309 -0.27312467 0.006940285 0.06290983 0.08095729 0.11857599 -0.0027509572 0.063910134 -0.121398136 -0.23202495 0.015843853 0.002619232 0.008289151 -0.067476764 -0.15299022 -0.22576432 -0.115293324 0.03458659 0.17108655 -0.13879508 0.030990232
u62 0.18627365 0.0744932 0.026085433 0.046772953 0.14034773 0.06394518 0.09787646 0.046521336 -0.008436805 0.07822315 -0.12377027 0.12654184 0.05291639 0.095160775 -0.21778774 -0.06856204 -0.064435236 -0.12786236 -0.11231263 -0.029418701 0.13574766 0.18548732 -0.034907375 -0.14657451 -0.15762031 -0.16158319 -0.1691471 -0.0412872 0.15830834 -0.11024636 0.1444881 -0.13415602 0.103410415 0.017859472 0.035187278 0.08209261 0.046363138 -0.30129164 0.23856632 -0.17160095 -0.10886236 0.014240979 -0.12066544 -0.017253442 -0.13021 -0.0043797907 0.033600092 0.019827466 0.068640076 0.041950654 0.119363174 -0.07249617 -0.16787305 0.029151287 -0.04329222 0.043566175 0.023624681 -0.068845145 -0.13031161 -0.03913102 0.037336335 0.111515045 -0.075178795 0.052425127
u223 0.29384333 0.0702472 0.10001546 0.07673214 0.2016749 0.10160821 0.07442568 0.036974307 0.04379037 0.11932377 -0.038398027 0.21416216 0.1526346 0.1222145 -0.25500306 -0.16058908 -0.09447682 -0.22737093 -0.14142358 0.015610561 0.22952725 0.17441584 0.0028204902 -0.11320539 -0.18953535 -0.10503926 -0.2090291 -0.08266304 0.20470227 -0.1566073 0.08896636 -0.15149085 0.07115899 0.10090242 0.07918341 0.049875263 -0.023895662 -0.55842036 0.13625479 -0.29016176 -0.14518647 -0.017318746 -0.10161581 -0.03176732 -0.12367161 -0.0448237 0.12655602 0.022048313 0.06590466 0.102926835 0.18968244 -0.23864864 -0.25895274 -0.02298088 0.03574299 0.11565157 0.030204175 -0.12448343 -0.17428862 0.09198016 0.027867232 0.118898235 -0.17164962 0.08435734
b142 0.27344385 0.07655759 0.015685359 0.005368587 0.19886298 0.08231257 0.104044065 -0.0006929496 0.049330037 0.024734877 -0.06960808 0.07554485 0.04961956 0.15020943 -0.25260136 -0.14573976 -0.09796562 -0.27457842 -0.15111156 -0.108971104 0.20146327 0.303831 -0.0748266 -0.16364443 -0.18405169 -0.14961399 -0.24450925 -0.06807727 0.28218913 -0.16752057 0.1797286 -0.18766326 0.15169695 0.11358211 -0.015485264 0.09384289 -0.009595792 -0.7169195 0.2651461 -0.35887316 -0.20120366 0.00271547 -0.0917848 -0.019579818 -0.29245308 -0.080605835 0.049859088 -0.07612547 0.07798106 0.03346989 0.18699807 -0.113837905 -0.24235643 -0.022842886 -0.015212936 -0.010533443 -0.012782108 -0.18244387 -0.20373909 0.021802867 0.024260849 0.023872206 -0.15278648 0.038831897
u901 0.21641843 0.08831967 0.13754083 0.09062838 0.18925272 0.10419634 0.14131027 -0.038801014 -0.004790263 0.07838377 -0.05035218 0.14896055 0.044400938 0.20676588 -0.29914722 -0.1697711 -0.11177882 -0.30248094 -0.14709905 -0.042933136 0.21007022 0.2209323 -0.062365405 -0.23061796 -0.18094362 -0.20454186 -0.29624248 -0.075299494 0.2555082 -0.24003522 0.2548085 -0.20199363 0.0847617 0.0077838236 -0.01218233 0.17899519 0.07116925 -0.4643852 0.24950822 -0.33556056 -0.13449828 -0.039018694 -0.15542938 -0.05664482 -0.26331586 0.03298887 0.060383778 0.038862284 0.071121015 0.13154551 0.12714148 -0.12156446 -0.249091 -0.027773649 -0.060306784 0.1257977 -0.034084853 -0.20475155 -0.17863314 -0.025715146 0.09743341 0.038833637 -0.14045021 0.0688697
b103 0.1853496 0.03237935 0.1713408 0.044350125 0.22748633 0.07340488 0.07360136 -0.05512342 -0.06733533 0.055178955 -0.024045084 0.1623223 0.047789097 0.13767354 -0.23227648 -0.16520065 0.029433576 -0.24669437 -0.07080896 -0.11734515 0.13791288 0.17001122 -0.055762134 -0.13651037 -0.19040544 -0.17191663 -0.26189622 -0.058530662 0.19029993 -0.06287883 0.18865794 -0.13664626 0.15520954 0.0030541737 -0.09407772 0.06415926 0.02463405 -0.48415 0.31872597 -0.25157854 -0.0861406 -0.025803318 -0.11178664 -0.029471466 -0.17471422 -0.091943294 0.018489677 0.050376434 0.094736576 0.06966469 0.1260795 -0.06372046 -0.21598066 0.058484927 -0.042863254 0.11872007 0.08732498 -0.21933867 -0.20052665 -0.11271953 0.057702452 0.09977142 -0.14532596 0.105751015
b1444 0.2890803 0.097706944 0.11168024 0.1214073 0.17145216 0.041506253 0.06250619 0.04063953 -0.037595827 0.1206223 -0.10224095 0.22758833 0.08701554 0.16752501 -0.26689884 -0.15536883 -0.07830266 -0.22907385 -0.08747694 -0.014319286 0.20640837 0.22565784 -0.083830185 -0.13112162 -0.2843245 -0.22303393 -0.24178581 -0.14804214 0.26114064 -0.17143477 0.17107132 -0.114095844 0.11784344 0.024420457 -0.060413577 0.047344103 0.004675004 -0.3637322 0.28571233 -0.2634019 -0.06926221 -0.00062031974 -0.12613256 -0.04935795 -0.21571803 0.0561109 0.10101577 0.014710834 0.12395522 0.10428544 0.18190297 -0.08946592 -0.29047796 0.09282872 -0.005619659 0.029392272 0.039735675 -0.13590309 -0.21009743 -0.06702346 -0.03727259 0.17617336 -0.1789583 0.08867958
u644 0.28695 0.06670951 0.07793108 0.03735133 0.13521342 0.070229374 0.15054771 -0.058840536 -0.057028286 0.13482544 -0.12450501 0.27843097 -0.04035389 0.084751956 -0.2912311 -0.19177258 -0.04324168 -0.23146242 -0.10171084 -0.053530935 0.21856733 0.14774111 -0.08325867 -0.25980356 -0.19770122 -0.17308049 -0.22251049 -0.08489306 0.2601288 -0.15331435 0.2020882 -0.06888679 0.072164156 0.04553796 0.117055885 0.10917333 0.044213567 -0.55780536 0.26343378 -0.35613784 -0.22000289 -0.025024436 0.00846472 -0.028676946 -0.25261572 0.0174252 0.020403257 0.15507461 0.14944157 0.06145517 0.095006295 0.040618118 -0.22289851 0.13795993 -0.024832483 -0.034956202 0.14092188 -0.21398316 -0.20377411 0.027710186 0.041357856 0.028000295 -0.21161711 0.036144838
b306 0.23035294 -0.009905042 0.07833803 0.07620949 0.13812257 0.03987649 0.058332443 -0.008136709 -0.022362141 0.11342889 -0.11984571 0.27855536 0.040270347 0.13920127 -0.3320294 -0.12270919 0.046970867 -0.16578427 -0.117237635 -0.024787402 0.12662528 0.19112664 -0.04316171 -0.098532714 -0.18961605 -0.11168753 -0.14946571 -0.053647194 0.2139537 -0.028953679 0.1542154 -0.13835351 0.07009943 0.014798481 0.09966037 0.02836556 -0.024916053 -0.29691947 0.17786926 -0.25861034 -0.12597644 -0.07582065 -0.14204437 -0.0064395214 -0.13250768 0.024187941 0.026718793 0.014083313 0.09470633 0.0044370987 0.14231548 -0.0317327 -0.22608443 0.029557347 -0.04227612 -0.02239624 0.010574933 -0.092609376 -0.1218356 0.05392355 0.024075434 -0.037594363 -0.11156328 -0.029470231
u291 0.21074383 0.0038499995 0.13872284 0.07015988 0.15918174 0.064803325 0.055579502 -0.047895517 0.0860745 0.15527171 -0.18542728 0.2703351 0.06608376 0.084270045 -0.29258233 -0.26296836 0.06522552 -0.25078586 -0.18557838 -0.075087465 0.23292972 0.20209341 -0.0033908891 -0.13413985 -0.13227981 -0.14152303 -0.16454443 -0.0607557 0.17462426 -0.06101192 0.18226111 -0.1588855 0.043651402 0.046683934 0.14733352 0.028284322 -0.038163643 -0.47519577 0.06779174 -0.1814255 -0.10654711 -0.13718642 -0.19512166 -0.0485408 -0.21151826 0.12584653 0.10221839 0.07396544 0.069763735 -0.00025853442 0.1256676 -0.06395066 -0.25828907 0.022498148 -0.035071205 -0.056908432 0.0016902548 -0.22148377 -0.18101871 0.047793552 0.06977904 -0.16117686 -0.1950678 -0.12896422
b1264 0.23139323 0.110011 0.06821009 0.05614634 0.1623704 0.07823468 0.086100124 0.07468177 -0.025412893 0.06348062 -0.10820232 0.2738606 0.18710855 0.14893278 -0.3362465 -0.21278499 -0.055925064 -0.2529306 -0.11796475 0.05519705 0.10293059 0.26992193 -0.075932436 -0.15250166 -0.25775748 -0.20167263 -0.18539347 -0.15288684 0.2663201 -0.1446897 0.13791971 -0.11922189 0.13901308 -0.070020586 -0.061700627 0.06610569 0.06403847 -0.4529546 0.16709775 -0.35646337 -0.09101745 -0.07371383 -0.16720143 -0.013740322 -0.25962892 -0.04069524 0.064518884 -0.09830428 0.089303665 0.061888367 0.31211433 0.015538315 -0.3033676 0.017743701 -0.07013889 0.19570383 -0.078971505 -0.18109383 -0.26027876 0.0010864135 0.061856493 0.10865626 -0.20679913 0.048708096
u191 0.20081623 0.06279607 0.1640693 0.022021504 -0.042566802 0.012426804 0.026790978 -0.022193177 -0.049690362 0.12640104 -0.18095367 0.2269762 0.005732985 0.10022177 -0.27162746 -0.19555491 0.041649364 -0.20095205 -0.117268994 -0.042631634 0.15102841 0.13707052 -0.04410806 -0.19377819 -0.26894057 -0.2064405 -0.19034515 -0.12123164 0.24526347 -0.053891778 0.16741517 -0.17080748 0.031416 0.050658997 -0.12540519 0.033945784 0.051062237 -0.50521696 0.11955631 -0.34066886 -0.16810259 -0.020887267 -0.174993 -0.033509485 -0.21740857 0.048774235 0.014279252 0.0016210614 0.060123976 0.01974411 0.11076872 -0.12945437 -0.22786956 0.054484624 -0.11171242 0.30571485 0.012816028 -0.24516605 -0.20373932 -0.017300297 0.013891626 0.27763113 -0.07061365 0.052409187
b120 0.17901564 0.052038737 0.071946844 0.099483036 0.13108976 0.07937404 0.048282035 0.018908456 -0.057385705 0.1161576 -0.21617715 0.2604044 0.02413721 0.16180077 -0.3221399 -0.19839102 -0.08513383 -0.15854241 -0.1351637 -0.048157375 0.15219463 0.26970074 -0.025146073 -0.15506682 -0.19783166 -0.18738888 -0.16220878 -0.13287282 0.20620543 -0.15091792 0.20593655 -0.1132457 0.070920385 0.057193384 -0.002233075 0.07769221 0.1359207 -0.401788 0.06981871 -0.2471535 -0.06569991 0.0712809 -0.15320337 -0.033073954 -0.19043948 0.019870074 0.061997913 -0.03182934 0.1503325 -0.026575403 0.21445908 -0.041700177 -0.37994426 -0.031570826 -0.045905177 0.2123053 -0.045426477 -0.15545999 -0.17353775 0.030677913 0.041415207 0.2217869 -0.21813475 0.00035735563
b90 0.30724588 0.04811615 0.11282145 -0.0053673927 0.18633614 0.1255405 0.22710718 -0.117533885 0.099662825 0.11548752 -0.17566076 0.23051362 0.008604609 0.19580099 -0.31317803 -0.23465058 -0.08396352 -0.2835001 -0.22599849 0.1479129 0.22724503 0.28756377 0.032522343 -0.20223868 -0.2668978 -0.19922443 -0.301712 -0.10243176 0.21484196 -0.22733647 0.13723487 -0.19404152 0.20391871 0.047960043 0.2966378 0.043495703 -0.026058396 -0.5227067 0.2498199 -0.3456774 -0.26732492 -0.01813694 -0.16474567 -0.015906781 -0.2746247 0.056694593 0.068578556 0.043239582 0.17175071 0.07289229 0.29292396 -0.08984358 -0.2736961 0.14591245 0.06421718 0.07204499 -0.048072994 -0.2603646 -0.24523655 -0.0134409405 0.0997095 0.05192006 -0.09812332 0.08205683
b1760 0.28808576 -0.01678609 0.08453223 0.081609495 0.22835593 0.0985162 0.09980706 0.02444532 -0.041333184 0.15256143 -0.21906616 0.19190675 0.15254591 0.11817159 -0.2884956 -0.15519251 -0.081658214 -0.11919174 -0.1772731 0.022366645 0.14892362 0.2089549 -0.12197185 -0.18716837 -0.24935815 -0.15752226 -0.19653705 -0.11279732 0.22375207 -0.23542187 0.20495556 -0.22373497 0.036677677 -0.037371643 0.10335897 0.13738121 0.07142557 -0.31928352 0.17582755 -0.28114644 -0.14093967 0.065421335 -0.1640131 -0.036844697 -0.24677177 0.0820564 0.13420296 0.059583824 0.15163647 0.13918437 0.25714976 0.03543453 -0.27875856 0.025375774 -0.058418863 0.22497468 -0.06529127 -0.23188686 -0.19854741 0.08625148 0.09495528 0.05249141 -0.14784603 0.061711527
u99 0.17977063 0.109286964 0.089519516 -0.04204669 0.088094674 0.030463401 0.10822364 0.06190325 0.098054 0.026846463 -0.12192815 0.0834927 0.023561979 0.109539494 -0.25370085 -0.14638548 -0.08652336 -0.1568283 -0.116266966 -0.008379419 0.14204933 0.13650419 -0.07339607 -0.09510969 -0.16172543 -0.11079216 -0.2117166 0.011266855 0.11759215 -0.12355324 0.1336414 -0.08617634 0.09059828 -0.028035663 0.050969653 0.012923543 -0.044277724 -0.45815587 0.1902195 -0.23351476 -0.11334063 0.015497154 -0.096551195 -0.07506703 -0.13672155 0.043034516 -0.025637794 -0.13633825 0.07278646 0.043438133 0.22409621 -0.025444467 -0.17553361 -0.09698165 0.017609315 0.17246793 -0.05223348 -0.19408987 -0.23138592 0.051753078 0.043387033 0.023725318 -0.06795185 0.027603135
b2 0.037615463 0.09530658 -0.057280824 -0.15097402 0.037928984 0.08621981 0.100230314 0.056305528 -0.018856598 -0.14612755 0.05864727 -0.01845654 -0.07436256 -0.09103732 0.13374653 0.23118335 0.080202095 0.2995546 0.032236498 -0.0070121395 0.10708969 -0.07418856 0.09268843 -0.03740871 0.057729304 0.05937902 0.023067085 0.123740956 0.094861284 -0.10121076 -0.022187626 -0.08317206 -0.05185337 0.13154559 0.036048997 -0.06497957 -0.07141139 0.3487724 -0.11123532 0.05566459 -0.11506641 -0.07729129 0.11544035 -0.10366072 0.18048143 -0.041312557 -0.014009163 0.14114544 -0.12071625 0.050888583 -0.0460903 0.2959626 0.040560376 -0.1981687 0.17101894 -0.03374248 0.25089893 0.16544959 0.077015415 0.089661956 -0.022179479 -0.15588377 -0.034819927 -0.17401564
u787 0.09825942 0.13855322 -0.009490649 -0.18872581 -0.00011187744 0.07359016 0.061401933 -0.031665552 -0.035153534 0.035015002 0.10052561 0.1824001 -0.06559345 -0.21878435 0.11522828 0.19229016 0.09365958 0.3439258 0.10133406 -0.06844779 0.11986727 -0.028910335 0.12522985 -0.101152435 0.11518239 0.03479096 -0.040052217 0.14111836 0.12433455 -0.040552936 -0.018691417 0.0017907367 -0.0969226 0.07837859 -0.01089134 0.07263008 0.07728634 0.18419859 -0.11569661 -0.037155632 -0.14748764 -0.12307199 0.08940946 -0.13924994 0.21999559 -0.19685401 -0.057783518 -0.020634638 -0.04489004 -0.038244437 -0.04795218 0.38087428 0.056666408 -0.20775175 0.2112518 -0.04697196 0.20433936 0.19738781 0.040557675 0.19747058 -0.087204784 -0.04696279 -0.1430997 -0.16078204
b123 0.033199262 0.16768697 -0.05334508 -0.09814805 0.14890584 0.03500077 -0.009546397 -0.0899979 0.011091538 -0.14645047 0.056548823 0.037585393 -0.051800076 -0.10837839 0.067076765 0.16025524 0.074302115 0.21495882 0.09144063 0.019993111 0.13015942 -0.050828405 0.02373259 -0.05920124 0.009475454 0.02513358 -0.009854135 0.11199626 0.09395141 -0.037815757 -0.020927485 0.048890393 -0.055946168 0.14819224 -0.08461025 0.052012116 0.0020254778 0.19170566 -0.018321183 -0.03284127 -0.0932082 -0.075196855 0.04833042 -0.12379315 0.2135165 -0.06353717 -0.019965492 0.11088895 0.0006424777 -0.029556422 0.03926336 0.30174872 0.011253815 -0.0893265 0.20715146 -0.0141564505 0.15863433 0.17177346 -0.011599671 0.11921462 -0.019277718 -0.056753106 -0.06314785 -0.09091723
u89 0.06855849 0.11963156 -0.012814205 -0.11526903 0.09511687 0.046318937 -0.040253844 -0.028096536 -0.033917498 -0.1400032 0.0880838 0.013059605 -0.092850514 -0.056268223 0.012916963 0.11638152 0.053829342 0.25969627 -0.027754908 -0.010435863 0.15322298 -0.0048831184 0.034731124 -0.059388466 -0.026401928 0.033096563 -0.020586856 0.070966795 0.13211295 0.0032150957 0.050306294 -0.023226043 -0.0066109193 0.055596434 0.018505966 -0.0060204063 0.065425485 0.16038576 -0.031070424 -0.05126634 -0.05529602 -0.055265624 -0.03747433 -0.09933975 0.19039223 -0.019205231 0.0024454785 0.026882874 0.046900302 -0.027207788 0.0040623136 0.291163 -0.007706397 -0.0010291942 0.26475632 -0.033668824 0.15465203 0.11044858 -0.055805612 -0.012425975 -0.035143144 0.015311284 0.008104054 -0.06492697
b586 0.07704415 0.07188188 0.045049794 0.014395283 0.13349877 0.02481339 0.020494347 0.01623025 -6.563251e-05 -0.0129234865 -0.025290862 0.114162296 0.0028157 0.01914901 -0.10779434 -0.023230316 -0.007091535 -0.0074077686 -0.042814087 -0.026955863 0.07818474 0.07530629 -0.0063718385 -0.08822771 -0.11120319 -0.07089066 -0.11093346 -0.013362429 0.098557204 -0.05609736 0.0503379 -0.03563805 0.022727115 0.0048329905 -0.029458057 0.027195327 0.012350139 -0.20994364 0.15319349 -0.103517815 -0.06286819 -0.022727253 -0.078176335 -0.027012331 -0.016049828 -0.04019987 0.00046863622 0.02347368 0.023937585 0.015619131 0.11809176 0.06607776 -0.09142059 0.017113999 0.04035969 0.05401662 0.032889526 -0.011137951 -0.031156728 -0.0057775765 0.018453993 0.08506878 -0.03568489 -0.004942578
b53 0.27454296 0.13344441 3.3866345e-05 0.010814968 0.1145428 -0.007120447 0.11947118 -0.068752006 -0.041945856 0.07072412 -0.03595158 0.11058144 -0.07320276 -0.0027199432 -0.19068676 -0.13925904 -0.095418 -0.124056116 -0.03434952 -0.0319835 0.20683527 0.1427339 -0.041798778 -0.108900964 -0.09111315 -0.09265747 -0.15293744 -0.09245287 0.21609959 -0.19703445 0.08910371 -0.06946415 0.021155694 0.055136725 0.13058458 0.07277356 0.051544197 -0.44238722 0.13848312 -0.20728394 -0.25180933 0.034508824 -0.031860806 -0.10793874 -0.13606046 0.033950493 0.0077908365 0.13868833 0.16946673 0.049074326 0.05755779 0.16298948 -0.12028791 0.091684185 0.073600754 -0.07544935 0.14084668 -0.07340276 -0.1783774 0.064603694 -0.011195988 0.018894188 -0.12731737 -0.05936884
u1172 0.16925491 0.08991599 0.06563599 0.07190082 0.18244694 0.05263874 0.049579874 0.003281516 -0.008037977 0.0105948895 -0.09961961 0.1283951 -0.005442288 0.065254375 -0.20458148 -0.1337277 -0.039297864 -0.1610232 -0.1531503 -0.05797178 0.14328077 0.16436855 -0.035652354 -0.12611656 -0.17186612 -0.17429124 -0.18197292 -0.12935309 0.16735579 -0.04812625 0.14122303 -0.102278985 0.05652851 0.011357609 -0.00031331345 0.05539869 0.05192752 -0.3668839 0.28714347 -0.21797244 -0.14636247 0.023180658 -0.14167511 -0.08073958 -0.15778606 -0.079221256 0.018173197 0.09568784 0.11144901 0.06125886 0.15430452 0.04938371 -0.16360375 0.079444274 0.02108425 0.09796949 0.042431384 -0.09075949 -0.21267937 0.0120219 0.0316267 0.23038475 -0.10075882 0.07005397
b1551 0.15807357 0.119433574 0.015327072 0.0981907 0.21013886 0.08417233 0.08302348 7.325702e-05 -0.090046 0.068942256 -0.00781678 0.18008845 0.06336475 0.041846335 -0.23092107 -0.14817372 -0.06841251 -0.17110234 -0.09441954 0.017071357 0.15134259 0.1813584 -0.08628098 -0.15950084 -0.21310942 -0.17843193 -0.26181158 -0.1193606 0.16103609 -0.12834145 0.20979708 -0.14556804 0.090439886 -0.00075936416 0.026417356 0.10956629 0.089652084 -0.34385583 0.24581389 -0.30710813 -0.13660282 0.010732465 -0.21215788 -0.04143097 -0.14990728 -0.10887696 -0.023248121 0.04200682 0.17908825 0.0620702 0.19643544 -0.045481507 -0.2433715 0.0023316909 -0.01195201 0.1423328 0.054267723 -0.1677074 -0.19314815 -0.019640002 0.0204276 0.19893889 -0.15773539 0.09691085
u450 0.26125813 0.13775614 -0.0129678715 0.08411208 0.14369749 0.057078637 0.07378325 -0.07809232 -0.015696686 -0.0027683468 -0.022798728 0.22867149 0.022714196 0.106233165 -0.26844513 -0.17633466 -0.15527698 -0.22397555 -0.14395298 -0.030352702 0.15150405 0.21399517 -0.0951074 -0.20246351 -0.2200197 -0.14859213 -0.23107098 -0.14648134 0.27485994 -0.19909354 0.22338012 -0.1950843 0.08534439 0.078454465 -0.0765036 0.023673922 0.07466596 -0.46400675 0.33366147 -0.27491063 -0.13048032 0.071848534 -0.1638992 0.01625844 -0.24779642 -0.023022117 0.10025612 0.013015874 0.1292317 0.05084682 0.19073816 -0.0668272 -0.26317227 0.044500295 0.0034748246 0.022147503 0.1005109 -0.18063287 -0.21717553 -0.020770997 0.0782986 0.08144486 -0.17422986 0.05015704
u883 0.11657267 0.075051755 -0.04045326 -0.11819092 0.07828016 0.11980123 0.0354023 0.09618717 0.05864915 -0.06971222 0.11325031 0.024383122 -0.03138564 -0.022962328 0.15253532 0.16063179 -0.049148954 0.27433413 0.07186511 0.04244881 0.053122252 -0.10079062 0.13060236 -0.044238746 -0.019028915 0.08899558 0.028847488 0.09139694 0.17838553 -0.045889508 0.013269739 -0.12770334 -0.021401942 0.14002825 -0.08539597 0.0042537977 -0.060169447 0.07326778 -0.032409184 0.119192794 -0.07554261 -0.11638853 0.08825532 -0.041215707 0.21196777 -0.039123457 0.055515297 0.058432985 -0.10283196 -0.06282374 -0.109015524 0.23760827 -0.035827477 -0.15411161 0.1574687 -0.0878553 0.17953426 0.254016 0.112113655 0.058221884 0.03193536 -0.16765307 0.019923838 -0.17638701
u391 0.13680659 0.08993987 -0.01122045 -0.15404832 0.1681351 0.04881297 0.13660567 -0.015362824 0.053236358 -0.03070433 0.021594279 -0.062032983 -0.052251745 0.0687673 -0.00036997793 0.11477269 -0.012623405 0.07696303 0.0070347893 0.011467426 0.20267522 -0.04487554 0.011917147 -0.014584324 0.09083933 0.07140266 -0.10130071 0.093632676 0.18264368 -0.13132612 0.14698344 -0.07374548 -0.10208385 0.06618741 0.076447174 0.024104703 -0.07891556 0.0351679 -0.07602774 0.031405676 -0.10458444 -0.114159375 0.13882029 -0.10825399 -0.05937797 0.074774005 0.008333293 -0.065312244 -0.008861438 0.105975606 -0.098733954 0.14828058 -0.084841646 -0.113915406 0.11559424 -0.093466155 0.10999815 0.15644154 0.008553728 0.04030446 0.040879194 -0.09226008 -0.00014837661 -0.08987389
b678 0.10948786 0.12743075 -0.013281727 -0.23665737 0.13448253 0.090152875 0.08184845 0.04041551 -0.044750363 -0.05868953 0.11838079 -0.039292198 -0.11923297 -0.03740154 0.15891272 0.25921983 0.0054437816 0.3625864 0.010578068 0.0858493 0.14276314 -0.113871805 0.09245905 0.051918317 0.16642536 0.14827056 0.09519739 0.12732278 0.14090574 -0.016138636 0.0020881484 -0.10612982 -0.05660306 0.10561654 -0.08478255 -0.022428969 -0.10888238 0.3270043 -0.017191932 0.1526428 -0.062223785 -0.05566638 0.18053122 -0.14185046 0.18358287 -0.11154054 0.048029404 0.12935995 -0.15810375 0.14479703 -0.08402301 0.33904746 -0.017328922 -0.19091952 0.18945876 -0.010071332 0.25560716 0.17330217 0.059506726 0.10731165 0.043693457 -0.16341808 -0.0525205 -0.21840715
u848 0.09311137 0.114306904 -0.016988575 -0.2010132 0.02593344 0.09982625 0.1482466 0.06833084 0.050104067 -0.116402335 0.09610678 -0.07731845 -0.11502259 -0.027762316 0.13384782 0.28729874 -0.016270995 0.34246215 0.010561461 0.005588267 0.16375713 -0.13699831 0.15393238 0.020211922 0.14455225 0.095249236 0.054160707 0.22230843 0.19592357 -0.08121116 0.0047733276 -0.032354284 -0.045069076 0.16208138 0.008401914 -0.025327956 -0.1732765 0.47668895 -0.23787464 0.19151607 -0.12768266 -0.104441695 0.15211555 -0.13832594 0.1915058 0.010929523 -0.013001332 0.16600914 -0.06443382 0.08001309 -0.103705466 0.30845067 -0.039789084 -0.31298503 0.2867839 -0.02341095 0.2883044 0.25805703 0.08743469 0.058621265 0.07389591 -0.155786 0.0024062558 -0.24005525
b1292 0.06690247 0.04981064 0.052753884 -0.13596821 0.01191314 0.06791079 0.10214452 0.08379212 0.073426545 -0.10800973 0.073934875 -0.030554835 -0.11816411 -0.054359276 0.111085445 0.1546629 0.0672528 0.19519885 -0.0217768 0.00013521216 0.086691886 -0.021924267 0.08257865 -0.011956112 0.076405175 0.060912136 0.06940976 0.11628698 0.098030716 -0.092706546 0.0398109 -0.07930459 0.0106997425 0.13549687 -0.028617045 0.03456451 -0.118609026 0.23484595 -0.15589431 0.1318591 -0.08163216 -0.085095964 0.10255575 -0.12812302 0.15540397 0.03059448 0.070386395 0.1072886 -0.08634962 0.04427952 -0.0072170524 0.19078168 0.025774952 -0.15089576 0.14883277 -0.005345607 0.17567842 0.17141291 0.08181452 0.064916715 0.06354341 -0.1104271 -0.02418709 -0.13513573
u898 0.12991722 0.077248 0.030416105 -0.25677443 -0.004512706 0.073319696 0.15597482 0.10965854 0.02789257 -0.11861836 0.14523876 -0.018862516 -0.17198654 -0.021040285 0.15886801 0.28071564 0.084015794 0.31755745 -0.07559625 0.08658242 0.17601609 -0.11002202 0.0507795 0.076136805 0.20054027 0.122134805 0.057021163 0.1730832 0.0917066 -0.031116096 0.07027708 -0.0808253 0.03501027 0.18969639 0.1008968 -0.030359467 -0.22893056 0.50305724 -0.2881238 0.23296273 -0.11315841 -0.09509571 0.18078229 -0.16515371 0.18508814 0.13630438 0.03865513 0.11192402 -0.17392765 0.08936622 -0.056957074 0.2828643 0.031440146 -0.32122403 0.25033292 -0.03779321 0.2339522 0.2782137 0.2106728 0.101278245 0.038946167 -0.27012077 -0.11648804 -0.24159084
b1133 0.06891338 0.058317702 0.0008550463 -0.20330791 -0.12958029 0.036810424 0.1650317 0.11053458 0.022914985 -0.14962655 0.060636774 -0.104732275 -0.2018346 -0.14833796 0.16024594 0.31050795 0.18800731 0.23576643 -0.13937546 0.016217517 0.07039794 -0.13008869 0.10527501 0.018967874 0.086188644 0.020809028 0.12211945 0.26641098 0.07084986 -0.0325495 -0.041846115 0.059483234 -0.048611842 0.19032107 -0.1482001 -0.060583107 -0.20720783 0.35440525 -0.14596671 0.14816752 -0.13499478 -0.11939524 0.17322902 -0.14245352 0.2900491 0.056675512 0.017424304 0.31958002 -0.10699033 -0.021863246 -0.14877434 0.25774 0.1140134 -0.2048235 0.24419363 -0.011399051 0.24202716 0.24215215 0.21251282 0.015529668 -0.007736338 -0.18746534 -0.13032593 -0.17573254
u388 0.09438831 0.053003922 -0.0073723155 -0.22866374 -0.012064185 0.03213928 0.08485197 0.09874874 0.06437623 -0.17907257 0.19756591 -0.059169427 -0.21658994 -0.05650714 0.13627426 0.26971573 0.080350555 0.37813565 0.0007148476 0.03564308 0.06884944 -0.11265922 0.13535702 1.2142642e-05 0.050301533 0.13283506 0.09237106 0.22058652 0.11104825 -0.13279493 0.02882137 -0.009263195 -0.0006629445 0.20568243 -0.082238734 0.013636955 -0.114070736 0.45017457 -0.34008527 0.12203138 -0.09645908 -0.068562366 0.10254904 -0.15316828 0.27820984 0.072709195 0.020974234 0.081451766 -0.16725212 -0.053537816 -0.082608216 0.295155 0.07469215 -0.34344396 0.22806714 -0.071516864 0.2609218 0.26273888 0.17018522 0.09835019 0.007984866 -0.1676467 -0.07188928 -0.24318072
u289 -0.020122053 0.0039101737 0.035790432 -0.24724938 -0.010856368 0.040218905 0.09167597 -0.04803276 0.1076404 -0.16463757 0.06836338 -0.07298125 -0.18665332 -0.076905124 0.07376702 0.27432328 0.087511115 0.19999437 -0.008735319 -0.122455105 0.010398405 -0.06597671 0.14566134 -0.06506985 0.014277883 0.07289001 0.016979191 0.22544834 0.05683529 -0.027902065 -0.03227911 0.023339132 0.01843068 0.1183502 0.089223675 -0.02679622 -0.18320893 0.42427254 -0.17861995 0.07115874 -0.08427353 -0.0852756 0.10369989 -0.19213022 0.21851063 0.055732045 0.06524713 0.020718597 -0.25828648 0.018299356 -0.110562555 0.101886444 0.13878943 -0.08158769 0.17489575 -0.06792967 0.17871462 0.25746766 0.1692839 0.0629868 0.18164779 -0.2310397 -0.008901051 -0.1178044
b216 0.07946579 0.005579874 -0.07284285 -0.17926225 -0.06288883 0.14572588 0.17514646 0.04306546 0.09270112 -0.22084077 0.042744372 -0.06360899 -0.18659648 -0.07997332 0.1258579 0.23546149 0.0979379 0.3014168 -0.042152558 -0.14434543 0.07620986 -0.08511858 0.09690957 -0.042781554 0.13367616 0.043043267 -0.037423905 0.21190499 0.08062658 -0.11667957 -0.017511481 -0.0435495 -0.055898402 0.21149915 0.2191493 0.03992564 -0.16183612 0.37637672 -0.19319594 0.1014827 -0.15280446 0.011284016 0.12281954 -0.1699819 0.1971755 0.09087683 0.07012103 0.1713763 -0.1415904 0.0372278 -0.06210621 0.160986 0.1704576 -0.013812601 0.20527571 -0.21114314 0.19805852 0.26780862 0.20209007 0.054810356 0.11735363 -0.23652582 -0.009890206 -0.18729496
u226 -0.028115436 -0.02359455 -0.06658033 -0.15033783 -0.024441771 0.07956109 0.17347066 0.012478663 0.17877619 -0.17261343 0.08861928 -0.06086016 -0.12285625 -0.02067253 0.10828207 0.24866417 0.08396417 0.2537127 -0.05876838 -0.07525789 0.027277043 -0.07420076 0.19285545 -0.024778077 0.064838454 0.09744325 -0.021597246 0.14532834 0.058580853 -0.08360708 -0.15231408 -0.020567667 -0.016512863 0.13920203 0.120849736 0.06445546 -0.24455841 0.31630996 -0.17291911 0.10220499 -0.10387663 0.016934518 0.065672934 -0.15346377 0.24194302 0.0038375184 0.028295271 0.010167991 -0.17447995 0.058759756 -0.045152713 0.09330605 0.12157534 -0.11692865 0.26281008 -0.10711166 0.17929412 0.23790903 0.24677488 0.0014832095 0.062946014 -0.19154418 -0.05789514 -0.19544291
u181 0.026497424 0.12374401 0.07431068 -0.20374492 0.039198365 -0.0394922 0.15127382 0.0025809652 0.06780927 -0.09691474 0.1687777 -0.010817853 -0.13160191 -0.10625975 0.133043 0.30555874 0.111519985 0.26292053 0.049248885 0.06293809 0.10074762 -0.07117496 0.15450639 -0.010815097 0.11674197 0.12723789 -0.0023063514 0.21062522 0.18789786 -0.0031882713 0.043352444 0.068559505 -0.08686236 0.23022886 0.1841857 0.09671829 -0.030639688 0.30841827 -0.25795004 -0.016808983 -0.0614894 -0.009916039 0.105077 -0.18830185 0.20397808 0.09884538 0.052881796 0.039758135 -0.14734326 -0.058046125 -0.0068108053 0.23347707 0.11085677 -0.19248463 0.20142241 -0.19104767 0.17373833 0.19615126 0.20938487 0.20388179 0.1432705 -0.18507864 -0.024938839 -0.24437003
b480 0.038647585 0.03155195 0.0293906 -0.088207245 0.028027464 0.05237479 0.060908623 0.03282139 0.027802186 -0.059701886 -0.0015324482 0.0029621804 -0.0832087 0.012794073 -0.023592075 0.07472616 0.061599743 0.115473785 -0.042011604 -0.011175677 0.024140967 0.008974713 0.05919475 -0.030830955 -0.008006593 0.0009917789 -0.020575408 0.07024699 0.051615845 -0.053969696 0.009665971 -0.016732283 0.019854207 0.07715157 0.0013698674 0.014772851 -0.07270898 0.098358855 -0.013562444 -0.026809938 -0.054455493 -0.036231216 -0.013208302 -0.091285035 0.0952749 -0.008970903 0.01217927 0.04930094 -0.056203004 0.00993365 0.022482332 0.10116068 7.847336e-05 -0.100835845 0.090455696 0.008806536 0.09789001 0.09777695 0.097286746 0.03940199 0.042901993 0.019323979 -0.02077132 -0.07998741
u1174 0.05147023 0.025417572 -0.024401551 -0.17919457 -0.10471068 0.051448185 0.16282973 0.073924504 0.09852099 -0.13427494 0.083393164 -0.051337164 -0.15991953 -0.038275246 0.092519075 0.2761264 0.009953095 0.3076312 -0.034885947 -0.039791603 0.021366745 -0.06373158 0.13358739 -0.038019206 0.17627995 0.08128477 0.022907445 0.12249959 0.10045423 -0.1198707 0.037345957 -0.12073654 -0.006083861 0.19417064 0.15934932 0.008218987 -0.12231427 0.54620737 -0.32202637 0.05773244 -0.14701733 -0.010559802 0.05067334 -0.21568912 0.25814855 0.23856643 0.10730273 0.08852957 -0.10670926 -0.07464998 0.057989914 0.1444471 0.09543802 -0.23795539 0.23150939 -0.1309488 0.21382906 0.18634753 0.11548296 0.040470164 0.11532491 -0.21784149 -0.051390298 -0.19141595
b207 0.057820015 0.08534696 -0.03529682 -0.2386598 -0.015307328 0.07289298 0.15688838 0.14672774 0.080950044 -0.013808466 0.08438532 -0.043956976 -0.13602526 0.013003629 0.12994045 0.19069248 -0.091136195 0.25687358 -0.012874699 0.04462194 0.12200243 -0.00498584 0.04915896 -0.021280639 0.07464456 0.11506085 0.005211076 0.14335242 0.089902036 -0.006879743 -0.03804931 -0.13129742 -0.046259064 0.26953214 0.108906835 0.10296157 -0.13381673 0.32795048 -0.3494174 0.06944969 -0.12724777 -0.048152003 0.07870666 -0.17699298 0.19937347 0.13714163 0.010292127 0.006866031 -0.1091441 0.008031843 -0.12657772 0.13460232 0.059616715 -0.096530035 0.2930353 -0.12693115 0.28830978 0.16756943 0.2581005 -0.012415223 0.04646134 -0.20457236 -0.030299608 -0.2347602
u389 0.061147787 0.05957019 -0.014652347 -0.15898725 0.018342061 0.051883765 0.12538832 0.04280303 0.070951626 -0.15375677 0.057993263 -0.059586145 -0.11604114 -0.05053444 0.10349296 0.22709623 0.09683795 0.31403324 -0.008875232 0.011813464 0.06886802 -0.03663878 0.099296585 -0.0072378074 0.08046717 0.093198426 0.014917183 0.19362321 0.07905055 -0.08752916 -0.00960523 -0.095137924 -0.023253614 0.18049839 0.10568379 0.08479327 -0.16754368 0.2991861 -0.27844203 0.09514768 -0.08591357 0.010401432 0.12086665 -0.12925424 0.2187211 0.17449987 0.027955294 -0.013874915 -0.13042396 0.028186893 -0.0450624 0.17425399 0.08238366 -0.20256557 0.20422152 -0.09365798 0.24473311 0.2300959 0.2576277 0.06651426 0.036978636 -0.17798941 -0.028465973 -0.18427084
u108 0.020143148 0.102639966 -0.13824551 -0.054728724 -0.0019711656 0.057949845 0.17501941 0.08998052 0.0013962308 -0.07414167 0.14393717 -0.055118322 0.13890594 -0.101625256 0.17137721 0.21585473 0.14984755 0.18287022 -0.026440462 -0.08428933 0.18348914 -0.084552206 0.013120254 0.021726208 0.059587404 0.04134527 0.006954237 0.17249568 0.02917161 -0.12020227 -0.13137797 -0.053022966 -0.04977391 0.25417894 -0.14756654 0.088005394 -0.012351991 0.2692522 -0.091179535 0.10787289 -0.05987088 -0.22657993 0.051763494 -0.22357093 0.29166406 -0.09556473 -0.04560722 0.13507232 -0.118631475 0.09954854 -0.13430488 0.25087997 0.05540589 -0.26143345 0.19719188 -0.014973765 0.18716845 0.1690902 0.2151647 0.10806453 -0.06474479 -0.055217795 0.056323215 -0.1304881
b101 0.106401876 0.09160824 -0.057658028 -0.036601372 -0.023471583 0.051464446 0.11086556 0.049582973 0.047447756 -0.02786215 0.08280896 -0.03413753 -0.051313832 -0.0066219233 0.019344019 0.11334354 -0.03389895 0.1429134 -0.06605002 0.066612355 0.09144529 -0.055967696 0.07303405 -0.06903309 0.04320428 0.013039864 0.016984958 0.13348238 0.061035708 -0.07793531 0.060220428 -0.04024693 -0.00085212296 0.07179246 -0.037559517 0.024310345 -0.08232297 0.21877326 -0.11066503 0.05179096 -0.09886147 -0.035550885 -0.032344952 -0.10640367 0.15574728 0.023952352 0.014724957 0.06417184 -0.07452432 0.028526405 -0.029027952 0.15696897 0.04285708 -0.18666828 0.17890358 0.072415665 0.14140593 0.16349119 0.043872222 0.00824199 0.030437311 -0.16665229 -0.056655824 -0.10629253
u933 0.043384396 0.20641983 -0.14203559 -0.061730735 0.11292767 0.011586113 0.1149455 -0.003637135 0.063977756 -0.13232324 0.076605506 -0.03233477 -0.011648095 -0.039135776 0.1667002 0.17097592 0.0412884 0.1778008 0.0041448106 0.018349536 0.10461666 -0.07340165 0.015564195 -0.108602226 0.07863038 -0.09876961 0.07111722 0.22651845 0.018931802 -0.22453463 -0.085601985 0.0013603796 -0.0816146 0.17212069 0.025417214 -0.06607165 -0.045141213 0.3190399 0.027427092 0.12101947 -0.041901387 -0.12480961 0.00097238785 -0.17708662 0.2867783 -0.032610703 -0.044996094 0.06293944 -0.056884814 0.021791717 -0.03135154 0.25307754 0.022523127 -0.18870729 0.22005206 0.07636002 0.20687601 0.21325986 0.0025866139 0.031033501 -0.044359393 -0.16583858 0.033509675 -0.2538562
b890 0.0105646765 0.074504964 -0.032333683 -0.13008238 0.005011226 0.061020695 0.08844973 0.11661079 0.023888633 -0.111356914 0.033178996 -0.04738948 -0.10473173 -0.036179774 0.051834874 0.17547919 0.06478853 0.17051576 -0.0005700966 0.031409107 0.119183645 -0.045876965 0.113098815 0.033882756 0.043424815 0.042179484 0.05929481 0.17653611 0.042197943 -0.12163511 -0.021885635 -0.023156514 0.00044074078 0.15087526 0.018528882 -0.017334966 -0.115749694 0.19844066 -0.05581125 0.047244564 -0.060737163 -0.09035487 0.041391503 -0.15243119 0.1693819 0.018721672 -0.0039731227 0.033212945 -0.08578533 -0.020701531 -0.03497953 0.17972043 0.029213319 -0.15711336 0.15889387 -0.037721667 0.17002231 0.15387188 0.12657212 0.08645246 -0.007782683 -0.065245464 0.0021929839 -0.18731964
u330 0.10513041 0.018626451 -0.05917791 -0.19079599 -0.121130586 0.049348943 0.1352594 0.051411156 0.09701274 -0.051302053 0.1143006 -0.08218649 -0.07498213 0.019203758 0.13592175 0.13578264 0.15164343 0.24646881 -0.06821924 -0.003861823 0.12587948 -0.05109766 0.025610225 -0.10009218 0.084563926 0.05484093 0.086225145 0.24938627 0.067445576 -0.13470244 -0.053409792 -0.0011622802 -0.093649015 0.14311072 0.11145221 -0.01174466 -0.056329053 0.46009886 -0.13631722 0.06913654 -0.13652632 0.0063931486 0.058811396 -0.12559627 0.34518734 0.05023313 -0.02238175 0.0896433 -0.13933444 -0.0059913783 -0.024822565 0.29221636 0.044246916 -0.20080164 0.19362561 0.054084778 0.21775064 0.2222874 0.19354032 0.103613734 -0.019690225 -0.15338479 0.037893184 -0.2080389
b1519 0.041504357 0.032827914 0.035397764 -0.04624517 0.021300126 0.049320456 0.04506259 0.034017693 0.051462095 -0.042910963 -0.011438133 0.033310387 -0.026352936 0.0172795 -0.0040784897 0.08749307 0.035937972 0.089097284 -0.04788511 -0.042996693 0.057485588 0.037311807 0.035729297 -0.044791106 -0.029887043 -0.010967803 -0.025395796 0.072274126 0.01935901 -0.04666429 0.032983296 -0.025621457 0.015992265 0.046461705 -0.026026638 0.03932569 -0.045474567 0.05949573 0.0038512507 -0.014656839 -0.03812235 -0.03697693 -0.04082456 -0.06952457 0.0767806 -0.020686015 0.032013115 0.077333085 -0.046098623 0.02297413 0.016858129 0.067077994 -0.030584022 -0.07445519 0.06738796 0.04475482 0.0893613 0.08766532 0.07123524 0.03536423 0.012815609 0.022993961 -0.010916976 -0.080314904
u328 0.08666431 0.15308571 -0.140809 -0.16811605 0.090996355 0.005332826 0.10528666 0.11751109 0.06162729 -0.06447667 0.12556858 0.027254678 0.055282243 0.024984812 0.24086016 0.3073457 0.037177697 0.27185667 -0.056952015 -0.07282889 0.15776293 -0.14727564 0.016022144 -0.116884485 -0.046714034 0.022916751 0.0741931 0.13231024 -0.04467587 -0.12732202 -0.17076044 -0.027471125 -0.059101105 0.16081442 0.0067323945 0.043955207 0.02039671 0.4423993 -0.22340354 0.02229348 -0.096486025 -0.06901988 0.08729997 -0.18011275 0.29085472 0.043895796 0.02116383 0.06532207 -0.23239167 -0.008150204 0.02312474 0.15536103 0.12713985 -0.2811978 0.20992965 0.05415745 0.21937424 0.2643886 0.16982831 0.11875784 -0.1314924 -0.074547976 0.07018449 -0.30633396
b387 0.09295382 0.122949824 -0.10153624 -0.20051837 0.19651128 0.06327625 0.15082109 0.12689212 -0.02147375 -0.13721259 0.112402625 -0.023158133 0.01859148 -0.14083415 0.22279024 0.22660172 -0.06078992 0.3103013 0.074518345 0.00075664866 0.11978762 -0.13337123 0.12321547 -0.05968992 0.1050078 0.09170609 0.027300484 0.19966987 0.057498116 -0.12371836 -0.13685505 0.06453944 -0.074276 0.25591025 0.080963455 0.04152517 -0.0339877 0.4985473 -0.2126066 0.04736768 -0.104686715 -0.19198994 0.12006201 -0.10995958 0.1580753 -0.22588482 -0.031774387 0.19314627 -0.1534949 0.07920817 -0.012714307 0.3393528 0.023988612 -0.18719694 0.23460434 -0.01553002 0.23341411 0.24673118 0.04993237 0.03992405 0.047426604 -0.16574647 0.10958505 -0.26633388
u566 0.08210447 0.039207656 -0.08596006 -0.11850176 0.05856977 0.13963594 0.15747684 0.12573148 0.015058474 -0.10028935 0.12644972 -0.056856308 -0.029365677 -0.081167765 0.14336409 0.33822295 0.016188104 0.35439044 0.093978435 -0.019714363 0.09297041 -0.16034456 0.09037626 -0.11872836 0.10221175 0.0919472 0.00057370163 0.20426875 0.037906095 -0.118004665 -0.07549498 0.03242568 -0.06283442 0.14582178 0.07759119 0.026994731 -0.12716642 0.54368365 -0.08050785 0.08326115 -0.09043425 -0.07676496 0.16785339 -0.19700886 0.20941691 -0.08511943 0.07944305 0.1336459 -0.17325014 0.02768762 -0.03938926 0.35940987 0.13429947 -0.29509404 0.17097859 -0.0646643 0.2831088 0.21974388 0.023881802 0.13022861 -0.019756855 -0.20230067 0.033508435 -0.2527208
u490 0.1463967 0.08565774 -0.070033066 -0.12045128 0.05466778 0.04795394 0.11116509 0.037012976 0.08645292 0.035349548 0.07244135 -0.017913539 -0.04362693 -0.08191013 0.11234111 0.1991699 0.11348822 0.2799526 0.07337555 -0.008489341 0.114473514 -0.07480481 0.101945646 0.011792221 0.13947177 0.013262407 -0.00022660758 0.15309417 0.12990493 -0.14060357 -0.061447803 -0.0910153 -0.055618312 0.20889306 0.16121209 -0.0018186764 -0.07154282 0.30989644 -0.10784481 0.08273464 -0.16345267 -0.06285255 0.06860694 -0.11448651 0.21971397 0.100081116 -0.07454466 0.081894495 -0.10527111 0.06331958 -0.049148247 0.22527203 0.03637405 -0.23434187 0.18784392 0.066439494 0.20350222 0.16900389 0.15944898 0.14254643 -0.012389323 -0.08783806 -0.061536316 -0.16270499
b1654 0.031291563 0.08796756 -0.0517746 -0.14792034 -0.015741933 0.089341655 0.04343021 0.05013911 0.037416235 -0.098319925 0.069813065 -0.070866086 -0.06550046 -0.071859784 0.05728249 0.21158154 0.13776916 0.18453379 0.056203622 -0.04584498 0.06260489 -0.07874652 0.123101406 -0.06083791 0.063604265 0.07557255 0.049468808 0.14957246 0.009967589 -0.029326122 -0.101627745 -0.044222068 -0.032371197 0.12667504 -0.009654781 0.032807145 -0.12710986 0.21535185 0.0603144 0.09612443 -0.046522465 -0.09779587 0.0515924 -0.15187787 0.18032072 -0.056226134 -0.030902483 0.13145588 -0.19131236 0.097789995 -0.005110827 0.19129801 0.08786658 -0.11778319 0.14827599 0.056464307 0.17434976 0.19929166 0.21088015 0.046103455 0.011299177 0.004232933 -0.053096104 -0.16156553
u107 0.06988163 0.13650244 -0.10145052 -0.24249819 -0.045371585 0.10139504 0.14889845 0.040519994 0.093805075 -0.03075091 0.05515372 -0.06477529 -0.07584951 -0.026656348 0.11512952 0.26830372 -0.016651679 0.20200464 -0.02579646 -0.044103436 0.16193289 -0.058599263 0.16015485 -0.06227573 0.112750195 0.08533897 0.022880213 0.19457805 0.15771775 -0.11982967 -0.074571505 -0.063980624 -0.034348905 0.18362524 0.12533052 0.010111963 -0.05804134 0.57640016 -0.2680299 0.03603157 -0.11908235 0.023936415 0.14765832 -0.2287123 0.1677022 0.1661765 0.026199065 -0.037338305 -0.123227164 0.11012801 -0.046769816 0.25239438 -0.027433515 -0.23905958 0.27258497 -0.062178966 0.28660107 0.1964038 0.18315145 0.010308924 0.04608144 -0.21238281 -0.03313246 -0.2282834
b1065 0.090921305 0.17749657 -0.05672681 -0.06908256 0.002204878 0.099890344 0.12621966 0.10752306 -0.015887896 -0.054791488 0.19180802 -0.07311378 -0.15015298 -0.023294237 0.09941759 0.2201732 -0.02880054 0.27405962 0.00421559 0.061671276 0.09828056 -0.012443906 0.07358466 -0.084569745 0.1366465 0.06645909 -0.026697414 0.22010265 0.08345026 -0.13801372 -0.15537727 -0.021670166 0.008824149 0.18008946 0.17903216 0.042199038 -0.10297666 0.32133386 -0.08776143 0.122468635 -0.042036075 -0.039988775 0.11461367 -0.17687555 0.2591424 -0.08409258 0.06430745 0.19842663 -0.16269188 0.048616577 -0.052712094 0.2773537 0.12022268 -0.2565433 0.1496837 0.036785968 0.24794969 0.13186143 0.09792546 0.1127937 -0.022025427 -0.17898148 -0.105058424 -0.21939874
u793 0.12242401 0.16319287 -0.09756675 -0.022243906 0.13075987 0.071028516 0.068575636 0.013727625 0.03173347 0.009389836 0.1866829 -0.052619725 -0.043729063 -0.06684138 0.15352422 0.1656581 -0.078555405 0.2909964 0.15864228 0.12653771 0.02797327 -0.021003151 0.10970569 -0.10904364 0.063266255 -0.009548418 -0.04943397 0.16211265 0.037145052 -0.13210443 -0.106885165 -0.001284478 -0.045360968 0.22918396 0.13241723 -0.018847464 0.014473788 0.39490744 0.076867476 0.050201572 0.042172473 -0.04935964 -0.0149045875 -0.12446798 0.14947495 -0.10345189 0.032779895 0.19676545 -0.13738544 0.024257122 0.010429198 0.3633513 0.03976048 -0.15680975 0.16420947 0.19169696 0.2339008 0.07530659 0.0061966213 -0.005014495 0.049229547 -0.16294946 -0.16882375 -0.29321927
b1891 0.044199865 0.08037614 -0.0031619663 -0.0683547 0.048599754 0.017569615 0.047551267 0.057431467 0.06506613 -0.065908425 0.015462675 -0.018480476 -0.037370857 0.0007039157 0.005585458 0.11069611 0.014616898 0.11633504 -0.003912493 -0.013371201 0.030174287 0.017587196 0.049453028 -0.040506974 0.012923541 0.0049282406 -0.012802651 0.10620488 0.052868422 -0.053839386 0.020795839 -0.056991156 0.008892277 0.08780573 0.017056532 0.016364945 -0.0745479 0.13590068 0.013372171 0.009443073 -0.045344293 -0.031151926 0.016382158 -0.077861525 0.111550055 -0.035570398 0.055648975 0.09069125 -0.10256394 0.044600714 -0.01396794 0.14874588 -0.012020937 -0.11480703 0.08589884 0.04423493 0.11197231 0.11586228 0.07619432 0.0229429 0.038240746 -0.038529 -0.02222521 -0.11233207
u88 0.06257605 0.18591902 -0.061664004 -0.09753934 0.06505816 0.04436179 0.08089373 0.12805511 0.06642294 -0.06253244 0.16136573 0.037983082 -0.039349295 -0.024654103 0.067831054 0.15898626 -0.024711614 0.20508626 0.032998797 0.0054902625 0.0013596397 -0.08648113 0.042828154 -0.071812466 0.077816926 0.12467447 -0.007788904 0.071858086 0.12922618 -0.073615484 0.034054767 -0.055347938 0.022545094 0.06877897 0.01850605 -0.040304266 -0.10493836 0.0826358 0.033424 0.045991424 -0.08618596 0.0004726374 -0.011026395 -0.10036135 0.12020671 -0.038561456 0.0072525106 0.077207506 -0.10682671 0.018210018 -0.0053623402 0.2485806 0.08817674 -0.15541597 0.10688799 0.02523116 0.19485097 0.114157744 0.13049802 0.06886023 0.09076388 -0.12270378 -0.02932421 -0.1335686
b1111 0.06935897 0.054602843 -0.028755458 -0.14218155 0.0052476455 0.08558257 0.05562723 0.09360199 0.05717739 -0.061594203 0.06949734 -0.03272143 -0.14095455 -0.014407945 0.06749324 0.188578 0.016613584 0.20455383 -0.009202193 0.049746744 0.09481187 -0.048114832 0.12573448 0.03485531 0.08087593 0.087354355 0.038587674 0.1621726 0.03310255 -0.060643006 0.033888977 -0.09173179 -0.0043961755 0.13539676 6.539512e-05 -0.013017585 -0.14941058 0.31515893 -0.083964124 0.11872824 -0.07751772 -0.04116018 0.09621353 -0.13206889 0.19448382 0.02999256 0.06752565 0.121021934 -0.13723594 0.05548402 -0.051599454 0.25337958 0.047658093 -0.15161842 0.15717384 0.01188768 0.1605651 0.1583888 0.09340665 0.059593197 0.089719586 -0.104821354 -0.0845103 -0.1775197
u1082 0.0770823 0.142822 -0.044881117 -0.1862923 -0.03369964 0.111309946 0.06803035 0.13628371 0.087818876 -0.10054933 0.040706087 -0.051717952 -0.10988568 0.0124948565 0.08943876 0.18857215 -0.07298356 0.23971048 -0.110787466 0.06410593 0.09801751 -0.11688205 0.0878165 0.028046928 0.15476957 0.15541007 0.05524227 0.22551286 0.073144004 -0.10179338 0.07887863 -0.054664537 0.010653073 0.20415553 0.051596776 0.026518267 -0.14969501 0.361312 -0.2628911 0.041241962 -0.13885644 -0.037528954 0.123476565 -0.20866123 0.24479638 0.13051632 0.0067313216 0.06290669 -0.1368065 0.073805444 -0.048863593 0.22347663 0.09122512 -0.21621427 0.22195263 -0.01815769 0.22754383 0.14898384 0.19792618 0.08754944 0.15365975 -0.24351901 -0.06610107 -0.199697
b3 0.113579966 0.22382006 -0.12602623 -0.15341 0.010807162 -0.013242661 0.08772541 0.21548559 0.13029368 -0.01971575 0.17868216 -0.053194057 -0.08192151 0.09424696 0.18748783 0.21850353 0.05065805 0.16822048 -0.13096559 0.05341816 0.19232216 -0.12993827 0.11670281 0.019345038 0.04841306 0.18130346 0.17451121 0.11628627 0.22373138 -0.15875006 0.04555663 -0.080848865 0.10451417 0.20681 0.10344895 0.14018087 -0.061106116 0.28038856 -0.32581708 0.108382545 -0.20610015 0.027081301 0.120168515 -0.16670401 0.1801527 0.15073718 0.091042124 0.15919109 -0.06478234 -0.013471897 -0.10301857 0.19061184 0.1410811 -0.19097006 0.21074206 -0.04420625 0.2666549 0.20551448 0.1641433 0.15806776 0.020533219 -0.24340686 -0.08454588 -0.19046058
u1001 0.061148975 0.07923811 -0.06833084 -0.1693047 -0.05191819 0.053096026 0.111710295 0.09845914 0.110862575 -0.09359083 0.10530615 -0.071762584 -0.12538923 0.03923818 0.16899331 0.18788867 0.014020139 0.28814298 -0.07770405 0.0034991463 0.15442032 -0.09748383 0.06796242 0.033356678 0.07379775 0.1260159 0.06305959 0.16503672 0.12980449 -0.14670102 0.03354204 0.004530803 0.010335213 0.15236542 0.064937875 0.081012286 -0.18929525 0.30504075 -0.23444034 0.10410654 -0.11378332 -0.08758034 0.08851427 -0.14535268 0.2029123 0.033216625 0.10779588 0.022682844 -0.13721532 0.039075103 -0.073403455 0.15769306 0.061970625 -0.18341208 0.21644276 -0.06424637 0.2071573 0.116940744 0.086577125 0.12417223 0.08235577 -0.18966326 -0.111326404 -0.22495437
b294 -0.0073905387 0.08948297 -0.016256774 -0.21034798 0.0681881 -0.0039518774 0.09794212 0.04106778 0.10763079 -0.16360064 0.1281374 -0.109635845 -0.1331222 -0.058957394 0.1522512 0.3118212 -0.055285648 0.3003856 -0.08784747 0.09857849 0.112009 0.005025803 0.08218184 0.012592034 0.08763702 0.062239368 0.013289467 0.30810434 0.046724204 -0.13547239 0.07752448 -0.030988919 0.044316992 0.20216629 0.058039673 0.021309668 -0.1369258 0.6058914 -0.40838778 0.08215713 -0.06880189 -0.0073222336 0.14851984 -0.27123934 0.3951869 0.050643563 0.10403239 -0.15583377 -0.213592 0.0931037 -0.15046725 0.17711157 -0.06765625 -0.13905452 0.23755895 -0.12859045 0.2803354 0.2515659 0.20077756 0.11157339 0.07531011 -0.35789454 -0.07950685 -0.25152963
u31 0.048793107 0.10177091 -0.19377889 -0.19998883 -0.18864319 0.07321315 0.22750556 0.16801108 0.095176555 -0.06004706 0.12978575 -0.04366156 -0.100749984 -0.011068111 0.04279623 0.20147677 -0.020179452 0.29057682 -0.14651482 0.05384384 0.07533561 0.059685804 0.16347799 -0.06686898 0.20471717 0.05368119 -0.109963536 0.1713388 0.043554187 -0.04256055 0.06966446 -0.15665007 -0.07976876 0.09368026 0.15365116 0.111985676 -0.15677446 0.23616123 -0.279722 0.0646438 -0.15568781 0.019492202 -0.037177414 -0.27550638 0.19413741 0.14330988 0.023004374 -0.1062718 -0.11593668 -0.0009537971 -0.114002876 0.25419635 -0.071811646 -0.18611245 0.23197277 -0.12789917 0.24356842 0.16473308 0.13352935 0.012654096 0.045472194 -0.23021647 0.041022502 -0.13033661
b89 0.09033406 0.12739569 -0.10032287 -0.23421799 0.02655972 0.07325465 0.20710023 0.11082734 0.1229434 -0.13309537 0.1534945 -0.0978253 -0.07056257 0.002859764 0.112263404 0.20719758 -0.08737807 0.19774263 -0.031024784 -0.022716558 0.026899079 -0.0377533 0.10572168 0.024990913 0.069285914 0.14802809 0.030509884 0.22044003 0.18518305 -0.13913935 -0.011175993 -0.07000093 -0.066878386 0.23045895 -0.042420518 0.103907466 -0.15811509 0.2840724 -0.34830567 0.15938318 -0.066117674 -0.070736945 0.083059736 -0.21745017 0.1733498 0.15320875 0.043128148 0.04102185 -0.15606824 0.03669256 -0.11567393 0.16846356 0.04812189 -0.12804566 0.1452035 -0.05263448 0.2758239 0.11949965 0.31486616 0.045403212 0.0523289 -0.26342747 -0.058624186 -0.28711024
u855 0.08122655 0.009152245 -0.10087418 -0.14233156 0.00016325511 0.056892816 0.092001505 0.08883385 0.049494326 -0.12076911 0.09109107 -0.054582547 -0.06632018 0.009079089 0.052670475 0.13265997 -0.029723292 0.1872098 -0.0004278813 -0.0100921 0.05759725 0.028691893 0.09472762 -0.00782164 0.05032835 0.10978288 0.024585254 0.15479684 0.071763724 -0.077687986 0.10455746 -0.043645676 -0.056922328 0.16380684 0.00255267 0.05421943 -0.10390284 0.16031009 -0.16037348 0.021801 -0.06319079 -0.016901635 0.023982223 -0.09882535 0.16061115 0.08574864 0.09065023 0.01654306 -0.0779002 0.09621147 -0.013522659 0.15872525 -0.02872888 -0.11748281 0.20072486 -0.06548506 0.18674387 0.059556708 0.14818542 0.024868447 -0.031804558 -0.2275822 -0.048147805 -0.15228245
b339 0.052203868 0.06112504 -0.05252937 -0.202884 0.033273954 0.1039364 0.1313101 0.21873556 0.09697609 -0.08833418 0.16609766 -0.037281882 -0.106724985 -0.10345776 0.13092998 0.2554007 0.022160294 0.40732655 0.083924346 -0.043340776 0.11733451 0.003299265 0.080714405 0.011157853 0.17017844 0.16561355 0.1340087 0.2254094 0.06558738 -0.072444946 -0.04310888 -0.035913564 -0.06818716 0.17249836 -0.12881869 0.036966283 -0.09191693 0.29167315 -0.06154516 0.12472722 -0.017557109 -0.06985109 0.12140105 -0.24961235 0.25421518 -0.0014939943 0.052115086 0.036987558 -0.11288261 0.09685371 -0.13422318 0.35658997 -0.0023217017 -0.25743726 0.33153573 -0.17957474 0.32006168 0.12596545 0.28371567 0.059124377 -0.05810711 -0.19374721 0.0142239 -0.188401
b942 -0.0001876943 0.036619898 -0.018254336 -0.17528142 -0.029902676 0.009645255 0.033067584 0.1505119 0.07099952 -0.17410512 0.008762883 0.019215455 -0.07611867 -0.0413631 0.057778202 0.30102903 0.05992887 0.26449382 -0.024770252 0.034846887 0.08836641 0.0036204257 0.09585158 0.037321232 0.11068229 0.086329594 0.0800308 0.23609947 -0.04895542 -0.010316364 0.034799334 0.03348273 0.010534398 0.15203111 -0.06241917 0.028673591 -0.11701817 0.33592135 -0.07789794 0.098434724 -0.018548453 -0.0761039 0.10066141 -0.17691913 0.29648292 -0.028328825 0.0021543337 0.08717128 -0.115030855 0.077069 -0.084678136 0.2417578 0.05360452 -0.21325842 0.18577507 0.0020319107 0.16893172 0.22615704 0.21257599 0.07415377 -0.039243877 -0.07490434 -0.038130168 -0.2336898
u207 -0.0056727943 -0.009453431 0.073037915 -0.16615048 -0.07971077 -0.0071220333 0.13153248 0.096853256 0.09476837 -0.08147892 0.07217804 -0.019999497 -0.14604405 0.061815683 0.10392579 0.2512341 -0.058731206 0.23166326 -0.05887369 0.07700606 0.050626792 0.07456532 0.1274339 0.023846665 0.12327136 0.0696196 0.044843186 0.21398233 0.13506375 -0.060989678 0.11157062 -0.07580688 -0.005107994 0.13879375 0.02416766 0.0046198633 -0.09789968 0.65144026 -0.30218765 0.12598418 -0.13014305 -0.003621458 0.03762963 -0.17791864 0.29308486 0.10024178 0.060349315 0.024254814 -0.043661904 0.17085394 0.05827305 0.3062656 0.10118877 -0.19557117 0.24331084 -0.07126269 0.16235422 0.109033965 0.20656365 -0.0033768925 -0.050827455 -0.1897178 0.002869113 -0.12821372
