3913	64
b0 0.18680035 0.3116668 -0.29295346 0.024553496 -0.24846807 0.043398034 -0.021378702 0.14806384 -0.16616379 0.2780281 0.13043761 -0.066332474 -0.25335845 0.24352223 0.07037883 -0.19346575 -0.1895589 0.17722523 0.2064121 -0.0109698875 -0.11492166 0.046011485 0.20384115 -0.21771966 0.1631681 -0.24384001 0.10890258 -0.049773563 -0.1449918 -0.13002987 -0.14346221 0.24522378 -0.115345 0.30531067 0.14048278 -0.29464588 0.26175094 0.071575634 -0.27804258 -0.26283446 0.033547495 -0.27166393 0.2941626 0.20954862 0.031112937 -0.29664716 -0.18047056 -0.20873494 0.17448899 -0.14957601 -0.013611574 0.23791505 -0.0046951324 -0.25242293 0.13280194 0.15747625 0.25675887 0.09448476 -0.18614161 -0.17546748 -0.1881704 0.04553962 -0.0045701703 0.22894402
b1 0.12719338 0.17505501 -0.2184894 0.03447117 -0.20836473 0.035148464 -0.014732469 0.18064769 -0.1028337 0.1938247 0.14407831 -0.066554025 -0.18921934 0.06675175 0.003831199 -0.12692852 -0.06406577 0.16055892 0.22374462 -0.122423574 -0.15019394 -0.016534535 0.14730869 -0.17844112 0.091050915 -0.093787834 0.09775087 -0.006580036 -0.056936532 -0.15293378 -0.15731198 0.11985797 -0.15028317 0.14163882 -0.06362308 -0.15112935 0.22925824 0.062166598 -0.20920274 -0.15368903 0.1156771 -0.13843882 0.19177179 0.1881229 0.083993725 -0.12447773 -0.16678406 -0.12160839 0.16566448 -0.13725495 -0.0922865 0.18751109 -0.106247276 -0.14999516 0.093173936 0.11064557 0.1230011 0.123595335 -0.14612737 -0.058188062 -0.14521222 -0.06622147 -0.020810558 0.18650806
b2 -0.2597397 -0.112986736 0.03998449 0.181264 0.175634 0.23449548 -0.25614256 -0.08515623 -0.05491964 -0.07668176 -0.015881827 -0.23053256 -0.13608553 -0.34540287 -0.22770002 -0.029290797 -0.17383201 0.12574574 0.081898704 -0.069667965 0.030405093 -0.09740738 -0.20820796 -0.07575266 0.036303245 0.35928792 0.15950653 -0.08536698 0.23704177 -0.00757688 -0.13905907 -0.4143557 -0.13570288 -0.054173905 -0.16195004 0.07661543 -0.15983461 -0.15025787 0.09935246 0.015361936 0.1302604 0.36032292 -0.028811831 0.1703834 0.10399057 0.4094459 -0.13080366 0.057738133 0.14641191 0.057306338 -0.14774022 -0.025880918 -0.1514659 -0.013536785 -0.13544957 -0.26595318 -0.049509175 0.07543703 -0.18247779 0.09515879 -0.15617351 0.21357714 -0.009889952 -0.1628852
b3 -0.16332403 -0.058446556 -0.0634227 0.17990202 0.056697324 0.21817285 -0.23448183 -0.165322 0.08205535 -0.07714954 0.1073372 -0.27744856 -0.15659405 -0.25234577 -0.13324833 0.01516087 -0.054891165 0.05164419 0.01676398 -0.026920052 -0.1259094 -0.15419444 -0.22562614 -0.13153462 0.16580515 0.33265886 0.2194409 -0.09578024 0.17966522 -0.006117107 -0.21924303 -0.22641794 -0.12398403 -0.044509538 -0.069586985 -0.00971913 -0.2188231 -0.17682815 0.11173692 -0.00076659356 0.17492197 0.36613962 0.042586945 0.13953918 0.21155567 0.16981064 0.06329679 0.03675047 0.10221923 0.0022583802 -0.23142625 0.010631114 -0.18362834 -0.130702 -0.20222996 -0.25024652 0.1096257 0.20696269 -0.0011599666 0.057840183 -0.22011714 0.09645482 0.08032326 -0.21000513
b4 0.016382046 -0.12712269 -0.022359386 0.26779324 0.1029198 0.1767466 -0.26542255 -0.1118301 -0.050694857 0.0017866191 -0.093676485 -0.22049873 0.09558984 -0.47598565 -0.2507713 0.084801525 -0.1228261 0.037081655 -0.025129907 -0.24796794 -0.057049874 -0.20894778 -0.4185246 -0.054566447 0.06250928 0.52944005 0.3026341 -0.21754128 0.1966869 -0.06478233 -0.13391227 -0.33313486 0.063963555 0.10406543 0.14743274 0.08716117 -0.0702407 0.04303081 0.18182617 0.14842911 0.12872809 0.5608438 0.22976168 0.18977569 0.13201152 0.12512127 -0.1367712 -0.02819327 0.14154682 0.06919789 -0.20101175 0.07707513 -0.10599621 -0.021486958 -0.037353143 -0.2803762 0.13741444 0.036890022 -0.06442517 0.16716076 -0.09098605 -0.12535252 0.12661551 -0.11877947
b5 -0.14204644 -0.20874424 0.024852382 0.17031687 0.13948408 0.16094197 -0.13901393 -0.17407054 -0.028772268 0.027803997 0.08643307 -0.16677411 -0.053610772 -0.36498645 -0.26127398 -0.051300105 -0.10001522 0.013717413 0.02614892 -0.049694344 -0.038980264 0.018122245 -0.27606335 -0.036748435 0.06509542 0.45971283 0.15531108 -0.06555729 0.2200437 0.018837424 -0.11094553 -0.4019401 -0.015443333 0.038828116 -0.039788593 0.021891342 -0.20203573 -0.11606641 0.06408423 0.026050266 0.10909131 0.4924401 0.011197847 0.10606358 0.081714064 0.49806204 -0.010606695 -0.06063788 0.15719962 0.006226368 -0.13375092 0.052525565 -0.10694825 -0.0720439 -0.12290157 -0.41374585 0.075577736 0.121208645 -0.06236482 -0.108188 -0.13244809 0.079457924 0.15085359 -0.16112073
b6 0.15784876 0.14033574 -0.24706711 0.023330333 -0.26305583 0.080475934 -0.14580932 0.24450548 -0.09299228 0.28093562 0.037713032 0.013875733 -0.15975352 0.1080332 0.11004097 -0.09971598 -0.1280136 0.21214396 0.15313858 -0.012853325 -0.06383332 -0.03790477 0.1811759 -0.15785031 0.053799976 -0.23043182 0.19711356 -0.06091936 -0.084097706 -0.19048108 -0.06541001 0.1820122 -0.05271477 0.15178804 0.106360346 -0.20996787 0.31825855 0.06316194 -0.33722505 -0.1607308 0.16537817 -0.12070573 0.23198782 0.24359263 0.094842516 -0.27255282 -0.07743734 -0.11938544 0.13210161 -0.11240432 -0.06703325 0.28913286 -0.066678524 -0.20007986 0.034871615 0.048846368 0.18413824 0.056045026 -0.14530556 -0.11620047 -0.25272518 -0.1299528 -3.305568e-05 0.028001597
b7 0.1876618 0.22766694 -0.23643374 0.045687225 -0.19068857 0.0052303406 0.10105733 0.23443946 -0.17237175 0.28690857 0.18848138 -0.006235533 -0.18343674 0.14373413 0.04022618 -0.14895047 -0.07055308 0.14835863 0.24465294 -0.09588795 -0.1542353 -0.04562233 0.15629248 -0.17961936 0.10160469 -0.19264047 0.053420346 0.039986793 -0.1795591 -0.22564875 -0.16007663 0.1453937 -0.109736 0.23296264 0.10756732 -0.16247934 0.23187847 0.12544787 -0.27063763 -0.2442249 0.12230499 -0.18484512 0.21355268 0.20042768 0.03339074 -0.24229059 -0.19440809 -0.23407076 0.17621848 -0.080879636 -0.08465554 0.18904138 -0.015795585 -0.14790289 0.08147674 0.1914841 0.20868634 0.045198377 -0.24608833 -0.136314 -0.1505837 -0.047153953 -0.1236189 0.12596802
b8 0.067778036 0.17771633 -0.1155755 0.05714308 -0.19338144 0.06773494 0.011163271 0.15706688 -0.16427791 0.19793881 0.08408018 -0.035955098 -0.1345408 0.06331581 -6.776753e-05 -0.1291205 -0.09604866 0.15484333 0.24237902 -0.0892754 -0.103278816 -0.022320915 0.066174865 -0.106337875 0.0943157 -0.08276157 0.082504846 0.00063441263 -0.03583415 -0.1204017 -0.073547766 0.047465082 -0.08101006 0.13645427 -0.047982927 -0.15404618 0.16544251 -0.009494494 -0.23781475 -0.12426607 0.07334552 -0.07361226 0.10291634 0.0964958 0.023716358 -0.077446155 -0.156861 -0.12392797 0.07621611 -0.122348994 -0.02976326 0.13472463 -0.009002951 -0.17946905 0.0027652243 0.07341696 0.17121556 0.041196287 -0.10802734 -0.08460854 -0.16836065 -0.033754505 0.010050397 0.12478813
b9 -0.3710019 0.42883864 0.091037124 -0.13878678 -0.29252452 -0.13132174 -0.28454578 0.27693754 -0.37764043 -0.025935702 -0.06432088 0.07150976 0.12042384 -0.3548689 0.13249758 -0.1445898 0.17478661 0.035309672 -0.024709253 -0.3271198 0.07938902 0.43128493 -0.38638675 0.00372001 -0.14233263 0.41175687 -0.11967019 -0.30045748 -0.117264345 -0.3173587 0.06576047 -0.4382277 -0.104530506 0.0006908881 -0.32874238 -0.29556358 0.33605647 -0.17324398 -0.27231997 0.07378688 0.22556943 -0.11785406 0.10590417 -0.16673186 0.22514388 0.26521587 0.056687344 -0.038238868 0.24160032 -0.1612534 -0.027666116 -0.13262115 0.034935597 -0.054304745 -0.36225685 -0.22204956 -0.04696721 0.26600417 0.02046567 -0.24562804 0.058528814 -0.07213544 0.10395105 0.34523544
b10 -0.1309218 -0.17830412 0.017103197 0.12613045 0.0964755 0.1997664 -0.22843765 -0.16527113 -0.049020104 -0.02431111 0.090515055 -0.24581361 -0.18404487 -0.22019964 -0.20893897 0.08541544 -0.15290956 0.12260675 0.106109865 -0.13157152 -0.10162845 -0.06582675 -0.33933482 -0.124011874 0.059858643 0.38059613 0.19971044 -0.017647158 0.084618315 0.006835777 -0.20674992 -0.33854884 -0.10185878 -0.011672439 0.060007967 0.019679831 -0.17974436 -0.078809254 0.0041867318 -0.012260243 0.10026689 0.30270386 0.00518988 0.20690362 0.099804744 0.1637952 0.06437632 0.014100667 0.21318382 -0.09792099 -0.18434128 -0.0057512415 -0.17361788 -0.06589236 -0.15757266 -0.18190745 0.06503318 0.2240337 -0.12218613 0.054176006 -0.17102164 -0.037284497 0.1252139 -0.16778968
b11 -0.31391433 0.41177797 -0.25742078 -0.06866829 -0.2683556 0.08628871 0.11737086 0.3185114 -0.10839389 0.028419912 0.2697399 0.09618921 0.036201444 0.06691668 -0.056363348 -0.20396519 -0.15403093 -0.03496829 -0.10497395 0.10798063 -0.13024457 0.47003096 -0.24416 0.062486973 0.21812235 -0.2582714 -0.12745686 -0.033843044 0.36506355 -0.056908786 0.04834578 -0.10404553 0.037403 0.1840276 -0.35681704 -0.109925225 0.3245944 -0.24074367 -0.042401347 -0.2047848 -0.15749584 -0.012398288 0.24435188 -0.10493475 -0.12707011 0.5196333 -0.16669102 -0.105969556 -0.15919115 -0.30970985 0.13035469 0.05676822 -0.0084787505 0.0673055 0.03708368 -0.18039131 0.0049333824 -0.13897943 -0.0034577672 -0.27737394 0.112517156 0.3303163 0.32339364 0.34468973
b12 -0.03171773 0.11978792 -0.1634527 0.07557256 -0.15156871 0.062416434 -0.021572512 0.13009295 -0.119045176 0.17096637 0.10819369 -0.0512704 -0.1283355 -0.009706146 -0.036717776 -0.13118678 -0.06265258 0.111932665 0.15146288 -0.047223914 -0.10886641 0.04648368 -0.03303797 -0.116626605 0.069915935 -0.008599755 0.053666867 -0.057641305 0.0149246855 -0.09942407 -0.060427804 0.0012765232 -0.0953049 0.13316108 -0.028136205 -0.13045946 0.16264358 -0.025955534 -0.16989052 -0.13975072 0.08711676 0.0014257077 0.17103717 0.11436635 0.033501092 0.001681732 -0.09811701 -0.11613833 0.106153026 -0.084252395 -0.067684814 0.15234683 -0.058835194 -0.15178008 -0.028048232 -0.021242833 0.13743474 0.066711396 -0.14637798 -0.09398765 -0.13186832 0.013545472 0.04421372 0.120242305
b13 -0.13482343 -0.03659041 -0.041652292 0.10196451 -0.022272557 0.16880092 -0.10941162 0.017928688 -0.06640162 0.018169312 0.05228432 -0.16829456 -0.06557678 -0.19923884 -0.16192138 -0.041966088 -0.07907141 0.05128866 0.08479766 -0.081198655 -0.053419154 0.11822371 -0.18936314 -0.062933944 0.071511656 0.27357414 0.13501236 -0.083703384 0.19418597 -0.02751614 -0.081594445 -0.22212175 -0.04226358 0.048039097 -0.07697238 -0.06259067 -0.024497487 -0.07760248 -0.066385224 -0.050525825 0.08270032 0.250871 0.022970106 0.0695213 0.07229865 0.24678852 -0.09199875 -0.0625007 0.13316022 -0.063818455 -0.11391101 0.03930767 -0.12198396 -0.04146663 -0.14455505 -0.18646604 0.044758942 0.06823068 -0.05476876 -0.06733415 -0.099165246 0.12100086 0.09815291 0.033908814
b14 0.18176702 0.11465082 -0.32280958 0.053775072 -0.21872634 0.110115126 -0.02791869 0.15985076 -0.11236278 0.32182592 0.13794993 -0.187707 -0.23385885 0.18300499 0.007168378 -0.08762644 -0.15977795 0.19860758 0.29656124 -0.100275874 -0.08098286 -0.1708 0.18226507 -0.16205202 0.2051587 -0.27262494 0.121871226 -0.08112726 -0.15960392 -0.13746221 -0.11064992 0.27931336 -0.19523117 0.30150464 -0.022953127 -0.2390511 0.27101275 -0.026148356 -0.31762576 -0.25829756 0.07050973 -0.23631755 0.19785002 0.24748032 0.06176504 -0.43448144 -0.10309284 -0.16384728 0.2111101 -0.21795088 -0.11247972 0.15171784 -0.008729122 -0.15119933 0.06232017 0.3433875 0.20014295 0.10685606 -0.13921677 -0.12181152 -0.17399855 -0.041293964 -0.022102112 0.16284728
b15 0.10702643 0.21846981 -0.26726532 0.011494927 -0.3326901 -0.009181306 -0.015143585 0.23783432 -0.19352777 0.3064276 0.11988973 -0.11860468 -0.24688612 0.18672404 0.11215674 -0.1483732 -0.13436721 0.13903563 0.28152147 -0.02417564 -0.10515554 -0.08383245 0.19829284 -0.13695556 0.14598562 -0.17691971 0.11844998 0.009658899 -0.20704529 -0.123108715 -0.085047334 0.2481015 -0.14397275 0.25195163 0.04989332 -0.2828584 0.36830464 -0.0035700353 -0.31952477 -0.19524351 0.122430705 -0.23282012 0.19489066 0.1344122 0.05923625 -0.3359045 -0.14377128 -0.17018916 0.1840564 -0.08852096 -0.035598025 0.2000491 0.024019167 -0.24251367 0.03399707 0.17463501 0.25689125 0.11944018 -0.11307377 -0.15141861 -0.17392816 0.0002772262 -0.023412038 0.20888552
b16 0.1249973 0.2719696 -0.3255226 0.046284907 -0.22699983 0.11376886 0.0034957943 0.08342621 -0.06940423 0.312127 0.17518601 -0.096308425 -0.12072353 0.1806603 -0.039700866 -0.1766858 -0.16877578 0.13067974 0.28951263 -0.09426874 -0.20764814 -0.05320999 0.1552484 -0.19477542 0.17491665 -0.32452127 0.14645578 -0.018808318 -0.09414703 -0.113125995 -0.13874957 0.2910405 -0.19786623 0.26259908 0.09953605 -0.25061008 0.26190856 0.024758635 -0.34537593 -0.21977356 -0.025282312 -0.26961127 0.16452707 0.16173221 0.050019763 -0.41007292 -0.1664738 -0.21445867 0.084898785 -0.10913629 -0.041344617 0.22993684 -0.029449414 -0.16084273 0.07110527 0.2267498 0.21108791 -0.00046161204 -0.19606635 -0.16238569 -0.16170159 -0.017856382 -0.015952284 0.026916761
b17 -0.2306028 0.26664773 -0.13184969 -0.029418243 -0.14695264 0.08807536 0.042764436 0.1861744 -0.11100127 0.06395595 0.174801 0.059280585 0.0052263895 0.039478652 -0.02593537 -0.13608268 -0.09690215 0.0485608 -0.026080586 0.032998603 -0.11315206 0.2676702 -0.18047416 0.00931882 0.10999032 -0.048034817 -0.027635269 -0.12409987 0.2495453 -0.108431965 -0.031955365 -0.061401963 -0.0018461092 0.111855194 -0.1991213 -0.1013163 0.19242889 -0.15077831 -0.072129965 -0.10379787 -0.047130592 0.03292716 0.1486861 -0.023486892 -0.055863116 0.26642954 -0.11373151 -0.10440599 -0.05196635 -0.17267239 0.04198563 0.06200769 -0.048339814 -0.02853615 -0.058278106 -0.16193233 0.013740308 -0.040320415 -0.020529283 -0.17126063 0.06626743 0.21176334 0.1807531 0.22241046
b18 -0.045535542 -0.13657232 0.057682395 0.12584026 -0.11006005 -0.070775926 -0.11746138 0.2847155 0.046698265 0.17539036 -0.18131025 -0.15396915 -0.17974584 -0.20625165 -0.21927603 -0.26220867 -0.18196559 0.21348608 0.2462166 0.028821614 0.06992983 0.13227247 -0.10292106 -0.23829123 0.09092726 -0.2485355 -0.123928726 -0.04975923 0.26531658 -0.014470096 -0.022261469 -0.20973733 0.062596016 -0.07475837 0.016849933 -0.20377365 0.2277136 -0.13979307 -0.17608641 -0.209541 -0.06541117 0.24500524 -0.03622352 -0.12596083 0.17648543 0.37676135 -0.17270793 -0.22737809 0.04273706 -0.022625446 -0.14751233 -0.14832379 -0.22950438 -0.15571626 -0.23504078 0.25412214 0.1674545 -0.15724337 -0.17067145 0.040583845 -0.1983179 -0.18926741 -0.070612326 0.18301813
b19 -0.083059095 0.044845395 -0.085412875 0.09506899 -0.062391266 0.09774528 -0.11284147 0.06401501 -0.08014813 0.09511776 0.07783848 -0.09893394 -0.104182795 -0.10590468 -0.10090676 -0.07595435 -0.10405903 0.08706101 0.07086758 -0.106786475 -0.10555734 0.076952524 -0.08476212 -0.11359161 0.08413269 0.121279776 0.10433423 -0.08449212 0.10938183 -0.09952753 -0.0851238 -0.10872646 -0.09244897 0.079817 -0.059712004 -0.08138023 0.06308769 -0.08931326 -0.09549535 -0.07318805 0.10697534 0.1214569 0.085178025 0.10756378 0.09051299 0.103061594 -0.06621236 -0.06887878 0.109168656 -0.0946127 -0.1150508 0.08990574 -0.09498585 -0.06882885 -0.09240386 -0.1408683 0.07173644 0.09805063 -0.07519983 -0.08447062 -0.08928439 0.07456356 0.094022244 0.07355203
b20 -0.16953395 -0.101986654 -0.011160145 0.14152204 0.07445591 0.14364275 -0.086792216 -0.106341675 0.03682718 -0.08003383 0.082791485 -0.18660133 -0.08781289 -0.27188593 -0.11108336 0.005225969 -0.043314658 0.07534556 -0.02432417 -0.037460566 -0.12935226 -0.09944304 -0.20772283 -0.0556602 0.017873101 0.33027625 0.16187856 -0.04364958 0.22123547 0.061583377 -0.10829138 -0.2666601 -0.0845124 -0.023612984 -0.084153935 -0.040216226 -0.13772638 -0.04955905 0.0438961 -0.023267083 0.14093037 0.30143785 -0.09670499 0.10780388 0.069896415 0.1888871 0.04643085 -0.080032766 0.1747539 0.044882245 -0.12871726 0.055599622 -0.16792828 -0.03552179 -0.22100212 -0.24174775 -0.026937138 0.098106116 -0.1121175 0.05409567 -0.16490018 0.19833969 0.16595612 -0.022647696
b21 -0.18151927 -0.1012042 0.048159264 0.08564811 0.101858824 0.15840054 -0.14014705 -0.09162673 -0.043289196 0.034716435 -0.11637589 -0.1395431 -0.09658638 -0.31654453 -0.19184028 -0.05821767 -0.111447595 0.11606329 0.19267394 -0.08739116 -0.076576926 -0.0077494415 -0.3238748 -0.16103795 0.020117309 0.43636918 0.15307698 -0.03855804 0.2681148 0.025993355 -0.115680635 -0.19734538 -0.025302077 0.036761045 -0.06285547 0.02532242 -0.087668374 -0.11854099 0.06880396 0.009637161 0.1869903 0.39022538 0.055642836 0.15696707 0.1687041 0.105111815 -0.07548842 0.0408786 0.2063516 0.1006766 -0.20548102 0.043200187 -0.09791384 -0.08627486 -0.10534792 -0.2833981 -0.011681778 0.13977721 0.01654129 0.030075958 -0.13336457 0.087788776 0.009985548 -0.08950027
b22 -0.033120334 0.13108945 -0.10672765 0.051502302 -0.097151205 0.07757047 -0.068002924 0.113321766 -0.11609525 0.13033094 0.08892451 -0.061737098 -0.0958285 -0.04360842 -0.07679561 -0.108614996 -0.08446617 0.11456507 0.11750014 -0.06729429 -0.066784896 0.05467718 -0.039926067 -0.10897449 0.083866335 0.017791174 0.06265048 -0.059603598 0.04053196 -0.09359624 -0.095935665 -0.038626354 -0.10640905 0.13351439 -0.055019204 -0.09981655 0.13064715 -0.06228628 -0.12771125 -0.124401934 0.11856732 0.036637373 0.114906386 0.09424201 0.080917366 0.03143458 -0.11224844 -0.089095 0.0750053 -0.10398484 -0.07527553 0.129577 -0.08358656 -0.108901724 -0.03477908 -0.028191905 0.093226306 0.08846146 -0.117052294 -0.0888382 -0.09986638 0.082893126 0.048257314 0.080562025
b23 -0.15967564 -0.08295526 0.03780127 0.17823721 0.08734588 0.21220775 -0.10361291 -0.16548952 0.055852786 -0.043991946 -0.027147716 -0.2651806 -0.093281895 -0.25829196 -0.19479355 0.037145898 -0.06787167 0.09278896 0.06236101 -0.18293461 -0.05093951 0.08495933 -0.20049544 -0.11071446 0.0700806 0.45064214 0.28506824 -0.04998963 0.2312528 0.022792015 -0.15590505 -0.4127545 -0.016547523 -0.057744656 -0.07246062 0.07724169 -0.13216269 0.054791357 0.019717112 0.14030336 0.13071357 0.4549725 0.06245417 0.22123973 0.046572216 0.25827712 -0.027795376 -0.0063303835 0.14733349 0.0001174983 -0.19028182 -0.009750004 -0.1320759 -0.0036866125 -0.14327079 -0.24871756 -0.019296763 0.14384429 -0.033665307 0.109924205 -0.13242377 0.010597445 -0.009123957 -0.08212447
b24 -0.18538624 -0.08522597 0.006295999 0.14710936 0.03881154 0.123014994 -0.13295956 -0.07277824 0.008470083 0.011271878 0.07173696 -0.2058595 -0.13574305 -0.27686748 -0.17234479 -0.029404676 -0.103433624 0.12167972 0.020154634 -0.10531405 -0.049715612 -0.015170182 -0.17057803 -0.12097143 0.08665521 0.35518545 0.20992786 -0.12981397 0.19882205 -0.008649553 -0.12246762 -0.3073708 -0.06841093 -0.019905994 -0.0030824724 -0.029408652 -0.06372734 -0.17863525 0.012794594 -0.056706227 0.16138473 0.37582445 -0.026751246 0.15015283 0.19375944 0.25523886 -0.053712722 -0.06405965 0.036145005 -0.020055784 -0.17330015 0.120174 -0.0969458 -0.047755625 -0.15096676 -0.24873064 0.10607326 0.109518684 -0.09683328 -0.034455664 -0.1626342 0.16631386 0.08124067 0.026218476
b25 -0.1291162 0.11555423 -0.11001632 0.07197945 -0.11787013 0.092911884 -0.06435202 0.113522634 -0.09296974 0.070097506 0.097269356 -0.06480773 -0.09110727 -0.05722127 -0.056105357 -0.112945534 -0.08127632 0.09003534 0.053146005 -0.071134046 -0.08228728 0.10236055 -0.11773298 -0.07127942 0.11213965 0.058733564 0.05739335 -0.07163212 0.12543209 -0.09506214 -0.09143335 -0.106434375 -0.08140686 0.07799866 -0.117776886 -0.07440178 0.11347502 -0.09977156 -0.082197465 -0.1125735 0.043953605 0.054273326 0.107047945 0.04353893 0.07189738 0.10392085 -0.08370478 -0.08486269 0.060165573 -0.119592406 -0.049187925 0.08352937 -0.07143946 -0.06376416 -0.08150958 -0.10432478 0.0788653 0.062335376 -0.07252798 -0.106931455 -0.05469707 0.10110195 0.127121 0.14006026
b26 -0.094872616 -0.21307471 -0.033682644 0.114712864 0.04917193 0.31046218 -0.25461224 -0.113342665 0.08443989 0.02001497 -0.03658512 -0.22487673 -0.12619244 -0.26945317 -0.14423925 0.054040533 -0.11478659 0.12487545 -0.0032315468 -0.06901464 0.013437371 0.04453625 -0.17150123 -0.1685771 0.116788425 0.5122001 0.13465121 0.13636374 0.13434039 -0.12708545 -0.037403528 -0.4440451 -0.18065389 0.012423401 -0.012316898 0.048590574 -0.21282226 -0.14641742 -0.00048705385 -0.039684802 0.16951935 0.50502986 -0.08446977 0.15150528 0.20595613 0.3256244 0.12185712 0.0067096967 0.1351595 0.0044801193 -0.22378893 0.042206198 -0.14138576 -0.12523492 -0.26568326 -0.3268444 0.073050916 0.23996925 -0.05172254 0.051709436 -0.2011391 0.25171223 0.035668556 -0.15734962
b27 -0.06668683 -0.19397093 0.028551253 0.20868324 0.1680283 0.19045642 -0.14465123 -0.20953576 0.14064962 -0.044497997 0.118154004 -0.195325 -0.13305594 -0.44225848 -0.16250205 0.10276638 -0.09525042 0.047116853 0.035042938 -0.08235501 -0.08833373 -0.047119845 -0.325519 -0.02896503 0.13424915 0.38827795 0.23743378 -0.027089145 0.23931552 0.119997814 -0.095379174 -0.44127163 -0.047505785 -0.0012126327 0.06660312 0.040435098 -0.21327987 -0.12773204 0.11490991 0.043424122 0.022753607 0.4270555 -0.040167145 0.13265868 0.10261208 0.27995253 0.0048267203 -0.041873075 0.033659562 -0.055152185 -0.17179053 -0.09379242 -0.12057277 -0.038314328 -0.17487516 -0.16131075 0.07372905 0.18294875 -0.076307245 0.01869574 -0.18565893 0.22661188 0.12018911 -0.12140792
b28 -0.10452455 -0.007459359 -0.01657595 0.12984599 0.0050105643 0.11658396 -0.1397548 -0.002333431 0.021648375 0.008025589 0.067049 -0.16928896 -0.09613312 -0.17237125 -0.16064033 0.02080517 -0.07789025 0.09255424 0.06843446 -0.10196763 -0.10991267 -0.00249291 -0.15982759 -0.08322051 0.102461904 0.19654292 0.15146619 -0.13407588 0.10166818 -0.012278807 -0.14828046 -0.20997423 -0.09407826 0.019097757 -0.12756501 -0.03784183 -0.034284756 -0.11802427 0.0020449094 -0.087766685 0.10756689 0.22122814 0.03567161 0.11565074 0.09573616 0.19375376 -0.03317115 -0.055594184 0.13594885 -0.0005769505 -0.11497538 0.06274538 -0.12760626 -0.02904795 -0.12990561 -0.21712297 0.057337396 0.12953028 -0.089683324 0.017835218 -0.1408907 0.1125789 0.102244966 0.003064511
b29 -0.20739117 -0.05959487 0.06403627 0.18826151 0.029715378 0.15023616 -0.14564037 -0.069674335 -0.0646189 -0.005453994 0.022436205 -0.20153564 0.0088357115 -0.28723773 -0.27420312 0.03969019 -0.01258011 0.01862091 0.061197508 -0.12916213 -0.07474494 -0.011891252 -0.29651624 -0.15799722 -0.0043899924 0.3730785 0.22731082 -0.08348348 0.30160338 0.029904181 -0.07436129 -0.3433703 0.00948259 0.018538743 -0.06920247 0.030050773 -0.007522489 -0.07530751 0.049846977 0.043192472 0.14216563 0.38495466 -0.0212551 0.14676751 0.2125584 0.26154324 -0.09981534 0.014985657 0.18468697 0.044465803 -0.20460737 0.026992911 -0.19815336 0.0021894774 -0.10773834 -0.29142773 0.078803815 0.13202737 -0.06779532 0.063495405 -0.11354 -0.0613762 0.12118922 -0.0029305303
b30 0.16413255 0.13357253 -0.23159286 0.09983974 -0.21762115 0.11831365 -0.047663275 0.18457998 -0.06108733 0.26246464 0.03288799 -0.13055727 -0.2443078 0.12860648 -0.053461146 -0.16756202 -0.1949267 0.20744064 0.25316197 -0.13129506 -0.17016715 -0.13875207 0.15330674 -0.24060342 0.11688888 -0.19280863 0.17921904 -0.0715399 -0.16397803 -0.14819588 -0.20031744 0.2209714 -0.15265492 0.20697445 0.088648155 -0.19363609 0.21301705 0.08457983 -0.27737457 -0.20562439 0.099726625 -0.20692587 0.13735838 0.23150082 0.05730025 -0.38765994 -0.13819662 -0.1291381 0.19517487 -0.08813407 -0.118614875 0.22475235 -0.12229481 -0.19790637 0.021186225 0.15595351 0.2306581 0.11116358 -0.15785454 -0.13116796 -0.25325188 -0.05380493 -0.015486588 0.09398493
b31 -0.16791674 -0.1443929 -0.047574103 0.14061257 0.034938924 0.20707306 -0.19618386 -0.16678436 -0.055230126 0.060223214 -0.04613021 -0.23706168 -0.09256746 -0.32785007 -0.08593046 0.09806071 -0.04431067 0.08646432 0.08680879 -0.14603905 -0.036125813 -0.11946772 -0.3175415 -0.14719328 0.04929713 0.53814995 0.11425589 -0.13965501 0.03135736 -0.0771388 -0.09588978 -0.3747909 -0.07159918 0.0087888995 -0.050099168 -0.10166597 -0.032138962 -0.0066824425 -0.009573161 -0.022928067 0.07177919 0.34594473 -0.038554706 0.15485053 0.2248262 0.07819985 0.041534822 -0.10129659 0.26161012 0.016963867 -0.19189535 0.022590391 -0.0762097 -0.034753844 -0.16620477 -0.3341577 0.15001991 0.24380738 -0.12807368 -0.00039611955 -0.11770963 -0.25891086 0.026516195 0.020658512
b32 -0.3279646 0.36676556 -0.17297427 -0.071864404 -0.25118595 0.08044832 0.064676754 0.2891902 -0.05729193 0.10128603 0.26330745 0.08976487 0.042780764 0.037567247 -0.030394707 -0.19064137 -0.13670246 -0.0005157255 -0.10413154 0.07140403 -0.13315806 0.47249278 -0.31174594 0.06715076 0.14642099 -0.19045451 -0.0770865 -0.078273825 0.35735476 -0.12521411 -0.011666158 0.01377572 -0.036315735 0.10725819 -0.33657917 -0.13295625 0.29885894 -0.2759415 -0.011858969 -0.19687378 -0.10092135 -0.028304335 0.22418934 -0.0920725 -0.07336714 0.4899643 -0.1567011 -0.063131735 -0.14124595 -0.26807764 0.07964521 0.101556554 -0.0461175 0.019255886 0.048671972 -0.23809923 -0.005908926 -0.11631773 0.061710145 -0.27044237 0.09242026 0.3087268 0.33758193 0.34591118
b33 -0.039331608 -0.14927334 -0.0031965633 0.18380897 0.0625816 0.13393582 -0.30928376 -0.07110795 0.03478948 0.024265463 -0.014590543 -0.23037235 -0.083268374 -0.3855963 -0.2556349 -0.0075414926 -0.06863919 0.008917533 0.08687924 -0.13715199 -0.082646646 0.040671505 -0.2444903 -0.0082014855 -0.034984645 0.4482115 0.20515376 -0.01431315 0.2303578 -0.07393073 -0.1819618 -0.41450152 -0.15087898 -0.109057784 -0.09663883 -0.0213233 -0.13264243 -0.13466999 0.05319148 -0.048292376 0.12508069 0.4214968 0.080832995 0.14978406 0.098134704 0.21853657 -0.0009922783 -0.07564643 0.10076608 0.0066932435 -0.20907685 0.051411416 -0.09520115 -0.05637991 -0.217249 -0.39251357 0.066315025 0.17474043 -0.06112311 -0.04089282 -0.029324783 0.20195714 0.1265 -0.050820705
b34 -0.42852053 0.4381003 -0.30231175 -0.06469968 -0.19251578 0.18592274 0.11326436 0.33166084 -0.008780394 0.06724647 0.3263419 0.15746073 0.0424072 0.08634481 0.014103852 -0.15878475 -0.12105893 -0.0370098 -0.18329658 0.05936312 -0.13008936 0.5555916 -0.38068363 0.031663153 0.21520501 -0.35649702 -0.13540804 -0.07527397 0.4720059 0.08839305 0.023327105 -0.05671147 0.010883223 0.16011827 -0.38900262 -0.07173842 0.2585916 -0.3711567 -0.00061858376 -0.20059758 -0.18369046 0.03707927 0.27138504 -0.16602047 -0.09427558 0.5656041 -0.13656762 -0.09921885 -0.18123496 -0.33319017 0.09248709 0.0034140167 -0.042376697 0.022736058 -0.036283746 -0.3253781 -0.049884688 -0.12692769 -0.03309774 -0.31215852 0.1189206 0.39137676 0.35976693 0.41464314
b35 -0.10789285 -0.17350401 0.04122705 0.13539518 0.1529112 0.15392667 -0.21406038 -0.20588236 0.02030363 -0.02861532 0.004263351 -0.22299257 -0.07295065 -0.31491053 -0.21087153 0.098027386 -0.14457749 0.02101021 0.033572275 -0.05908579 -0.033560313 -0.058843475 -0.23498872 -0.057102967 0.06980368 0.43798235 0.21274371 -0.047865745 0.18715675 0.07848129 -0.102107756 -0.3537276 -0.07286901 0.033166483 -0.053561583 0.005699759 -0.16412713 -0.12635025 0.06329708 0.028183855 0.08899023 0.3770778 0.005433653 0.1499357 0.09902967 0.32808512 0.023404632 -0.064701304 0.1388812 0.07390635 -0.12400789 0.11445183 -0.07878385 -0.047944788 -0.13679892 -0.33899632 0.031777624 0.122176446 -0.14074086 0.060654532 -0.15009426 0.10455614 0.07660082 -0.068458445
b36 -0.4751326 0.53539914 0.15366189 -0.1697718 -0.347358 -0.24668822 -0.2981269 0.41799894 -0.4196278 -0.026877409 -0.05797096 0.05943642 0.13547583 -0.4017044 0.17738722 -0.104166746 0.24536912 0.0043513975 0.015724272 -0.35010913 0.0785371 0.61540276 -0.3704221 0.04400264 -0.18704127 0.49119887 -0.12423394 -0.37415352 -0.236193 -0.35147277 0.12091825 -0.5017016 -0.08532235 -0.010652378 -0.3626835 -0.31080833 0.4308385 -0.11287178 -0.3118906 0.10583419 0.16904256 -0.19073424 0.0636002 -0.19794717 0.25294685 0.1845856 0.08031823 -0.019395199 0.1901823 -0.16624843 -0.0072480906 -0.18547057 0.114491776 -0.09007623 -0.45912525 -0.028796906 -0.09238414 0.25794348 0.020506762 -0.31996572 0.094375506 -0.16076297 0.12152794 0.48395595
b37 0.09187631 0.16837515 -0.16718319 0.047944147 -0.19894414 0.036316156 -0.0057162577 0.14104754 -0.118757695 0.2143714 0.119929716 -0.06448429 -0.16271874 0.10068338 0.019224433 -0.16156621 -0.07986757 0.12503818 0.18218638 -0.05852647 -0.07269544 -0.021858137 0.11060622 -0.121328734 0.121827446 -0.14342472 0.068176694 0.023089109 -0.14849049 -0.12291821 -0.098870195 0.1416102 -0.10077705 0.1929231 0.058810953 -0.15362015 0.1948012 0.037785713 -0.20175615 -0.17295328 0.071374334 -0.13346818 0.18157019 0.12936537 0.03227336 -0.16159421 -0.14262934 -0.1447367 0.13648447 -0.114557445 -0.062835254 0.15928638 0.0059143095 -0.16060139 0.013662497 0.14541003 0.1709162 0.08892567 -0.14753199 -0.1260741 -0.14915453 -0.049487825 -0.045170378 0.105647564
b38 0.15321915 0.06615242 -0.24315603 0.08141107 -0.2773148 0.088486575 0.010704058 0.072613016 -0.16093722 0.34752548 0.21228519 -0.087790884 -0.16014665 0.18617907 -0.029956462 -0.108221486 -0.23568977 0.22834964 0.3577237 -0.08567662 -0.11981804 -0.15588179 0.15638061 -0.2328192 0.15614338 -0.3143337 0.111278355 0.007310141 -0.23693399 -0.1505894 -0.07303022 0.36189803 -0.11783891 0.2530032 0.13755792 -0.23767877 0.12812337 0.0068038744 -0.3428019 -0.2358056 0.032614514 -0.30301157 0.17119275 0.27450895 0.06849997 -0.4356385 -0.13487203 -0.112302884 0.100528546 -0.031150931 -0.19470994 0.22486362 -0.15653993 -0.28675455 0.10349982 0.23306756 0.22517395 0.07125518 -0.20506558 -0.107441574 -0.22766033 -0.100605994 0.02066284 0.08751975
b39 0.13359286 0.1284103 -0.17508632 0.098808885 -0.230223 0.07067205 -0.014322063 0.07706451 -0.13865663 0.18365715 0.1526998 -0.12649304 -0.19220477 0.17285174 -0.055584647 -0.16364995 -0.12858076 0.13838395 0.29522672 -0.13166267 -0.18848814 -0.053952042 0.17879738 -0.12480994 0.07953527 -0.25805014 0.09455823 -0.060391553 -0.11284078 -0.17271562 -0.16327591 0.19940911 -0.058812212 0.21179602 0.04945592 -0.19217943 0.19242066 0.078800984 -0.28256387 -0.20371732 0.10086819 -0.23337626 0.18594347 0.24449366 0.09312194 -0.3040008 -0.09929895 -0.16225761 0.17087823 -0.12610307 -0.11678475 0.18872383 0.01920285 -0.19993912 0.062886596 0.18398394 0.17180528 0.11857035 -0.23026535 -0.11748595 -0.18112235 0.052590214 -0.021718072 0.14550196
b40 -0.05629358 -0.20360014 -0.07617079 0.14855427 0.085581794 0.059311256 -0.12035055 -0.056144193 0.07529662 -0.03849571 -0.05256632 -0.26347306 -0.051780503 -0.38025203 -0.20082876 -0.027498117 -0.15834497 0.06435181 0.14018914 0.028589843 -0.04701339 -0.14187278 -0.2946031 -0.10405778 0.04493228 0.32353613 0.19958104 -0.111740865 0.19084336 0.059472278 -0.13023752 -0.33685553 -0.03960398 0.018203909 -0.008639524 -0.028516553 -0.22661906 -0.028020315 0.01654932 0.016950203 0.032940574 0.3923832 -0.068560764 0.18095817 0.14550464 0.122809306 -0.032576032 -0.15707661 0.22592828 -0.04521976 -0.19400744 -0.04099844 -0.1465209 0.054293156 -0.21273291 -0.27320725 0.02411875 0.10336602 -0.0062250243 0.030790841 -0.20265321 -0.08337389 0.07939397 -0.07471524
b41 -0.120299414 -0.19674514 0.08083159 0.24752364 0.123942114 0.13094136 -0.19780727 -0.06662378 0.111844316 0.034716338 0.06170341 -0.21888597 -0.11082165 -0.302809 -0.16805536 0.059227865 -0.051982075 0.109873354 0.037504748 -0.110179 -0.029602675 -0.14773048 -0.26200876 -0.11263702 0.12203811 0.32285744 0.22130874 -0.17543644 0.21272638 0.08296543 -0.16178572 -0.2721681 -0.05392726 -0.041278414 -0.007779237 0.06490884 -0.15600498 -0.0869921 0.020248411 0.024126494 0.24158531 0.34219146 -0.038884997 0.20777656 0.14912085 0.16013405 -0.07940425 -0.079970695 0.12829344 0.04870805 -0.16954075 0.055413056 -0.093799755 -0.048464768 -0.09992549 -0.28452384 0.005567578 0.1294414 -0.01940741 0.1050511 -0.15423927 0.06018031 0.051565092 -0.119303994
b42 -0.12826002 0.051765732 -0.0645966 0.11409943 -0.069184035 0.14426081 -0.120100915 0.058963437 -0.07556702 0.070317335 0.07361686 -0.12550038 -0.10432214 -0.15439305 -0.12602413 -0.05718405 -0.109252855 0.091700986 0.09409917 -0.09363182 -0.10295906 0.099026814 -0.13762514 -0.08470371 0.11151976 0.15215032 0.11022655 -0.097569935 0.123431124 -0.11123279 -0.102021165 -0.16914189 -0.10151889 0.10002343 -0.10745773 -0.0820936 0.06228032 -0.1117964 -0.09418037 -0.073442094 0.1059192 0.16530609 0.08311814 0.10288769 0.13289809 0.17797475 -0.109550096 -0.08273066 0.087532975 -0.0674812 -0.12578076 0.08291542 -0.110068195 -0.10013965 -0.094323 -0.15126549 0.10508491 0.11436928 -0.0872208 -0.07106203 -0.10924452 0.11122641 0.13326705 0.06784492
b43 0.095038936 0.064419046 -0.16831757 0.0725756 -0.08210996 0.11797274 -0.12423545 -0.021260444 -0.05446066 0.2221268 -0.012994933 -0.08538352 -0.2512933 -0.05883763 -0.10084609 -0.13532634 -0.17212364 0.17196473 0.20815335 0.011886991 -0.09298407 -0.07217827 0.084318936 -0.099138565 0.14825045 -0.11613566 0.17397198 -0.0044874507 0.025066039 0.04718628 -0.0944694 0.10312854 -0.104652256 0.20906319 0.21356882 -0.18327129 0.12524939 0.06084732 -0.23243955 -0.20159525 0.13655652 -0.06154832 0.07977741 0.19535553 0.07575143 -0.3630131 -0.031004276 -0.1519324 0.17857383 -0.08734721 -0.06497003 0.08582017 -0.11228642 -0.29799625 0.017490974 0.0326563 0.16128375 0.14766614 -0.043431245 0.002538268 -0.16752934 0.044215754 -0.026922397 -0.011932588
b44 0.15725335 0.1872274 -0.20904501 0.07331116 -0.20797771 0.03539453 0.02740916 0.21181306 -0.20146143 0.29716483 0.08581175 -0.10980781 -0.24913697 0.1803658 0.0015962857 -0.19823359 -0.20959611 0.17946067 0.29729772 -0.11224593 -0.11024102 -0.10821713 0.21029364 -0.20619167 0.14075786 -0.23050052 0.175915 -0.02138814 -0.14701027 -0.10225076 -0.19780983 0.28275985 -0.16997601 0.2879954 0.15500535 -0.23048021 0.23546502 0.06919565 -0.28572723 -0.19508225 0.02961058 -0.21366346 0.18274885 0.17935386 -0.03308703 -0.36451122 -0.15056366 -0.1905693 0.19853382 -0.13726789 -0.013059311 0.2533994 0.049409896 -0.25221914 0.057436444 0.22131723 0.28694525 0.10230068 -0.19956821 -0.18276979 -0.2098465 -0.032072287 -0.11327177 0.069153495
b45 -0.43533766 0.52155876 -0.25342423 -0.0428909 -0.19213678 0.10911989 0.07441736 0.27533096 -0.059373047 0.07838275 0.30077925 0.17751116 0.023104094 0.0039603934 0.002302405 -0.2179046 -0.07770981 -0.0017005309 -0.19342785 0.07559246 -0.09212088 0.64192456 -0.37426868 0.045940373 0.12965629 -0.3662457 -0.15691039 -0.04480653 0.5449621 0.006570818 0.010661572 -0.09773951 -0.0008395851 0.10767143 -0.42196894 -0.02995024 0.31325045 -0.25574997 0.0028582844 -0.106087185 -0.13638479 0.09151032 0.19535616 -0.13926652 -0.11059968 0.67630714 -0.148377 -0.09930994 -0.19411647 -0.30760026 0.11732861 -0.004809373 -0.040153317 0.023835734 0.01014646 -0.34797573 -0.08223372 -0.110065624 -0.024400197 -0.3282304 0.14353716 0.378615 0.38521668 0.4711443
b46 -0.13409975 -0.22626866 -0.029703714 0.23616661 0.001067256 0.22222264 -0.17112537 -0.14376415 -0.015610527 0.018545741 -0.018732062 -0.15639742 -0.033851877 -0.3098394 -0.18137181 0.048398856 -0.10465803 0.08801665 0.03092858 -0.063690856 -0.054265425 -0.17498735 -0.29316252 -0.123361364 0.0926394 0.5365755 0.2204295 -0.032106124 0.15313287 0.09523168 -0.11179115 -0.30271918 -0.18597071 -0.031220715 0.007458583 -0.037216753 -0.11201564 -0.1330901 0.11778923 -0.00030076617 0.07154351 0.39956707 -0.0075951843 0.1921051 0.122064725 0.17327929 -0.03973221 -0.072634436 0.16654351 0.032824237 -0.2172834 0.08369706 -0.12396738 -0.08160947 -0.13135216 -0.28704262 0.07536498 0.19840078 -0.03253948 0.082852654 -0.1676845 0.055855073 0.08441931 -0.16278632
b47 -0.12655531 -0.18826021 -0.019351084 0.22809336 0.107535526 0.17864014 -0.19719611 -0.15216194 -0.04847472 -0.04106717 -0.09689801 -0.15064485 -0.08177287 -0.3507528 -0.20576295 0.049011532 -0.11053064 0.022459332 0.041939568 0.04923483 -0.13297221 0.015014517 -0.2730649 -0.049289126 0.10841808 0.45762378 0.27102137 -0.039298207 0.13070007 0.021321695 -0.115600176 -0.36553982 -0.10976636 -0.0044318386 -0.042079143 0.076571204 -0.18294974 -0.25119597 0.034100268 0.020683799 0.18266554 0.5012908 -0.01566808 0.15868613 0.15746579 0.19946559 0.056907184 -0.051593762 0.09310562 0.02900766 -0.277639 0.0841929 -0.15154749 -0.05519113 -0.14418204 -0.39744028 0.07689975 0.2505141 -0.041899223 0.10016671 -0.09971106 0.111280024 0.19984922 -0.12272731
b48 -0.18961829 -0.22710998 0.05438669 0.19941598 0.24231723 0.22443247 -0.19255799 -0.07712872 0.075605355 0.017603291 0.04508094 -0.31850812 -0.10934899 -0.4507112 -0.24242719 -0.031727917 -0.21774301 0.1412992 0.09287721 -0.10702817 -0.06494584 -0.098428056 -0.26655298 -0.03869659 0.062255982 0.47222823 0.13704734 -0.055509422 0.35541037 0.12111072 -0.10032899 -0.39723024 -0.0035512736 -0.012896614 0.16913334 -0.07220731 -0.10911225 -0.075935274 0.033633716 -0.03242228 -0.028534152 0.51016754 0.039461806 0.26712328 0.16961887 0.1049888 0.023199948 -0.100344844 0.25658283 0.041853014 -0.20014359 0.08904431 -0.13490388 -0.057608932 -0.029997125 -0.40195987 0.03593563 0.12593505 -0.1616 0.07516505 -0.066811204 -0.057845816 0.14272667 -0.0693122
b49 -0.1078879 -0.006309415 -0.030631728 0.10514052 -0.023373878 0.10296789 -0.12724608 0.02820361 -0.07194021 0.071382135 0.08487996 -0.10561073 -0.10989675 -0.17387538 -0.11975994 -0.031637207 -0.08221933 0.08095285 0.06982287 -0.11439429 -0.08993409 0.04314652 -0.14598309 -0.10932643 0.08590999 0.20293142 0.122107245 -0.105775215 0.12702134 -0.05508925 -0.08252717 -0.1765744 -0.11373964 0.07020473 -0.07897623 -0.073304586 0.029737586 -0.09068642 -0.03284379 -0.07628019 0.11372338 0.19476584 0.039221324 0.09993033 0.08801697 0.15100312 -0.051166773 -0.10128136 0.06947307 -0.07328983 -0.092231095 0.09207021 -0.12327232 -0.087791644 -0.11891994 -0.1667482 0.09358441 0.08653883 -0.08852276 -0.06573928 -0.10134146 0.08418174 0.10479409 0.033967454
b50 0.101122804 0.1473251 -0.19105016 0.0608502 -0.25345957 0.07130247 -0.016275834 0.15019174 -0.06908403 0.31265485 0.15811218 -0.06437819 -0.13678056 0.14858042 0.11017972 -0.109831095 0.0295452 0.14872581 0.32082307 -0.11969943 -0.117848665 -0.0042383466 0.23392475 -0.21764839 0.04272426 -0.24798417 0.07098482 0.060578316 -0.15975575 -0.19979268 -0.13634737 0.25634116 -0.16587098 0.20064288 0.07817534 -0.21014783 0.33600658 0.055667616 -0.35595942 -0.17393179 0.15266512 -0.31590673 0.15959166 0.22504531 -0.016940266 -0.33330774 -0.111839235 -0.16847691 0.16061954 -0.10869057 -0.05679869 0.117782146 -0.07816708 -0.18873271 0.091211624 0.23000997 0.24017398 0.1106872 -0.16164729 -0.14783846 -0.2253046 -0.06591253 0.007799645 0.19578093
b51 -0.22026244 -0.08455264 0.035606317 0.08531369 0.10542929 0.20575456 -0.21496126 -0.087469 -0.0057174386 -0.030156568 -0.088137515 -0.20817436 0.038619865 -0.268488 -0.16935757 0.10003847 -0.12662196 0.05326592 0.036544137 -0.1661006 0.04996444 -0.01875465 -0.23180698 -0.07076214 0.11983314 0.28672367 0.20479992 -0.009285645 0.21909209 0.021817844 -0.09350387 -0.2902877 -0.014921383 -0.02375575 -0.14142549 0.06926291 -0.050560273 -0.14561555 0.049060397 0.09441173 0.17447133 0.2751198 0.01486022 0.19489712 0.22728048 0.26718178 -0.012379805 -0.00020057826 0.17128795 0.08427147 -0.24470541 0.004878473 -0.13955244 0.0012469837 -0.22396626 -0.25401402 0.054685008 0.19078979 -0.03204183 0.1412914 -0.09892158 -0.009035593 0.0780134 -0.026417766
b52 0.06947612 0.16953985 -0.20946068 0.062161412 -0.16041961 0.11442046 -0.029322032 0.19119023 -0.114562176 0.18629783 0.106205925 -0.076771185 -0.14765938 0.05497509 -0.030886013 -0.15256602 -0.10258082 0.15371218 0.20196982 -0.1298243 -0.11275306 0.008240855 0.058232408 -0.13317648 0.105060086 -0.06471243 0.07612118 -0.040763844 -0.041256752 -0.15306568 -0.11894088 0.06185081 -0.12988843 0.15411495 0.0020215744 -0.17793113 0.23145361 0.028146653 -0.22275585 -0.18843623 0.10862145 -0.08458986 0.19922625 0.1816646 0.025155943 -0.15608697 -0.17776951 -0.120023295 0.13461173 -0.11270385 -0.08777245 0.1643129 -0.08258199 -0.15536349 0.045544647 0.087620564 0.16764393 0.07238475 -0.11580527 -0.13866897 -0.13954255 0.004344427 -0.0046290145 0.16197722
b53 0.12334721 0.19262354 -0.20704769 0.08523026 -0.23158039 0.04010402 -0.01871404 0.18358876 -0.16029446 0.27628943 0.11894773 -0.09752089 -0.18532282 0.13772765 -0.049747318 -0.12662962 -0.1551879 0.17354669 0.29945743 -0.0218153 -0.07317489 -0.105092295 0.13807023 -0.15644675 0.14642145 -0.22317638 0.10909623 0.021625986 -0.091086574 -0.060957856 -0.055480838 0.2023238 -0.1310969 0.25328022 0.09098755 -0.22137094 0.2720222 0.07416895 -0.2261061 -0.17662774 0.0305005 -0.21461602 0.05943524 0.22129807 0.026271276 -0.33462107 -0.18919823 -0.16515562 0.084837444 -0.066350944 -0.07426406 0.19960257 -0.034377053 -0.14593723 0.08285246 0.18324126 0.19473788 0.11610847 -0.14207804 -0.06341451 -0.203157 -0.15863216 -0.009191417 0.06149885
b54 -0.058445845 0.07754236 -0.10081455 0.07914717 -0.0969261 0.07631331 -0.058981195 0.08051007 -0.09584545 0.09927093 0.099218376 -0.089295216 -0.07438295 -0.07302539 -0.08832343 -0.09386138 -0.090859555 0.07369584 0.10221502 -0.08528826 -0.09471812 0.075960025 -0.07103784 -0.071392946 0.07256039 0.06592601 0.07664518 -0.06419858 0.081818916 -0.083770566 -0.07914679 -0.057942208 -0.077454574 0.09967932 -0.07633984 -0.07376631 0.085002415 -0.07530544 -0.08490475 -0.07281939 0.09371995 0.06529666 0.07601859 0.09315384 0.07095395 0.06933208 -0.07692199 -0.072253026 0.08702565 -0.10023709 -0.067625955 0.075397894 -0.06679995 -0.07927412 -0.07984624 -0.048461717 0.08087782 0.07393569 -0.07021295 -0.07901243 -0.09864787 0.063961565 0.08100872 0.09929723
b55 -0.4666816 0.574189 0.092224136 -0.15280925 -0.3346485 -0.16853683 -0.26832378 0.38524288 -0.35565934 -0.044623584 -0.1079596 0.10615226 0.16791673 -0.36995938 0.14742555 -0.09503156 0.23260939 -0.055878542 -0.048384078 -0.30964145 0.09488321 0.6473942 -0.4260692 0.044775434 -0.2037084 0.39444935 -0.10350087 -0.3615353 -0.14267446 -0.30137762 0.100362495 -0.50719434 -0.019363493 -0.010851062 -0.35065982 -0.26311633 0.4664266 -0.103748605 -0.24219918 0.09378401 0.069852844 -0.19333588 0.10348169 -0.20680916 0.18069194 0.18427157 0.063509874 -0.01819325 0.05343874 -0.2085397 0.010162329 -0.16898954 0.06850522 -0.025040105 -0.40586329 0.05713763 -0.04759872 0.14270915 0.055697042 -0.32524893 0.10222641 -0.10881665 0.14473091 0.49186358
b56 0.15474716 0.25555184 -0.23590353 0.019096142 -0.27538243 0.048124254 0.04060365 0.31835783 -0.16232212 0.27527654 0.13136499 -0.07811699 -0.17991523 0.18039565 0.050612263 -0.1968829 -0.13585386 0.19945098 0.28141683 -0.007618137 -0.111511864 -0.098344006 0.19660991 -0.16805542 0.05522994 -0.18891075 0.07239765 -0.053050667 -0.19654672 -0.22831972 -0.10678627 0.1900937 -0.11864817 0.28505588 0.0905607 -0.19020966 0.29838482 0.073709086 -0.30751836 -0.21757692 0.10875782 -0.21094507 0.13740863 0.14426154 -0.044561427 -0.26244828 -0.16603678 -0.17514135 0.15833206 -0.10802886 -0.02015979 0.22333363 0.068271175 -0.2744446 0.09870913 0.19373871 0.23283234 0.10930757 -0.1409784 -0.0803386 -0.21047978 -0.11442091 -0.0975785 0.14251405
b57 0.10958262 0.13063829 -0.28078565 0.0726446 -0.1651688 0.03674137 -0.06324333 0.21694593 -0.09423264 0.26454228 0.1085795 -0.1101551 -0.241076 0.11882912 0.0040300298 -0.23666732 -0.19632056 0.23944815 0.32095924 -0.05136315 -0.08811206 -0.043097742 0.25819683 -0.22778085 0.15222941 -0.36551067 0.08678962 0.028073218 -0.16306618 -0.067740306 -0.17510892 0.26580295 -0.15107857 0.28072977 0.14197034 -0.24013034 0.21526034 0.10798609 -0.29255095 -0.18566535 0.130572 -0.31383193 0.23075157 0.1709482 -0.037156023 -0.43616036 -0.16498144 -0.09041673 0.14619581 -0.15866405 -0.10764589 0.25626335 -0.047395326 -0.24471904 0.13462205 0.21752071 0.28363648 0.04746532 -0.20623085 -0.07982895 -0.22993208 -0.006295014 -0.06221563 0.13489607
b58 -0.43744305 0.5529071 -0.20691946 -0.052881163 -0.25361836 0.052060384 0.042578626 0.33650416 -0.032440018 0.036696665 0.22544926 0.14549847 0.052779205 -0.051985435 -0.03483569 -0.1466817 -0.11220642 -0.027806755 -0.155902 0.05628669 -0.009815656 0.59408456 -0.40978834 0.03398716 0.07606045 -0.33176005 -0.14062709 -0.14518574 0.4141936 -0.16307166 -0.0038206696 -0.16700624 0.009501997 0.06507758 -0.42561597 -0.13251364 0.32815325 -0.27235797 -0.065442525 -0.09381345 -0.15303537 -0.069818914 0.1601302 -0.16044317 -0.021289637 0.5756072 -0.048459306 -0.05366904 -0.20296825 -0.29831862 0.1270783 -0.016686667 -0.038894895 0.028087426 -0.113298565 -0.12354212 -0.07886666 -0.10028709 0.035137247 -0.26756355 0.13763009 0.36106747 0.3563551 0.4055176
b59 -0.21045698 0.22922266 -0.1935907 0.016024962 -0.21701044 0.08723721 -0.016928328 0.21632709 -0.061310586 0.088871524 0.22083354 -0.019867098 -0.022195207 -0.0032947722 -0.050970726 -0.1697421 -0.11545635 -0.0062531913 0.008164725 -0.005166143 -0.095754586 0.21667789 -0.20542353 -0.016399838 0.14338624 0.001785613 0.0010717879 -0.10441973 0.23208854 -0.10992259 -0.007287469 -0.0015373084 -0.022968492 0.091590844 -0.20481339 -0.09912992 0.19505608 -0.20631273 -0.065918304 -0.13595346 0.0029570572 0.078644775 0.16966785 0.016106136 -0.0009953816 0.19865477 -0.13303956 -0.13967745 0.0005306236 -0.20853393 -0.0144767305 0.09455105 -0.07338131 -0.018203437 -0.09126311 -0.17333038 -0.0019524682 -0.0046497835 -0.03984452 -0.22386663 0.008334855 0.22450252 0.22165371 0.21578522
b60 0.19515868 0.24871318 -0.3848244 0.09206725 -0.40890536 0.011299959 0.021097207 0.29647353 -0.13644733 0.36629018 0.13559152 -0.13442916 -0.23815966 0.20266442 0.022454131 -0.19325285 -0.15117812 0.24558629 0.34725615 -0.09066206 -0.100741684 -0.0019090236 0.21549971 -0.18911421 0.07717242 -0.2651042 0.07308406 0.045326404 -0.13471457 -0.13671628 -0.0839388 0.18174787 -0.12599123 0.3054139 0.01680898 -0.23139034 0.31484792 0.13821179 -0.3915204 -0.2647345 0.17254803 -0.21052656 0.13249129 0.18695438 -0.062845394 -0.31161767 -0.13418798 -0.14507212 0.13155402 -0.17838748 -0.016077442 0.28449327 -0.002951592 -0.34028238 0.07243854 0.21775442 0.276045 0.13863432 -0.1484494 -0.086809784 -0.3134531 -0.12606452 -0.084537484 0.1877896
b61 -0.5398382 0.52347493 -0.27818188 -0.13446899 -0.26014832 0.066981494 0.11422797 0.3160596 -0.053368498 0.104269035 0.31933954 0.13938233 0.052272648 0.059011344 -0.05146049 -0.24140023 -0.14460649 -0.0346169 -0.18901543 0.118983425 -0.07201591 0.6214113 -0.3975892 0.068137385 0.18846513 -0.27421024 -0.11580733 -0.07247219 0.6045904 0.015164357 0.013994736 -0.039144207 0.04984353 0.11461335 -0.47558135 -0.06319719 0.32812652 -0.34253064 -0.050712552 -0.14593826 -0.20053114 0.0010552391 0.23859873 -0.1482963 -0.1481497 0.6685368 -0.16760118 -0.05567772 -0.20498228 -0.37579542 0.16039325 0.014729372 0.034765724 0.053859755 0.07093575 -0.33612686 -0.061577607 -0.14648816 0.04852762 -0.31794545 0.15604438 0.44137755 0.40182063 0.446653
b62 -0.20738922 -0.15640117 0.04126104 0.13841023 0.15348877 0.20297371 -0.19582744 -0.22403865 0.07095512 0.06922573 0.09743328 -0.29541388 -0.06749329 -0.40964323 -0.2841904 -0.00813634 -0.03790059 0.05507364 0.008606255 -0.03445105 -0.09568313 -0.13120389 -0.32428125 -0.061608687 0.07131515 0.32990026 0.28774714 0.003274415 0.2620849 0.0743617 -0.22925445 -0.40162566 -0.062193565 -0.033858307 -0.12003565 -0.032902442 -0.22307077 -0.13263895 0.04329681 0.038974077 0.18055877 0.40194985 -0.029946456 0.17609794 0.07901073 0.1729663 0.123549424 -0.01909898 0.12483342 -0.04974656 -0.19134425 0.015006341 -0.14897372 -0.025929173 -0.1067592 -0.33807227 0.04609527 0.18257678 -0.1255091 0.092678845 -0.16871503 0.009890269 0.103521645 -0.17011712
b63 0.21089455 0.300047 -0.20823452 0.16280779 -0.3479426 0.07686791 0.120978 0.22498119 -0.17996228 0.27212018 0.13553554 -0.14076577 -0.22374061 0.24979588 -0.004939672 -0.15995407 -0.07748116 0.18272103 0.30727175 -0.13541 -0.07153487 -0.11975679 0.2294139 -0.14379859 0.11640724 -0.17209178 0.044219036 0.062518865 -0.21436132 -0.13404036 -0.11120623 0.29725468 -0.14279748 0.2270558 0.05821141 -0.26142842 0.37474868 0.13485248 -0.34043106 -0.17752972 0.095639944 -0.26432365 0.19434847 0.2451998 0.13299683 -0.29086918 -0.21369766 -0.19852588 0.19426207 -0.10359671 -0.12436599 0.21478017 0.07694989 -0.15778355 0.121854864 0.28466702 0.20602453 0.10367705 -0.12134355 -0.1359443 -0.17361538 -0.18560956 -0.061924152 0.18411939
b64 0.15421891 0.22393298 -0.3378074 0.13583064 -0.23558587 0.059373453 0.037712626 0.16793992 -0.20303553 0.3764148 0.1675434 -0.046908215 -0.22475564 0.2037117 0.045482635 -0.2287687 -0.16994546 0.26504067 0.2289535 -0.052769445 -0.19582498 0.07667652 0.16978805 -0.17873672 0.19476219 -0.30109257 0.09855879 -0.074277185 -0.21081692 -0.058706217 -0.21561807 0.22807845 -0.13765341 0.38462588 0.02719188 -0.21247323 0.28886876 0.06739783 -0.2642841 -0.19819792 0.050582968 -0.24880196 0.20193566 0.16999628 0.021150976 -0.34394374 -0.17394814 -0.2014328 0.13690165 -0.14009765 -0.088995814 0.17515695 0.0011853987 -0.34829196 -0.008311637 0.17157277 0.22529894 0.031728715 -0.213905 -0.022802468 -0.24496649 -0.14489003 0.036722727 0.124850444
b65 -0.14488131 -0.069243684 0.002305224 0.19183306 0.011629029 0.15086885 -0.13523823 -0.012250046 0.015560792 0.012126189 0.048227493 -0.14801396 -0.06935573 -0.2523988 -0.1454582 0.032883834 -0.0817819 0.13695048 0.07268338 -0.10302661 -0.05023272 -0.052831907 -0.28113535 -0.07564006 0.120378464 0.31099498 0.21417794 -0.058151823 0.08447661 -0.014465662 -0.11599344 -0.2514167 -0.12170094 0.07048219 -0.035081353 0.019771034 -0.068608455 -0.111870565 -0.012811419 -0.063154675 0.16927402 0.23981863 -0.020893259 0.20022584 0.10047323 0.25558627 0.0040500895 -0.11295783 0.1525537 -0.019768 -0.19815814 0.087067395 -0.16672282 -0.07032168 -0.14164339 -0.25322264 0.10456954 0.11114846 -0.067799896 0.0029703854 -0.13724601 0.09388683 0.08426287 -0.01637777
b66 -0.20468052 -0.0518552 -0.0004956967 0.16361241 0.110964924 0.1588264 -0.2074592 -0.1535216 0.06570477 -0.10946375 -0.038968906 -0.23299828 -0.12113809 -0.40045685 -0.3505561 -0.13827795 -0.066645816 -0.003518749 0.10987262 0.07291833 0.002997079 -0.036894463 -0.23895651 -0.15310962 0.040822476 0.32349527 0.019411072 0.0025412177 0.2734296 -0.07727172 -0.24213664 -0.36323205 -0.07935631 -0.06807334 -0.2975216 0.097988196 -0.11725414 -0.111111574 0.04554449 -0.0026376278 0.1874496 0.36560515 0.21350363 0.13331313 0.111340635 0.34854177 -0.04201908 0.15415739 -0.031642586 -0.060281903 -0.15838018 -0.03848296 -0.10959268 -0.041321445 -0.089719735 -0.23868498 -0.018699646 0.0643154 -0.09847139 0.034232117 -0.15522152 0.00033283653 -0.07394553 -0.036141362
b67 0.12370046 0.090487726 -0.27035388 0.102899 -0.23089255 0.09535712 -0.045070905 0.15493846 0.0195489 0.31251663 0.15411046 -0.0591423 -0.23063259 0.13043973 0.026457375 -0.16265786 -0.061878998 0.20812802 0.23096919 -0.006618302 -0.13468036 -0.07492887 0.09629289 -0.26197383 0.10886199 -0.21741427 0.12669884 0.085329115 -0.12017738 -0.17796682 -0.20156038 0.18289387 -0.08191747 0.24502033 0.053938545 -0.31020138 0.21277538 0.0010118291 -0.38627428 -0.27405474 0.05634024 -0.22588626 0.23716636 0.15962745 0.100957796 -0.3172947 -0.19597904 -0.22061291 0.09899148 -0.20246945 -0.050738383 0.16886212 -0.05734049 -0.13635273 0.12576492 0.17468259 0.3297052 0.06615001 -0.20050181 -0.2276029 -0.22570191 -0.036283784 -0.08094717 0.07339166
b68 -0.15845504 -0.0750595 0.033051495 0.21431921 0.06876063 0.14488494 -0.19051242 -0.083299905 0.10840987 -0.048212726 -0.01066681 -0.24677563 -0.072138585 -0.3743925 -0.2888769 -0.050609082 0.002354069 0.04464661 0.055454057 -0.08076974 -0.012897024 -0.114371166 -0.29036814 -0.14651309 0.026955688 0.4051078 0.10055111 0.0034234847 0.27705047 -0.0865476 -0.23271832 -0.38544285 -0.06048164 -0.04317226 -0.16968471 0.085519046 -0.14813648 -0.058196675 0.061079815 0.05914034 0.1515864 0.4225323 0.1182321 0.12415289 0.091279216 0.2899257 -0.15225172 0.11709397 0.075988814 -0.08123458 -0.14606945 0.0056636226 -0.09171853 0.0024615696 -0.026631773 -0.22612016 0.033341587 0.052774955 -0.14459498 0.066224135 -0.09984125 -0.10249197 -0.090988554 -0.029237112
b69 -0.16862118 -0.16236979 0.06248196 0.1605804 0.13747568 0.1949027 -0.11900495 -0.16201836 -0.017836148 0.021867085 0.05111965 -0.23457235 0.0017459308 -0.3390266 -0.27763468 -0.06311556 -0.03657681 0.040428694 0.0002040353 -0.1771282 -0.028914409 -0.06134993 -0.20676188 -0.009008177 0.067943476 0.43283814 0.26376843 -0.06767553 0.262464 0.07157444 -0.17289367 -0.3741435 -0.05993359 -0.0745231 -0.16378471 -0.0062141083 -0.14940645 -0.21072184 0.057541046 0.022534769 0.16771649 0.4394595 -0.013458512 0.22909611 0.18881498 0.50789076 0.0524192 -0.06423147 0.13577355 0.035038717 -0.14598322 0.0827147 -0.1398807 -0.06011893 -0.07643885 -0.3548841 0.12276654 0.15310122 -0.08285464 -0.06977789 -0.12713194 0.057909325 -0.0069468655 -0.2405367
b70 -0.095889196 -0.2192787 0.05841218 0.13427147 0.098588444 0.26049083 -0.19137314 -0.22954328 0.06438294 -0.024020705 -0.063165925 -0.20800546 -0.10856485 -0.3316087 -0.17938618 0.08556994 -0.15819705 0.053202443 -0.011325517 0.015194046 -0.033895575 -0.11210047 -0.25817853 -0.14464638 0.058753166 0.44387013 0.17446701 0.0002175613 0.19197279 -0.05177225 -0.12068802 -0.32858208 -0.19618553 -0.050183706 0.04699437 0.01356177 -0.19577989 -0.15451719 0.079422444 -0.049130626 0.09327397 0.43934393 -0.025899239 0.1932859 0.14651248 0.123862095 0.024692347 0.08836296 0.076548316 0.058084313 -0.17295991 0.1331982 -0.08943825 -0.025049997 -0.1642669 -0.24109764 -0.030866005 0.22821352 -0.10510004 -0.080337524 -0.20847736 0.21586624 0.033319812 -0.12943383
b71 -0.08839271 0.037433323 -0.067000486 0.11574076 -0.031072231 0.09998898 -0.09338176 0.029620998 -0.041712902 0.05025431 0.059885073 -0.08618656 -0.08915224 -0.14531407 -0.12111378 -0.076974325 -0.0784826 0.062360488 0.06738619 -0.05446352 -0.06342247 0.07582308 -0.13620363 -0.09674206 0.061876945 0.14352413 0.07867024 -0.058962453 0.124339305 -0.071800895 -0.092596956 -0.14544572 -0.09211062 0.049633782 -0.11129321 -0.044102393 0.058272723 -0.10514514 -0.053794816 -0.06418049 0.07502222 0.18128026 0.079138 0.091715045 0.09892029 0.1768593 -0.091466285 -0.063635275 0.060246628 -0.05724779 -0.10552654 0.07325362 -0.07125634 -0.06188755 -0.08381502 -0.16098501 0.066961646 0.07387333 -0.07158633 -0.06363234 -0.0803106 0.09481311 0.06463594 0.05028358
b72 -0.0281946 0.13697892 -0.12392115 0.09263215 -0.14682464 0.057932474 -0.05292039 0.16198719 -0.08914431 0.15463825 0.09964859 -0.066075064 -0.107110254 -0.035742633 -0.07038486 -0.1201984 -0.08501146 0.13178268 0.14314094 -0.08220344 -0.09954953 0.08210891 -0.008477914 -0.10818818 0.0751192 0.0135832345 0.117992334 -0.050587326 0.03315219 -0.10193381 -0.09660898 -0.008601356 -0.10737958 0.13058485 -0.044702943 -0.13113081 0.1383075 -0.05630051 -0.12560864 -0.11510178 0.11357491 0.0077686035 0.0900329 0.12199877 0.062370926 -0.005517457 -0.14109233 -0.10304114 0.101015456 -0.10884301 -0.08266833 0.13014682 -0.066728875 -0.1074239 -0.03968482 -0.039464533 0.10864892 0.096562326 -0.12619819 -0.09272311 -0.10257369 0.058240853 0.039520316 0.10508297
b73 -0.17630048 -0.108833864 -0.041887123 0.22430007 0.09197391 0.10491018 -0.18460187 0.04004369 -0.05641099 -0.0072379974 0.061235826 -0.17459455 -0.10438838 -0.44596124 -0.18454614 -0.07634425 -0.09672233 0.06864127 -0.073459335 -0.06532221 -0.12985851 -0.10068491 -0.22802104 -0.075003885 0.035694685 0.4619247 0.2058732 -0.06843611 0.19873805 0.08340809 -0.13084294 -0.4138302 -0.11019898 -0.01901767 -0.20176798 0.0110154925 -0.13315172 -0.07067599 0.08586106 -0.066130795 0.12274301 0.39748916 0.023403814 0.21029033 0.09614597 0.088673346 -0.035681736 -0.07836825 0.13423404 -0.017194191 -0.15332048 0.13579524 -0.14585124 -0.008205279 -0.2019218 -0.32278994 0.023370499 0.15557455 -0.06659939 -0.13650315 -0.10303035 -0.003586881 0.07865462 -0.06305641
b74 0.26069874 0.13950033 -0.2949713 0.12983216 -0.23111844 0.11561902 0.08783484 0.3148798 -0.22855769 0.36333728 0.08367525 -0.10663983 -0.19849323 0.17238158 0.12523343 -0.12528175 -0.12751704 0.17689325 0.37735763 -0.16952448 -0.14597678 -0.17488272 0.22630927 -0.21808198 0.19444676 -0.30796543 0.1798857 -0.0034978248 -0.25567037 -0.022756472 -0.19861874 0.2796843 -0.10333089 0.20894961 -0.09278405 -0.16317324 0.26147178 0.086213656 -0.31487256 -0.22494023 0.18981934 -0.27269295 0.17192769 0.26333532 -0.04000704 -0.33928815 -0.17459324 -0.02587212 0.21136917 -0.13772821 -0.1664259 0.28238642 0.014532684 -0.20062865 0.09210205 0.23436263 0.17484172 0.194995 -0.22498314 -0.048456065 -0.26001137 -0.17579086 -0.04755333 0.29030836
b75 0.0575503 0.20225328 -0.2041209 0.016672367 -0.122360535 0.04778761 -0.013981995 0.09636003 -0.06267523 0.11806911 0.11239576 -0.06937388 -0.13775787 0.04339628 -0.052946754 -0.078765176 -0.15546343 0.12121054 0.13525105 0.022494605 -0.112357035 0.08361127 0.038811706 -0.12298509 0.14742331 -0.13083452 0.07952125 -0.06888992 -0.001754309 -0.13665815 -0.08714066 0.06660241 -0.1048944 0.16866498 -0.03863074 -0.13773906 0.10532312 -0.080744036 -0.06360727 -0.16509016 0.051714208 -0.08750106 0.15211292 0.101308726 0.0035653217 -0.012726041 -0.11994354 -0.1464112 0.07814377 -0.22275564 -0.09534596 0.16004598 -0.093270786 -0.057195406 0.0058477307 0.05907437 0.17202206 0.06265787 -0.115773596 -0.14226831 -0.14680065 0.1936585 0.033030633 0.032502834
b76 -0.16290043 -0.1646242 -0.08398241 0.19122119 -0.0015754031 0.14428033 -0.21405882 -0.1313265 -0.10295499 -0.015229684 0.002939907 -0.19568706 0.0728086 -0.39190087 -0.2269339 0.23125209 -0.12352958 0.073783256 0.006984352 -0.15981957 -0.104081094 -0.086111546 -0.3081918 -0.03370474 -0.028462075 0.49294087 0.32059702 -0.24057366 0.24954864 -0.041292604 -0.1496267 -0.3993476 -0.042388063 0.12723657 -0.018483616 -0.08168897 -0.072566874 -0.028062573 0.06961999 -0.026114296 0.029564492 0.46772498 0.010644594 0.17719485 0.22260901 0.1311918 -0.09236587 -0.07214991 0.1788152 0.20747827 -0.15427421 0.0343936 -0.19686453 0.04656576 -0.09485415 -0.304003 0.102133214 0.12531123 -0.12801008 0.00032928045 -0.12177082 -0.07316653 -0.045895908 -0.12698486
b77 -0.05491993 0.10967683 -0.120045446 0.07244514 -0.12400628 0.0759372 -0.057220858 0.08704954 -0.08990237 0.14757806 0.07811835 -0.05188742 -0.124451935 -0.05835514 -0.05400531 -0.13020447 -0.069265895 0.101909466 0.14391528 -0.063037395 -0.061281312 0.072632544 -0.039682608 -0.13322075 0.072671704 0.031898346 0.07017875 -0.04091852 0.029565414 -0.13264759 -0.09622931 -0.044940062 -0.09199522 0.14058878 -0.055886965 -0.14827347 0.12364618 -0.05482558 -0.14151326 -0.10046022 0.06363042 0.030574376 0.12027803 0.13400604 0.06355478 0.035946447 -0.09091613 -0.096859105 0.105518684 -0.08929528 -0.06763784 0.11522455 -0.07036832 -0.13726301 -0.04846467 -0.0582652 0.13718225 0.10184836 -0.10458322 -0.08071675 -0.09968521 0.03848431 0.04900923 0.06995612
b78 -0.004814659 0.28156692 -0.31752437 0.06229376 -0.34363735 0.0007545935 0.014424728 0.25870186 -0.1545662 0.2873494 0.18519808 -0.11793969 -0.14973499 0.13322094 -0.006089637 -0.28516164 -0.124382384 0.18066365 0.16918913 0.0016811247 -0.13143726 0.028119814 0.10093023 -0.15908694 0.08840848 -0.22250311 0.0037261425 -0.10410855 -0.13589445 -0.09171392 -0.07484755 0.22123882 -0.09374043 0.16483209 0.03596226 -0.22760585 0.26078436 0.031932868 -0.28468695 -0.17174914 0.15506755 -0.24842367 0.14038578 0.1851334 0.07752712 -0.23517603 -0.13049847 -0.1989577 0.06625109 -0.2064398 -0.083558485 0.20450006 -0.014128545 -0.22420755 0.1407298 0.23049872 0.21755937 0.064354435 -0.17506388 -0.20952302 -0.18288833 -0.07354595 0.043315023 0.2390442
b79 -0.43541732 0.47466668 0.08871363 -0.18664522 -0.30801815 -0.25940716 -0.34591556 0.37421456 -0.39688328 -0.07819467 -0.097271994 0.08648506 0.17060225 -0.38031456 0.14989237 -0.16342653 0.24547933 -0.020963851 -0.018443149 -0.32580587 0.09685943 0.53557354 -0.37367937 0.014597323 -0.19010815 0.5036283 -0.13659334 -0.38768303 -0.23433669 -0.33725014 0.13729155 -0.48593983 -0.12802587 0.034411177 -0.38271943 -0.2644683 0.44663554 -0.14903066 -0.32638693 0.08290146 0.2136368 -0.26654938 0.12227769 -0.21231538 0.25493637 0.2530477 0.044497296 0.0002859921 0.1604908 -0.23372443 -0.03872287 -0.20028856 0.098993585 -0.09596977 -0.44264105 -0.04582659 -0.1236718 0.24069463 0.019284716 -0.34662154 0.070673265 -0.17206343 0.07119583 0.4175543
b80 0.08209688 0.12785716 -0.15552725 0.15332328 -0.17937867 0.091337815 -0.08290751 0.15564625 -0.05637673 0.18167436 0.13338275 -0.10809352 -0.09109355 -0.08382695 -0.044044316 -0.03488841 -0.16094978 0.09377805 0.17028889 -0.07102783 -0.092795104 0.00507943 0.05753033 -0.102748215 0.11463629 -0.009183284 0.1497097 -0.09366423 0.005893845 -0.11123416 -0.0691359 0.079729296 -0.08330569 0.15514113 0.021059988 -0.112412 0.18092722 -0.036621034 -0.12532762 -0.120161965 0.13611601 0.06169125 0.07550504 0.15383656 0.08624375 -0.13408758 -0.15956429 -0.06582346 0.11978521 -0.09478713 -0.13587745 0.17168508 -0.09467089 -0.06354003 -0.0023133908 0.023964865 0.12798893 0.11119741 -0.10767046 -0.032353632 -0.13594922 0.10477244 -0.02222827 0.083159976
b81 0.06303221 0.16803733 -0.16927771 0.071501166 -0.168263 0.04964096 0.0040631406 0.13459201 -0.10344505 0.17640702 0.09348438 -0.039485667 -0.15176623 0.039831568 0.0057692965 -0.12685923 -0.08893089 0.15887018 0.15674445 -0.116548516 -0.09238413 0.013997506 0.044930406 -0.15396225 0.065695696 -0.07141851 0.08689522 0.0119261285 -0.06857228 -0.1491814 -0.07946634 0.05304658 -0.13005374 0.19021797 0.056632962 -0.1500704 0.17881544 0.036315516 -0.16599903 -0.18232377 0.12515223 -0.07260347 0.14453165 0.11117673 0.046200387 -0.1057855 -0.10747233 -0.124872886 0.1271563 -0.13936615 -0.110304505 0.14396508 0.009974089 -0.17383276 0.008907524 0.08387476 0.14449127 0.10104221 -0.14241707 -0.10216633 -0.12369796 0.02561097 -0.040564027 0.14581335
b82 0.065284394 0.34192327 -0.1645935 -0.004837688 -0.21795493 0.006660425 0.03550014 0.0708841 -0.29217252 0.22300343 0.06483649 -0.06739463 -0.20104882 0.17061871 0.034985404 -0.25081256 -0.02722305 0.19354786 0.1649779 -0.05703244 -0.0048542535 0.1613034 0.034730274 -0.14783908 0.039347187 -0.10333417 0.1267444 -0.10931807 -0.096136786 -0.11213764 -0.07656608 0.12804247 -0.08927325 0.21142812 -0.10566729 -0.23653279 0.31347686 -0.003669326 -0.35934058 -0.14125426 0.08582397 -0.12844509 0.16394043 0.085492335 0.043484468 -0.2192264 -0.17014356 -0.17258474 0.18640961 -0.1784129 -0.041087348 0.15380247 -0.01109218 -0.15428376 0.033853717 0.08105982 0.15868036 0.17426653 -0.13038447 -0.20415778 -0.1450082 -0.087302744 0.04065232 0.12695383
b83 -0.17848164 -0.16358416 -0.003708205 0.19832093 0.07647689 0.2899251 -0.15205708 -0.1237855 0.0074840263 -0.027882598 -0.013528267 -0.2524595 -0.0061722435 -0.34914923 -0.21025905 0.10421811 -0.0880247 0.08791991 0.106377445 -0.13602635 -0.12615326 -0.13753776 -0.25260642 -0.056574315 -0.0041624103 0.44436562 0.21733162 -0.033698417 0.16298687 0.066734254 -0.12985088 -0.3652824 -0.14770038 -0.036740903 0.101108395 0.0011357843 -0.15490234 -0.07218885 0.030839965 -0.0069410275 0.12757881 0.3679248 -0.084122814 0.21086772 0.16978164 0.20425338 0.050582197 0.06622848 0.19472994 0.019861048 -0.23981851 0.016650068 -0.09483868 0.03316414 -0.12379232 -0.15237132 -0.0047120075 0.22403558 -0.048310474 0.23147078 -0.21041304 -0.059295766 0.15089183 -0.16641054
b84 0.16081443 0.16453472 -0.2513775 0.08300977 -0.21537694 0.091549486 -0.029914781 0.15561049 -0.120601535 0.3513608 0.089805864 -0.08849337 -0.23453517 0.12456583 -0.1084033 -0.045426756 -0.1390393 0.20485997 0.29355714 -0.08779262 -0.19646443 -0.116233066 0.18754528 -0.15410882 0.11590876 -0.24334155 0.1482116 -0.042842887 -0.19275665 -0.037705276 -0.19613984 0.26568833 -0.11705628 0.24851483 0.0376091 -0.17489596 0.25146443 0.055424053 -0.27658468 -0.17163408 0.084078856 -0.20328756 0.12877798 0.1852142 -0.010201655 -0.41696653 -0.15405904 -0.1299806 0.18633674 -0.112682596 -0.12450554 0.25854906 0.034023758 -0.17463627 0.071274154 0.25307372 0.20959035 0.10711523 -0.13368481 -0.075376175 -0.2253857 0.059621852 -0.049578622 0.17533351
b85 0.083360195 0.17650315 -0.18785457 0.031629167 -0.15077387 0.15253234 0.08477267 -0.04361694 -0.1460294 0.17351888 0.17093946 -0.08487673 0.046899248 -0.100369275 0.080175355 -0.12986594 -0.11876146 0.085803546 0.16566388 -0.13798632 -0.12053158 0.22061542 -0.122111134 -0.16979125 0.022127315 0.15322682 0.07736115 -0.10973088 0.18203071 0.13387786 -0.1415717 0.105845176 -0.13991295 0.17074467 0.11094501 -0.14856663 0.0829729 0.032019265 -0.14022112 -0.14261612 0.08116334 -0.07307787 0.12147848 0.0657863 0.093536526 0.21519989 0.07072422 -0.0889898 0.011970418 0.06436741 -0.12119158 -0.044464692 -0.115868546 0.06333639 -0.13789323 0.028842535 0.08548763 0.09748031 -0.09763798 -0.119966656 -0.056986697 -0.082473256 0.19368234 0.19222149
b86 -0.11010657 -0.07828336 -0.03363208 0.11888092 0.039307714 0.17841685 -0.15009613 -0.06260985 -0.0004079993 0.032900196 -0.07261339 -0.20699847 -0.09794309 -0.31298918 -0.19772317 0.051411036 -0.11606179 0.016749874 0.06176384 -0.17146814 -0.0017988373 -0.058282692 -0.26887488 -0.08215846 0.0227651 0.382605 0.13029552 -0.17016114 0.14481016 -0.010230637 -0.15483922 -0.27131534 -0.0402734 0.013041786 -0.020595312 -0.032467198 -0.043217834 -0.05533092 0.031173166 -0.025842544 0.003618539 0.33066687 0.06086967 0.12541972 0.17265834 0.17365092 -0.105342515 0.032829635 0.18197903 -0.031528763 -0.12624744 -0.030721387 -0.16526209 -0.046096925 -0.12107838 -0.22552449 0.05636567 0.13753513 -0.051023044 0.013661927 -0.16347086 0.08385919 0.0533718 0.018691577
b87 -0.065144055 -0.124584585 -0.10373764 0.16878743 0.046284582 0.13474086 -0.09393037 0.009012293 -0.031369917 0.03429595 0.032359578 -0.14881968 -0.10562644 -0.16955437 -0.14614129 -0.10045738 -0.075938046 0.11376327 0.08201551 -0.1640023 -0.02007086 -0.0355425 -0.11662081 -0.1257965 0.11299177 0.24015611 0.14949775 -0.013253259 0.17402513 0.007286499 -0.10308201 -0.24601398 -0.072616234 0.04643732 -0.12199688 -0.022790652 -0.102552526 -0.17187683 -0.010673298 -0.053740162 0.029685605 0.28135613 0.110195175 0.18018137 0.14043613 0.2769051 -0.044460077 -0.078410625 0.13546467 -0.0322691 -0.11630889 0.09478387 -0.09750817 -0.06797347 -0.0387806 -0.15429643 0.06446618 0.12576 -0.09193891 -0.071656 -0.12268095 0.0021053718 0.07379622 0.008963653
b88 -0.06203612 -0.25805035 0.106822945 0.21202584 0.1909538 0.17410253 -0.18574023 -0.1540414 0.06180291 0.00023114483 -0.03363977 -0.20793574 -0.06697164 -0.415268 -0.2320655 0.05795082 -0.11804731 0.07002968 0.033706106 -0.043046344 -0.035822086 -0.0031477106 -0.33931103 -0.031637527 0.047690794 0.4243941 0.17876145 0.016238673 0.2516657 -0.042588852 -0.09405824 -0.46104035 -0.064258136 -0.08319194 0.04997404 0.076973364 -0.19416323 -0.1443737 0.09438983 0.039492257 0.047763888 0.53025615 0.03150032 0.09506707 0.12603866 0.33350843 0.06034426 -0.033726458 0.1271681 0.09834982 -0.24962373 -0.06881882 -0.2146466 -0.052694667 -0.24858864 -0.28254634 0.048887003 0.1618043 -0.017655076 0.10463007 -0.121701725 0.033821337 0.07037843 -0.17491055
b89 -0.08603203 -0.14763838 0.021883635 0.09395986 0.051628023 0.26063082 -0.20067143 -0.1786026 0.001393067 0.07408445 0.05589204 -0.18127921 0.01606859 -0.37891302 -0.16366488 -0.015622759 -0.09092933 0.07672849 0.06531042 -0.09921468 -0.105313964 -0.21740289 -0.22430085 -0.12665747 0.08794912 0.42882982 0.2902228 -0.0192181 0.08098272 -0.15507038 -0.13379231 -0.37052116 -0.0724747 0.09653846 0.048018675 0.027368445 -0.14996731 -0.110361464 -0.019812347 -0.059490632 0.14842708 0.38726673 0.027891487 0.21231028 0.15285219 0.22084908 0.037866462 -0.03385289 0.07142859 -0.039800555 -0.23145026 -0.008495008 -0.12165583 -0.051418297 -0.050558962 -0.3370015 0.113255784 0.12090308 -0.10728559 0.04676218 -0.18919364 -0.17667185 0.10679878 -0.20840691
b90 0.26607236 0.20207971 -0.3042755 -0.008580958 -0.31824666 -0.012227527 0.031078862 0.22484955 -0.15312932 0.33947036 0.17766665 -0.11932584 -0.31593677 0.23527691 0.050698664 -0.17494294 -0.14319229 0.1237646 0.2640506 -0.18502074 -0.07965664 -0.069950595 0.18628977 -0.120360725 0.21572003 -0.3567531 0.16733693 -0.042453825 -0.21033765 -0.17699155 -0.17482123 0.3214745 -0.10031897 0.22941938 0.028671578 -0.27171546 0.28395817 0.040365316 -0.35599706 -0.23364483 0.07681272 -0.23430705 0.26331922 0.2007451 0.058689445 -0.41375193 -0.07578145 -0.14863276 0.19817065 -0.15346605 -0.037835065 0.173454 -0.009918463 -0.20301491 0.09231789 0.20221414 0.2026772 0.046871558 -0.18360224 -0.06613661 -0.17606872 -0.0089340145 -0.04827238 0.131678
b91 -0.108129874 -0.21808872 -0.0013640464 0.16252838 0.11870283 0.11350074 -0.1593252 -0.11713823 0.09482131 0.042152938 -0.021041123 -0.30429608 -0.11841441 -0.3328065 -0.19195461 0.027538955 -0.11357185 0.12134474 0.09497742 -0.07545339 -0.11161739 -0.038995054 -0.14742352 -0.19346662 0.084860705 0.3141914 0.15471183 -0.00498269 0.09215344 -0.058941636 -0.18294905 -0.25998425 -0.040524285 -0.030302867 -0.011270251 -0.037792813 -0.15353896 -0.06855198 -0.10371834 -0.014094853 0.13050722 0.3194539 -0.059523225 0.1890591 0.14221616 0.19251394 -0.065001406 -0.046318866 0.22338057 -0.07194416 -0.15066078 0.008262236 -0.14505967 -0.07022154 -0.20156136 -0.18987365 0.07041364 0.09013928 -0.09266452 0.13236958 -0.19407634 0.019137908 0.072060145 -0.115113616
b92 -0.1720261 -0.33593723 0.0761879 0.18578899 0.10918145 0.17888145 -0.10901002 -0.09488813 -0.0046786056 -0.0438174 0.03855757 -0.25199774 -0.15466404 -0.42223397 -0.13113362 0.004849151 -0.048713405 0.027861495 0.10303763 -0.107307345 -0.18171287 -0.15336768 -0.185656 -0.04381736 0.11770586 0.37096366 0.23912065 0.07510352 0.15704875 0.10177337 -0.1405491 -0.32549426 -0.115929835 0.0014651964 -0.011844364 -0.02465567 -0.25964913 -0.075881094 0.015394129 -0.095006585 0.1356352 0.4539253 -0.08194327 0.09826667 0.101212114 0.32779312 -0.044375688 -0.015830576 0.049979612 -0.058778282 -0.1169486 0.023913322 -0.09635021 -0.076084614 -0.051297598 -0.3834159 0.080729105 0.08413991 -0.07860885 -0.14409775 -0.1525272 0.19457051 0.088754155 -0.014697395
b93 -0.16969076 -0.054100573 -0.038773675 0.18586604 0.1653751 0.1866527 -0.12821081 -0.01870575 -0.011405197 -0.0007397161 0.04910705 -0.16259721 -0.0822089 -0.21815532 -0.15917233 -0.13661163 -0.05847241 0.14681995 0.0059210365 -0.13214162 -0.07478192 -0.04128564 -0.20738226 -0.08818107 0.00028319444 0.28849483 0.15367699 -0.05134542 0.16097322 0.14384647 -0.0931729 -0.31948856 -0.06741699 -0.059855625 -0.21685708 -0.020514911 -0.11929189 -0.27725157 0.074793786 -0.022239298 0.08046215 0.28424695 0.007340583 0.13018534 0.14124054 0.35527435 0.041147437 -0.14590068 0.0729181 0.0035912017 -0.11116566 0.083786145 -0.083566844 -0.043538168 -0.008434128 -0.22949006 -0.007218549 0.088123985 -0.09985622 -0.057046793 -0.12321376 0.13351068 0.08326087 -0.053181328
b94 0.14010152 0.254407 -0.23344928 -0.0028277086 -0.27882397 0.023171183 0.00911649 0.24613005 -0.08615468 0.3519474 0.07824095 -0.12319277 -0.28447455 0.19221339 0.12755099 -0.119929574 -0.07088012 0.22998932 0.35212496 -0.06904984 -0.09528922 -0.068263665 0.19922096 -0.17502595 0.11799644 -0.25147763 0.046471857 -0.027784284 -0.16152199 -0.27227455 -0.19711398 0.22139612 -0.14305933 0.21666956 0.19344757 -0.18996215 0.2951525 0.08337828 -0.41510865 -0.3277757 0.032456562 -0.20872442 0.17753723 0.1918257 0.057380494 -0.29508707 -0.10030695 -0.23065087 0.22108497 -0.059526853 -0.07230954 0.19909884 -0.0008267981 -0.24114218 -0.015433901 0.22548552 0.30629268 0.0994527 -0.14912283 -0.09726395 -0.18703297 -0.027838243 -0.039186116 0.096687704
b95 0.14250699 0.16594529 -0.19880782 0.015983222 -0.1706372 0.041573014 -0.035984438 0.15361701 -0.06453628 0.18580326 0.09593776 -0.085214555 -0.19805434 0.16605276 0.01763143 -0.22349386 -0.032293506 0.16494 0.3039349 -0.11614284 -0.08175156 -0.18690829 0.14476065 -0.15010007 0.15448575 -0.13651657 0.12250612 0.024995089 -0.11115206 -0.21345375 -0.07486278 0.1741006 -0.1509121 0.20134561 -0.010238042 -0.1639213 0.201361 -0.012471822 -0.29446262 -0.14369223 0.13364717 -0.1444845 0.08147184 0.16188155 0.008198046 -0.24291475 -0.18365695 -0.06385134 0.16538656 -0.03672368 -0.08542849 0.16043878 -0.029956989 -0.15894015 -0.006148843 0.11587614 0.16404496 0.13526767 -0.117001496 0.022456143 -0.28277716 -0.042452008 -0.023975998 0.09154576
b96 -0.19470301 -0.14187732 0.08601913 0.20815909 0.03500689 0.22900485 -0.23040555 -0.14088048 0.054681517 -0.0064684674 0.05304664 -0.18300077 -0.11651057 -0.33388117 -0.2105562 0.13014539 -0.055484753 0.036981586 -0.078514785 -0.011145045 -0.0668008 -0.11468632 -0.26871285 -0.04612198 0.090195194 0.31957114 0.23318937 -0.13354416 0.19557072 0.04481571 -0.12073783 -0.33120567 -0.20339592 -0.009831741 0.036455218 -0.0046758167 -0.17673357 -0.056952816 0.057468224 0.09380306 0.08275083 0.33149153 -0.13825914 0.17438099 0.16167666 0.17315485 0.13111983 0.046090588 0.19893049 0.03937566 -0.20428579 0.02520241 -0.12741546 0.026319306 -0.2786728 -0.2864645 0.027783426 0.17022192 -0.02387864 0.07131621 -0.09160719 0.0490146 0.018772189 -0.17022215
b97 -0.19064282 -0.08799487 -0.047940295 0.10660877 0.03083964 0.11437351 -0.16568406 -0.048395067 0.022712592 -0.01435497 0.06007232 -0.20230442 -0.104630895 -0.25760674 -0.15762597 0.015073618 -0.11166335 0.07654518 0.086304866 -0.07923982 -0.0677561 0.028659012 -0.1774688 -0.10970186 0.08890629 0.22680399 0.15644136 -0.035611045 0.17285053 -0.02320457 -0.10689636 -0.20684804 -0.10374822 0.025998877 -0.08848882 -0.032569762 -0.032760218 -0.1597938 0.019251276 -0.025564518 0.19322678 0.2902657 0.014755577 0.15499108 0.08753979 0.24089277 -0.0582195 -0.096792065 0.13547266 0.016539568 -0.10662552 0.08699854 -0.19106568 -0.0055563212 -0.05351392 -0.20716624 0.073540986 0.088756114 -0.07467293 0.08201542 -0.121406056 0.056201722 0.064986765 0.0040485663
b98 -0.46981943 0.53784305 -0.2523208 -0.11936086 -0.29829594 0.10762749 0.055060495 0.3073931 0.012318925 0.02681928 0.29437554 0.18467298 0.063098036 0.047618065 0.049574587 -0.25695944 -0.09066909 -0.015280615 -0.14409542 0.085701175 -0.077578254 0.7299555 -0.3752854 0.04769588 0.15656015 -0.3453656 -0.20114532 -0.062873006 0.42924747 0.031539023 -0.03989375 -0.09687442 0.0058010966 0.10127708 -0.50689936 -0.065675996 0.3906989 -0.34411433 0.011062203 -0.103757076 -0.19686651 -0.05082809 0.23449816 -0.1611038 -0.13486403 0.667574 -0.057565484 -0.06197631 -0.20590352 -0.33241412 0.15083909 0.015264749 -0.03625471 0.034245286 0.020456519 -0.22800225 -0.056053344 -0.1450994 0.043342743 -0.3711512 0.106695496 0.382734 0.37290102 0.42556256
b99 -0.10797719 -0.1613132 -0.045846142 0.14719628 0.029754711 0.14521004 -0.14603616 -0.10211076 0.027445942 0.047971226 0.042310297 -0.19359262 -0.09305575 -0.2978475 -0.18289691 -0.03166197 -0.064554274 0.096410155 0.11117382 -0.112790875 -0.0798876 -0.058542658 -0.22246589 -0.06163217 0.0111794695 0.31866026 0.15532286 -0.106630914 0.20640379 0.033921465 -0.12294612 -0.23114666 -0.024110947 -0.057287127 -0.019992767 -0.015705159 -0.12964185 -0.094436966 -0.041181657 0.052322414 0.14123987 0.32895043 -0.08151581 0.16379355 0.17324363 0.17269154 -0.01200129 -0.039171826 0.21708843 0.061075605 -0.2434968 0.06416424 -0.1527791 -0.028589826 -0.0648824 -0.3087091 0.11681103 0.12349071 -0.09712656 -0.024997076 -0.12370041 0.021472713 -0.033106584 -0.13969742
b100 -0.17773724 -0.19187313 0.020258142 0.17567584 0.09291968 0.04446559 -0.2265652 -0.111325905 0.027821118 0.040625725 0.0023111263 -0.2489251 -0.00094436225 -0.35451686 -0.22838584 0.02191629 0.058398142 0.124142356 -0.06840852 -0.21359426 -0.025791254 -0.1628845 -0.25510842 -0.19208306 0.16872528 0.48297215 0.29736844 -0.24149257 0.10099025 0.08521782 -0.08607854 -0.27708173 -0.0873596 -0.09268317 0.03579228 0.061943665 -0.09491152 -0.23917525 0.05278556 0.08434936 0.111624435 0.3811486 -0.047929637 0.14476533 0.22123577 0.09142634 0.09253746 -0.15226987 -0.026596252 0.13134593 -0.20292078 0.004259169 -0.16976856 -0.10496311 -0.23859818 -0.2580652 0.043248374 0.14700527 -0.033973224 -0.11370234 -0.15032032 0.050633073 0.15744561 -0.06628757
b101 -0.06337195 -0.12298639 -0.05381646 0.16647807 0.037174728 0.15953031 -0.12532298 -0.05751553 -0.05693287 -0.018485678 -0.032893177 -0.1787502 -0.14964597 -0.25836915 -0.18358344 -0.17209174 -0.08381098 0.07341061 0.14391692 -0.098192416 -0.0026541362 0.06915338 -0.19516003 -0.16084538 0.08946335 0.30239627 0.07234735 -0.10833316 0.16861197 -0.072126664 -0.1948608 -0.30669272 -0.09933553 0.01636292 -0.14839555 0.019985253 -0.10982188 -0.15111889 -0.04399145 -0.05355236 0.12213976 0.34023288 0.0974072 0.1865502 0.13972853 0.31820565 -0.08581834 0.012292666 0.088386565 -0.045405786 -0.14475027 0.014834703 -0.11989204 -0.1478779 -0.055172086 -0.20928837 0.008192501 0.10688856 -0.083192356 -0.024834337 -0.15379661 0.12093028 -0.035607323 -0.02302214
b102 -0.138517 0.037482776 -0.049190324 0.13208495 -0.046307173 0.14709808 -0.112119734 0.056630943 -0.054842867 0.07220219 0.04492431 -0.14113009 -0.10067594 -0.17487001 -0.13400593 -0.061491545 -0.10305006 0.08656859 0.10405005 -0.12270455 -0.055730913 0.023821913 -0.12104136 -0.09883531 0.08229355 0.19160584 0.12611258 -0.07407257 0.12645999 -0.08803528 -0.09264998 -0.15156806 -0.083141066 0.07256022 -0.10760915 -0.06985427 0.004480662 -0.14771082 -0.063779525 -0.040632337 0.11834227 0.18717574 0.07242554 0.14706662 0.14172451 0.139263 -0.101609044 -0.072622694 0.11376801 -0.043151602 -0.17204364 0.07483735 -0.12563609 -0.079331934 -0.12980624 -0.17870086 0.0916017 0.095497996 -0.076827876 -0.048932094 -0.11194965 0.13057537 0.014575577 0.028577155
b103 0.18327591 0.20923759 -0.23976682 0.07975206 -0.30375525 0.027719725 0.018880446 0.2787501 -0.12307217 0.21917935 0.13936557 -0.05952507 -0.22112298 0.11884851 0.016227983 -0.06882926 -0.05474869 0.20268582 0.30780762 -0.04462822 -0.08854744 -0.04158466 0.19388567 -0.107698284 0.14432047 -0.16277748 0.045918193 -0.06487579 -0.15885027 -0.15144064 -0.03231183 0.22840449 -0.10142497 0.2681058 -0.006485629 -0.2100278 0.25696233 0.08184183 -0.31396264 -0.23100351 0.0897101 -0.28746772 0.07184888 0.20343077 0.044621162 -0.30770186 -0.21111394 -0.17595746 0.06611792 -0.1348428 -0.06909553 0.19170356 -0.045352783 -0.20079772 0.034983493 0.26525253 0.14336447 0.11663003 -0.15208703 -0.027904762 -0.21915108 -0.024430525 -0.07808264 0.093909994
b104 -0.04874335 -0.11177423 -0.20747839 0.12821765 0.00391132 0.1220737 -0.14869113 -0.019496871 -0.20206107 0.16830942 0.047557984 -0.26359862 -0.2928525 -0.023893412 -0.16736785 -0.035062682 -0.19485193 0.19786692 0.24982475 -0.17830426 -0.08722334 -0.08249196 -0.055957068 -0.104262225 0.13198334 0.074301444 0.22128154 -0.062057696 0.07986331 0.049392384 -0.18887843 -0.030308353 -0.12278483 0.14813788 0.14293897 -0.080995426 -0.028673226 -0.097810395 -0.18196064 -0.1529409 0.1242414 -0.0006008578 0.057703882 0.27001828 0.045760654 -0.16112468 -0.11085026 -0.054478224 0.29751492 -0.0969464 -0.17898482 0.17437018 -0.1547484 -0.1164087 -0.022250066 0.039431248 0.10482624 0.21123846 -0.2451444 -0.0032263803 -0.2969629 -0.085004404 -0.021654174 -0.022905152
b105 -0.2768064 -0.10701315 0.06133161 0.09223962 0.088031396 0.2111568 -0.24417654 -0.16720726 -0.03412811 -0.041118976 0.010220344 -0.2651026 -0.02415166 -0.38348603 -0.17459707 0.009652878 -0.15634684 0.012989857 0.044523586 -0.036571603 -0.015933966 -0.035209574 -0.35405517 -0.10793914 0.042445283 0.42580435 0.27557468 -0.023756254 0.1637003 0.03740491 -0.17802943 -0.38893712 -0.039860457 -0.07388359 -0.06300237 0.1089203 -0.18122257 -0.13494359 0.062234204 0.060309958 0.12689665 0.45325407 -0.07929227 0.22778042 0.16320704 0.22856094 0.081182905 0.03902482 0.13471012 0.087638676 -0.19025075 0.056708403 -0.16160367 0.0063134916 -0.19266237 -0.40934417 -0.040446527 0.16826338 -0.09905157 0.09177181 -0.16052115 -0.02610695 0.22003984 -0.11766114
b106 -0.4438274 0.43759888 -0.2106519 -0.056031626 -0.18409853 0.12459981 0.08292234 0.32801664 -0.06698381 -0.0045832656 0.23545651 0.17296463 0.024825392 0.07137919 0.031831544 -0.16157867 -0.12816481 0.024307502 -0.17744891 0.04958502 -0.07141559 0.6160916 -0.30996537 0.02811729 0.14260957 -0.40008938 -0.16382012 -0.05223585 0.52078044 -0.053245522 -0.018467402 -0.061333697 0.02586663 0.14237416 -0.38749892 -0.06209996 0.28036246 -0.28189868 -0.031335384 -0.11054291 -0.21022367 0.062890545 0.13877057 -0.16908568 -0.11303382 0.69354576 -0.08278346 -0.085766196 -0.2670166 -0.2906861 0.15331629 0.025031047 -0.01385582 0.012989642 -0.0048037255 -0.15819797 -0.019708209 -0.13299711 -0.008902614 -0.27891335 0.14850317 0.4260588 0.2889934 0.35046536
b107 -0.044736754 -0.18059312 0.084011085 0.22263762 0.12624098 0.1879487 -0.20599324 -0.26979506 0.14620681 0.001515314 0.12659854 -0.24787155 -0.13906622 -0.3248443 -0.29277313 0.1517435 -0.056299016 0.06808532 0.009729035 -0.103676334 -0.137228 -0.16585228 -0.33856723 -0.18382424 0.11831782 0.42783678 0.32093748 -0.15092665 0.12099986 0.08434053 -0.16064812 -0.36394653 -0.20591673 0.013477598 -0.095396526 0.037400935 -0.17065 -0.18503994 0.049464036 0.056233443 0.205766 0.39310628 -0.09297785 0.17184854 0.1115879 0.20303035 0.027545365 0.020745547 0.11970364 -0.019687895 -0.23562878 0.042136624 -0.21447921 0.0072790557 -0.19784944 -0.35840115 0.067761034 0.16438735 -0.07200674 0.06808741 -0.1999097 0.14082514 0.100866504 -0.24560615
b108 -0.23845156 0.27632797 -0.17568292 -0.0025097125 -0.16063525 0.11998781 0.0015392948 0.18029456 -0.098755114 0.08885431 0.21428938 0.014389573 0.0143143125 -0.0019980979 -0.024119498 -0.18938014 -0.11809613 0.014014485 -0.004183391 0.024313422 -0.12911984 0.27287778 -0.20753457 -0.0030912815 0.16212246 -0.06905013 -0.022274785 -0.07958215 0.25689813 -0.09655116 -0.0014060157 -0.08393255 0.0040377527 0.13195914 -0.2389986 -0.10655177 0.20557228 -0.21043396 -0.025372809 -0.15463364 -0.020237722 0.022339448 0.17810042 -0.03096409 -0.03700356 0.23654039 -0.13490927 -0.10076443 -0.019979294 -0.19478926 0.026559874 0.078849144 -0.060775474 -0.0036226956 -0.11476495 -0.16978467 0.041139252 -0.0028905475 0.014695861 -0.18368325 0.018727 0.2505521 0.21260439 0.26874915
b109 -0.10566498 0.04483699 -0.072311945 0.10760181 -0.043879185 0.11499307 -0.13622037 0.047610838 -0.07186952 0.0680411 0.05175693 -0.11577296 -0.085441925 -0.13460776 -0.15267679 -0.05885157 -0.05579359 0.07765763 0.05798031 -0.07054512 -0.06829424 0.059509188 -0.11578046 -0.09389587 0.06143455 0.13250375 0.1520585 -0.08760202 0.110045135 -0.05299501 -0.11518523 -0.11821419 -0.08308101 0.062453374 -0.08149952 -0.0620111 0.07188473 -0.11570057 -0.07225205 -0.06347522 0.08399801 0.14645779 0.058119692 0.115469046 0.11932227 0.123656005 -0.057622816 -0.065452054 0.108798146 -0.0683248 -0.12930663 0.068619855 -0.12393353 -0.07204527 -0.10490975 -0.12606226 0.079883695 0.10503629 -0.062210463 -0.046617977 -0.100501776 0.08998135 0.10755641 0.049537506
b110 0.09518373 0.08527213 -0.16123441 0.13581084 -0.18877585 0.05546141 -0.046835177 0.15462326 -0.09676343 0.21395378 0.08028658 -0.050759293 -0.12857877 0.0135399485 -0.032892898 -0.14093015 -0.09859445 0.13642281 0.20968942 -0.0570627 -0.14621687 -0.0688536 0.15565962 -0.09272104 0.025476675 -0.17943484 0.1543126 -0.0044699 -0.13073848 -0.110715814 -0.1251701 0.094712526 -0.13962337 0.10748333 0.057538193 -0.1561621 0.07811458 -0.051963963 -0.18482287 -0.19556405 0.13052732 -0.100712344 0.0985803 0.18251623 0.11642889 -0.241708 -0.14152156 -0.15157856 0.17432635 -0.07291967 -0.078130774 0.12846957 -0.043287344 -0.15663229 -0.08888877 0.11455919 0.15396258 0.13975494 -0.16903709 -0.05322863 -0.16032247 -0.07908003 0.0038908673 0.08837424
b111 -0.118736275 -0.021209445 -0.045723435 0.1592936 -0.0011406691 0.14196378 -0.17630364 -0.017309649 -0.08552369 0.040658522 0.03671509 -0.13717464 -0.114902474 -0.20216726 -0.13876121 -0.008153682 -0.13764368 0.09032765 0.09591974 -0.07538398 -0.084976874 -0.002038549 -0.16784976 -0.11517167 0.07784838 0.22293763 0.15485808 -0.118425 0.14179388 -0.028808055 -0.1349995 -0.17608665 -0.10541708 0.079484954 -0.07565016 -0.0493346 0.0076029194 -0.083677135 -0.013210817 -0.055637795 0.13401 0.1859244 0.02928492 0.13153854 0.13354117 0.194627 -0.08507352 -0.06694077 0.13715829 -0.024365555 -0.16165335 0.059761945 -0.13602686 -0.03467604 -0.12742373 -0.1634175 0.06118019 0.1561801 -0.076665096 -0.016988056 -0.13320218 0.040915333 0.06670864 -0.029571876
b112 -0.09083477 -0.16274257 0.031005617 0.19775067 0.04424898 0.14360988 -0.27515006 -0.12886737 0.039135706 0.07174976 0.060089394 -0.28868368 -0.16786107 -0.43092683 -0.24533667 0.004019034 -0.06331984 0.063987456 0.026549079 -0.075600296 -0.11541488 -0.18935825 -0.30073225 -0.1817908 0.08886754 0.38441432 0.22913297 -0.12470153 0.2438169 0.02554666 -0.101855695 -0.3907756 -0.059681077 0.04462008 0.020560402 0.008781386 -0.071119435 -0.12640853 0.014536196 0.042368416 0.067832164 0.41315085 0.008316376 0.20691584 0.18125118 0.097171225 -0.008497416 -0.06397655 0.020760138 0.07958172 -0.15916307 0.088217854 -0.05525904 -0.060472645 -0.17438677 -0.33160377 0.071685016 0.033291165 -0.118957385 -0.043117277 -0.17206758 -0.004009404 0.03937288 -0.16507375
b113 -0.09311753 0.019539539 -0.050086744 0.087105274 -0.04486245 0.10986519 -0.09231617 0.049273305 -0.040494107 0.025639724 0.064570844 -0.10418054 -0.060307752 -0.123843975 -0.114882916 -0.04040191 -0.07046875 0.06966654 0.04791796 -0.077471815 -0.07172404 0.06164111 -0.10299156 -0.09270456 0.08451811 0.1443148 0.10214554 -0.08573504 0.1282467 -0.039261192 -0.09720312 -0.121558696 -0.08823945 0.041315757 -0.06117321 -0.049045037 0.023596354 -0.10404731 -0.027271722 -0.04804646 0.07473692 0.14485013 0.04201141 0.06942168 0.081739835 0.13799311 -0.03140413 -0.06984975 0.096914314 -0.041903637 -0.08457121 0.07331149 -0.07912561 -0.06688187 -0.10160495 -0.10782802 0.054797824 0.07281307 -0.078064814 -0.022369167 -0.08152942 0.09408968 0.10132348 0.024776006
b114 0.08649907 0.17123514 -0.38188052 0.111002415 -0.34659675 0.052490983 0.083163135 0.24672523 -0.15782829 0.30229416 0.15351151 -0.083286785 -0.2453307 0.122179195 0.106426165 -0.17271504 -0.08775875 0.22807647 0.34374887 -0.052807692 -0.07507053 -0.020353308 0.20853008 -0.15278068 0.052755687 -0.2293625 0.04371845 0.042495124 -0.16257715 -0.15447435 -0.09188814 0.2605697 -0.10655092 0.22268592 -0.022391152 -0.26515698 0.2659663 0.049803194 -0.3463491 -0.24790359 0.062191922 -0.2772354 0.129937 0.28256914 0.008350298 -0.37829113 -0.18390764 -0.14856027 0.15445687 -0.10023342 -0.064909354 0.23982061 -0.073703215 -0.29423252 0.086262815 0.164522 0.18077469 0.13573015 -0.10932799 -0.0062509067 -0.26503268 -0.06217952 -0.055976715 0.070962325
b115 -0.15741889 -0.18838881 0.081022955 0.171359 0.050559886 0.27069047 -0.2516402 -0.06794078 -0.05793929 0.029984776 0.00454473 -0.24345604 -0.035609573 -0.3288572 -0.0789013 0.15243523 -0.14333019 0.051995866 0.04976074 -0.14552999 -0.09154287 -0.06880309 -0.23468415 -0.08462117 0.077084325 0.40009803 0.25725067 -0.1591291 0.07828591 -0.06555915 -0.14616552 -0.28179657 -0.14989899 -0.026164459 0.049816158 -0.051466584 -0.06196017 -0.042875767 0.12638687 0.025515327 0.112490214 0.3570883 -0.05019623 0.14159563 0.13866667 0.17867522 -0.047887027 0.084802195 0.22230622 0.04671094 -0.23626867 0.07034231 -0.15415215 -0.039298296 -0.15246034 -0.25671315 0.06124987 0.19057998 -0.07245747 0.10528607 -0.13702525 0.09135689 0.13499242 -0.19982925
b116 -0.04219824 0.022164972 -0.043822825 0.09858789 -0.049362797 0.033322953 -0.07034412 0.216798 -0.011821884 0.15011731 -0.01100812 -0.12276567 -0.13030344 -0.1496012 -0.1511479 -0.16075091 -0.14520645 0.14190474 0.18139414 -0.045777142 -0.034892976 0.11827314 -0.06602366 -0.15657637 0.04722782 0.006135894 0.025607955 -0.06228575 0.18464562 -0.03193892 -0.059708267 -0.21349631 -0.028878497 0.027162192 -0.025343776 -0.13610457 0.17356534 -0.13705708 -0.14505012 -0.14188577 0.050093744 0.171762 0.048035286 0.030224612 0.13910611 0.20186254 -0.111681424 -0.16696657 0.06284282 -0.0389504 -0.09617886 0.01861931 -0.14257559 -0.15898441 -0.20372309 -0.025939865 0.15566744 0.028730445 -0.14072372 -0.008024517 -0.1244773 0.01162583 0.005834711 0.13858134
b117 -0.38690782 0.41985455 0.12809911 -0.14867471 -0.26534748 -0.21172883 -0.27147406 0.3246448 -0.33795717 -0.03549882 -0.10472815 0.03742262 0.16009974 -0.38347045 0.16068374 -0.14469531 0.22586653 0.053570237 0.042584147 -0.34042016 0.020803787 0.44382963 -0.37427807 -0.028549023 -0.2011426 0.4144483 -0.098466 -0.33572012 -0.25849387 -0.3635824 0.0591548 -0.43210354 -0.11697042 0.058541823 -0.3298413 -0.2661873 0.3758058 -0.12489827 -0.28423965 0.06463253 0.21557242 -0.2638195 0.10269058 -0.15205938 0.20945095 0.20028283 0.047181457 -0.011629464 0.1710327 -0.19561857 -0.110323094 -0.16876328 0.05433038 -0.125472 -0.42445734 -0.054260075 -0.049227986 0.24776852 -0.058205813 -0.236062 0.025615994 -0.15731676 0.096341595 0.3672427
b118 -0.09522545 -0.19825631 0.031074507 0.13994265 0.03539107 0.20978558 -0.22960977 -0.2084115 0.03189898 -0.01344973 0.089023404 -0.19271597 -0.063649386 -0.34849805 -0.22508037 0.17888962 -0.09387176 0.0077814604 0.021790177 -0.109988436 -0.083481446 -0.009737108 -0.32631886 -0.08571795 0.05244678 0.53193164 0.22700602 -0.08224211 0.16269936 -0.039175145 -0.14564613 -0.32291138 -0.16839236 0.047740918 0.002809903 -0.017252466 -0.26021913 -0.13725641 0.08137036 0.082221076 0.0861075 0.4225987 -0.040022463 0.11165013 0.12904248 0.25246352 -0.06048359 0.0757666 0.18360431 0.12605233 -0.24463546 -0.0016968951 -0.093463704 -0.10025649 -0.16313225 -0.24785498 0.05635524 0.19378412 -0.10656634 0.12690392 -0.14379212 -0.0493446 0.050734185 -0.10837503
b119 -0.08859973 -0.017545922 -0.08433044 0.12765929 -0.055137347 0.12775178 -0.11097995 0.012312942 -0.00935296 0.0704231 0.023884017 -0.09800358 -0.033304792 -0.17159982 -0.15269247 -0.07754811 -0.056732424 0.0867609 0.039674345 -0.07035168 -0.09332121 0.022756975 -0.14662607 -0.1382405 0.07137238 0.15593216 0.18080352 -0.09779403 0.066492155 -0.069457754 -0.1588717 -0.12469162 -0.06334886 0.053324517 -0.049620163 -0.02582081 0.011906191 -0.114786565 -0.024208453 -0.044355165 0.13124579 0.16457815 0.012670267 0.09567049 0.10086419 0.18348311 -0.016946584 -0.034562342 0.10041546 -0.06993755 -0.13750485 0.08271708 -0.07293298 -0.076635435 -0.11581741 -0.1707737 0.06621227 0.11920207 -0.07054466 -0.012157874 -0.054844398 0.059057467 0.085861295 -0.0077393106
b120 0.11830848 0.23751244 -0.16818637 0.102965996 -0.25756454 0.035599433 0.07239719 0.23698297 -0.1478269 0.27897438 0.1047453 -0.09510282 -0.22701846 0.15386115 0.046393625 -0.20638268 -0.13343923 0.17858446 0.26796255 -0.059372235 -0.12674655 -0.060260307 0.126451 -0.13637334 0.0721068 -0.14867188 0.051667873 0.01326698 -0.12180534 -0.1871215 -0.1287159 0.19841962 -0.062452506 0.23105857 0.09595572 -0.20016013 0.24173939 0.09983219 -0.2790842 -0.21255071 0.06719932 -0.1695577 0.15824662 0.18843187 0.027659621 -0.191838 -0.15571919 -0.11055578 0.14711486 -0.120994925 -0.10664346 0.1820343 -0.059786223 -0.2099949 0.054295413 0.17965177 0.23368306 0.061903253 -0.16982318 -0.058191832 -0.19380549 -0.08331036 -0.10098773 0.15130767
b121 -0.409633 0.41078 -0.22393626 -0.08982489 -0.2738428 0.1300054 0.07107388 0.3308016 0.06202897 0.06860763 0.30556947 0.14828317 0.0482658 0.06331821 -0.04097398 -0.2054306 -0.10918827 -0.040637802 -0.123158604 0.10907473 -0.0647548 0.54270494 -0.38062674 0.07359865 0.16654332 -0.27489954 -0.13969848 0.029447768 0.45388606 0.015264022 0.04539003 -0.040329926 0.024540279 0.1414979 -0.4065861 -0.031988185 0.30028084 -0.32854518 0.004932416 -0.15680668 -0.18386881 0.038710285 0.2065127 -0.14908592 -0.121857755 0.5053779 -0.13974883 -0.07709021 -0.20763503 -0.37557334 0.11011229 -0.038376767 -0.0064371107 0.028066268 -0.012682271 -0.32831392 -0.04345911 -0.1494521 0.03128284 -0.30160812 0.13515389 0.44616178 0.36771527 0.40942696
b122 0.13182889 0.17436713 -0.18915926 0.07872628 -0.26106158 -0.01214051 0.021081245 0.220868 -0.14340736 0.24323452 0.079625405 -0.14601313 -0.23634066 0.1448823 -0.07451685 -0.0023113505 -0.3109516 0.1831726 0.2703108 -0.0725364 -0.15404628 -0.08123583 0.07409163 -0.1453408 0.20443065 -0.32293877 0.15113026 0.11432888 -0.1576663 -0.07196626 -0.05632161 0.16525905 -0.03547826 0.29801387 0.115258835 -0.19840151 0.1689828 0.10551255 -0.30968475 -0.2350134 0.13598855 -0.14334138 0.14740402 0.27796897 -0.027639551 -0.33758456 -0.2374077 -0.10265518 0.16596505 -0.15660562 -0.12896469 0.14220412 -0.029614516 -0.29140845 0.10581625 0.23480883 0.23700243 0.14881764 -0.10417915 0.05082975 -0.2247088 -0.16010153 -0.027145674 0.1996466
b123 -0.14444707 -0.049316794 -0.117508076 0.1660333 0.012348649 0.22507247 -0.1522986 -0.0036594544 0.010276456 0.0062380573 0.017155463 -0.22976975 -0.15474397 -0.24578969 -0.19931057 -0.15772906 -0.039496604 0.06633378 0.074288644 -0.17921668 0.04336675 -0.050297156 -0.16621831 -0.12115618 0.06921886 0.27272767 0.19442034 -0.020004258 0.2565644 0.020705752 -0.16123034 -0.28016427 -0.06900681 -0.008503354 -0.17772897 -0.051261097 -0.09249405 -0.20583475 0.009337323 -0.03855796 -0.013978044 0.29955128 0.075071976 0.21961515 0.17780507 0.30507615 -0.030386563 0.0017128005 0.13711333 0.0062757595 -0.12017562 0.10141596 -0.12233076 -0.14546318 -0.09567918 -0.22109932 0.07655786 0.16202067 -0.1294551 -0.023638295 -0.21010202 0.049270913 0.045635384 -0.03354832
b124 -0.13377763 -0.12467788 0.081067756 0.21546195 0.10551395 0.2653741 -0.22622739 -0.21004409 0.050451264 0.04139457 0.05617987 -0.20377935 -0.053341117 -0.36703932 -0.15257789 0.038444154 -0.13136429 0.13842365 -0.0054531344 -0.06055227 -0.041895892 -0.18850805 -0.2792623 -0.03130583 0.10168541 0.432121 0.30783698 -0.08915895 0.16365768 0.07844121 -0.15631811 -0.40321895 -0.19022927 0.03217501 -0.01716246 -0.0071657165 -0.18713436 -0.14416161 0.03353209 -0.054621447 0.1974777 0.44739908 -0.036965758 0.17360215 0.18179555 -0.022064637 0.0816836 -0.06865527 0.14058635 0.026270358 -0.16369192 0.06893137 -0.1732946 -0.11571722 -0.18182324 -0.3531832 0.04602675 0.20986362 -0.10305769 -0.04290828 -0.12610658 0.1814098 0.06380281 -0.15688667
b125 0.06418843 0.24437438 -0.02735334 0.117641896 -0.2517701 -0.06398023 -0.18464084 0.19935685 -0.2821425 0.09958876 0.021110574 0.0018008151 0.014497854 -0.05847159 0.021207193 -0.31272194 0.025301723 0.09922849 0.20620148 -0.088566236 -0.13299747 0.17675361 -0.013661375 -0.006528632 -0.037234988 0.030741515 0.074233435 -0.029573537 -0.2087697 -0.22976503 -0.1002074 -0.028863857 -0.1209146 0.09100263 -0.08095967 -0.1078439 0.23456901 0.013756608 -0.21437144 -0.07865356 0.27098376 -0.24686718 0.16131291 0.06304913 0.12804759 -0.16188063 -0.04240824 -0.0012756843 0.15444462 -0.09176326 -0.12664928 -0.004514063 0.045546927 -0.14015622 -0.0669439 0.1807725 0.092475034 0.09808624 -0.028311431 -0.1702627 -0.080989875 -0.12739325 -0.08912471 0.20977366
b126 -0.16039291 -0.17724791 0.027964287 0.15434176 0.010417732 0.1859321 -0.2286632 -0.14344223 0.04466686 0.0674733 -0.037346408 -0.2079976 -0.08867374 -0.26968235 -0.24487229 0.057505175 -0.18368874 0.096295804 0.07174102 -0.11196062 -0.04995826 -0.10846432 -0.18796209 -0.07022104 0.033823464 0.3833352 0.21208686 -0.04635708 0.13428788 -0.0019664122 -0.12477949 -0.25461188 -0.086932234 0.023068588 -0.05850956 0.042288005 -0.08561119 -0.14830619 0.053727765 -0.039434407 0.07685755 0.29252067 -0.018618945 0.16238366 0.16655336 0.16496584 -0.084352694 -0.06696481 0.15507036 0.07592647 -0.2559149 -0.01736534 -0.12997983 -0.06814496 -0.19263734 -0.24606805 0.06521086 0.18748789 -0.06296895 0.02569459 -0.10278995 0.0046599405 0.060677666 -0.10711986
b127 -0.2098576 -0.17144689 -0.0030673768 0.22361173 0.06525319 0.17594333 -0.25217438 -0.17207831 -0.09799673 -0.046435468 0.076768495 -0.2704935 -0.083028436 -0.31394884 -0.13685104 0.121649824 -0.11758992 0.11579343 -0.0015441078 -0.07827084 -0.08773646 -0.060125653 -0.23488414 -0.016591365 0.14105736 0.4101045 0.2164561 -0.12918687 0.24550508 -0.08973207 -0.16576287 -0.2781911 -0.08293926 -0.00905331 0.030735698 -0.059552163 -0.16194996 -0.06806942 0.10703023 -0.000113279246 0.20670009 0.41281483 -0.07931325 0.13883992 0.15417483 0.2585155 0.055729095 -0.029095093 0.22999883 0.05228126 -0.191959 0.017596858 -0.16040163 -0.03915527 -0.19857275 -0.3622345 0.03479519 0.24020882 -0.020481529 0.038500715 -0.070129775 0.11492094 0.09754149 -0.13120176
b128 0.20307207 0.22567914 -0.26916504 0.035066467 -0.26487455 0.074293494 0.05652554 0.20108595 -0.06541668 0.32293275 0.135164 -0.12811327 -0.22509669 0.19454506 0.025082652 -0.08382587 -0.14362577 0.17650545 0.34624368 -0.058198906 -0.11413737 -0.07904546 0.21454358 -0.1608193 0.13983141 -0.19616434 0.04278971 -0.0021003464 -0.18609951 -0.08407747 -0.15657096 0.23749995 -0.16669588 0.28951532 0.14216924 -0.23708954 0.23426616 0.11338217 -0.3477007 -0.22621956 0.03857758 -0.19234774 0.16781813 0.2210843 0.06564763 -0.31126848 -0.16591328 -0.15662262 0.21507998 -0.1486691 -0.12139124 0.2098083 0.019192787 -0.2537652 0.07714621 0.21144511 0.27716985 0.047097765 -0.21591564 -0.07785138 -0.17742604 -0.10757109 -0.052504685 0.091398835
b129 -0.26362774 0.29396507 -0.1856048 -0.05135543 -0.18732128 0.15105993 0.050490573 0.20700537 -0.010196959 0.058542997 0.19662048 0.08494878 0.010008056 0.0055801547 -0.03276201 -0.2043699 -0.14198676 -0.031951774 -0.069408275 0.062275335 -0.15807416 0.30317885 -0.23717162 0.042419177 0.15916936 -0.13598427 -0.03379583 -0.14919342 0.27232862 -0.11513193 0.009408639 -0.037275236 0.0062390617 0.18418173 -0.23217498 -0.14408238 0.20435366 -0.2112774 -0.023531644 -0.18808495 -0.06286852 -0.023900332 0.18743959 -0.049512427 -0.05545327 0.3086274 -0.1601639 -0.14250265 -0.06062473 -0.22420926 0.05713244 0.11822795 -0.049017925 0.033314273 -0.02640511 -0.22235088 -0.04179657 -0.07284528 0.027852872 -0.21718575 0.071824245 0.24546002 0.21971361 0.24916027
b130 0.1224758 0.1834209 -0.21234606 0.11561823 -0.18640977 0.03870312 0.038273003 0.17768845 -0.15324263 0.26752692 0.1289363 -0.07811654 -0.13812488 0.029672004 0.019441258 -0.1210673 -0.064467795 0.20874366 0.24864519 -0.09069807 -0.13264678 -0.024136959 0.12008726 -0.19600081 0.1480649 -0.15438539 0.11989456 -0.015212485 -0.13353351 -0.1548552 -0.16932027 0.20378202 -0.15485685 0.23398128 0.14480981 -0.17588851 0.14779095 0.044934887 -0.23316203 -0.22903161 0.13809802 -0.13449505 0.19563869 0.2798574 0.08308841 -0.2698238 -0.12701698 -0.09941938 0.1034002 -0.045307983 -0.066344276 0.19398569 -0.050586477 -0.22706486 0.002812078 0.11011121 0.20405233 0.09094509 -0.1534306 -0.12331588 -0.1698068 -0.07340391 -0.00059636886 -0.028848149
b131 -0.06573108 -0.16705348 0.039042078 0.2622996 0.14434692 0.24693407 -0.11930377 -0.2331076 0.104699336 0.05095118 0.0953496 -0.168465 -0.18102928 -0.39757067 -0.32295325 0.11858733 -0.05566155 0.07154747 -0.00020330065 -0.07313066 -0.031187264 -0.058761526 -0.33231914 -0.12027645 0.08441044 0.40923357 0.26986662 -0.090068094 0.14812116 0.06559557 -0.09091024 -0.42710266 -0.10617662 0.015702631 -0.10788331 0.03970482 -0.19211717 -0.20763108 0.11320287 0.015174622 0.15562479 0.4589749 -0.090205185 0.17132235 0.0663745 0.32129014 0.030111957 -0.05373744 0.1292853 0.0098067615 -0.12066184 0.10698969 -0.17455967 -0.056054946 -0.23484254 -0.39389455 0.03734038 0.15147105 -0.0061835703 0.0129832225 -0.16894926 0.18794155 0.10323215 -0.09120159
