3913	64
b0 0.43946543 0.16329008 -0.17410237 0.123059146 0.009453818 0.07201791 0.11833211 0.06565498 -0.12101315 0.14063148 0.0903532 -0.058040168 -0.5598972 0.20100099 0.06696274 -0.18681449 -0.060829412 0.09715 0.17991717 -0.08189386 -0.029183414 0.016858768 0.18225944 -0.14707947 0.17089212 -0.3998686 0.22809231 -0.0024546247 -0.18912409 -0.16201359 -0.17142496 0.33929273 -0.16232091 0.28007233 -0.0077165286 -0.116134174 0.10605322 0.21429569 -0.2586301 -0.39265156 0.009872632 -0.42004067 0.21498926 0.15308677 0.009035105 -0.37716234 -0.11603931 -0.056886874 0.15526575 -0.0041361735 -0.0098402435 0.16664352 0.038244925 -0.5023672 0.16494551 0.2637286 0.16247119 0.0912127 -0.10948064 -0.11322981 -0.44404733 0.17418547 0.13661838 0.08056421
b1 0.26113328 0.1795444 -0.16370091 -0.04474979 -0.08858236 0.07725038 0.16879256 0.20799664 -0.043277945 0.11853734 0.11617873 -0.0367733 -0.33059624 -0.020284677 0.111841224 -0.16727394 -0.045565553 0.10263252 0.28242865 -0.109991916 -0.09886825 -0.029008409 0.038689297 -0.08789587 0.14163083 -0.13438125 0.12204489 0.07298783 -0.15665618 -0.12948273 -0.14770369 0.0818714 -0.18394955 0.0921839 -0.09889434 -0.14554054 0.2155202 0.07629377 -0.2427083 -0.24923722 0.11226279 -0.1850463 0.21768017 0.12785123 0.055098437 -0.1522365 -0.03635711 -0.033672314 0.16610734 -0.07178733 -0.035012946 0.15762368 -0.066405125 -0.30075988 0.086484574 0.09860809 0.067781866 0.162216 -0.11121064 -0.102356955 -0.1920398 0.019880153 0.08384739 0.12446
b2 -0.14052705 0.09844316 -0.013023783 0.12476565 0.07875673 0.2345201 -0.0996144 -0.01001997 0.06363732 -0.10115065 -0.010208629 -0.19877908 -0.1947642 -0.22337869 -0.32636902 -0.10499627 -0.17712075 0.18988596 0.2183709 0.08017374 0.07505374 -0.045617986 -0.2909105 -0.0010912482 0.021220291 0.2899022 0.058887355 0.0012707111 0.06719685 0.1634342 -0.21250167 -0.37437087 -0.22125469 -0.029247373 -0.0674343 0.0696805 -0.03785337 -0.12898418 0.18272726 0.12371995 0.10276618 0.30413026 0.028166616 0.07953099 0.003765979 0.38837916 0.074488744 0.13689117 0.105731346 0.1170637 -0.38972962 -0.024563722 -0.039421286 -0.015983917 0.06351507 -0.80312204 -0.09521093 0.09853636 -0.16420874 -0.026141658 -0.047027934 0.25717473 0.04721363 -0.000657634
b3 0.059110094 0.07014237 -0.087804355 0.13983713 0.031627983 0.2045588 -0.0803332 -0.107274 0.14476399 -0.0935227 0.15224046 -0.26593894 -0.20041907 -0.12269942 -0.22418584 -0.06261287 -0.025104288 0.09569136 0.07918991 0.09957779 -0.09831706 -0.10512339 -0.2702923 -0.11496901 0.15087959 0.2908016 0.15866281 -0.06926232 0.03326437 0.100663245 -0.307552 -0.16984607 -0.24452338 0.023207858 0.034956392 0.025725896 -0.19683217 -0.057457224 0.21232446 0.0951955 0.1886939 0.29288638 0.08449586 0.09749924 0.13126443 0.123408385 0.23483673 0.08558595 0.05899041 0.09442341 -0.45263973 0.03144721 -0.11313054 -0.13829954 -0.04950946 -0.67260104 0.05255031 0.2250471 0.010130989 -0.017862342 -0.18788432 0.1246305 0.11402224 -0.07076909
b4 0.25058487 0.1254994 0.02291496 0.2432854 0.2019996 0.13940716 -0.09517137 -0.10854057 -0.06944857 -0.117412694 -0.018645836 -0.18509185 -0.03531007 -0.14585924 -0.56591153 0.027292108 -0.1507315 0.1808912 0.13435923 -0.027580991 -0.045453835 -0.18848594 -0.5131772 0.015531902 0.020908251 0.4666408 0.21881126 -0.101485655 -0.096253775 0.1244688 -0.32664707 -0.217899 -0.13624732 0.19109604 0.27235472 0.08810071 0.08875988 0.30942833 0.30641654 0.36486015 0.19936118 0.44608292 0.3321589 0.10827307 0.08043816 -0.025900653 0.07734434 0.041907273 0.14425659 0.19338809 -0.7537202 0.17310613 0.0478291 -0.07449395 0.23888263 -1.2466124 0.11683262 0.08037087 -0.05479772 0.08443149 0.0014752443 -0.036093175 0.24496628 0.114041045
b5 0.054952383 -0.014938312 0.013895926 0.15226421 0.12979022 0.17126355 0.023801673 -0.12144117 0.028970098 -0.05041318 0.17686975 -0.130069 -0.105994605 -0.08304905 -0.44156376 -0.11037661 -0.092672504 0.080250226 0.16537325 0.1398232 -0.00094459136 -0.0046157963 -0.33800384 0.009726221 0.038695604 0.33614755 0.08259451 0.09388537 0.007639126 0.14722937 -0.26191378 -0.29624298 -0.15599066 0.10944322 0.089021884 0.079578005 -0.11132114 0.011450244 0.16916245 0.20353675 0.12513654 0.38565624 0.021053277 0.07394201 -0.011429374 0.33675015 0.17664348 0.017441219 0.10125296 0.013339057 -0.5376884 0.14524107 -0.035026446 0.023807853 0.13465276 -1.1492333 0.036143415 0.1521639 -0.047515035 -0.16255394 -0.08980577 0.12570855 0.16649872 0.021563187
b6 0.3200518 0.09800243 -0.16027349 0.015662525 -0.10172914 0.112175755 0.0881342 0.22184631 0.021072393 0.19551615 0.019612297 0.049379047 -0.4264257 -0.0038158575 0.21204495 -0.1434731 -0.041449104 0.1799216 0.22533771 -0.0016602712 0.0161498 -0.03208288 0.068108894 -0.036647215 0.12937649 -0.3434866 0.2732806 0.06311531 -0.2698578 -0.12342174 -0.08250632 0.19479568 -0.15449105 0.13296397 0.03977486 -0.107436694 0.25280696 0.059975363 -0.4079849 -0.29820597 0.1347226 -0.26711753 0.23201278 0.17991988 0.052171834 -0.3002223 0.12483389 0.021278914 0.1354954 -0.04825058 -0.06285899 0.23283459 0.008045602 -0.45854115 0.034889057 0.06897401 0.1558822 0.09931826 -0.097366326 -0.17412162 -0.4631258 0.017932838 0.1530595 -0.026377529
b7 0.37911743 0.17713892 -0.18882501 0.10426294 -0.06085725 0.026694756 0.20585422 0.23232935 -0.18492675 0.18740264 0.18112068 0.0038428784 -0.32657924 0.10823573 0.023837872 -0.16734768 -0.0167529 0.069182165 0.21103264 -0.17006314 -0.1325191 -0.009065826 0.12472595 -0.12040479 0.10837494 -0.27217424 0.13574833 0.029321892 -0.19252202 -0.26842213 -0.16160433 0.17276472 -0.11645896 0.2118563 -0.033767838 -0.06731092 0.15842234 0.16563451 -0.23916025 -0.315511 0.1131951 -0.22286677 0.19466396 0.15415889 0.03376632 -0.23852134 -0.20499538 -0.15006782 0.15476787 -0.00257194 -0.06311941 0.15543656 -0.01867522 -0.26834995 0.06480655 0.20223252 0.13862865 0.05121177 -0.1912649 -0.15591085 -0.27372253 0.094237044 -0.01287606 0.05325712
b8 0.29263133 0.13860734 -0.049419455 0.100140624 -0.051309966 0.05512284 0.17591825 0.17731662 -0.23014386 0.108335085 0.13687024 -0.013460117 -0.31686068 0.076940395 -0.0048095924 -0.19867165 -0.03061362 0.09498103 0.21442063 -0.15673019 -0.12574531 0.015475649 0.11520957 -0.086950324 0.12142965 -0.1536012 0.12890208 -0.046537545 -0.09771613 -0.17423625 -0.08371651 0.121493354 -0.13082376 0.11977235 -0.10535615 -0.08998407 0.06509211 0.104251966 -0.20366721 -0.2537392 0.099345036 -0.16115627 0.12999733 0.028283352 0.03161989 -0.12209722 -0.17221259 -0.08958202 0.04015669 0.034572523 -0.029504318 0.15650302 -0.009047651 -0.3594526 0.02593847 0.120968714 0.108011216 0.07726569 -0.08526919 -0.12099378 -0.26132548 0.11788609 0.09072893 0.071478315
b9 -0.28974652 0.4617756 0.13916071 -0.18303414 -0.29314926 -0.14400361 -0.16817813 0.28431186 -0.3147499 -0.043518577 -0.08219731 0.13800427 0.20932296 -0.3752011 0.22557987 -0.08383295 0.2001276 0.018122936 0.11265785 -0.26406243 0.10826143 0.3719068 -0.37018597 0.14274552 -0.106530584 0.45320317 -0.12188544 -0.3346918 -0.14327978 -0.34354755 0.11192403 -0.51145864 -0.12600489 -0.018491892 -0.35246274 -0.37110418 0.37095505 -0.17298162 -0.3487139 0.16706356 0.2466335 -0.17448786 0.14502366 -0.23441426 0.22375923 0.36341393 0.23438701 0.032290533 0.2507816 -0.23877282 0.03130366 -0.13442571 0.12060819 -0.0038565698 -0.33128554 -0.2624073 -0.10148993 0.36847615 0.030278997 -0.27554986 0.18509428 -0.11780917 0.14963742 0.3124427
b10 0.09284783 0.001758497 0.013508412 0.084478706 0.039213363 0.1836896 -0.042191997 -0.12163401 0.09905251 -0.015187011 0.12946141 -0.1864555 -0.25675994 -0.036511045 -0.303638 0.07277864 -0.1098526 0.20489848 0.20216215 0.036022864 -0.048751373 -0.036450308 -0.40414685 -0.032703254 0.031938177 0.331081 0.12225931 0.1298221 -0.103062764 0.17179978 -0.28243366 -0.2564128 -0.17783795 0.060540333 0.14211753 0.061998397 -0.09515661 0.02190201 0.12404494 0.13442253 0.09971705 0.22621754 0.030776042 0.1615336 0.0033112552 0.13880925 0.30243954 0.08088671 0.19177906 -0.050105732 -0.44247246 0.028283425 -0.09925543 -0.024437115 0.0485233 -0.75823593 0.04474876 0.22726159 -0.023178829 -0.0033370163 -0.14303066 0.03095079 0.18602115 -0.010824121
b11 -0.29913747 0.39271012 -0.22434597 -0.19008166 -0.3082554 0.18296404 0.28364846 0.320239 0.011091733 0.051390514 0.26160207 0.06315832 0.017296374 0.021539267 -0.018683868 -0.16652988 -0.1568632 -0.056020934 -0.017241506 0.16085856 -0.11851091 0.37432 -0.33855754 0.07801266 0.26051262 -0.45408124 -0.0873402 -0.02765035 0.3478209 -0.072537616 0.06917359 -0.088827446 0.04470768 0.22713359 -0.49033287 -0.07509346 0.3950249 -0.44538203 0.04363005 -0.1748647 -0.21462898 -0.030094722 0.2520873 -0.07882611 -0.086580366 0.58696353 -0.14329974 -0.023010824 -0.18753077 -0.43056378 0.15320593 0.03324469 0.041147947 0.13324142 0.084629565 -0.25025842 -0.0376313 -0.102192484 -0.02839744 -0.25719237 0.1874971 0.3343382 0.3478963 0.30631804
b12 0.15484735 0.12416176 -0.120337196 0.030022739 -0.10486087 0.02964806 0.14409754 0.1503645 -0.21990815 0.10680687 0.14960396 -0.013472402 -0.20233764 0.020997694 -0.037724722 -0.16096205 -0.03701017 0.052453596 0.11253131 -0.10769706 -0.1507003 0.08270754 0.021403896 -0.08871944 0.047334444 0.037343144 0.043133266 -0.08016469 -0.010269892 -0.18402179 -0.043014944 0.069212504 -0.097307235 0.14259048 -0.06054309 -0.116926156 0.10348865 0.08714735 -0.085963115 -0.18313843 0.1254519 -0.009112835 0.21127309 0.065390535 0.012332917 0.0153358225 -0.17905027 -0.15131149 0.04965082 0.04200094 -0.010449046 0.18787423 -0.03938311 -0.19048826 -0.041438382 0.04525462 0.10675865 0.073336385 -0.1419502 -0.11138303 -0.0923931 0.089877605 0.09264698 0.07225159
b13 0.04408023 -0.042422447 -0.026025282 0.13351834 -0.012801587 0.13294171 -0.005146278 0.026937984 -0.13917771 -0.058645453 0.10913061 -0.17891109 -0.048968755 -0.1270517 -0.27404135 -0.08966627 -0.07905512 -0.009265462 0.024662538 -0.12245013 -0.12046736 0.21010478 -0.14861988 -0.0692253 0.023064181 0.27703488 0.09436249 -0.17217875 0.18116678 0.0076783793 -0.09256414 -0.20326592 -0.04861768 0.021924304 -0.094555974 -0.0067161084 -0.09529368 -0.03347387 0.031047488 0.028168565 0.1059593 0.24401055 0.05136498 0.0044031967 0.06624304 0.30174273 -0.123757005 -0.06959656 0.086843506 0.0908832 -0.20120779 0.04943538 -0.12577671 0.042749766 -0.102029234 -0.33384573 0.009707197 0.07827639 -0.03762746 -0.08972901 -0.029870236 0.22077447 0.08469719 0.08066502
b14 0.44601426 0.018630035 -0.14006346 0.11015814 0.052506775 0.16309272 0.16424532 0.09565981 0.0841539 0.19773287 0.086937726 -0.14539339 -0.7270642 0.115522124 0.06327226 -0.08934411 0.015736729 0.20998068 0.38342866 -0.046504542 0.07829942 -0.24453792 0.053664673 -0.0037767922 0.29775268 -0.44469503 0.29497823 0.06956785 -0.39941037 0.055476896 -0.1693476 0.3618042 -0.30397245 0.29558426 -0.035264123 0.05095854 0.10149327 0.08503665 -0.3034398 -0.4835686 0.04140224 -0.49124748 0.18192978 0.17479263 0.017511824 -0.43666735 0.1863591 0.09361427 0.21881922 -0.014856089 -0.22146365 0.09493244 0.10144664 -0.58574593 0.14316177 0.20298138 0.11066013 0.15108338 -0.010642274 -0.18694246 -0.6322659 0.14980555 0.255263 0.059880536
b15 0.27478692 0.14358363 -0.12829606 0.082172886 -0.074455604 0.06922247 0.14383392 0.17834459 -0.08489535 0.16414987 0.07209091 -0.059959136 -0.55091935 0.09838293 0.13594984 -0.17643368 -0.031292114 0.09192334 0.30687594 -0.0525656 -0.0067952247 -0.15959981 0.11291667 -0.03311033 0.19426642 -0.3811015 0.25942025 0.07652274 -0.28833926 -0.08862381 -0.08884962 0.24723193 -0.2090204 0.21176873 -0.05905276 -0.13209864 0.21703184 0.04698431 -0.38876057 -0.37330666 0.097224034 -0.39395523 0.16533288 0.06582024 0.051235676 -0.37423205 0.06610031 -0.032772157 0.18714172 0.011122468 -0.013422883 0.11795884 0.060753345 -0.6010285 0.05245887 0.1863194 0.15081179 0.15341607 -0.035457432 -0.17882915 -0.47729105 0.17213526 0.12971652 0.09287358
b16 0.39115435 0.14068772 -0.1495537 0.18719287 0.13348377 0.19109464 0.11707389 0.06655629 0.15315494 0.15249716 0.13385876 -0.09040636 -0.7110869 0.09982098 0.036140602 -0.21709408 0.08867072 0.08937906 0.43388262 -0.08996864 -0.012834473 -0.12484556 0.111130275 0.028430805 0.30194053 -0.61939245 0.37033 0.1449972 -0.35755792 -0.0003809105 -0.2071964 0.35325626 -0.39765456 0.27803087 0.05278286 0.07842276 0.05733326 0.14151464 -0.43077442 -0.5771185 -0.067921504 -0.64150083 0.11451404 0.107017085 -0.010252313 -0.38721955 0.17096032 0.0809489 0.13010775 0.042218085 -0.12625399 0.16243802 0.08490215 -0.750987 0.1275182 0.21897589 0.07609378 0.12438285 -0.095800035 -0.19589074 -0.82699394 0.20347738 0.17685565 -0.11787072
b17 -0.16324984 0.3082015 -0.14258271 -0.100920275 -0.14261355 0.1320405 0.20558694 0.18694481 -0.10266891 0.028094286 0.20447935 0.01946992 0.03170901 0.06796354 -0.0076487027 -0.16785038 -0.13701473 -0.005953881 -0.008963471 0.04648788 -0.18058045 0.25585666 -0.20717481 0.036138818 0.1845735 -0.14524388 -0.04657977 -0.24338996 0.23871522 -0.11904591 -0.028649969 -0.0372524 -0.012444157 0.0863335 -0.2500324 -0.0852828 0.23713857 -0.27217284 -0.036029313 -0.09972101 -0.07540966 -0.03160535 0.23859897 0.002655283 0.0032546257 0.30674714 -0.09937259 -0.06066172 -0.049505915 -0.17735673 0.011055497 0.028887907 -0.04113685 -0.00924579 -0.097933315 -0.22214945 -0.08674923 -0.012997096 -0.047556646 -0.23003298 0.17025153 0.2547666 0.23823337 0.26187634
b18 0.10204283 -0.06803651 0.08720822 0.0698383 -0.1034414 -0.0367235 0.03617381 0.36772078 0.13061303 0.15599263 -0.17653444 -0.1628134 -0.17219602 -0.23461206 -0.14508846 -0.3362888 -0.19122386 0.20628992 0.3758416 0.092124544 0.09918996 0.22229812 -0.2309321 -0.18318027 0.14187549 -0.1993474 -0.10753034 -0.012257748 0.27856192 0.08153096 0.0259435 -0.24815525 0.05034246 -0.11972335 -0.018832957 -0.29947078 0.35480693 -0.23878151 -0.14937538 -0.19208181 0.0028358484 0.19809029 0.034163516 -0.18603522 0.20852114 0.5545291 -0.029317776 -0.18428291 0.042344503 -0.00405237 -0.110451676 -0.22714667 -0.21933404 -0.16624358 -0.21725465 0.23467004 0.12877962 -0.11150979 -0.14342819 -0.050019756 -0.19042484 -0.11570812 0.03595822 0.25594527
b19 0.05008865 0.02356983 -0.060319554 0.11688471 -0.065387286 0.15931986 -0.025327194 -0.025037467 0.057597872 0.052299846 0.014104706 -0.09978981 -0.06457815 -0.113987856 -0.17226386 -0.052260768 -0.10916158 0.10881048 0.106378786 -0.06945744 -0.058751974 0.085901245 -0.20372649 -0.071991034 0.10303477 0.09028718 0.11669751 -0.023977816 0.07061545 0.084843025 -0.13710286 -0.16137105 -0.14902234 0.016008135 -0.025015201 -0.023534026 0.019351285 -0.1614607 -0.09817952 0.061473873 0.111270145 0.13378811 0.054349005 0.06112428 0.06448789 0.15221773 0.14021386 0.025504984 0.12899224 -0.058859687 -0.22582778 0.02618278 -0.09630489 -0.015100832 -0.015443358 -0.39605236 0.043791115 0.12037872 -0.032237526 -0.11627941 -0.092338726 0.10581853 0.13562576 0.13407482
b20 -0.03156749 0.10693137 -0.022166464 0.1142352 -0.0012657451 0.15031706 0.047960658 -0.062990956 0.09835808 -0.0805033 0.1317352 -0.1708791 -0.16443019 -0.14409102 -0.23569845 -0.012362661 -0.043002754 0.14032654 0.10805144 0.11218181 -0.122200795 -0.13137694 -0.32709613 0.0054511507 0.024070155 0.22370075 0.11635875 0.071697466 0.08830899 0.18851653 -0.22646116 -0.2530513 -0.21491475 0.061099842 0.048993863 -0.00023664691 -0.0532885 -0.0053576618 0.090084225 0.118383005 0.12512393 0.21063057 -0.070839725 0.10391376 -0.008174792 0.1373812 0.24036004 0.029268065 0.14931755 0.01684526 -0.41309702 0.10688166 -0.10710436 -0.0016022329 -0.037211753 -0.80811346 -0.04452225 0.12905522 -0.08726047 -0.01187427 -0.09799906 0.24103558 0.18807699 0.0906059
b21 -0.033741567 0.03869229 0.051214077 0.047983054 0.12936555 0.13478808 -0.010048094 -0.08667109 -0.061709184 -0.049708363 -0.06068607 -0.1422076 -0.11240288 -0.15746297 -0.33583364 -0.11831955 -0.1298602 0.14111762 0.26957574 0.035084594 -0.12319408 0.036150847 -0.38022244 -0.11663912 -0.0048614093 0.39088643 0.08362955 -0.030004542 0.10415445 0.13820672 -0.22862203 -0.15549836 -0.12472911 0.03640732 0.046170674 -0.03270594 -0.0060249143 -0.018081166 0.12784459 0.17345335 0.22214493 0.30509314 0.12132341 0.072264604 0.13798259 0.08955419 0.09146558 0.07900594 0.19588196 0.18105452 -0.47325298 0.06529415 -0.034140225 -0.091611154 0.07485458 -0.82839364 -0.0035741192 0.1907258 -0.00014855624 -0.035504166 -0.02794615 0.15133828 0.08098004 0.060159132
b22 0.077463396 0.20031506 -0.0922006 -0.0380584 -0.05924791 0.08015171 0.1117238 0.17080913 -0.098968774 0.10535123 0.09460437 -0.047017165 -0.20185634 -0.078237355 0.030249817 -0.1539351 -0.09491698 0.07927725 0.18931438 -0.037418194 -0.08904927 0.030851034 -0.07657489 -0.041859597 0.11950468 0.036196448 0.023155568 0.0055274293 -0.090543754 -0.09025397 -0.109627925 -0.034528118 -0.19477357 0.119187884 0.023061005 -0.13955317 0.16637442 -0.03239388 -0.15586114 -0.20375986 0.1530196 0.026786605 0.17046784 0.08560916 0.047994114 0.01809341 -0.034091283 -0.08375194 0.08011188 -0.04380763 -0.04791521 0.16218081 -0.03463958 -0.20941174 -0.05773893 0.019602852 0.062277872 0.1484048 -0.13134101 -0.13958205 -0.08032325 0.12342928 0.09546084 0.054817576
b23 0.04979945 0.13085823 0.071681105 0.10713876 0.1199472 0.19425447 0.123789035 -0.17119597 0.08426122 -0.1617337 0.045393992 -0.27557206 -0.25131026 0.051916488 -0.46173334 -0.05502382 -0.06628214 0.20172971 0.20369312 0.089384004 0.0071568727 0.007368427 -0.3234756 -0.050580055 0.045130037 0.3860476 0.19804746 0.022727817 -0.060292043 0.1627042 -0.3846591 -0.2900873 -0.29069215 0.044312105 0.004443291 0.107882656 0.011722462 0.2682204 0.1719141 0.26322845 0.14500012 0.3382509 0.15384737 0.1734404 -0.02785572 0.1332681 0.18577486 0.060332406 0.08935486 0.1000455 -0.7683452 0.07507864 0.013537511 -0.15161934 0.16497175 -1.1992669 -0.026282392 0.13172235 -0.044936832 0.001006604 -0.034798235 0.10928324 0.19663103 0.08059406
b24 0.068222605 -0.035587426 0.002904653 0.14793478 0.06990969 0.085396126 0.032717362 -0.08864181 -0.02517746 -0.07473435 0.13516948 -0.19012944 -0.16412878 -0.12340414 -0.28918797 -0.08111101 -0.060116924 0.100115865 -0.016689278 -0.08062962 -0.079425424 0.07028617 -0.15876877 -0.14984545 0.028924381 0.32858077 0.15094936 -0.15701175 0.1031749 0.049653217 -0.19822747 -0.21569031 -0.106822625 -0.014206327 0.044207446 0.07960643 -0.14863741 -0.03539278 0.15329681 0.060698997 0.19962801 0.30943528 0.010482304 0.053018972 0.13321881 0.21208782 -0.0310555 -0.07698804 -0.04375547 0.17127165 -0.3496596 0.13041179 -0.067910224 -0.0074919453 -0.031664386 -0.52277774 0.058715906 0.08514742 -0.09019561 -0.07383054 -0.102881424 0.256529 0.121585034 0.09453572
b25 0.010870854 0.1276527 -0.09359739 0.00037313308 -0.11734989 0.06280213 0.111218266 0.15399107 -0.1703199 -0.041791964 0.18509753 -0.030695917 -0.025697634 0.024432702 -0.07769441 -0.15889113 -0.07316723 -0.044012118 -0.042435233 -0.08348429 -0.15152237 0.17082962 -0.076762676 0.0067755473 0.13160324 0.06482895 0.03476107 -0.2071971 0.16154283 -0.1431644 -0.013199009 -0.027188301 0.030654402 0.092031464 -0.20379262 -0.030060096 0.1195188 -0.1330989 0.09009676 -0.121944115 0.031474758 0.04544622 0.17446841 -0.022244975 0.0742277 0.19341198 -0.20323712 -0.09533642 -0.040711567 -0.019577833 0.004583176 0.04818419 -0.015155302 0.042768445 -0.083519734 -0.15851955 -0.037269745 0.036800712 0.00032016126 -0.16549414 0.08956398 0.20301472 0.18538976 0.14362699
b26 0.086488634 -0.036899477 -0.04594426 0.056868788 0.019174669 0.2995923 -0.12873076 -0.08076444 0.12815595 -0.057902846 0.042096224 -0.20268387 -0.17862774 -0.0055945795 -0.32143098 -0.014714541 -0.095828116 0.14735489 0.055897176 0.11708118 0.011258085 0.019923259 -0.22538239 -0.107945904 0.1043323 0.37896502 0.035758007 0.21598287 -0.05766441 -0.023580996 -0.18728764 -0.3207909 -0.3190473 0.084866054 0.10445369 0.10701612 -0.18669945 -0.042537373 0.12739863 0.10366242 0.16766474 0.3896199 -0.072495535 0.07148734 0.09789032 0.24929197 0.28682208 0.04346287 0.06632563 0.048109464 -0.5722708 0.10329709 -0.04405277 -0.136613 -0.035570525 -1.0164145 0.035674 0.24056007 -0.0038359796 -0.04658411 -0.13290112 0.3259787 0.06922094 0.012627329
b27 0.11728735 0.039060403 0.03153408 0.102631934 0.08078213 0.22640377 0.0474036 -0.23495327 0.19850078 -0.102638185 0.16821021 -0.14359257 -0.34924254 -0.0058710324 -0.5450599 0.035077367 -0.100793846 0.2719948 0.15929732 0.20462665 -0.011331327 -0.2328505 -0.40801293 0.038677096 0.15875322 0.2220827 0.11627135 0.23096512 -0.06495207 0.20997852 -0.3401817 -0.2595533 -0.3134931 0.16825534 0.22957022 0.19535476 -0.048074976 0.096105665 0.35298166 0.17982131 0.02130349 0.2874037 -0.0055869464 0.083883 -0.09989086 0.13396773 0.22004214 0.033067323 -0.046429694 -0.16671936 -0.7894586 0.10095548 0.05775326 -0.06877984 0.19836578 -1.3362145 0.030400429 0.16407712 -0.070230566 -0.05453076 -0.10569405 0.29344553 0.23085445 0.0855773
b28 0.05374239 0.026565341 -0.027666442 0.15277085 0.03246941 0.08608928 -0.0031562853 0.0019161835 -0.008648894 -0.042683773 0.11589268 -0.1455605 -0.09636795 -0.113347754 -0.21223933 -0.048057888 -0.053045765 0.05755557 0.04337534 -0.14903179 -0.1642199 0.08653655 -0.114450954 -0.10816201 0.05129326 0.17420171 0.11386113 -0.15216595 0.07262657 0.031520136 -0.16277646 -0.18659654 -0.09629697 -0.00022950456 -0.08048488 -0.0111481575 -0.10842155 -0.032524545 0.0656439 -0.029357916 0.15276486 0.22428396 0.061968368 0.036820102 0.06302144 0.20336968 -0.031454768 -0.08301646 0.09799264 0.17693812 -0.16402148 0.089687765 -0.14548686 0.021754531 -0.07445257 -0.28894752 0.071097925 0.15433043 -0.11644323 -0.014969377 -0.0828075 0.20821086 0.110315904 0.052595977
b29 -0.037912298 0.08649 0.037667293 0.14324507 -0.0075414614 0.116226055 0.010051914 -0.032532413 0.013130138 0.016806057 0.0046220357 -0.1770081 0.026130877 -0.24846242 -0.24825229 -0.026765896 0.003079307 0.06307858 0.1601763 -0.0453605 -0.066070355 0.063494086 -0.34392053 -0.1316289 -0.004861001 0.3782861 0.18899183 -0.07875668 0.1715561 0.18763828 -0.09276365 -0.32053968 -0.051918805 0.024565782 0.056250617 -0.018806297 0.111218035 -0.040644407 0.065949686 0.12943985 0.19622919 0.28313887 0.05798132 0.11021318 0.19064738 0.2643878 0.08659628 0.090706654 0.19968691 0.13908508 -0.2903989 -0.031176409 -0.15602933 -0.015672134 -0.047178082 -0.4617855 0.029708913 0.1734091 -0.05764511 -0.031636104 -0.06515074 -0.06764647 0.17309313 0.119313926
b30 0.43495786 0.047484845 -0.08146911 0.15803145 0.0738904 0.13268761 0.18723905 0.20494726 0.07111826 0.14314969 0.010448582 -0.11948737 -0.65337825 0.045429524 0.043655485 -0.21150333 -0.009089252 0.13101545 0.3050481 -0.083358146 -0.0017502531 -0.15024704 0.069880486 -0.106941 0.19544439 -0.3850736 0.28030345 0.042520802 -0.35106534 -0.055959925 -0.21262304 0.27528423 -0.27228302 0.21860977 0.009705391 0.020311557 0.095307864 0.15154314 -0.312589 -0.43769133 0.050860036 -0.47176343 0.1282242 0.16658375 0.0017454682 -0.43170768 0.088686824 0.07678559 0.18397765 0.048602913 -0.17020844 0.15843232 -0.033211716 -0.589344 0.061808225 0.15284458 0.12332106 0.15757038 -0.049234085 -0.1630666 -0.6695531 0.089798704 0.15466295 0.004273617
b31 0.2228352 0.062387872 0.047567733 0.11263775 0.122597694 0.22496624 0.106389 -0.2102231 0.032137576 -0.06843916 0.031261493 -0.18650603 -0.3439814 0.15719092 -0.38957497 0.062450506 -0.038311027 0.2746013 0.19764893 0.19619717 -0.0011709195 -0.2629827 -0.39352202 -0.037703127 0.10838807 0.36927247 0.06785164 0.064703956 -0.28567266 0.091207266 -0.37599978 -0.1699517 -0.34737182 0.15197796 0.13436486 0.13694023 0.022429565 0.3739779 0.18365997 0.21496177 0.13342121 0.12415617 0.034647334 0.10429123 0.107627496 -0.13572575 0.3602129 0.08639768 0.25547668 0.07394759 -0.8890231 0.15801196 0.0956211 -0.20109259 0.19612257 -1.5218897 0.09453141 0.2775484 -0.030292507 -0.0844779 -0.034910284 -0.05879252 0.24960291 0.17349042
b32 -0.2942478 0.34595442 -0.13593398 -0.14272226 -0.29795536 0.1321366 0.1883956 0.26918906 -0.013366557 0.093455315 0.25023577 0.07199708 0.058939833 0.015560851 -0.024189781 -0.15881407 -0.13245772 -0.037300535 -0.058744136 0.13672112 -0.14169034 0.360298 -0.35509044 0.11935417 0.17724165 -0.27821958 -0.044766728 -0.099868454 0.32875955 -0.07725197 0.015658898 -0.0031620597 -0.025962818 0.12124997 -0.34883288 -0.09540511 0.33610186 -0.38869122 0.06464121 -0.15152413 -0.11943247 -0.029622914 0.24266516 -0.037081663 -0.04319562 0.52766156 -0.10138557 0.012479701 -0.13326856 -0.37251052 0.05964834 0.06782631 -0.011617042 0.087572835 0.076238684 -0.32455772 -0.08406831 -0.075709455 0.06545711 -0.26029542 0.14661571 0.28014293 0.32724756 0.29269692
b33 0.062422916 -0.036360994 -0.031302486 0.15544885 -0.023699312 0.118692115 -0.19304574 -0.044565547 0.15252887 0.064258285 -0.04735366 -0.18383425 -0.07933186 -0.32874975 -0.27265012 -0.009731917 -0.03586711 0.045519788 0.19111463 -0.017659046 -0.029811673 0.023844486 -0.2852685 0.054370463 -0.047449134 0.32958552 0.15365072 0.08440706 0.105321586 0.08436677 -0.18744047 -0.4091376 -0.21183786 -0.05865219 0.013613445 -0.03181304 -0.06547798 -0.14578871 0.060946748 0.07148959 0.09032325 0.31376162 0.052342597 0.12900664 0.01964815 0.20505829 0.2003457 0.022465741 0.08201443 -0.018587362 -0.2883051 0.017695056 -0.04516385 -0.012910953 -0.05965188 -0.62181616 0.05065232 0.18343142 -0.00026416834 -0.103702955 -0.006779876 0.18043739 0.09087471 0.03086906
b34 -0.38212964 0.4226772 -0.2788898 -0.19878122 -0.229659 0.27330822 0.2906251 0.37018195 0.065462135 0.06470333 0.3343091 0.1004345 0.019432241 0.10691812 -0.0009494831 -0.10243261 -0.10407877 -0.068153225 -0.08889523 0.059713073 -0.1314022 0.4537736 -0.4289172 0.05449267 0.22613847 -0.5429703 -0.09083611 -0.07549513 0.48870036 -0.009242752 0.042002086 -0.035744537 0.034795415 0.23160924 -0.5184817 0.020624608 0.31217122 -0.51257145 0.142253 -0.1898134 -0.24165055 0.04344162 0.28662652 -0.10856311 -0.068867944 0.6358624 -0.19305086 -0.003973128 -0.2042215 -0.449678 0.099898905 0.019073332 -0.0051466213 0.10077756 0.036662772 -0.37604788 -0.07536367 -0.093487374 -0.060788468 -0.28115737 0.19885746 0.3974242 0.36520526 0.3487914
b35 0.041352395 0.012605714 0.052912023 0.089645185 0.10249542 0.15377223 -0.04535149 -0.15855475 0.12202209 -0.09107305 0.06122258 -0.21097451 -0.20029463 -0.124132484 -0.33770186 0.027082203 -0.15349622 0.09717308 0.15736252 0.12667374 -0.01903309 -0.09084857 -0.3233329 -0.005561724 0.053126704 0.3298929 0.12951733 0.08740928 -0.009359886 0.23620379 -0.24779573 -0.27509487 -0.23024167 0.08234186 0.07133224 0.052903056 -0.09686862 -0.03301911 0.17486946 0.1625511 0.09965696 0.3051336 0.046563964 0.08787183 -0.003115984 0.22744954 0.23322113 0.032572865 0.0893381 0.11409117 -0.5153329 0.1996796 0.0026342669 -0.047678735 0.08275045 -1.0381635 -0.0012001005 0.15536854 -0.13074534 -0.016838286 -0.06600621 0.17575254 0.13102229 0.054800864
b36 -0.3733713 0.559736 0.17870076 -0.201501 -0.2708462 -0.21570908 -0.16589455 0.45515066 -0.43302286 -0.0856952 -0.024600204 0.116025984 0.24364643 -0.42036736 0.25399935 -0.07348518 0.24001019 -0.056388322 0.16094607 -0.36349234 0.06900441 0.5571815 -0.3444074 0.15870756 -0.12354971 0.55630434 -0.09225258 -0.42073673 -0.22283018 -0.5015236 0.12662297 -0.55300164 -0.09490845 -0.039600875 -0.4434309 -0.39194492 0.45682222 -0.107258946 -0.37372646 0.13940361 0.23467433 -0.2187496 0.12618229 -0.2564634 0.26688763 0.31895843 0.17971684 -0.0027826722 0.21122898 -0.27642873 0.07550244 -0.13903388 0.14679524 -0.05208132 -0.45020247 -0.0184632 -0.15489367 0.355737 -0.021570424 -0.36333728 0.19225352 -0.16274296 0.21043396 0.420277
b37 0.25818047 0.16434851 -0.09344575 0.022402113 -0.12792231 0.10125457 0.16268328 0.13884746 -0.016939512 0.19777417 0.09205188 -0.028280709 -0.36591303 -0.009051058 0.07503861 -0.17620134 -0.05175285 0.15109716 0.26976097 -0.016002063 -0.005017487 -0.022023378 -0.03627247 -0.04090196 0.21578592 -0.22596906 0.1482271 0.1364443 -0.23669554 -0.041692372 -0.1348479 0.11690664 -0.21560277 0.19080578 0.024365326 -0.121406876 0.17264298 -0.013148566 -0.27438387 -0.27683818 0.07162629 -0.22656769 0.1793202 0.10528456 0.011805889 -0.12972367 0.0271706 -0.031555597 0.1439783 -0.085537195 -0.079690784 0.15025942 0.026213834 -0.35257325 0.019790426 0.11165493 0.14533368 0.16296764 -0.08792502 -0.16613747 -0.3052921 0.042553894 0.102616005 0.09678734
b38 0.36273167 0.010963431 -0.123083666 0.14566672 -0.017532846 0.10372342 0.16655925 0.11999972 -0.013079347 0.21650541 0.1806765 -0.065497525 -0.6086202 0.09092508 0.043622367 -0.14436416 -0.082339555 0.18637498 0.4358912 -0.0546566 0.00043384422 -0.13849063 0.08483865 -0.04450644 0.26589707 -0.4618229 0.27024615 0.08412636 -0.48025656 -0.045575846 -0.118019335 0.3995187 -0.25557506 0.23552226 0.014074012 0.012783665 0.042716194 0.067644335 -0.3986607 -0.47609547 0.015386103 -0.5385054 0.15640575 0.19409102 0.029084405 -0.37116477 0.11794712 0.12959062 0.12691434 0.051892977 -0.21248503 0.14995936 -0.028209545 -0.63088906 0.06278247 0.21438797 0.13091251 0.16132283 -0.1285365 -0.16789658 -0.6574784 0.11208399 0.22165881 0.0016580652
b39 0.30085638 0.10731063 -0.066952415 0.06403973 -0.0985082 0.11983522 0.20774831 0.097094566 0.021492116 0.12873453 0.10371639 -0.0717895 -0.47930345 0.06143348 0.08589482 -0.15010948 -0.037092026 0.13991652 0.3860916 -0.07533375 -0.063998714 -0.109648675 0.048195574 0.0013029876 0.16533534 -0.36421564 0.18416306 0.08859209 -0.27389675 -0.1036237 -0.14106336 0.18381748 -0.13230455 0.2121864 -0.007889078 -0.09597994 0.15404625 0.05109864 -0.3679987 -0.36309126 0.08282082 -0.3771221 0.17289472 0.18776035 0.025356986 -0.30914283 0.09917099 -0.0038578557 0.16410169 -0.10015565 -0.08723246 0.15039554 0.110306285 -0.4452142 0.08722884 0.16941783 0.13020371 0.1734143 -0.14035028 -0.17054234 -0.3907079 0.13893989 0.1484443 0.041895952
b40 0.2196649 0.056150224 -0.053170796 0.03919366 0.10495349 0.10985243 0.1655378 -0.12313495 0.113019064 -0.16933253 0.03154922 -0.22649615 -0.29737705 0.100960225 -0.6017635 -0.065498315 -0.1682176 0.25303653 0.2822232 0.37209052 0.07061435 -0.32656983 -0.38909894 0.026084343 0.13328749 0.24410494 0.11727938 0.19428924 -0.09620111 0.1888214 -0.4586434 -0.15833867 -0.32318255 0.18715283 0.11961897 0.23463188 -0.060652185 0.28282928 0.29637972 0.24987908 0.034351 0.2460665 -0.029792925 0.21915594 -0.02980921 -0.0011769969 0.22508463 -0.014492081 0.12016278 -0.04710814 -0.9686263 0.14553115 0.036960077 -0.010440256 0.21548088 -1.6668229 -0.004452932 0.087779276 0.045399044 -0.065392986 -0.04650742 0.08138671 0.25063434 0.1563728
b41 0.012267309 0.009828624 0.016249673 0.19286825 0.047170885 0.12947789 -0.04871157 -0.002565594 0.22300258 0.019790467 0.085144036 -0.18202195 -0.2051786 -0.21022768 -0.18573143 -0.012682194 -0.040208425 0.16199686 0.16813001 0.004901857 -0.015063116 -0.097045116 -0.338118 -0.050161667 0.123947516 0.28143045 0.15407473 -0.08918719 0.068172686 0.21277224 -0.20981646 -0.24974456 -0.16130966 -0.011359644 0.08894653 0.03350387 -0.03222283 -0.07861302 0.072986335 0.09558641 0.24297109 0.27430022 0.020178352 0.14853874 0.07779139 0.15930986 0.10369635 -0.0052488307 0.1088579 0.10369987 -0.32614312 0.07069573 -0.032424387 -0.056429535 0.03987609 -0.6428091 -0.008306482 0.1551982 -0.003921309 -0.019235983 -0.076560356 0.11438623 0.09418533 0.03681089
b42 0.09083335 -0.016082905 -0.026839308 0.16495495 0.026280183 0.1456331 -0.01505275 -0.019279072 -0.061049197 -0.016013142 0.06845363 -0.104316995 -0.078296 -0.0955499 -0.20323282 -0.083515875 -0.066719145 0.054387964 0.047209688 -0.13263366 -0.10052255 0.1721095 -0.10551914 -0.094900645 0.057832994 0.15431139 0.11124343 -0.09317286 0.104222424 -0.012497328 -0.11890444 -0.14068411 -0.09838689 0.05084926 -0.07837451 0.013074078 -0.06995282 -0.021858517 -0.0028868965 0.030633332 0.13812529 0.18207395 0.058020502 0.018049916 0.09246019 0.20910574 -0.053469963 -0.062337484 0.05040019 0.11260483 -0.17678246 0.079539284 -0.13509157 -0.05851578 -0.005223522 -0.22847854 0.10397928 0.12305713 -0.06390141 -0.059714276 -0.085353516 0.19070059 0.13241744 0.09830314
b43 0.28479555 0.07191227 -0.099475384 0.048078068 0.030837562 0.15188937 0.06088285 0.025049698 0.05871581 0.1857469 -0.022189554 -0.07343222 -0.47298992 -0.09312117 -0.073468685 -0.16773906 -0.12644956 0.20836769 0.30444497 0.03523079 -0.039794296 -0.073963225 -0.056251194 -0.027141975 0.20728856 -0.14801605 0.22414528 0.091662824 -0.09158783 0.123793826 -0.13142669 0.1085013 -0.18925022 0.20518431 0.1910783 -0.123875774 0.06631723 0.0860754 -0.22175886 -0.28112584 0.16749685 -0.10581911 0.10265046 0.13694291 0.055109873 -0.3341811 0.13585083 -0.06464007 0.19477639 0.025260616 -0.12938713 0.08254272 -0.052648406 -0.49515486 0.04558008 -0.11954043 0.13320296 0.21566567 0.020458728 -0.049285706 -0.29179138 0.15850326 0.108951114 -0.007818843
b44 0.34898573 0.122246005 -0.11881052 0.08884001 -0.087788954 0.06518289 0.20726456 0.18664129 -0.0638064 0.21761535 0.034080684 -0.06983055 -0.4726021 0.08104613 0.06340584 -0.19015625 -0.10700847 0.17112571 0.32852152 -0.06549164 0.0006854601 -0.09725783 0.07098145 -0.10852503 0.19510804 -0.32399678 0.27117863 0.06333287 -0.27846387 -0.018829767 -0.19162032 0.26065758 -0.21856882 0.2517667 0.07154672 -0.10982219 0.18510689 0.05617574 -0.32739696 -0.2666101 0.012082063 -0.34781826 0.17306381 0.14767833 -0.032218255 -0.3931442 0.048498232 -0.01352963 0.19986022 -0.061835468 -0.010486605 0.16931967 0.107359186 -0.43548772 0.046578173 0.20997186 0.18817459 0.11661209 -0.0992032 -0.2121514 -0.4415309 0.077430435 0.05631236 0.02059783
b45 -0.3777539 0.47576687 -0.2459426 -0.20871809 -0.28342026 0.21264856 0.28128698 0.31078398 0.06679736 0.10291621 0.33485273 0.11894303 0.023476487 0.03666254 0.03965144 -0.13815315 -0.047308087 -0.0013977457 -0.06534803 0.16857432 -0.0818088 0.5017651 -0.4308673 0.0886517 0.19479299 -0.6459168 -0.08464973 -0.030724341 0.5494611 0.022752322 0.07615445 -0.005310033 0.025712518 0.24091505 -0.51375604 0.055015948 0.42480454 -0.48669887 0.1440295 -0.09924182 -0.23991671 0.052132774 0.22237968 -0.03940362 -0.115004025 0.78280616 -0.13279504 0.023399595 -0.2198862 -0.46332 0.11265453 0.015206351 0.022685878 0.123563364 0.13941789 -0.4106921 -0.10159688 -0.06745801 -0.03981146 -0.3059432 0.26081458 0.35483897 0.40430704 0.4259804
b46 0.059664384 -0.013247435 -0.049291424 0.17781615 0.059621196 0.24056225 0.04135599 -0.14979185 0.039007924 -0.093964115 0.06599914 -0.10041427 -0.1389016 0.011244664 -0.43902972 0.018735506 -0.07330448 0.17359044 0.1357155 0.17780761 -0.0015821122 -0.19779633 -0.40547076 -0.046531513 0.0969959 0.40507483 0.141567 0.13434583 -0.08795283 0.18103614 -0.33005893 -0.17964797 -0.32634038 0.04657604 0.18526384 0.08995179 -0.08304285 0.10776386 0.313279 0.17366233 0.09604442 0.27612865 0.065286644 0.09035337 -0.0148925455 0.07251685 0.141129 0.01329632 0.12370147 0.077312246 -0.6890698 0.18717766 -0.04578793 -0.078639396 0.17550492 -1.2055718 0.011457135 0.19422731 0.0018495256 0.013017869 -0.099745005 0.17033179 0.22165932 0.021050924
b47 0.020470895 0.018526057 -0.031298555 0.16554381 0.040624402 0.16847757 -0.013379443 -0.08317784 0.08638705 -0.062860414 -0.05710288 -0.10050114 -0.19143258 -0.12539926 -0.2902052 -0.014583327 -0.060212784 0.12734354 0.140812 0.24492456 -0.073607944 -0.033369664 -0.34176627 0.021213505 0.09024335 0.34487182 0.18635646 0.105159484 -0.059083093 0.14538197 -0.18816449 -0.26953351 -0.23642388 0.102606304 0.09543859 0.11991752 -0.1024309 -0.102993175 0.1438031 0.17059964 0.18135786 0.4036683 0.0067363144 0.118450865 0.041425806 0.09896455 0.27133486 0.06583319 0.047226883 0.021882843 -0.5928714 0.13048702 -0.029120307 0.011911362 0.08341046 -1.0707572 0.032698337 0.23990643 -0.029955043 0.012901457 -0.018655121 0.15718713 0.2449274 0.0030134397
b48 -0.008510146 -0.07985582 0.03395334 0.14984363 0.16236861 0.18014513 -0.016278945 -0.03162531 0.17260355 -0.01572774 0.05572392 -0.2653071 -0.21663354 -0.2765307 -0.3510699 -0.06652509 -0.19263108 0.21619822 0.17427242 0.05926115 -0.029832836 -0.067644514 -0.29867277 0.021616252 0.021847736 0.37032485 0.063761875 0.055305168 0.14666286 0.23789102 -0.16434787 -0.31516868 -0.09619989 0.02905515 0.24536973 -0.04072092 -0.041936472 0.024699567 0.120784335 0.11080042 -0.0197014 0.3963607 0.05852882 0.19635206 0.08262774 0.06395476 0.19848542 -0.0169665 0.20593423 0.11208234 -0.44486973 0.112946965 -0.04523441 -0.043181643 0.15641382 -0.9623847 0.018633917 0.1385485 -0.09938477 -0.0017740205 -0.012986309 0.022557665 0.18478656 0.06310375
b49 -0.034698665 0.051799733 -0.022985216 0.11765028 -0.052788388 0.13497119 -0.007260482 -0.025576882 0.06361932 0.051209282 0.03580613 -0.083620764 -0.06994328 -0.15173537 -0.15404989 -0.02821117 -0.07072454 0.10781363 0.11466234 -0.04399695 -0.05932129 0.05639939 -0.24385318 -0.06360084 0.085899234 0.13484517 0.10029874 -0.052069712 0.048926696 0.10892204 -0.1224935 -0.22640307 -0.14672568 0.016981622 -0.036815096 -0.031155802 0.028015321 -0.1462965 -0.049011756 0.06067137 0.11585196 0.16209693 0.037783246 0.051771853 0.07366813 0.15029988 0.15673879 -0.0002494494 0.088358775 -0.058679476 -0.21540529 0.025466606 -0.12541977 -0.006837887 -0.041000836 -0.43592244 0.06142118 0.10595661 -0.039143424 -0.10801346 -0.04515489 0.12239316 0.1304736 0.12040242
b50 0.33853325 0.02422797 -0.07143922 0.15369959 0.020438993 0.076199606 0.15478295 0.10694539 0.090848885 0.15431163 0.10916735 -0.019616384 -0.65994644 0.0034895143 0.16698328 -0.16784061 0.20916983 0.1256538 0.43961003 -0.081436425 0.026026465 -0.082276985 0.11962118 -0.017937828 0.16354518 -0.45147666 0.24071684 0.17139474 -0.38923225 -0.09524808 -0.20528135 0.24941278 -0.36429906 0.18350987 0.009723417 -0.038315848 0.1708611 0.064065 -0.52086776 -0.43608576 0.08660931 -0.62213975 0.14112437 0.14071709 -0.042857658 -0.3730903 0.18502079 0.09181106 0.18796107 -0.027095689 -0.12708955 0.07322688 0.0016168399 -0.6501824 0.12515669 0.1849982 0.11964265 0.21869384 -0.08708675 -0.1654357 -0.678545 0.13172084 0.19849364 0.007727776
b51 -0.025721354 0.08407608 -0.017612271 0.05918212 0.015476892 0.18221524 -0.07894341 -0.023426037 0.055530146 0.024146024 -0.06563878 -0.17852652 0.012515274 -0.1957975 -0.22154042 0.055477444 -0.11500994 0.12399907 0.17753844 -0.082181044 0.03306895 0.059694912 -0.30300233 -0.02745973 0.09894177 0.30339453 0.16257918 0.035776116 0.10845528 0.17164108 -0.12578815 -0.3163615 -0.11359466 0.021362659 -0.039786834 0.0030521594 0.043396812 -0.115264215 0.06900004 0.19305038 0.2097696 0.21948905 0.070847556 0.15924682 0.17964837 0.33700815 0.15763319 0.040823616 0.17578356 0.14948918 -0.3858276 0.010550365 -0.09413604 -0.021651033 -0.09247192 -0.54273313 0.046860527 0.24582282 -0.012120395 0.054095794 -0.07332623 0.012618689 0.13310705 0.09754605
b52 0.1937892 0.1335684 -0.14630513 -0.0047637336 -0.07394176 0.12894571 0.1605356 0.18020605 -0.013103613 0.14864397 0.06888271 -0.036559217 -0.304406 -0.022254638 0.09609343 -0.17053403 -0.05934291 0.15032333 0.27605268 -0.06741754 -0.046766452 -0.024894757 -0.037584245 -0.03215773 0.15553539 -0.14510643 0.101775564 0.07141911 -0.16589673 -0.09354283 -0.12641041 0.07830729 -0.20478225 0.11845521 0.0034487068 -0.17727755 0.20821661 0.0270165 -0.2698404 -0.26511472 0.09556165 -0.17719293 0.19842106 0.11165002 -0.0012273771 -0.17653838 0.0025950733 -0.017717484 0.13205582 -0.05690711 -0.050646864 0.12781197 -0.01731059 -0.3288395 0.05070493 0.13025786 0.12114589 0.12608041 -0.08332354 -0.14847977 -0.200407 0.06660163 0.07794512 0.102337465
b53 0.32239813 0.14697711 -0.110692024 0.08565794 -0.054302003 0.10229141 0.15702656 0.17239207 -0.013940222 0.18114454 0.08166836 -0.078201175 -0.43336427 0.023549573 0.03441406 -0.18433744 -0.09890103 0.17644143 0.367695 -0.026323916 -0.009774728 -0.06296388 -0.010905907 -0.06283198 0.2526614 -0.30133563 0.22582111 0.088801704 -0.1871441 0.02508844 -0.09114456 0.20342965 -0.22676386 0.17223123 0.053764686 -0.124724396 0.18346357 0.076028965 -0.2885079 -0.30727413 0.06293447 -0.30932996 0.08436141 0.121739306 0.040387083 -0.31975105 0.0117885815 -0.017208368 0.13536374 0.019497018 -0.06531705 0.15246695 0.01389284 -0.38302132 0.038101114 0.12406595 0.1436498 0.21155134 -0.08386643 -0.11769839 -0.37608242 0.034031365 0.14076607 0.051392682
b54 0.14743374 0.12343038 -0.09316782 0.010777701 -0.07189209 0.009250526 0.14906709 0.10985735 -0.20508759 0.08714891 0.17509982 -0.039563473 -0.1718778 0.0042444794 -0.07452962 -0.15261033 -0.052465733 0.052500963 0.10019549 -0.15620603 -0.16240941 0.13114257 0.031918887 -0.08469794 0.046648666 0.11732859 0.025932524 -0.09446219 0.011788366 -0.19135056 -0.06414264 0.024992563 -0.11831943 0.124384485 -0.030137463 -0.09839524 0.028650397 0.06670903 -0.0055695227 -0.1371758 0.15187207 0.014822107 0.14278865 0.050171427 0.036596205 0.087732546 -0.16825067 -0.15040094 0.032449834 0.05557624 -0.0086251125 0.15152782 -0.030071054 -0.16715486 -0.10365616 0.08058595 0.070693836 0.07971647 -0.11456508 -0.10765533 -0.043443043 0.10733419 0.12469149 0.0793026
b55 -0.33866403 0.5846784 0.16135359 -0.18494229 -0.30376694 -0.15002236 -0.14910464 0.42993286 -0.3753158 -0.028969694 -0.08668559 0.17621635 0.2538169 -0.42499137 0.27558666 -0.026750397 0.226088 -0.037329774 0.15803367 -0.28519845 0.11049466 0.56420535 -0.42467397 0.17342885 -0.11630351 0.447794 -0.059757814 -0.44695303 -0.13371074 -0.4268372 0.122252256 -0.54250234 -0.095126055 -0.05034497 -0.44031847 -0.40076315 0.51233584 -0.15716363 -0.41152945 0.15994784 0.15699783 -0.27839133 0.18769953 -0.26243892 0.22081582 0.34566104 0.25187078 0.0039164233 0.093309365 -0.38197222 0.07720817 -0.11323012 0.12521918 -0.03143883 -0.3973767 0.04462195 -0.11934455 0.31514424 0.023117896 -0.36822373 0.17818318 -0.1792503 0.23960164 0.44625607
b56 0.28961575 0.19382785 -0.13206913 0.023646455 -0.12217491 0.10661703 0.20614322 0.2680109 -0.0539404 0.18614495 0.0904043 -0.06399431 -0.38823017 0.04230278 0.12382041 -0.21060905 -0.0827397 0.17548905 0.33124042 -0.013739964 -0.025631329 -0.07807883 0.035669092 -0.07512353 0.13977115 -0.29493442 0.1766995 0.04463253 -0.31320858 -0.13567983 -0.11136516 0.13087359 -0.1904252 0.21847418 0.005614631 -0.12250756 0.22633614 0.0015888134 -0.38337317 -0.295337 0.104075514 -0.31664318 0.13992417 0.088988006 -0.042464707 -0.2776437 0.037276313 -0.030382274 0.18655825 -0.04498699 -0.013739245 0.15452528 0.07895285 -0.46647134 0.041237842 0.15342966 0.16656114 0.1682609 -0.09464612 -0.13565867 -0.37686536 0.04443943 0.047438327 0.09915494
b57 0.39679176 0.057281654 -0.123542406 0.12701537 0.09069742 0.10411172 0.12340344 0.18008596 0.15684369 0.16727673 0.06658522 -0.05446552 -0.732906 0.03516971 0.062184487 -0.22957097 0.0006479582 0.2868879 0.44345623 -0.04454055 0.06744121 -0.09260965 0.1417322 -0.03451435 0.27182606 -0.6064303 0.24860811 0.21010198 -0.36220375 0.041444644 -0.1826048 0.3546958 -0.28289652 0.27628368 0.04076078 0.0050195763 0.11957607 0.11146291 -0.35841617 -0.4485268 0.0746848 -0.5873186 0.18437648 0.10602989 -0.07681736 -0.42030978 0.114626564 0.13218012 0.1855637 -0.04292078 -0.15729631 0.18497495 0.10700758 -0.6828669 0.20894231 0.2383684 0.1980034 0.12351294 -0.060684223 -0.12623478 -0.7431987 0.15994412 0.16155738 0.038033724
b58 -0.345072 0.49195692 -0.21831153 -0.19805926 -0.21381316 0.16294499 0.28747517 0.36749437 0.026902864 0.02194191 0.2975286 0.04703043 0.053394344 -0.00839149 -0.018684871 -0.12360802 -0.10115178 -0.034880873 -0.06965518 0.09778218 -0.04304783 0.48910597 -0.42552438 0.008219898 0.14504927 -0.5747694 -0.08157069 -0.26049617 0.42234164 -0.19377095 0.015400499 -0.030433146 0.0038437385 0.13537633 -0.5344517 -0.004531311 0.3735443 -0.41157973 0.09659208 -0.10905522 -0.21154222 -0.12730514 0.23448099 -0.11190099 0.0314355 0.59595734 -0.087424174 0.05383199 -0.2494688 -0.36925393 0.09890447 -0.010132126 -0.008618001 0.083663076 -0.06674876 -0.14105949 -0.15267101 -0.056783155 -0.05243493 -0.26271075 0.24855879 0.35185358 0.43235895 0.34869835
b59 -0.16583867 0.24860613 -0.17067221 -0.08690809 -0.26742986 0.12190183 0.161905 0.22081499 -0.0072492515 0.06576248 0.22927351 -0.013271177 0.012734995 0.0063356976 -0.017500991 -0.14903928 -0.12435359 -0.062545694 0.022319887 0.100009225 -0.09358904 0.15398428 -0.24690114 0.05717971 0.19843684 -0.13484415 -0.0028851698 -0.1473081 0.20965178 -0.054962635 0.032908056 0.012791374 0.01617996 0.10906407 -0.25380725 -0.069398604 0.2578858 -0.3405617 0.016233355 -0.11596204 -0.06662287 0.04787726 0.20196906 0.014566666 0.019191403 0.2606123 -0.08136945 -0.062115774 -0.045095578 -0.2761129 -0.0012535878 0.042895015 -0.0030070532 0.07295275 -0.07073262 -0.26021305 -0.10792726 0.014454148 0.00092131435 -0.24713175 0.121261835 0.22989331 0.25078586 0.19565617
b60 0.44447765 0.12959476 -0.26553297 0.17303835 -0.09954575 0.035847735 0.15976284 0.2523925 -0.119096026 0.18683146 0.14214674 -0.07815233 -0.4542387 0.19395295 0.021543592 -0.2320256 -0.030389568 0.12272857 0.30717468 -0.16452453 -0.056701392 0.04132812 0.19978793 -0.12806033 0.09724823 -0.38099578 0.18061213 0.08975622 -0.1467364 -0.10781431 -0.10027217 0.29510397 -0.14679019 0.23498847 -0.09014433 -0.07530209 0.16502212 0.26250207 -0.32136163 -0.38403356 0.18304718 -0.31725025 0.12370868 0.05532144 -0.08664035 -0.3017501 -0.082416005 -0.023102816 0.09764215 -0.00091592566 -0.013344986 0.25220138 -0.018978843 -0.5597014 0.10259336 0.28864995 0.17330465 0.15060486 -0.087948345 -0.0952994 -0.5342474 0.07600116 0.018391164 0.09206553
b61 -0.44210964 0.47724637 -0.25786683 -0.26233256 -0.32999504 0.17672308 0.30805403 0.32958737 0.08238396 0.13738067 0.32366782 0.09686177 0.028686121 0.069058076 -0.057181552 -0.17388904 -0.13223465 -0.016443064 -0.053944074 0.18576898 -0.068700545 0.48620138 -0.4739223 0.08406816 0.23103948 -0.5332907 -0.028123343 -0.042818133 0.5800133 0.02511072 0.043216486 -0.002646958 0.047658868 0.2086434 -0.56580293 0.027048402 0.41575807 -0.57884467 0.090712965 -0.11894618 -0.2661801 -0.03174198 0.2635869 -0.054376192 -0.11845519 0.75639564 -0.13728194 0.062207494 -0.2232866 -0.50336534 0.15474986 0.0317319 0.077210605 0.14540744 0.18544249 -0.39840785 -0.083193704 -0.10638751 0.03607356 -0.2955208 0.2209116 0.4171923 0.4338445 0.39308015
b62 0.02310367 0.06015091 -0.0022436767 0.07677266 0.057342272 0.19242266 0.06389567 -0.17519125 0.19408986 0.023953196 0.14159718 -0.20286265 -0.20290305 -0.13929603 -0.43214637 -0.004162664 -0.007806598 0.17171912 0.14793962 0.18632847 -0.05748242 -0.14662454 -0.41721645 0.059575662 0.044461988 0.27995622 0.21108213 0.18836088 0.011421875 0.23758715 -0.366543 -0.26507753 -0.22052331 0.08205022 0.008016466 0.1120491 -0.10249495 0.012366702 0.23640478 0.18135844 0.1880877 0.30816272 0.022646531 0.13516189 -0.06546496 0.0995144 0.34591484 0.05843837 0.06213324 -0.021748126 -0.5514872 0.11683182 -0.02023062 -0.013846659 0.17045973 -1.1303194 0.003442133 0.15013315 -0.040649332 -0.0036742366 -0.06366888 0.0992649 0.1902176 -0.017875481
b63 0.3260901 0.2303658 -0.111819 0.14537485 -0.19634539 0.14192869 0.27940807 0.19861694 -0.057428017 0.16906615 0.08058618 -0.10122353 -0.42517766 0.11460667 0.09984487 -0.18607663 -0.025390625 0.14785479 0.35000333 -0.1158908 0.028624067 -0.13639815 0.07405487 -0.028006677 0.19769579 -0.27652436 0.14129333 0.1826726 -0.3216701 -0.082747385 -0.103452705 0.24304414 -0.1938635 0.15800136 -0.030657453 -0.1801113 0.29084224 0.08373154 -0.40912196 -0.27542594 0.07710037 -0.3812743 0.19363123 0.16269246 0.089955285 -0.337821 -0.023617756 -0.040009912 0.19306174 -0.067297876 -0.112385124 0.15553549 0.09536955 -0.38956118 0.08295726 0.24105318 0.13435191 0.15600474 -0.065222055 -0.1922396 -0.36197028 -0.02902455 0.10977292 0.09148394
b64 0.3097117 0.1559471 -0.21575764 0.097426176 -0.0859833 0.11720643 0.21156876 0.13831246 -0.009464019 0.27514595 0.08475358 0.02184306 -0.50185484 0.081988566 0.15853551 -0.20011283 -0.07574434 0.25889373 0.30170128 0.019685268 -0.06265281 0.04412069 0.011466604 -0.04185765 0.26493913 -0.3886654 0.1829973 0.117821746 -0.3600261 0.042856585 -0.1872605 0.19086663 -0.17387442 0.34224477 -0.048506442 -0.10046816 0.22072892 0.032307085 -0.31371215 -0.29679057 0.03600114 -0.36864775 0.16173342 0.12531698 -0.040756293 -0.32636264 0.046775572 -0.019484684 0.13852145 -0.09131671 -0.05278831 0.1252726 0.084886655 -0.53675663 0.033951137 0.16012366 0.14557743 0.072919674 -0.10076076 -0.04842984 -0.47643274 -0.038974345 0.19240725 0.052785613
b65 0.02122736 0.016072646 -0.007408045 0.16591333 -0.026117373 0.14285839 -0.01539782 -0.018867476 0.1370993 0.017244816 0.019129334 -0.09509038 -0.07650479 -0.17596246 -0.14708468 0.019851893 -0.045511458 0.15693963 0.15336472 -0.012403181 -0.0059250845 -0.039928496 -0.3237094 -0.015027918 0.1009452 0.23241603 0.16862018 0.03235651 -0.04118709 0.13997097 -0.13581556 -0.20163614 -0.16741727 0.07016637 0.06485575 0.040944185 -0.043822974 -0.09107158 0.01760261 0.044104584 0.15923744 0.1698306 -0.028553098 0.14470904 0.042460732 0.24559422 0.18908094 -0.028627973 0.14158003 0.023784095 -0.2780428 0.056737922 -0.121360764 -0.04244081 -0.024730885 -0.45466042 0.08170014 0.120635614 -0.010287634 -0.0630027 -0.11160873 0.10471568 0.10119893 0.06781781
b66 -0.035951056 0.08298573 -0.042685684 0.13735941 0.019773245 0.17108117 -0.05009414 -0.08719148 0.17965977 -0.12208527 -0.035394046 -0.2020331 -0.13756391 -0.33684316 -0.4468797 -0.16941267 -0.06527476 0.06496092 0.26549906 0.20218922 0.03561872 0.024121892 -0.34531695 -0.076081 0.03282435 0.29193053 -0.02205709 0.07625335 0.122822866 0.0643824 -0.28165835 -0.35771385 -0.1525988 -0.028348697 -0.2511052 0.0960866 -0.009100617 -0.13218202 0.15243368 0.124474674 0.21127526 0.31450883 0.21963884 0.104023375 0.055028394 0.3696929 0.13409944 0.20408 -0.036924854 -0.028819697 -0.3741322 -0.03337519 -0.047333483 0.008269117 0.05786363 -0.6883266 -0.04634658 0.10478691 -0.06842061 -0.063898586 -0.110650025 0.06775731 -0.044505347 0.13160288
b67 0.30930454 0.02957929 -0.14795795 0.08358812 -0.02383108 0.12407137 0.16591287 0.14157893 0.15927145 0.15618758 0.10506176 0.009847898 -0.5365801 0.037080258 0.12908153 -0.18795536 0.034792796 0.1527631 0.30586374 0.022021241 -0.006201023 -0.095355704 0.0013100738 -0.10979321 0.17077802 -0.3543931 0.2344306 0.2075198 -0.2864544 -0.06012955 -0.20633316 0.20756583 -0.15866561 0.2045027 0.007988868 -0.13219017 0.08499671 0.030044375 -0.42764175 -0.43152916 0.02737366 -0.38412967 0.21964903 0.0787865 0.029776532 -0.34833288 0.059603017 -0.015129092 0.101685606 -0.10280804 -0.050939016 0.10765976 0.027484586 -0.43886003 0.14242916 0.10077638 0.25289753 0.12029916 -0.107821964 -0.27750036 -0.46615976 0.1100572 0.103092514 -0.017896175
b68 0.018655336 0.117624424 -0.0038964942 0.18747248 0.0490416 0.16608374 -0.0042979214 -0.04704791 0.15211612 -0.1365874 0.049521197 -0.24028963 -0.11865667 -0.24847534 -0.4053208 -0.14581369 -0.042425964 0.055572417 0.19169146 0.029985435 -0.039805945 -0.0340421 -0.36006978 -0.09697054 0.029780235 0.34359166 0.046313465 0.08154229 0.091113776 0.037933867 -0.3609789 -0.339646 -0.18521172 -0.051950797 -0.094947316 0.10382785 -0.08995771 -0.01833671 0.16558287 0.17324936 0.16286947 0.35376891 0.17617801 0.054754287 0.040192157 0.29610467 0.037509777 0.16942038 0.055313144 0.006118119 -0.40866473 0.004936495 -0.051894832 -0.03810584 0.17279206 -0.7146079 -0.0087110605 0.0782056 -0.14636086 -0.054634992 -0.00905489 -0.0027204843 -0.010023206 0.122530125
b69 -0.008188281 0.084469 0.028279688 0.110247254 0.06033024 0.19577436 0.07670074 -0.14137737 0.12724909 -0.013417043 0.093295 -0.18489154 -0.08160048 -0.13662776 -0.38876802 -0.07898026 0.0027090271 0.10547963 0.14090383 0.019017255 0.045784745 -0.06356809 -0.27848926 0.06572712 0.03639393 0.28447494 0.18535474 0.08138055 0.052084908 0.22291371 -0.25497365 -0.29906362 -0.15148589 0.004764539 -0.03488436 0.0865154 -0.02751174 -0.12772004 0.15672268 0.17747672 0.12315871 0.3434845 0.04801183 0.19802347 0.07147952 0.3901888 0.2697651 0.043981098 0.07241219 0.015227157 -0.4218047 0.10750354 -0.058280244 -0.0069638616 0.1801369 -0.95216626 0.071732566 0.12618953 -0.03188012 -0.17420791 -0.045807105 0.09403711 0.054534867 -0.09656658
b70 0.06610968 -0.05644348 0.009748671 0.0930402 -0.0019181856 0.25724933 -0.04388448 -0.17305855 0.19328855 -0.0062051085 -0.05039307 -0.15402877 -0.18194413 -0.124006614 -0.2949561 0.089158624 -0.12572573 0.14961378 0.097256236 0.1750675 0.007611009 -0.11537671 -0.35057625 -0.051129773 0.07105186 0.3633603 0.09407146 0.13541378 -0.004811841 0.08820925 -0.25047445 -0.25990185 -0.32837197 0.049992952 0.1283899 0.06566316 -0.126128 -0.094384484 0.19311228 0.11307824 0.084560335 0.34392923 -0.034854442 0.13823292 0.020895766 0.09948879 0.2441558 0.115971014 0.03673858 0.057388466 -0.48623762 0.17173384 0.0025970961 0.0059494358 0.059243936 -0.8993748 -0.047334153 0.24781437 -0.04017835 -0.17904602 -0.16495672 0.28435174 0.095323056 0.0328818
b71 0.022363966 0.03801397 -0.08462942 0.13093404 -0.036686398 0.12951796 0.004269628 -0.02455863 -0.014451186 0.0065203677 0.06072859 -0.12125305 -0.038296197 -0.1310799 -0.16689709 -0.13740104 -0.11069162 0.025474852 0.05980802 -0.0662439 -0.12707207 0.15365963 -0.17285363 -0.095198385 0.07929194 0.10404409 0.0428422 -0.1339866 0.07864055 0.022740355 -0.13167456 -0.18105793 -0.14778465 -0.051446397 -0.09230927 -0.019314313 0.019845985 -0.18666059 -0.07376003 0.008483533 0.083292365 0.14041393 0.12471634 0.07555694 0.14065549 0.1801279 0.022390151 -0.011069643 0.08474376 0.021220304 -0.19126768 -0.001696175 -0.12660179 -0.03342875 -0.119703 -0.26491845 -0.006223766 0.09424799 -0.087438874 -0.13405536 -0.014668099 0.17323504 0.10018064 0.13972141
b72 0.21394315 0.14713041 -0.066286676 0.037392437 -0.09142883 -0.0133532705 0.15590666 0.18315738 -0.20037866 0.094197094 0.15211408 0.0009684857 -0.20106025 0.00716637 -0.05355477 -0.15782064 -0.04333477 0.08371226 0.10237796 -0.14742513 -0.14711668 0.14012368 0.05305683 -0.08960012 0.03389637 0.053112883 0.08979812 -0.08697814 -0.008240794 -0.18867572 -0.089087926 0.08765644 -0.13529254 0.14704129 -0.07656631 -0.12590346 0.0658199 0.09122679 -0.06337994 -0.17454295 0.16158637 -0.025887178 0.12378891 0.049162813 0.0311996 0.007833146 -0.20071504 -0.14531301 0.027392458 0.035114285 -0.016636856 0.17650838 -0.030001283 -0.1733567 -0.05115578 0.05266986 0.100284845 0.1196081 -0.11549362 -0.113460496 -0.05788298 0.13016044 0.092337385 0.057889994
b73 0.13241097 0.09325107 0.010511134 0.14179976 0.25940153 0.09781854 0.06487171 -0.0951808 -0.036769263 -0.19043668 0.22940756 -0.09403721 -0.32710108 0.004778497 -0.5147963 -0.11409603 -0.046335217 0.045996472 -0.003939893 0.1310522 -0.10334077 -0.22775348 -0.4388323 -0.0015573541 0.006253065 0.28793424 0.12539692 0.049110003 -0.091954164 0.1708504 -0.5274353 -0.30349675 -0.29258913 0.06953029 -0.08714698 0.35245726 -0.19486836 0.17377378 0.36613247 0.19036551 0.12100319 0.22383557 0.058534194 0.15810078 -0.10538702 -0.15216008 0.091776 -0.044715777 0.002127663 0.12873824 -0.9410486 0.34585422 0.0014122939 -0.11226513 0.22407341 -1.3966935 -0.007243745 0.06875014 -0.06408467 -0.22571601 0.029283429 0.21632418 0.2000532 0.071131565
b74 0.4423021 0.058785625 -0.16883431 0.14439926 0.00018045078 0.12689947 0.26943558 0.2831842 -0.081663735 0.22113691 0.024849147 -0.03626701 -0.5333385 0.062946156 0.23603624 -0.15647611 0.011308257 0.12909476 0.4224032 -0.15733509 -0.044533253 -0.1816299 0.0955467 -0.059281956 0.24589312 -0.45052075 0.2679646 0.15518303 -0.4180523 0.06371138 -0.18614903 0.2662303 -0.19272383 0.16321598 -0.16861787 -0.03424395 0.16238028 0.06285202 -0.38156974 -0.39795962 0.15164855 -0.47871327 0.16288425 0.18295184 -0.05382567 -0.36321685 0.06607943 0.14400047 0.19860409 -0.06219067 -0.16038772 0.20802762 0.088119105 -0.5094272 0.114927985 0.30143788 0.082509845 0.22252801 -0.15262344 -0.10814303 -0.55480874 0.0077863066 0.08578716 0.16865131
b75 0.21854179 0.14048143 -0.106042564 -0.007536721 -0.01706741 0.1386396 0.13782516 0.04392026 0.04612203 0.091451034 0.07813445 -0.06394947 -0.280305 -0.013507711 -0.032066725 -0.09001231 -0.15235303 0.16773818 0.2376145 0.055865612 -0.06365745 0.023635216 -0.0994357 -0.068695575 0.23218274 -0.15674749 0.15356371 0.046719357 -0.0923801 -0.0070195193 -0.15042779 0.0794056 -0.20188501 0.13502903 0.019315485 -0.11152869 0.03516471 -0.09992936 -0.09529331 -0.20283335 0.09595226 -0.11695641 0.15470976 0.061151 0.0017137413 0.0073784553 0.069435306 -0.047611255 0.101443544 -0.1364467 -0.1469044 0.1800309 -0.0667804 -0.20816159 0.054463297 -0.036250718 0.1552908 0.15678374 -0.06406881 -0.16270985 -0.22144836 0.24474396 0.16835053 0.034335848
b76 0.12392686 0.0879723 0.021293323 0.110855244 0.18518941 0.14698517 -0.01376857 -0.1479549 -0.06409779 -0.17478916 0.07339296 -0.16759549 -0.096668206 0.07375178 -0.58498996 0.1424714 -0.12353077 0.25618985 0.15996848 0.18921047 -0.019658472 -0.1476005 -0.37570477 0.038127176 0.014695292 0.35244986 0.21013315 -0.044642705 -0.070981845 0.11048251 -0.40248454 -0.18269904 -0.29139882 0.20818715 0.12545569 0.039087504 0.10075952 0.32086933 0.24761741 0.2471995 0.110564746 0.26882386 0.115454346 0.07256207 0.09280587 0.008727373 0.13820547 0.0827659 0.118731014 0.25793764 -0.8339089 0.16382653 0.011475905 -0.047247432 0.27196813 -1.44693 0.033962402 0.15235458 -0.1551989 -0.11240207 -0.027870283 0.08719002 0.16782627 0.10635045
b77 0.10880426 0.16331112 -0.07321741 -0.002909547 -0.07771718 0.093429886 0.12726395 0.11365398 -0.008936367 0.16978377 0.05980688 0.00825839 -0.24508533 -0.06974029 0.061923817 -0.15615264 -0.050363705 0.1322372 0.25237826 0.01648832 -0.018417815 0.044735387 -0.09510254 -0.06831814 0.11518644 0.007836091 0.07544247 0.0905236 -0.09606212 -0.055895865 -0.103213206 -0.0050414274 -0.16481379 0.15690625 0.049009427 -0.18873452 0.1429764 -0.017824575 -0.18727887 -0.15538932 0.09832865 -0.033391636 0.14898905 0.10074581 0.0046803975 0.050983075 0.07514492 -0.052561913 0.10894593 -0.070398346 -0.025210572 0.14527732 -0.02161196 -0.27516562 -0.00084330473 -0.026368152 0.13283625 0.15924169 -0.07920362 -0.1185548 -0.13374937 0.041950043 0.12612604 0.07971588
b78 0.24439053 0.19037186 -0.19361626 0.12901004 -0.10570539 0.013247059 0.15878236 0.2082979 -0.12967655 0.13351332 0.16469833 -0.062129937 -0.4079433 0.13071132 0.035455063 -0.2908184 -0.03147291 0.100117914 0.16755724 -0.072761945 -0.07822694 -0.0008965038 0.09831501 -0.09320574 0.120673604 -0.31718728 0.12308039 -0.046704426 -0.15639278 -0.1381022 -0.0792107 0.34463766 -0.119626574 0.14106134 -0.12889388 -0.094996914 0.14928934 0.13600443 -0.25999594 -0.33700913 0.16285549 -0.35145918 0.12648444 0.10818448 0.045693412 -0.22193152 -0.09688214 -0.10988223 0.06365735 -0.031571712 -0.038066555 0.20785204 0.014724967 -0.4760675 0.15210715 0.3395807 0.13383073 0.09720667 -0.110874124 -0.19690146 -0.34850445 0.112800546 0.18127185 0.120995544
b79 -0.32092944 0.50831944 0.13252427 -0.22506145 -0.31461552 -0.23873803 -0.23102175 0.4080407 -0.34536314 -0.062847644 -0.09376223 0.15901783 0.24162656 -0.4285597 0.23546532 -0.0814542 0.25267082 -0.021403594 0.15838727 -0.28210548 0.1410996 0.46891275 -0.38298547 0.14069234 -0.11834914 0.5399968 -0.09780124 -0.39476892 -0.22520648 -0.37332836 0.1694947 -0.53234774 -0.14930087 0.02846066 -0.41531584 -0.34180808 0.51662225 -0.19055942 -0.41970256 0.14816518 0.26090947 -0.31915766 0.16804203 -0.23805732 0.252921 0.38734737 0.21250433 0.04921651 0.19382943 -0.37858483 0.03708566 -0.17297572 0.14652303 -0.059333898 -0.40626308 -0.0518188 -0.16638227 0.34912694 0.02876025 -0.38354656 0.13881591 -0.21396826 0.14428954 0.37549216
b80 0.28086856 0.10590831 -0.074467786 0.11377958 -0.0037600787 0.12938386 0.11522891 0.1684979 -0.0025615562 0.114726916 0.12947896 -0.09304726 -0.28658178 -0.096945904 0.009807567 -0.10856429 -0.12530324 0.0944715 0.2592419 -0.04111644 -0.05353694 -0.020337911 -0.03508671 -0.0568474 0.1825322 -0.06865366 0.18061258 -0.021176837 -0.12795694 -0.016406419 -0.1171779 0.12323419 -0.188261 0.11937695 0.060781896 -0.08458727 0.12169616 0.03114039 -0.1454309 -0.2144703 0.1860492 -0.006306266 0.11939336 0.09291441 0.060496457 -0.17414042 0.012806463 0.012970836 0.14110024 0.07858072 -0.17292145 0.17930566 -0.054157794 -0.28252217 0.035697214 -0.03347148 0.1082377 0.1909523 -0.093933895 -0.069133475 -0.2329155 0.21898313 0.081225716 0.052779038
b81 0.2679092 0.1436075 -0.104707465 0.0802195 -0.043905474 0.060596973 0.1326149 0.13182415 -0.14163055 0.09066313 0.13626046 0.0025187656 -0.26958588 0.05824832 0.0032481295 -0.16688082 -0.052564085 0.106705025 0.1472967 -0.14645927 -0.09386969 0.029561073 0.049740985 -0.13843554 0.0892752 -0.1279744 0.13587224 0.016994352 -0.07630657 -0.17092761 -0.10027577 0.15272625 -0.1474165 0.1838372 -0.011339783 -0.107853904 0.10810277 0.11996668 -0.11514577 -0.2710226 0.14532241 -0.13890451 0.15569122 0.048973385 0.0062251296 -0.10260185 -0.119336784 -0.10714608 0.0913405 0.0058737057 -0.091221064 0.18471386 -0.012497453 -0.31467083 0.04435506 0.13678098 0.12025955 0.1382271 -0.11096906 -0.1290763 -0.17816389 0.1520805 0.049993202 0.11654882
b82 0.28258905 0.2260107 -0.023583386 0.04770673 0.02000145 0.07575156 0.19174302 0.017108886 -0.13337883 0.12805481 0.020486848 0.0038182423 -0.5121647 0.06444948 0.07764106 -0.25239393 0.06963689 0.19178241 0.27500772 -0.0049913717 0.08081268 0.027611291 -0.11182152 -0.021866692 0.12821813 -0.2436701 0.25651768 0.016780073 -0.24439062 0.010585653 -0.120468915 0.16225863 -0.2150808 0.2051132 -0.0925805 -0.14075035 0.19243488 0.019185808 -0.42920694 -0.23885617 0.07998112 -0.30238175 0.13141295 0.03133341 0.037762333 -0.28094634 0.12090272 -0.005312013 0.21380776 -0.04575337 -0.07958654 0.10836301 0.054443173 -0.49602404 0.14883888 0.06186275 0.068396345 0.25629175 -0.041234784 -0.22025445 -0.3923488 0.024288625 0.18816781 0.032313008
b83 0.07804532 0.08417442 0.041540124 0.13451563 0.08230466 0.27261844 0.103723325 -0.08568815 0.096667476 -0.14524192 0.08632887 -0.20945752 -0.20692453 0.020904321 -0.44332796 0.04494225 -0.079026215 0.1839864 0.2755442 0.12559098 -0.061441112 -0.1879132 -0.35021845 0.06753357 0.018395638 0.3690376 0.13340895 0.16253215 -0.10171512 0.21263248 -0.34154838 -0.21515425 -0.40226135 0.12733248 0.2354184 0.089110106 -0.019455781 0.14917028 0.22931695 0.1863511 0.13265477 0.23694654 -0.057773214 0.17191048 0.007990772 0.0862869 0.30539146 0.13244744 0.12916693 0.023560623 -0.81060904 0.15912135 0.048478834 -0.0372736 0.2205786 -1.2366767 -0.022485109 0.19823828 -0.02157382 0.1908619 -0.10339801 0.04910968 0.25627548 0.014263264
b84 0.35725343 0.057070088 -0.1133746 0.1220195 0.07991819 0.17088975 0.13617338 0.16342825 0.05313726 0.1911209 0.07580167 -0.056353323 -0.7311566 0.054590788 -0.05308514 -0.11129032 0.046418928 0.17091633 0.4331357 -0.065589055 -0.057039358 -0.17493695 0.0740232 -0.0021696275 0.25013444 -0.47647876 0.2957178 0.07148608 -0.42826453 0.08276738 -0.23415798 0.30648774 -0.23753597 0.24365813 -0.032742538 0.059413407 0.11880749 0.11059035 -0.32736197 -0.48875725 0.03912061 -0.49612895 0.12645583 0.10368623 -0.05473518 -0.364474 0.064758845 0.081273906 0.1751572 0.022735903 -0.20055224 0.21567944 0.119382314 -0.6616057 0.14949872 0.23749237 0.12098243 0.20029272 -0.03831765 -0.1684533 -0.7362694 0.27288887 0.21579467 0.08114509
b85 0.14868835 0.20377146 -0.09520609 -0.052626442 -0.14940174 0.16175638 0.23138495 -0.035790026 -0.19939594 0.1632914 0.16115135 -0.076142326 0.05018704 -0.11154259 0.15164308 -0.12893838 -0.16262665 0.07031669 0.23761958 -0.15418926 -0.11206612 0.1815206 -0.19465718 -0.12249426 0.078071274 0.11066179 0.06475715 -0.16234459 0.21728098 0.12928307 -0.13587773 0.1554063 -0.15039183 0.1840623 0.08955006 -0.25744575 0.14886516 -0.048862595 -0.23642486 -0.17093843 0.075207695 -0.14474046 0.17774022 0.052400615 0.15117343 0.3045851 0.13566688 -0.11020886 0.002811121 0.077107064 -0.094893195 -0.07396083 -0.1019384 0.05474433 -0.1797967 0.061224777 0.06610242 0.14431368 -0.079188354 -0.09606715 -0.00092544075 -0.1016806 0.27412817 0.19636022
b86 0.04846449 0.064273775 -0.03672535 0.08000457 0.038914658 0.1732005 -0.008119909 -0.0453497 0.03983877 -0.007870406 0.026431391 -0.24335766 -0.17040564 -0.14450894 -0.3405726 -0.031098215 -0.12859258 0.11012701 0.14480409 -0.03180253 -0.009555828 -0.009721922 -0.28719056 -0.07776565 0.040455766 0.31880656 0.07555293 -0.16675788 -0.00026838318 0.10493508 -0.22939548 -0.20256753 -0.1839032 0.029102148 0.089059174 -0.039445028 -0.029106738 0.051552456 0.07893833 0.08442282 0.051912628 0.2443651 0.19554393 0.059541132 0.16156268 0.12295355 0.043534603 0.107040465 0.17879695 0.09940064 -0.41055295 0.0065020868 -0.07522675 -0.09892881 -0.015299294 -0.69417256 -0.013062684 0.17407557 -0.0966586 -0.07120917 -0.080784716 0.15224516 0.16219091 0.17834452
b87 0.10755097 -0.12063525 -0.07268792 0.21219969 0.06900047 0.11608005 0.019498436 -0.00434311 -0.08017607 -0.06765175 0.08729956 -0.14696732 -0.07076224 -0.09165766 -0.25753596 -0.16783552 -0.081054114 0.057753645 0.04848114 -0.18075132 -0.057681303 0.07682902 -0.095153704 -0.15538216 0.081622876 0.22695689 0.110721566 -0.07408144 0.18142506 0.07084912 -0.14967494 -0.20951328 -0.05865467 0.007198044 -0.1290743 0.007638866 -0.17036286 -0.12896675 0.08258175 0.024917366 0.07064114 0.2850662 0.12427303 0.08609615 0.12546527 0.3693427 -0.052374884 -0.113040276 0.076573044 0.118908234 -0.23920938 0.081162535 -0.12619495 -0.025259942 0.035448756 -0.31749478 0.05892014 0.14966518 -0.07476198 -0.10565262 -0.07342641 0.10010861 0.10020779 0.09909619
b88 0.10003347 0.045873247 0.11227584 0.13772996 0.11449092 0.13547243 -0.02252254 -0.14383249 0.12477668 -0.038484145 0.05220178 -0.14558716 -0.23251583 -0.08678619 -0.45138648 0.020428425 -0.0821196 0.19757989 0.16849348 0.16784328 0.0151395425 -0.04223047 -0.38934544 0.058994472 0.056094546 0.3390503 0.08948673 0.16038345 0.021566937 0.07489557 -0.25900927 -0.33110556 -0.26887205 0.059817474 0.18028954 0.10624779 -0.022703333 0.0036718112 0.2115983 0.21889254 0.03838636 0.38285816 0.07506635 0.096964754 0.016836312 0.24113499 0.29087526 0.03653989 0.08110049 0.073302425 -0.68264925 0.014119628 -0.056034222 -0.058648925 0.05650906 -1.092586 0.060631067 0.15963858 0.006949333 0.001453344 -0.02315104 0.110981636 0.16212806 0.038217966
b89 0.16416946 0.07203538 0.04621477 0.082463965 0.011845194 0.24674848 0.015261236 -0.23622978 0.13983025 -0.022737129 0.09035504 -0.114699334 -0.14324085 -0.0367063 -0.43097815 0.020807404 -0.075397655 0.22659516 0.15811777 0.15705526 -0.01813005 -0.20773977 -0.34970546 -0.001096226 0.07670617 0.32906803 0.2351579 0.18524982 -0.19621481 0.04406855 -0.33581105 -0.24687421 -0.21811382 0.18369201 0.17134555 0.20809358 -0.06073568 0.07362238 0.16387516 0.19264166 0.16919462 0.25862065 0.07690458 0.16621356 0.023589723 0.09125681 0.28947344 0.07281436 0.045541834 0.021413121 -0.75767386 0.083483666 -0.008690513 -0.04034976 0.28637654 -1.3181852 0.0856722 0.089631446 0.011080326 -0.021148277 -0.09067362 0.0015275 0.22187972 -0.007133497
b90 0.41894978 0.12945534 -0.17594987 0.05347375 -0.057689857 0.019091118 0.16673838 0.19265684 0.04422469 0.2340855 0.11081073 -0.08373949 -0.6900942 0.12393901 0.13294226 -0.17813803 0.02790173 0.12740396 0.34160262 -0.119873874 0.08162324 -0.09768061 0.05918867 0.04153383 0.28449368 -0.5551471 0.28929648 0.15684567 -0.41561735 -0.06622877 -0.18403544 0.33269373 -0.22253057 0.22890934 -0.042052876 -0.08459456 0.18633872 0.039135613 -0.40969747 -0.39244717 0.05598818 -0.44602212 0.22427708 0.13588217 0.007294836 -0.37806657 0.19712438 0.04617725 0.2215784 -0.089990176 -0.084736116 0.12626722 0.077425145 -0.53452563 0.13684696 0.21634471 0.15279108 0.111495405 -0.09776426 -0.07740152 -0.5865438 0.12236923 0.10087576 0.0509583
b91 0.12463018 -0.073042765 -0.010565011 0.13585341 0.09221035 0.11521633 0.027405167 -0.099593215 0.2037169 0.05069161 0.041859925 -0.26850247 -0.2150161 -0.17362742 -0.30923212 0.026628641 -0.05669075 0.20860024 0.16905697 0.09493712 -0.07696772 -0.02888815 -0.25786453 -0.12769939 0.09128266 0.32341284 0.13076325 0.065568835 -0.08723358 0.11521032 -0.28794783 -0.2195732 -0.1568716 0.04622588 0.12989879 0.04722838 -0.14830881 0.048950512 0.034791775 0.092973664 0.1577969 0.21818371 -0.0028175649 0.16862085 0.078247964 0.09720441 0.17535646 0.05443242 0.20439361 0.041595634 -0.45153955 0.035931576 -0.04568352 -0.11290752 -0.021794101 -0.74415594 0.01515538 0.13274872 -0.04926631 0.056978453 -0.15582505 0.11050534 0.17946883 0.05301293
b92 0.0036117262 -0.128078 0.06572769 0.15912771 0.042891555 0.22062524 0.10372387 -0.08984221 0.071358815 -0.1316748 0.1164858 -0.21714103 -0.25616908 -0.13645926 -0.37028986 -0.012179112 -0.040833816 0.111119896 0.21031688 0.111582026 -0.10318309 -0.23797119 -0.292072 0.019282263 0.13392296 0.23690931 0.17080641 0.23987593 -0.047684252 0.20866792 -0.37479946 -0.21640258 -0.27596238 0.07500172 0.12394857 0.17386112 -0.22833934 0.0606696 0.22247013 0.06499156 0.11625645 0.35927665 -0.05917756 0.053966407 -0.041693874 0.20217977 0.13038415 0.05981466 -0.003894214 -0.07333509 -0.6199928 0.1411432 -0.0059600375 -0.058583383 0.23885313 -1.3110487 0.016997937 0.06393982 -0.050260175 -0.23120128 -0.081025586 0.28226978 0.17178093 0.16769217
b93 0.03771526 0.0067078485 -0.026262177 0.19106095 0.17054409 0.14973782 -0.018187897 -0.013271434 -0.08106286 -0.09243697 0.14201091 -0.14535451 -0.115355864 -0.08953557 -0.29792196 -0.20680365 -0.06266049 0.09162164 0.011272406 -0.1248276 -0.11165202 0.015738996 -0.19313456 -0.09230525 -0.032455936 0.26466772 0.10592715 -0.06869465 0.11708434 0.15780304 -0.19127223 -0.23051654 -0.11251277 -0.03141701 -0.18372887 0.03700593 -0.1643233 -0.20221317 0.18086319 0.044492263 0.09953529 0.2491479 0.02527962 0.065654494 0.07678812 0.37950325 0.01863122 -0.17543302 -0.004017388 0.13065717 -0.30606607 0.15494883 -0.071135364 -0.012693959 0.12551202 -0.52750593 -0.008269521 0.10178016 -0.10689343 -0.08827551 -0.044284612 0.20151599 0.10253332 0.004607406
b94 0.29495844 0.1780117 -0.122620925 0.013181064 -0.1305001 0.07426429 0.18195014 0.22747423 0.04174707 0.2616397 0.029495347 -0.061178427 -0.4906115 0.057045307 0.18852082 -0.12996823 -0.009868646 0.20519952 0.38106936 -0.038318105 0.011499798 -0.08156926 0.046605755 -0.07168724 0.16741583 -0.37843442 0.14124142 0.081639044 -0.2787657 -0.17304637 -0.17148411 0.13284425 -0.19579944 0.1730358 0.11533995 -0.096964926 0.20931415 0.024471615 -0.48883888 -0.3978802 0.008723614 -0.34315217 0.15286824 0.13041365 0.026114246 -0.30579922 0.09771746 -0.07243221 0.2312914 -0.035916068 -0.050225094 0.1192108 0.015449413 -0.40960678 -0.0119404625 0.1557195 0.2244783 0.120152526 -0.066513896 -0.14882322 -0.3799175 0.13904254 0.10489607 0.021171272
b95 0.42676502 0.09764917 -0.0973747 0.11534043 0.07143774 0.06114013 0.085272364 0.1734924 -0.063443355 0.08772049 0.154664 -0.050983515 -0.5027043 0.15611498 -0.03029359 -0.3129666 0.08427125 0.10851273 0.35511562 -0.19357017 -0.056975164 -0.1467628 0.13215327 -0.103631735 0.21152754 -0.26247755 0.2270087 -0.006747237 -0.19913055 -0.16276759 -0.16438545 0.30907893 -0.24244322 0.16902623 -0.04869597 -0.022236038 0.08825429 0.11975354 -0.29827943 -0.34424582 0.14628486 -0.31257087 0.11118344 0.043651372 -0.015248612 -0.23185134 -0.09899484 0.04800159 0.14732105 0.16293612 -0.15854189 0.18285565 -0.022453811 -0.503704 0.063746385 0.09184529 0.1104078 0.21671116 -0.06111462 -0.029120376 -0.5828569 0.17525208 0.09365849 0.064806245
b96 -0.003120129 0.052033227 0.023522144 0.17094184 0.01730852 0.24092068 -0.06970244 -0.0127933845 0.07321297 -0.029808396 0.16379596 -0.15935078 -0.15911801 -0.20297736 -0.26111335 0.002947103 -0.066317245 0.06741798 0.05094105 0.057204627 -0.10036134 -0.018012516 -0.29381093 -0.025414009 0.10377932 0.30123618 0.19112435 -0.07651381 0.06507371 0.1305511 -0.19976053 -0.26735398 -0.33535483 0.062724575 0.1313492 -0.054905724 -0.1098435 0.029597815 0.13279103 0.14919154 0.15745375 0.26602417 -0.048479978 0.14260495 0.10883936 0.21647486 0.26499996 0.001917125 0.18913665 0.121611334 -0.37883916 0.10881434 -0.086473346 -0.0008585895 -0.13959064 -0.63933504 0.027428579 0.22766656 -0.033422403 -0.047749925 -0.044346996 0.13201715 0.1019719 0.00041608544
b97 0.025922656 -0.050121028 -0.041371893 0.13691004 0.03748147 0.056210753 0.008982033 -0.059798148 -0.062961146 -0.061177045 0.1458525 -0.19516864 -0.14088053 -0.14101574 -0.25547704 -0.057566404 -0.07956517 0.048617035 0.037498813 -0.11001006 -0.12171646 0.14450273 -0.118073754 -0.1283091 0.034198634 0.22972654 0.11716974 -0.1271017 0.12507778 -0.01336219 -0.14720383 -0.16668388 -0.13289101 0.0011805313 -0.060328867 0.022334198 -0.12540293 -0.04814013 0.105745226 0.051158242 0.23469901 0.21910244 0.08542336 0.09074971 0.092937335 0.2370599 -0.08794645 -0.096843466 0.0925803 0.19323428 -0.20884204 0.091785535 -0.18737833 -0.012636483 -0.038376752 -0.32566714 0.037286002 0.09985448 -0.09499772 0.03879464 -0.057430368 0.14634971 0.1110786 0.0810242
b98 -0.40388826 0.48822305 -0.22138084 -0.26467097 -0.36780992 0.19786403 0.22202073 0.32018688 0.08872294 0.08122303 0.30178657 0.10932211 0.03146916 0.05836576 0.021569489 -0.18064833 -0.082982846 -0.008092027 -0.034673695 0.13168909 -0.06524152 0.55970824 -0.4438597 0.06804672 0.21667695 -0.5624074 -0.09928188 -0.06721069 0.4556801 0.00983107 -0.016325513 -0.060825825 0.0099879205 0.20990634 -0.63236874 0.012671955 0.44889787 -0.58634806 0.15323925 -0.110538356 -0.2721993 -0.08459803 0.24289925 -0.04354343 -0.102310814 0.7631787 -0.07077724 0.04076358 -0.2165802 -0.5147975 0.136903 0.02678188 0.0047353357 0.1152082 0.11326162 -0.31752074 -0.06733998 -0.096542224 0.013885749 -0.33103025 0.189967 0.33614105 0.3961495 0.3450423
b99 0.0035839751 0.00977404 -0.028387211 0.087096184 0.02968011 0.15198787 -0.0022682687 -0.08718815 0.08560602 0.01196924 0.046732455 -0.15924521 -0.17086805 -0.18199083 -0.2248103 -0.091465496 -0.07605268 0.16404332 0.22521794 -0.0065646213 -0.035549227 -0.039416786 -0.29020992 0.0069982256 0.017781267 0.3322994 0.10605435 -0.043268085 0.0699625 0.14262009 -0.19819856 -0.16859353 -0.13168626 -0.005487717 0.05695752 -0.032688037 -0.037311852 -0.03782268 0.020685745 0.11160928 0.1529981 0.2880638 -0.014230277 0.106788896 0.12043782 0.15919991 0.17517865 0.028586533 0.19315891 0.11642502 -0.459694 0.06979886 -0.06737032 -0.075098135 0.08841026 -0.7640556 0.07544242 0.16996731 -0.084058516 -0.120984495 -0.032939605 0.06261832 0.07639523 -0.007860186
b100 0.08380955 0.09242925 0.06196947 0.07027202 0.092525564 0.05950023 0.052135076 -0.14436166 0.15140036 -0.027027128 0.049769748 -0.15936285 -0.16410965 -0.0009301744 -0.4819059 0.11842546 0.0823941 0.24665007 0.10153427 0.13071209 0.07973507 -0.34529486 -0.44735944 -0.04007742 0.18058753 0.35614493 0.23397122 0.048212793 -0.20535994 0.20374465 -0.32342878 -0.18074027 -0.27089494 0.088608086 0.15484846 0.23421326 0.072334856 0.0028842767 0.26161042 0.31399944 0.104991354 0.24792032 0.0008872122 0.13800125 0.056724027 -0.027926289 0.3020299 -0.011832574 -0.089409016 0.05363309 -0.7314645 0.18335491 -0.030122647 -0.0879371 0.14370643 -1.3598726 0.017144682 0.08135883 0.06304076 -0.15940714 -0.09804443 0.17116386 0.28958708 0.05140688
b101 0.10665973 -0.08581195 -0.023301793 0.17146616 0.09312146 0.13647006 -0.026543293 -0.08902955 -0.07084795 -0.11271585 0.025172096 -0.1406617 -0.14950615 -0.14352472 -0.31714284 -0.24017075 -0.06388757 0.026899558 0.12480723 -0.07208472 -0.0017952556 0.15002249 -0.18951604 -0.1653405 0.046706233 0.268837 0.017149143 -0.101544954 0.11191238 -0.020260423 -0.24639632 -0.24884497 -0.09570262 -0.0037167014 -0.119895555 0.07066226 -0.17699476 -0.078672275 0.07619456 0.040359102 0.14194852 0.31916672 0.10275402 0.087593876 0.0861802 0.3488071 -0.057434037 0.017097373 0.020457596 0.12548019 -0.2991276 0.0072054635 -0.09653417 -0.0869237 0.07474933 -0.47879225 -0.010345624 0.12167601 -0.05684099 -0.059133716 -0.08676108 0.21409489 -0.024809666 0.068208665
b102 0.0027653512 0.020231893 -0.045887027 0.17145203 0.00091569 0.12045241 -0.003927191 0.029417343 -0.060512412 -0.009028091 0.040527143 -0.11343512 -0.05851949 -0.14830697 -0.18626574 -0.11647378 -0.074214995 0.03556616 0.02919989 -0.17823166 -0.073183015 0.13050361 -0.08735569 -0.11440102 0.02100374 0.15094532 0.08850693 -0.09706138 0.12023898 -0.04435472 -0.08414938 -0.1635899 -0.048541434 0.0040191454 -0.124813735 -0.014673186 -0.08685178 -0.09520825 -0.0065521616 0.044281036 0.14106768 0.20302248 0.062125538 0.04073298 0.11989992 0.19288553 -0.09933122 -0.079049096 0.07572191 0.11244632 -0.18332113 0.0218795 -0.15960251 0.0023336173 -0.09905765 -0.19851865 0.083795704 0.079645514 -0.07200852 -0.07463271 -0.057722174 0.23174766 0.0063624373 0.072739154
b103 0.43768287 0.14115964 -0.13926803 0.17220572 -0.10060512 0.0077689984 0.15665975 0.2614961 -0.15801947 0.089332 0.14123161 -0.038643755 -0.48723817 0.09188826 0.017657554 -0.1441915 0.019323451 0.12034187 0.290621 -0.13206306 -0.061593547 0.028435806 0.18984663 -0.076678626 0.15836102 -0.22852494 0.15492679 -0.09071329 -0.24615604 -0.17511447 -0.082895145 0.3216205 -0.15755384 0.23841551 -0.13108645 -0.09813595 0.14282702 0.21403362 -0.29429057 -0.37116304 0.11374432 -0.44534776 0.11019505 0.11697254 0.042066656 -0.33339903 -0.1829562 -0.06413334 0.05624002 0.02336749 -0.06489822 0.15880597 -0.05635319 -0.46368667 -0.0075951475 0.34706807 0.092874795 0.14175065 -0.12463998 -0.07174089 -0.4284036 0.1705941 0.06496436 0.01325101
b104 0.22250228 -0.02388953 -0.12863772 0.062280662 0.13733092 0.1331167 0.08297442 0.08916263 -0.097810596 0.102034196 0.0821058 -0.20714979 -0.49874443 0.0546189 -0.10540331 -0.094247304 -0.13309795 0.1784253 0.3192013 -0.10958298 -0.05806199 -0.049014166 -0.11774716 -0.009253036 0.16309078 0.038335975 0.21962139 0.052833375 -0.10784423 0.13632484 -0.19498552 0.055108503 -0.17798133 0.12525421 0.18555477 -0.029780833 -0.04462112 0.037934966 -0.13759382 -0.24284479 0.15294136 -0.0938121 0.111924775 0.18246225 0.006559843 -0.21100028 0.052175157 0.052142553 0.29583624 0.08146908 -0.2022221 0.16865548 -0.06094071 -0.2996046 0.0446156 -0.0726182 0.02924741 0.26946348 -0.1578579 -0.06894697 -0.39982983 0.019736482 0.11464702 0.0016121375
b105 -0.051002976 0.09240935 0.031146675 0.028406743 0.017235966 0.18139021 -0.018713139 -0.09872625 0.054531418 -0.06564137 0.07684191 -0.20667031 -0.126992 -0.13389874 -0.31562346 -0.013154196 -0.12753746 0.09885995 0.17798196 0.16457003 0.042394612 -0.040336587 -0.4267432 -0.04249396 0.025252407 0.33422938 0.19441353 0.10262997 -0.04788753 0.17540541 -0.26507363 -0.2632896 -0.15018906 0.056147087 0.059636574 0.13092159 -0.06538105 -0.020225147 0.1857228 0.23729916 0.14168754 0.32922232 -0.013885126 0.20790233 0.037776567 0.16209602 0.26522443 0.08880927 0.093022875 0.09824562 -0.5179748 0.17743723 -0.054820165 0.01595465 0.066371344 -1.1071843 -0.061982345 0.18477702 -0.050340444 0.0065850746 -0.07070498 0.0320388 0.27379444 0.08841312
b106 -0.37323433 0.42161107 -0.2358481 -0.24813893 -0.263041 0.33158475 0.35173574 0.4072812 0.062125202 0.005435734 0.3442494 0.07944227 0.027910741 0.10525385 0.036556143 -0.1387907 -0.1130021 -0.022056608 -0.029357556 0.10914693 -0.12036347 0.48994982 -0.4196296 0.012608648 0.23193192 -0.7323029 -0.081085466 -0.08474475 0.5522555 -0.10267184 0.011202179 0.02911658 0.036115505 0.2702329 -0.57400775 0.08767065 0.40029493 -0.6134427 0.1890958 -0.12223739 -0.32681954 0.03480565 0.22132431 -0.0863219 -0.057031132 0.76211274 -0.16833343 0.041516215 -0.3119584 -0.4480876 0.11266013 0.069826916 0.015444096 0.12462792 0.11150432 -0.29475632 -0.06367849 -0.06558842 -0.11747704 -0.27881956 0.26745865 0.50311315 0.3820947 0.3167506
b107 0.08862985 0.033302117 0.046560746 0.16216482 0.119048886 0.19600183 -0.03385146 -0.15366845 0.20729055 -0.041235145 0.19275273 -0.19414446 -0.21944746 -0.11919993 -0.3419937 0.083681285 -0.01879123 0.094119154 0.13558345 0.04650436 -0.10189354 -0.1328554 -0.36853904 -0.119492784 0.099637404 0.36208043 0.24452879 -0.007046692 -0.07025149 0.18862323 -0.2412381 -0.23095001 -0.29844034 0.11554658 0.04977694 0.07074766 -0.07326798 -0.045437653 0.1864914 0.12308935 0.21913342 0.32732317 -0.04506301 0.11829138 0.00901314 0.16732942 0.1927018 0.05553788 0.08420319 0.030363144 -0.4393755 0.12749599 -0.13233013 -0.02416586 0.013584372 -0.84003615 0.03691577 0.1767051 -0.047956627 -0.022883521 -0.13551672 0.19228338 0.1755841 -0.07121137
b108 -0.20452727 0.28573665 -0.13533206 -0.10069754 -0.1978445 0.14032029 0.17414416 0.17069036 -0.038019784 0.068039045 0.19326155 0.024222521 0.053002026 -0.035253942 0.031186705 -0.16299652 -0.12792335 -0.028633814 0.04421302 0.088901706 -0.11051512 0.20943286 -0.26570642 0.07674798 0.2052809 -0.15533173 -0.018591687 -0.092231914 0.2547078 -0.047784477 0.03694976 -0.09794839 0.027216613 0.14361109 -0.26125592 -0.11309887 0.27179867 -0.33761927 0.020459697 -0.13298671 -0.055342797 -0.022546265 0.18717 -0.028028183 -0.019082755 0.3209071 -0.050649486 -0.028053878 -0.041592814 -0.24723248 0.049063332 0.019600272 -0.0007400711 0.061918586 -0.08861987 -0.25557417 -0.03334126 0.0189242 0.05642854 -0.19962731 0.12157487 0.23556286 0.23022428 0.25188017
b109 0.09010893 -0.014244609 -0.05654445 0.1653336 0.015211033 0.09820363 -0.021854872 -0.022833802 -0.116199754 -0.005589913 0.056967456 -0.13448943 -0.07991235 -0.10912088 -0.2559885 -0.10803997 -0.034901228 0.058772005 -0.010005081 -0.13714354 -0.106496565 0.17344901 -0.10462583 -0.14569627 0.017400587 0.19382003 0.15154701 -0.187043 0.14303522 -0.009409198 -0.16318956 -0.10293421 -0.10478049 0.025125775 -0.086912066 0.029198373 -0.037231673 -0.026694924 0.0078063724 0.025925426 0.13767272 0.12873492 0.06455849 0.0620776 0.12508942 0.15734792 -0.046638798 -0.06691431 0.07426631 0.104886286 -0.19407444 0.029205482 -0.16091055 -0.03975823 -0.120312095 -0.19112627 0.069012575 0.112298526 -0.06912485 -0.05940926 -0.07175466 0.16265962 0.1365834 0.08719157
b110 0.32523417 0.07999932 -0.021737186 0.16767924 -0.00061462674 0.12811723 0.09156824 0.16757879 0.008915704 0.15196358 0.060748514 -0.035872895 -0.43110466 -0.028706959 -0.02133896 -0.1651845 -0.0017494375 0.18242891 0.3796936 -0.054445524 -0.0467845 -0.12330484 0.0039790706 0.022881605 0.12433605 -0.24461047 0.27653027 0.05605716 -0.27543607 0.0008336602 -0.21795137 0.13161585 -0.27025682 0.11018014 0.042743817 -0.06441084 -0.0023007158 0.026567854 -0.29276606 -0.33729383 0.17445558 -0.24078798 0.12332171 0.12205787 0.116422035 -0.26189655 0.109689966 -0.010318237 0.2342312 0.07423802 -0.18036306 0.121341474 0.05467677 -0.5065463 -0.031709924 -0.051152565 0.16469121 0.27295414 -0.095401704 -0.1025883 -0.40961856 0.05834992 0.15497668 0.07816902
b111 0.0016962455 0.03154295 -0.03631976 0.15018518 -0.027556475 0.16114172 -0.044056125 -0.05690871 0.036033485 -0.0046307743 0.009941686 -0.11962584 -0.12554827 -0.16632198 -0.2085856 -0.01353633 -0.1429615 0.14250766 0.18653613 0.01942659 -0.05715671 0.030652 -0.2731053 -0.05383804 0.06999991 0.16708146 0.120278664 -0.04264153 0.033988643 0.15284742 -0.18857592 -0.19455001 -0.17605637 0.05212879 -0.022890393 -0.04785706 0.053680215 -0.110193506 0.0155957695 0.07621449 0.13507076 0.1743932 0.043628722 0.09342543 0.11042371 0.19372225 0.13229252 0.020622274 0.16398177 0.03256766 -0.36241567 0.030330094 -0.103044994 0.018071555 -0.022671152 -0.5568371 0.049924485 0.19483212 -0.036119644 -0.062207665 -0.065901004 0.10618847 0.1136821 0.049114708
b112 0.14029892 0.013574037 0.041190583 0.120696716 0.053198818 0.13032134 -0.077411324 -0.15046562 0.1826501 0.017760009 0.08844739 -0.22514781 -0.27147985 -0.13210309 -0.4295879 -0.040966865 -0.01529808 0.19933878 0.1129066 0.16489165 -0.054820053 -0.18591523 -0.34043092 -0.11427583 0.08895831 0.30145773 0.16344057 0.012710689 -0.03528218 0.19445688 -0.26847774 -0.22189642 -0.2246799 0.16290453 0.13604786 0.088653885 -0.004832276 0.09597921 0.16547012 0.18501927 0.11918218 0.2957725 0.072546646 0.14674757 0.06969099 0.006524756 0.25119707 0.047668017 0.005210431 0.12079311 -0.5619493 0.15099911 0.06981452 -0.09681812 0.06691596 -1.0566266 0.044892706 0.065828435 -0.07179684 -0.08814954 -0.10583697 0.041505523 0.1729171 0.00904485
b113 0.03634197 0.024249295 -0.038717072 0.110315 -0.08754657 0.17492665 0.00731704 -0.020918673 0.07071562 2.5277906e-05 0.043503202 -0.115241855 -0.06274274 -0.13009572 -0.20058529 -0.03317892 -0.09401413 0.10713056 0.13181815 -0.012681481 -0.04240748 0.0685934 -0.2571854 -0.062472794 0.10537436 0.091901235 0.12518768 -0.016119434 0.051873464 0.11659957 -0.17977478 -0.16217531 -0.18190198 0.03217636 -0.028756713 -0.023462985 0.022287505 -0.18455599 -0.015821386 0.07979634 0.09673084 0.11676163 0.029908318 0.059383847 0.06117644 0.16780053 0.16206667 0.008960205 0.12278933 -0.06562896 -0.25690874 0.0625695 -0.10427647 -0.03861622 -0.0036391523 -0.45106864 0.05344661 0.11595659 -0.03543992 -0.061433308 -0.08587713 0.1391758 0.15071104 0.102037966
b114 0.38191807 0.09715654 -0.21184221 0.27167356 0.005641252 0.101587445 0.17238839 0.23174414 -0.023095481 0.09673623 0.099177726 -0.06158168 -0.7445126 0.049468238 0.13756786 -0.23486976 0.11076229 0.122109644 0.43440822 -0.031858787 0.06792215 -0.10127656 0.16985534 0.051259086 0.18219197 -0.5212581 0.261112 0.14759128 -0.42583853 -0.04278785 -0.18176241 0.37492046 -0.27557003 0.24782333 -0.043089375 0.027441012 0.08491749 0.16884832 -0.44688767 -0.5712707 0.029691963 -0.63605285 0.11166225 0.1770259 -0.043514404 -0.31106478 0.15285486 0.11741997 0.17572352 0.082073055 -0.117112316 0.15105812 -0.008365395 -0.8644516 0.18117847 0.18980193 0.098872125 0.2352019 -0.04382674 -0.12392883 -0.88887644 0.1496952 0.14500551 -0.0139598325
b115 0.042938177 0.01287399 0.048201833 0.11001199 0.07630143 0.27105126 -0.10035086 -0.05516746 -0.03739261 -0.063656986 0.08206426 -0.19578843 -0.13819692 -0.06910362 -0.28648257 0.0781489 -0.09433003 0.09334754 0.101806924 0.010839659 -0.09216885 -0.12317713 -0.3366923 0.001129438 0.05732359 0.30172294 0.15479992 -0.08700771 -0.123002715 0.062162716 -0.3162319 -0.21196133 -0.2934894 0.017819425 0.14815825 0.021886796 -0.051002342 0.08790429 0.29212102 0.19317694 0.12611231 0.25523943 0.02516826 0.076395646 0.019165862 0.05301542 0.14763275 0.114129245 0.17719117 0.12625913 -0.6323912 0.15127158 -0.054459114 -0.030746575 0.087155916 -1.0241634 -0.0035226701 0.19201815 -0.06799572 -0.025342649 -0.07523216 0.19233593 0.2127566 -0.006459131
b116 0.04648207 0.031361982 0.011090197 0.045935676 -0.026482623 0.022304587 0.049861487 0.2665988 0.049162302 0.08112218 -0.008277872 -0.110250354 -0.11274251 -0.15624818 -0.14019041 -0.21114135 -0.16248122 0.0919712 0.19875413 0.011948436 -0.028208073 0.15131561 -0.1083086 -0.11780063 0.07090559 -0.007405217 -0.028604433 -0.08917029 0.17029282 0.102828436 -0.020192128 -0.23091532 -0.009621102 -0.067254156 0.010311636 -0.18222378 0.21965563 -0.21703884 -0.12383611 -0.15085772 0.059604358 0.14730182 0.09686115 -0.058959246 0.1819141 0.31299314 -0.01483169 -0.1440399 0.025317889 0.024290498 -0.08512468 -0.10510373 -0.12769574 -0.12235943 -0.25410926 -0.032385938 0.06289239 0.023437273 -0.123670064 -0.06560294 -0.06982512 0.03362581 0.060363937 0.17996822
b117 -0.25102273 0.44022033 0.17283306 -0.15516423 -0.2495571 -0.21673936 -0.17181668 0.34771317 -0.29921365 -0.04929833 -0.113408566 0.10418784 0.2480526 -0.42420316 0.22782227 -0.078855485 0.2403307 0.044970263 0.2041684 -0.29502258 0.06609703 0.43482417 -0.36552653 0.11538058 -0.12427192 0.52635354 -0.06652701 -0.4526987 -0.27279598 -0.45271042 0.07664907 -0.4996492 -0.18992978 0.024004735 -0.38246834 -0.34820962 0.427057 -0.111660205 -0.39897108 0.14897507 0.2831041 -0.33224016 0.1590671 -0.22294459 0.23492382 0.30203933 0.24611765 0.06940452 0.20449995 -0.30930567 -0.05302907 -0.18395458 0.1344905 -0.087414876 -0.44738427 -0.066275954 -0.13271867 0.3887104 -0.06034741 -0.30516374 0.13981086 -0.2091747 0.20441198 0.3379443
b118 0.11029454 0.06654101 0.055233367 0.07273841 0.02541546 0.18191966 -0.027479256 -0.17654702 0.10566154 -0.10850266 0.13711108 -0.14393842 -0.20417807 -0.017496321 -0.4320721 0.16947584 -0.057910386 0.10401596 0.18317153 0.15408747 -0.017378006 -0.059121937 -0.3801164 0.0704037 0.082238756 0.47049394 0.15187106 0.07105358 -0.08411777 0.13081814 -0.31563526 -0.19366442 -0.39416003 0.1666226 0.14979257 0.020342397 -0.07319054 0.081435904 0.1807257 0.30714092 0.11292447 0.26724777 0.021958891 0.07594659 0.008527602 0.13539128 0.22799316 0.16812147 0.15136488 0.13465293 -0.7443242 0.120142005 0.057400472 -0.1015479 0.16954501 -1.1761609 0.010386297 0.22041714 -0.03419686 0.048957646 -0.042616837 0.06635057 0.18105093 0.095900275
b119 0.00667258 0.042662635 -0.080376714 0.14394245 -0.029038223 0.15092327 -0.030277668 0.0044584246 0.007862945 0.01818626 0.026853139 -0.10906426 -0.030940956 -0.16110331 -0.21162257 -0.13135736 -0.06524663 0.07022715 0.060679954 -0.068695985 -0.12767543 0.072814524 -0.2112027 -0.108818285 0.062175695 0.16470385 0.15933952 -0.124841265 0.020265192 0.020965612 -0.20906495 -0.17440219 -0.114994906 -0.002749776 -0.010728453 -0.019753331 -0.010802902 -0.12225375 -0.020376924 0.017291551 0.1622312 0.19351904 0.049694236 0.07984844 0.11768064 0.22089198 0.107797086 -0.01349542 0.11915849 0.017652888 -0.23434216 0.050652027 -0.083113894 -0.044598006 -0.10411041 -0.3706168 0.040654846 0.15766785 -0.05910008 -0.07047343 -0.027765572 0.12954232 0.12437953 0.07187853
b120 0.29267612 0.18240625 -0.069224864 0.082986385 -0.113329425 0.109813735 0.23379515 0.21484919 -0.011448785 0.19667847 0.07060061 -0.04338826 -0.44162798 0.058358736 0.114046395 -0.2157867 -0.07415079 0.16831239 0.3590894 -0.028657693 -0.03529727 -0.09176108 -0.017002137 -0.029639361 0.16263919 -0.25270325 0.1570846 0.13571778 -0.25588086 -0.0828377 -0.12965596 0.19606413 -0.12592913 0.19733502 0.035337616 -0.1312867 0.19123575 0.040121246 -0.3682362 -0.31282955 0.061315 -0.2918589 0.16187385 0.13403586 -0.009954845 -0.20147683 0.045422915 0.01765671 0.1516211 -0.058268886 -0.12158227 0.15083845 -0.018657664 -0.44645065 0.08124523 0.13522947 0.14558914 0.13577242 -0.08462964 -0.1264257 -0.3942625 0.026315993 0.06324897 0.13277337
b121 -0.3782017 0.38787887 -0.20956706 -0.20740977 -0.28402767 0.22283408 0.25244927 0.33866078 0.061438788 0.04728098 0.33360037 0.07715239 0.046473254 0.06514389 -0.06305675 -0.18044408 -0.1048001 -0.06860151 -0.045071412 0.09889231 -0.098249614 0.44902226 -0.39716098 0.07058262 0.20452526 -0.47902808 -0.08914455 -0.022519436 0.48250943 -0.046360504 0.045057766 0.0008068491 0.015385852 0.20732641 -0.52062374 0.02709412 0.33307496 -0.46408364 0.13882028 -0.15783158 -0.23474069 0.032849595 0.23837784 -0.09022396 -0.085772276 0.58181703 -0.19516328 -0.017036675 -0.22015716 -0.502315 0.100199856 0.0033078925 0.0007037684 0.083482414 0.036241315 -0.37180963 -0.055493027 -0.100804515 -0.03720489 -0.28254712 0.22636487 0.45137116 0.36953807 0.35163137
b122 0.33845878 0.09146454 -0.056686558 0.07392104 0.0028199002 0.02413169 0.21937513 0.19958715 -0.012469562 0.09486079 0.08059004 -0.088562146 -0.5999999 0.035352588 0.0011648345 -0.068458706 -0.17610826 0.1357416 0.37102526 -0.0069733053 -0.043524977 -0.061391845 -0.04283697 -0.021330336 0.3083376 -0.45439148 0.2779887 0.20625278 -0.36337623 0.074773 -0.07728842 0.18417701 -0.14783232 0.2534906 0.07507057 -0.052832015 0.08372365 0.09801367 -0.39100647 -0.44605997 0.12410278 -0.34560907 0.17313917 0.20129845 -0.0019577267 -0.31006926 0.0072602974 0.086785085 0.18689786 -0.021338234 -0.19836071 0.08877283 0.035981927 -0.6449876 0.111857615 0.19250512 0.16682342 0.22261068 -0.02480918 -0.031296283 -0.52348226 0.04597391 0.18285301 0.13000122
b123 0.08487756 -0.025116036 -0.08447663 0.17478356 0.06827878 0.19615594 -0.0056132646 0.0018353332 -0.034871127 -0.12189997 0.0778527 -0.20438293 -0.104097284 -0.11611018 -0.3338309 -0.20973669 -0.031599857 -0.009892597 0.05709169 -0.1549293 0.025143215 0.060980927 -0.16057765 -0.12565021 0.01324097 0.23217435 0.13224131 -0.058544323 0.20027104 0.08691137 -0.21963955 -0.21295135 -0.04853659 -0.051297452 -0.17040674 0.011674539 -0.14028846 -0.11412223 0.11946768 0.055864155 0.014633035 0.2865616 0.10333694 0.09446695 0.12586734 0.36867815 -0.04353613 -0.02974037 0.05822363 0.19637577 -0.29499224 0.11895093 -0.10830244 -0.07490412 0.019406084 -0.514157 0.04461813 0.16596718 -0.0993149 -0.04520924 -0.1355693 0.16426778 0.080959365 0.05934169
b124 0.09240321 0.06871084 0.0788777 0.15149376 0.021434184 0.22084148 0.011854621 -0.1951064 0.1718948 -0.006652775 0.082866654 -0.11098019 -0.17159739 -0.10416058 -0.32302317 0.033523038 -0.08006279 0.19536187 0.06951711 0.19330949 0.041140698 -0.21272714 -0.37310168 0.08112709 0.046289496 0.3461492 0.19860622 0.11934605 -0.09408827 0.21252742 -0.28629738 -0.27686897 -0.3317678 0.13371542 0.098919645 0.09267663 -0.10938802 0.024044702 0.19322813 0.13131483 0.18475258 0.32143173 -0.038242813 0.151707 0.025463572 -0.09908198 0.30560535 0.018635299 0.09203205 0.0018734393 -0.55631673 0.14694451 -0.08246088 -0.07660509 0.07665964 -1.1295358 0.04562723 0.17326243 0.0049275896 -0.08106301 -0.08704292 0.21659693 0.13178732 -0.01984144
b125 0.2903659 0.19469783 0.047719624 0.14361134 -0.078101255 0.015374201 -0.004939848 0.1510259 -0.28618515 0.038583033 0.022274336 0.007555907 -0.2330986 -0.08174726 0.024558567 -0.31878313 0.020036835 0.11673385 0.3075578 -0.12802276 -0.1300281 0.11722424 -0.111388534 0.04059471 0.070110455 0.021299716 0.1618279 -0.026908986 -0.25279826 -0.27473724 -0.17841314 0.016553914 -0.24560368 0.0719186 -0.15965012 -0.116906896 0.15961137 0.040875275 -0.33810285 -0.20304403 0.30470443 -0.31748876 0.20694341 0.059734225 0.15673839 -0.20305431 0.09201866 0.03691527 0.20976488 0.036662444 -0.16323249 0.02257015 0.07701729 -0.40975806 -0.08456929 0.11318696 0.05229375 0.18377504 -0.0050789607 -0.17727421 -0.16109906 -0.017891353 0.06359218 0.15560889
b126 0.012698723 0.014045979 0.025557604 0.087449424 -0.017665083 0.19233227 -0.051528472 -0.12316308 0.10233895 0.0055020433 0.037733812 -0.19239897 -0.14413567 -0.08654981 -0.39319038 -0.014335462 -0.18273687 0.16900696 0.15559113 0.063249536 -0.048072528 -0.098084144 -0.27814236 0.010104609 0.04272534 0.32532582 0.15326971 0.010583323 -0.049376823 0.14992318 -0.2337626 -0.21640962 -0.20896517 0.07789314 0.061436635 0.08447965 -0.016370958 -0.04178013 0.17968321 0.09199743 0.11839925 0.19802351 0.08405139 0.13036238 0.105914906 0.12279949 0.122038394 0.010007759 0.13484986 0.10629657 -0.58819544 0.031207994 -0.055171225 -0.056710955 -0.015489883 -0.85485244 0.008448811 0.22374262 -0.055940103 -0.039381124 -0.025035793 0.070954725 0.16067985 0.030733032
b127 0.02354237 -0.02230471 -0.027830672 0.18250895 -0.0015055774 0.14875267 -0.07551337 -0.13496758 0.03977602 -0.06252095 0.09641281 -0.22401385 -0.17254917 -0.12582937 -0.23833866 0.07442058 -0.06656475 0.2115608 0.075388096 0.10930072 -0.020460576 -0.04227673 -0.3117018 0.03036117 0.09627218 0.34456727 0.14380601 -0.025254067 0.03800228 0.08912155 -0.24728502 -0.20407109 -0.20279163 0.074863695 0.17243129 0.0025316621 -0.103780046 0.07972748 0.19124746 0.13641469 0.21595669 0.2966321 -0.028006528 0.09350966 0.056959394 0.15030412 0.29035667 0.08492189 0.18155439 0.118062645 -0.4862763 0.03399585 -0.093727864 -0.0371124 0.0060920413 -0.92479414 -0.027408028 0.24745701 0.030058261 -0.036893178 -0.040589232 0.1330191 0.17633832 0.010703367
b128 0.44509628 0.14843689 -0.110116675 0.11876868 0.0022535338 0.14635439 0.21769013 0.18160622 0.1262496 0.18433294 0.06535162 -0.10365123 -0.6397169 0.07486454 0.060501363 -0.11320535 -0.0020517097 0.16277598 0.42975962 -0.026992654 0.06028909 -0.13486741 0.06353367 -0.0009821132 0.26147196 -0.4224223 0.22608268 0.17463073 -0.3625438 0.043177426 -0.17524073 0.250519 -0.28758803 0.2752907 0.07471661 -0.0010725935 0.07664892 0.08192934 -0.42399153 -0.4243742 0.00033509763 -0.4560748 0.1266229 0.15207836 -0.004673785 -0.30934796 0.113009036 0.061168082 0.20864604 -0.051022347 -0.16394378 0.1391594 0.075905174 -0.6452469 0.15540443 0.10008283 0.18517332 0.12397726 -0.082181305 -0.13129684 -0.63650024 0.07834065 0.13451435 0.01611007
b129 -0.24114828 0.30939886 -0.19048683 -0.105876856 -0.24497457 0.17531544 0.18558553 0.21069561 0.048858624 0.076226495 0.21704283 0.0753759 0.0052411626 0.043852832 -0.021007024 -0.1972286 -0.13254906 -0.025239864 -0.055641085 0.13507682 -0.17425427 0.2535729 -0.26175198 0.065333694 0.19538943 -0.25049576 -0.031783793 -0.20863715 0.24871022 -0.11636822 0.022364635 -0.027131636 0.0024639713 0.18974628 -0.27361518 -0.100804746 0.2368041 -0.32070503 0.014474884 -0.16963796 -0.10107332 -0.08946129 0.2303783 -0.02301262 -0.016148705 0.30520278 -0.10969422 -0.053509377 -0.07246879 -0.2881151 0.040098205 0.07112515 -0.006271685 0.06165907 -0.040347815 -0.2764828 -0.12965234 -0.06657379 0.026030509 -0.23676865 0.1410785 0.24780674 0.2601901 0.25053313
b130 0.24715543 0.1878745 -0.12225127 0.08496302 -0.07999894 0.06660871 0.19482838 0.16649757 -0.033387303 0.20014764 0.06888263 -0.03069495 -0.323651 -0.06628339 0.09328852 -0.12772903 -0.039755486 0.20089786 0.30966842 -0.06944556 -0.051387176 -0.037016347 -0.01891381 -0.10465946 0.19924097 -0.19817182 0.15997572 0.07995499 -0.22522958 -0.061762813 -0.16614385 0.15542111 -0.1964688 0.19860937 0.10483092 -0.15740336 0.134419 0.012435147 -0.3158677 -0.2826127 0.14510252 -0.20659848 0.18661426 0.22648951 0.06390138 -0.218169 0.050148077 0.008463381 0.119434945 0.017886745 -0.03882599 0.14219292 0.0053068576 -0.34468174 0.02200806 0.027380547 0.16992158 0.1303041 -0.0960095 -0.16078489 -0.2544887 0.018651593 0.112822495 -0.03583612
b131 0.0058771954 0.07629826 0.046320405 0.1849696 0.09960552 0.22499375 0.050864074 -0.13405333 0.20701501 0.029771822 0.15928131 -0.12311151 -0.24623486 -0.1953811 -0.39385286 0.0595257 -0.027388718 0.15059839 0.093405336 0.11312075 0.016668882 -0.066609934 -0.3911934 -0.071058445 0.070449986 0.26697478 0.1734774 0.04520767 -0.022185782 0.18888722 -0.14788596 -0.31352392 -0.19534533 0.07646393 0.042845238 0.05004585 -0.0753583 -0.11036164 0.18359928 0.1426189 0.15232296 0.3417758 -0.036831144 0.10366434 -0.03171147 0.2396973 0.23403804 0.06078656 0.06671105 0.028489681 -0.3944339 0.12890117 -0.066445336 0.01733825 -0.032635458 -0.96755606 -0.026700176 0.16837011 0.012033376 -0.08268902 -0.060025986 0.24314068 0.14568771 0.064112835
b132 0.014233593 0.01335435 0.044278815 0.1407458 0.10777808 0.17516714 -0.025205193 -0.12628838 0.14786927 -0.015019288 0.08201405 -0.19337152 -0.22583146 -0.16992103 -0.35284868 0.018866153 -0.1290165 0.22128075 0.2236353 0.17765011 -0.005939915 -0.17472684 -0.39155117 0.024755443 0.013032717 0.28722143 0.13635689 0.15448011 0.0030452847 0.18889658 -0.21477234 -0.31652105 -0.3034045 0.07272721 0.19419178 0.1163582 -0.022643136 -0.023104561 0.2693625 0.116477326 0.08986116 0.28168052 0.052152436 0.11815539 -0.023874303 0.056670465 0.23928948 0.07686419 0.11887042 0.020269828 -0.62520653 0.13770726 -0.10569209 -0.03059387 0.18349907 -1.0209178 -0.005195551 0.20922482 -0.0716627 -0.03994048 -0.0721773 0.20085067 0.1282138 -0.02782284
